{"learner":{"attributes":{"scikit_learn":"{\"_estimator_type\": \"classifier\"}"},"feature_names":[],"feature_types":[],"gradient_booster":{"model":{"gbtree_model_param":{"num_parallel_tree":"1","num_trees":"100"},"iteration_indptr":[0,1,2,3,4,5,6,7,8,9,10,11,12,13,14,15,16,17,18,19,20,21,22,23,24,25,26,27,28,29,30,31,32,33,34,35,36,37,38,39,40,41,42,43,44,45,46,47,48,49,50,51,52,53,54,55,56,57,58,59,60,61,62,63,64,65,66,67,68,69,70,71,72,73,74,75,76,77,78,79,80,81,82,83,84,85,86,87,88,89,90,91,92,93,94,95,96,97,98,99,100],"tree_info":[0,0,0,0,0,0,0,0,0,0,0,0,0,0,0,0,0,0,0,0,0,0,0,0,0,0,0,0,0,0,0,0,0,0,0,0,0,0,0,0,0,0,0,0,0,0,0,0,0,0,0,0,0,0,0,0,0,0,0,0,0,0,0,0,0,0,0,0,0,0,0,0,0,0,0,0,0,0,0,0,0,0,0,0,0,0,0,0,0,0,0,0,0,0,0,0,0,0,0,0],"trees":[{"base_weights":[-2.5024246E-3,6.581905E-1,-2.9147297E-1,-1.991506E-1,9.577886E-1,-1.6975112E0,-4.205359E-3,4.0221053E-1,1.700328E0,-1.7375607E0,5.5277705E-1,-1.6397212E-1,1.0158368E0,2.0019725E-1,1.9344369E-2,1.7513908E0,-8.3975846E-1,-1.7472E0,3.0270487E-1,7.950238E-1,-3.285459E-2,4.0511546E-1,-6.937588E-1,1.9115463E0,5.1044453E-2,2.0004936E-1,-3.7346268E-1,2.0027809E-1,1.6160551E0,-5.879731E-1,-1.5604065E-1,-1.7535613E0,7.73703E-1,1.0444412E0,-4.5707348E-1,1.3152691E0,2.8187996E-1,-8.526223E-1,7.63177E-1,-6.702929E-3,1.4170296E0,-4.6601525E-1,-1.9066124E0,1.9940108E-1,1.3206408E0,-5.3428E-2,1.9542032E-1,1.9756569E-2,-9.4035804E-2,1.7425385E-1,1.11674584E-1,-8.892067E-2,9.2755005E-2,-1.7682281E-1,-6.918544E-2,1.43235E-1,3.959989E-4,-2.1928977E-2,1.4042318E-1,2.2633009E-2,-1.3298196E-1,1.4593546E-1,6.707769E-2,6.46395E-2,-9.9604525E-2,3.7714173E-4,-1.329234E-1,3.7714173E-4,1.1620696E-1,-1.6693143E-2,1.8439536E-1,1.5289333E-1,-5.1427264E-2,-1.4033864E-1,-8.8966143E-4,-1.9851026E-1,-1.264541E-1,1.4587842E-1,1.3249102E-2,3.266573E-2,-6.3206695E-2],"categories":[],"categories_nodes":[],"categories_segments":[],"categories_sizes":[],"default_left":[0,0,0,0,0,0,0,0,0,0,0,0,0,0,0,0,0,0,0,0,0,0,0,0,0,0,0,0,0,0,0,0,0,0,0,0,0,0,0,0,0,0,0,0,0,0,0,0,0,0,0,0,0,0,0,0,0,0,0,0,0,0,0,0,0,0,0,0,0,0,0,0,0,0,0,0,0,0,0,0,0],"id":0,"left_children":[1,3,5,-1,7,9,11,13,15,17,19,21,23,-1,25,27,29,31,33,35,37,39,41,43,45,-1,47,-1,49,51,-1,53,55,57,59,61,63,65,67,69,71,73,75,-1,77,79,-1,-1,-1,-1,-1,-1,-1,-1,-1,-1,-1,-1,-1,-1,-1,-1,-1,-1,-1,-1,-1,-1,-1,-1,-1,-1,-1,-1,-1,-1,-1,-1,-1,-1,-1],"loss_changes":[3.8150967E3,4.8288438E3,5.615202E3,0E0,2.2532056E3,2.1351318E2,1.8815883E3,1.9149126E3,3.047168E2,4.6106445E1,5.9845085E0,3.0098586E3,1.3510284E3,0E0,1.9647395E3,7.474951E1,7.5651894E0,3.8347168E1,7.099118E0,7.5712814E0,9.297079E0,2.0057965E3,1.4271562E3,3.687329E1,1.4996973E2,0E0,6.8224506E2,0E0,9.248486E1,1.7373756E1,0E0,3.461133E1,3.2897365E0,3.1496568E0,4.1778007E0,3.6758804E-1,8.213413E0,2.862166E0,2.1917825E0,1.01501935E3,3.01677E2,1.8656195E3,3.866333E1,0E0,1.6589401E1,1.5756685E2,0E0,0E0,0E0,0E0,0E0,0E0,0E0,0E0,0E0,0E0,0E0,0E0,0E0,0E0,0E0,0E0,0E0,0E0,0E0,0E0,0E0,0E0,0E0,0E0,0E0,0E0,0E0,0E0,0E0,0E0,0E0,0E0,0E0,0E0,0E0],"parents":[2147483647,0,0,1,1,2,2,4,4,5,5,6,6,7,7,8,8,9,9,10,10,11,11,12,12,14,14,15,15,16,16,17,17,18,18,19,19,20,20,21,21,22,22,23,23,24,24,26,26,28,28,29,29,31,31,32,32,33,33,34,34,35,35,36,36,37,37,38,38,39,39,40,40,41,41,42,42,44,44,45,45],"right_children":[2,4,6,-1,8,10,12,14,16,18,20,22,24,-1,26,28,30,32,34,36,38,40,42,44,46,-1,48,-1,50,52,-1,54,56,58,60,62,64,66,68,70,72,74,76,-1,78,80,-1,-1,-1,-1,-1,-1,-1,-1,-1,-1,-1,-1,-1,-1,-1,-1,-1,-1,-1,-1,-1,-1,-1,-1,-1,-1,-1,-1,-1,-1,-1,-1,-1,-1,-1],"split_conditions":[2E0,1E0,2E0,-1.991506E-1,2E0,3E0,9E0,1E0,3E0,3E0,2E0,8E0,9E0,2.0019725E-1,1E0,1E0,2E0,3E0,1E0,1E0,2E0,8E0,9E0,2E0,1E1,2.0004936E-1,9E0,2.0027809E-1,9E0,2E0,-1.5604065E-1,2E0,1E0,1E0,9E0,1E0,2E0,1E0,1E0,3E0,3E0,8E0,2E0,1.9940108E-1,3E0,1E0,1.9542032E-1,1.9756569E-2,-9.4035804E-2,1.7425385E-1,1.11674584E-1,-8.892067E-2,9.2755005E-2,-1.7682281E-1,-6.918544E-2,1.43235E-1,3.959989E-4,-2.1928977E-2,1.4042318E-1,2.2633009E-2,-1.3298196E-1,1.4593546E-1,6.707769E-2,6.46395E-2,-9.9604525E-2,3.7714173E-4,-1.329234E-1,3.7714173E-4,1.1620696E-1,-1.6693143E-2,1.8439536E-1,1.5289333E-1,-5.1427264E-2,-1.4033864E-1,-8.8966143E-4,-1.9851026E-1,-1.264541E-1,1.4587842E-1,1.3249102E-2,3.266573E-2,-6.3206695E-2],"split_indices":[0,20,20,0,20,18,19,0,38,15,35,39,39,0,1,1,35,6,18,8,15,19,39,38,19,0,39,0,39,15,0,2,36,9,39,28,29,5,27,18,38,19,18,0,20,38,0,0,0,0,0,0,0,0,0,0,0,0,0,0,0,0,0,0,0,0,0,0,0,0,0,0,0,0,0,0,0,0,0,0,0],"split_type":[0,0,0,0,0,0,0,0,0,0,0,0,0,0,0,0,0,0,0,0,0,0,0,0,0,0,0,0,0,0,0,0,0,0,0,0,0,0,0,0,0,0,0,0,0,0,0,0,0,0,0,0,0,0,0,0,0,0,0,0,0,0,0,0,0,0,0,0,0,0,0,0,0,0,0,0,0,0,0,0,0],"sum_hessian":[1.9980611E4,6.079458E3,1.3901154E4,6.169957E2,5.4624624E3,2.3574836E3,1.154367E4,3.1254783E3,2.336984E3,2.316484E3,4.0999718E1,9.981181E3,1.5624891E3,6.0274585E2,2.5227327E3,2.2912341E3,4.5749683E1,2.3057341E3,1.0749926E1,2.8749802E1,1.2249915E1,4.812217E3,5.1689644E3,8.097444E2,7.527448E2,4.1674713E2,2.1059854E3,7.969945E2,1.4942396E3,3.5249756E1,1.04999275E1,2.3002341E3,5.499962E0,5.2499638E0,5.499962E0,1.3499907E1,1.5249894E1,5.9999585E0,6.2499566E0,3.4209763E3,1.3912404E3,4.3529697E3,8.159944E2,7.084951E2,1.012493E2,7.1449506E2,3.8249737E1,1.0494928E3,1.0564927E3,1.1902418E3,3.039979E2,2.9749794E1,5.499962E0,2.2682344E3,3.1999779E1,2.4999828E0,2.9999793E0,1.2499914E0,3.9999723E0,3.4999757E0,1.9999862E0,9.999931E0,3.4999757E0,1.2249915E1,2.9999793E0,2.4999828E0,3.4999757E0,2.4999828E0,3.749974E0,3.1492283E3,2.717481E2,1.315241E3,7.599947E1,1.4262401E3,2.9267297E3,7.25245E2,9.0749374E1,9.0499374E1,1.0749926E1,4.31497E2,2.8299805E2],"tree_param":{"num_deleted":"0","num_feature":"40","num_nodes":"81","size_leaf_vector":"1"}},{"base_weights":[3.6030132E-3,6.003476E-1,-2.5602442E-1,-1.8121108E-1,8.690423E-1,-1.5339265E0,3.7817208E-3,3.6467195E-1,1.5398619E0,-1.8311171E-1,-1.3891225E0,2.8814808E-1,-4.131348E-1,-1.9264808E-1,6.885838E-1,1.5837475E0,-5.971895E-1,-1.1433116E0,-1.5517511E0,8.17641E-1,-1.8428148E-1,-1.0239258E0,6.261516E-3,1.8198623E-1,3.6809367E-1,1.8205206E-1,1.4581616E0,-3.461407E-1,-1.407405E-1,-1.3063431E0,-6.47388E-1,-1.3122517E0,-1.6746949E0,1.1674106E0,-3.1476742E-1,-5.0244637E-2,-1.2467734E0,-1.7766905E0,-4.004975E-1,-2.8035122E-1,3.9638695E-1,1.8185873E-1,1.9092169E-3,1.5859132E-1,9.50919E-2,-9.032217E-2,2.3617424E-2,-1.3777094E-1,-4.160539E-2,-3.3973243E-2,-1.04982674E-1,-1.3565701E-1,5.1693823E-2,-1.680418E-1,6.514125E-2,8.47096E-2,1.7964904E-1,-4.946382E-2,9.3259595E-2,2.5676661E-3,-1.777454E-1,-1.3315909E-1,3.709734E-2,-1.7876586E-1,9.228465E-3,-2.7295679E-2,-1.3626388E-1,-5.2192914E-3,-7.958044E-2,7.041216E-2,-1.5842361E-2],"categories":[],"categories_nodes":[],"categories_segments":[],"categories_sizes":[],"default_left":[0,0,0,0,0,0,0,0,0,0,0,0,0,0,0,0,0,0,0,0,0,0,0,0,0,0,0,0,0,0,0,0,0,0,0,0,0,0,0,0,0,0,0,0,0,0,0,0,0,0,0,0,0,0,0,0,0,0,0,0,0,0,0,0,0,0,0,0,0,0,0],"id":1,"left_children":[1,3,5,-1,7,9,11,13,15,-1,17,19,21,-1,23,25,27,29,31,33,35,37,39,-1,41,-1,43,45,-1,47,49,51,53,55,57,59,61,63,65,67,69,-1,-1,-1,-1,-1,-1,-1,-1,-1,-1,-1,-1,-1,-1,-1,-1,-1,-1,-1,-1,-1,-1,-1,-1,-1,-1,-1,-1,-1,-1],"loss_changes":[3.0830288E3,3.9121926E3,4.603757E3,0E0,1.83629E3,9.827881E1,1.3664424E3,2.3021377E3,2.1943994E2,0E0,6.136499E1,1.7141736E3,1.1972058E3,0E0,9.844148E2,6.5234375E1,9.195967E0,5.030719E1,2.570874E1,1.2801382E3,5.157512E2,8.921925E2,3.1005365E2,0E0,1.0723776E3,0E0,9.5489746E1,1.2433424E1,0E0,2.961737E1,1.9269287E1,2.7137451E1,9.383423E0,4.9595142E2,1.717113E2,4.2193155E2,5.6160645E1,1.7827637E1,1.2749701E2,1.8795493E2,2.0061902E2,0E0,0E0,0E0,0E0,0E0,0E0,0E0,0E0,0E0,0E0,0E0,0E0,0E0,0E0,0E0,0E0,0E0,0E0,0E0,0E0,0E0,0E0,0E0,0E0,0E0,0E0,0E0,0E0,0E0,0E0],"parents":[2147483647,0,0,1,1,2,2,4,4,5,5,6,6,7,7,8,8,10,10,11,11,12,12,14,14,15,15,16,16,17,17,18,18,19,19,20,20,21,21,22,22,24,24,26,26,27,27,29,29,30,30,31,31,32,32,33,33,34,34,35,35,36,36,37,37,38,38,39,39,40,40],"right_children":[2,4,6,-1,8,10,12,14,16,-1,18,20,22,-1,24,26,28,30,32,34,36,38,40,-1,42,-1,44,46,-1,48,50,52,54,56,58,60,62,64,66,68,70,-1,-1,-1,-1,-1,-1,-1,-1,-1,-1,-1,-1,-1,-1,-1,-1,-1,-1,-1,-1,-1,-1,-1,-1,-1,-1,-1,-1,-1,-1],"split_conditions":[2E0,1E0,2E0,-1.8121108E-1,2E0,1E0,3E0,1E0,3E0,-1.8311171E-1,1E0,1E0,3E0,-1.9264808E-1,1E0,1E0,2E0,2E0,1E0,9E0,9E0,1E0,1E0,1.8198623E-1,1E0,1.8205206E-1,9E0,1E0,-1.407405E-1,2E0,1E0,2E0,3E0,3E0,1E0,3E0,3E0,2E0,9E0,1E0,8E0,1.8185873E-1,1.9092169E-3,1.5859132E-1,9.50919E-2,-9.032217E-2,2.3617424E-2,-1.3777094E-1,-4.160539E-2,-3.3973243E-2,-1.04982674E-1,-1.3565701E-1,5.1693823E-2,-1.680418E-1,6.514125E-2,8.47096E-2,1.7964904E-1,-4.946382E-2,9.3259595E-2,2.5676661E-3,-1.777454E-1,-1.3315909E-1,3.709734E-2,-1.7876586E-1,9.228465E-3,-2.7295679E-2,-1.3626388E-1,-5.2192914E-3,-7.958044E-2,7.041216E-2,-1.5842361E-2],"split_indices":[0,20,20,0,20,21,0,21,38,0,1,1,20,0,0,1,35,3,3,39,39,21,37,0,1,0,39,22,0,2,17,14,6,20,21,38,20,11,39,17,39,0,0,0,0,0,0,0,0,0,0,0,0,0,0,0,0,0,0,0,0,0,0,0,0,0,0,0,0,0,0],"split_type":[0,0,0,0,0,0,0,0,0,0,0,0,0,0,0,0,0,0,0,0,0,0,0,0,0,0,0,0,0,0,0,0,0,0,0,0,0,0,0,0,0,0,0,0,0,0,0,0,0,0,0,0,0,0,0,0,0,0,0,0,0,0,0,0,0,0,0,0,0,0,0],"sum_hessian":[1.9897342E4,6.0319053E3,1.3865437E4,6.039183E2,5.427987E3,2.34183E3,1.1523606E4,3.0992742E3,2.328713E3,7.634036E2,1.5784264E3,6.851031E3,4.672575E3,3.832751E2,2.715999E3,2.2821074E3,4.6605488E1,6.316807E2,9.467456E2,3.2300745E3,3.6209565E3,1.9016508E3,2.7709246E3,5.985469E2,2.1174521E3,7.8625214E2,1.4958552E3,3.667027E1,9.93522E0,4.741674E2,1.5751335E2,3.2510358E2,6.21642E2,2.4678064E3,7.6226794E2,3.216262E3,4.0469473E2,8.6062756E2,1.0410232E3,1.5975425E3,1.1733822E3,4.0985077E2,1.7076014E3,1.1932125E3,3.0264273E2,1.8459553E1,1.8210716E1,4.384717E2,3.5695667E1,9.031426E1,6.719909E1,3.176654E2,7.438164E0,6.2039325E2,1.248791E0,1.6367521E3,8.310544E2,6.667286E2,9.553934E1,3.081784E3,1.344779E2,3.847019E2,1.9992805E1,8.5564966E2,4.977854E0,9.203111E2,1.20712036E2,1.1081404E3,4.89402E2,7.5457556E2,4.188066E2],"tree_param":{"num_deleted":"0","num_feature":"40","num_nodes":"71","size_leaf_vector":"1"}},{"base_weights":[3.032455E-3,-2.2329952E-1,5.945264E-1,-9.557818E-1,-1.662881E-3,-4.6565854E-3,1.1686229E0,-1.0640076E0,1.1757009E0,-6.5764226E-2,1.4462335E0,-1.7083059E-1,4.3632284E-1,1.0996119E0,1.7305389E-1,-1.7246659E-1,-9.1884446E-1,6.3052547E-1,1.7190643E-1,-4.4988185E-1,2.3474956E-1,1.3137698E0,1.623507E-1,-1.674441E-1,7.859494E-1,1.022465E0,1.5345075E0,-1.482477E0,-7.7193546E-1,9.9067557E-1,2.1004447E-1,-7.400072E-1,-1.2249107E-1,7.66469E-2,9.125692E-1,1.0286802E0,1.6134853E0,5.8150965E-1,1.7608504E-1,7.91135E-1,1.2390335E0,1.5461314E0,-4.2663876E-2,-1.5057933E-1,5.6190122E-2,-1.0907414E-1,-1.9860363E-2,1.2526485E-1,3.1056551E-2,8.3364695E-2,-4.4030096E-2,-8.7253354E-2,4.879924E-2,-4.7767036E-2,3.2033067E-2,-2.0673787E-2,5.3286064E-2,7.741109E-2,1.569914E-1,3.605015E-2,1.6893142E-1,1.7515162E-1,1.4308159E-1,3.986146E-3,9.864574E-2,4.7812458E-2,1.2682202E-1,1.1366725E-1,1.7288703E-1,1.5555651E-1,-2.9742554E-2],"categories":[],"categories_nodes":[],"categories_segments":[],"categories_sizes":[],"default_left":[0,0,0,0,0,0,0,0,0,0,0,0,0,0,0,0,0,0,0,0,0,0,0,0,0,0,0,0,0,0,0,0,0,0,0,0,0,0,0,0,0,0,0,0,0,0,0,0,0,0,0,0,0,0,0,0,0,0,0,0,0,0,0,0,0,0,0,0,0,0,0],"id":2,"left_children":[1,3,5,7,9,11,13,15,17,19,21,-1,23,25,-1,-1,27,29,-1,31,33,35,-1,-1,37,39,41,43,45,47,49,51,53,55,57,59,61,63,-1,65,67,69,-1,-1,-1,-1,-1,-1,-1,-1,-1,-1,-1,-1,-1,-1,-1,-1,-1,-1,-1,-1,-1,-1,-1,-1,-1,-1,-1,-1,-1],"loss_changes":[2.635209E3,2.3112502E3,1.8739127E3,7.641377E2,1.0145848E3,2.0040542E3,1.0597998E2,3.0030176E2,4.6395218E1,1.2084692E3,8.749939E0,0E0,1.565129E3,8.1653076E1,0E0,0E0,2.127268E2,1.2146873E1,0E0,4.3638617E2,6.294048E2,2.1452301E1,0E0,0E0,3.6143994E2,1.0471582E2,9.133423E0,2.6250244E1,3.7466064E2,7.3927727E0,1.6146883E1,3.9687915E2,3.3990652E2,6.160207E2,9.98902E1,6.180165E1,7.74292E-1,3.3003177E2,0E0,1.5214258E2,5.2581055E1,6.8932495E0,0E0,0E0,0E0,0E0,0E0,0E0,0E0,0E0,0E0,0E0,0E0,0E0,0E0,0E0,0E0,0E0,0E0,0E0,0E0,0E0,0E0,0E0,0E0,0E0,0E0,0E0,0E0,0E0,0E0],"parents":[2147483647,0,0,1,1,2,2,3,3,4,4,5,5,6,6,7,7,8,8,9,9,10,10,12,12,13,13,16,16,17,17,19,19,20,20,21,21,24,24,25,25,26,26,27,27,28,28,29,29,30,30,31,31,32,32,33,33,34,34,35,35,36,36,37,37,39,39,40,40,41,41],"right_children":[2,4,6,8,10,12,14,16,18,20,22,-1,24,26,-1,-1,28,30,-1,32,34,36,-1,-1,38,40,42,44,46,48,50,52,54,56,58,60,62,64,-1,66,68,70,-1,-1,-1,-1,-1,-1,-1,-1,-1,-1,-1,-1,-1,-1,-1,-1,-1,-1,-1,-1,-1,-1,-1,-1,-1,-1,-1,-1,-1],"split_conditions":[9E0,2E0,2E0,3E0,3E0,1E0,1E1,1E0,8E0,8E0,1E0,-1.7083059E-1,1E0,3E0,1.7305389E-1,-1.7246659E-1,8E0,1E0,1.7190643E-1,2E0,2E0,3E0,1.623507E-1,-1.674441E-1,1E1,1E0,3E0,3E0,2E0,2E0,1E0,2E0,3E0,3E0,3E0,8E0,1E0,1E0,1.7608504E-1,1E0,1E0,3E0,-4.2663876E-2,-1.5057933E-1,5.6190122E-2,-1.0907414E-1,-1.9860363E-2,1.2526485E-1,3.1056551E-2,8.3364695E-2,-4.4030096E-2,-8.7253354E-2,4.879924E-2,-4.7767036E-2,3.2033067E-2,-2.0673787E-2,5.3286064E-2,7.741109E-2,1.569914E-1,3.605015E-2,1.6893142E-1,1.7515162E-1,1.4308159E-1,3.986146E-3,9.864574E-2,4.7812458E-2,1.2682202E-1,1.1366725E-1,1.7288703E-1,1.5555651E-1,-2.9742554E-2],"split_indices":[19,20,20,18,18,21,19,21,19,19,21,0,20,20,0,0,19,11,0,18,18,20,0,0,19,18,32,15,18,23,8,17,20,20,20,19,11,18,0,21,17,35,0,0,0,0,0,0,0,0,0,0,0,0,0,0,0,0,0,0,0,0,0,0,0,0,0,0,0,0,0],"split_type":[0,0,0,0,0,0,0,0,0,0,0,0,0,0,0,0,0,0,0,0,0,0,0,0,0,0,0,0,0,0,0,0,0,0,0,0,0,0,0,0,0,0,0,0,0,0,0,0,0,0,0,0,0,0,0,0,0,0,0,0,0,0,0,0,0,0,0,0,0,0,0],"sum_hessian":[1.9682256E4,1.4235674E4,5.4465815E3,3.3061003E3,1.0929574E4,2.665548E3,2.7810337E3,3.1468215E3,1.5927875E2,1.0467127E4,4.6244666E2,5.475001E2,2.1180479E3,2.4794768E3,3.015568E2,5.649181E2,2.5819033E3,8.0585205E1,7.8693535E1,4.5942485E3,5.872879E3,2.6948825E2,1.9295837E2,3.0044055E2,1.8176073E3,2.1087524E3,3.7072443E2,5.319454E2,2.049958E3,4.2676178E1,3.7909023E1,2.4350813E3,2.159167E3,4.763011E3,1.1098679E3,1.4038556E2,1.291027E2,1.5038431E3,3.1376413E2,1.0218769E3,1.0868755E3,3.6875046E2,1.9739909E0,5.2620734E2,5.7380104E0,1.3168245E3,7.3313354E2,3.0201118E1,1.24750595E1,1.9208525E1,1.87005E1,2.1981458E3,2.3693546E2,1.1981078E3,9.610592E2,2.9383518E3,1.8246594E3,9.185656E2,1.9130229E2,7.0562706E1,6.982285E1,6.864439E1,6.0458324E1,6.438045E2,8.6003864E2,6.1825116E2,4.0362573E2,9.0175635E2,1.8511911E2,3.6702853E2,1.7219098E0],"tree_param":{"num_deleted":"0","num_feature":"40","num_nodes":"71","size_leaf_vector":"1"}},{"base_weights":[-3.4558016E-3,5.344672E-1,-2.3354883E-1,1.6152996E-1,2.8000262E-1,-1.8051188E-2,-1.08225E0,7.9270566E-1,-3.931855E-1,-1.4104986E-1,1.5747777E0,-1.6058381E0,-5.804579E-1,4.7245803E-1,1.6261061E0,-6.994495E-1,1.6711283E0,2.8350928E-1,-5.431722E-1,1.6541229E-1,1.01963E0,-1.676264E-1,-1.5119975E0,-2.9235646E-1,-1.6690841E-1,1.2480956E0,1.2128363E-1,1.7252873E-1,1.3877285E0,1.618478E-1,-8.969213E-1,1.564021E-1,1.7776088E-1,-7.0388876E-2,1.193803E0,-1.1730264E0,-2.380975E-1,1.2976898E0,5.828889E-1,-1.5265318E0,-6.279799E-1,3.035753E-1,-8.3966434E-1,1.5247719E-1,-5.1375546E-2,1.678379E-1,-7.5510778E-3,1.3986689E-1,-1.672656E-2,-1.6370296E-1,-6.164459E-2,8.385222E-3,-1.6953574E-1,1.2986559E-1,-6.436457E-2,-9.549274E-2,-1.4432554E-1,1.252212E-4,-1.165027E-1,1.3693087E-1,3.546929E-2,6.4416896E-3,1.0984502E-1,-1.5306775E-1,-4.612886E-2,1.147228E-2,-1.4001685E-1,5.9124287E-2,-5.588511E-3,-9.1847934E-2,1.6056955E-1],"categories":[],"categories_nodes":[],"categories_segments":[],"categories_sizes":[],"default_left":[0,0,0,0,0,0,0,0,0,0,0,0,0,0,0,0,0,0,0,0,0,0,0,0,0,0,0,0,0,0,0,0,0,0,0,0,0,0,0,0,0,0,0,0,0,0,0,0,0,0,0,0,0,0,0,0,0,0,0,0,0,0,0,0,0,0,0,0,0,0,0],"id":3,"left_children":[1,3,5,-1,7,9,11,13,15,17,19,21,23,25,27,29,31,33,35,-1,37,-1,39,41,-1,43,45,-1,47,-1,49,-1,-1,51,53,55,57,59,61,63,65,67,69,-1,-1,-1,-1,-1,-1,-1,-1,-1,-1,-1,-1,-1,-1,-1,-1,-1,-1,-1,-1,-1,-1,-1,-1,-1,-1,-1,-1],"loss_changes":[2.4196887E3,1.6103967E3,2.5042593E3,0E0,1.6369878E3,2.1397966E3,7.275449E2,7.177623E2,1.2977354E3,1.7311221E3,3.280066E1,6.429199E0,4.4405286E2,5.299785E2,1.5265137E1,8.192025E2,2.4487305E-1,1.5891073E3,1.00033655E3,0E0,1.145031E1,0E0,6.643799E0,3.6620007E2,0E0,2.9640497E2,4.1098767E2,0E0,4.0544434E0,0E0,3.4086682E2,0E0,0E0,8.9057153E2,2.6687744E2,9.8753174E1,7.786073E2,3.6070023E0,1.0866424E1,1.8615723E0,6.62393E0,5.5651325E1,1.1424536E2,0E0,0E0,0E0,0E0,0E0,0E0,0E0,0E0,0E0,0E0,0E0,0E0,0E0,0E0,0E0,0E0,0E0,0E0,0E0,0E0,0E0,0E0,0E0,0E0,0E0,0E0,0E0,0E0],"parents":[2147483647,0,0,1,1,2,2,4,4,5,5,6,6,7,7,8,8,9,9,10,10,11,11,12,12,13,13,14,14,15,15,16,16,17,17,18,18,20,20,22,22,23,23,25,25,26,26,28,28,30,30,33,33,34,34,35,35,36,36,37,37,38,38,39,39,40,40,41,41,42,42],"right_children":[2,4,6,-1,8,10,12,14,16,18,20,22,24,26,28,30,32,34,36,-1,38,-1,40,42,-1,44,46,-1,48,-1,50,-1,-1,52,54,56,58,60,62,64,66,68,70,-1,-1,-1,-1,-1,-1,-1,-1,-1,-1,-1,-1,-1,-1,-1,-1,-1,-1,-1,-1,-1,-1,-1,-1,-1,-1,-1,-1],"split_conditions":[2E0,1E0,9E0,1.6152996E-1,9E0,9E0,9E0,9E0,1E1,8E0,2E0,1E0,1E1,8E0,2E0,1E0,1E0,8E0,8E0,1.6541229E-1,1E0,-1.676264E-1,2E0,1E0,-1.6690841E-1,3E0,1E0,1.7252873E-1,3E0,1.618478E-1,9E0,1.564021E-1,1.7776088E-1,3E0,3E0,1E0,2E0,2E0,1E0,3E0,1E0,1E0,1E1,1.5247719E-1,-5.1375546E-2,1.678379E-1,-7.5510778E-3,1.3986689E-1,-1.672656E-2,-1.6370296E-1,-6.164459E-2,8.385222E-3,-1.6953574E-1,1.2986559E-1,-6.436457E-2,-9.549274E-2,-1.4432554E-1,1.252212E-4,-1.165027E-1,1.3693087E-1,3.546929E-2,6.4416896E-3,1.0984502E-1,-1.5306775E-1,-4.612886E-2,1.147228E-2,-1.4001685E-1,5.9124287E-2,-5.588511E-3,-9.1847934E-2,1.6056955E-1],"split_indices":[0,1,39,0,39,19,19,19,19,39,38,38,39,39,38,0,0,19,19,0,5,0,14,38,0,38,0,0,29,0,19,0,0,38,38,17,38,27,26,12,17,17,19,0,0,0,0,0,0,0,0,0,0,0,0,0,0,0,0,0,0,0,0,0,0,0,0,0,0,0,0],"split_type":[0,0,0,0,0,0,0,0,0,0,0,0,0,0,0,0,0,0,0,0,0,0,0,0,0,0,0,0,0,0,0,0,0,0,0,0,0,0,0,0,0,0,0,0,0,0,0,0,0,0,0,0,0,0,0,0,0,0,0,0,0,0,0,0,0,0,0,0,0,0,0],"sum_hessian":[1.95475E4,5.8559185E3,1.3691582E4,1.1149304E3,4.7409883E3,1.0919885E4,2.7716975E3,2.6911892E3,2.049799E3,1.0137941E4,7.819431E2,1.3553137E3,1.4163838E3,1.945259E3,7.459302E2,1.7855533E3,2.642456E2,4.931538E3,5.2064033E3,6.8242676E2,9.951636E1,7.646172E2,5.906965E2,1.1209868E3,2.9539703E2,6.0544995E2,1.3398091E3,5.2235693E2,2.2357323E2,1.3961021E2,1.6459431E3,1.3955638E2,1.2468924E2,3.5516665E3,1.3798717E3,1.6979622E3,3.5084414E3,5.9599724E1,3.9916634E1,5.804267E2,1.0269791E1,5.3686786E2,5.841189E2,5.233924E2,8.205756E1,1.4948793E2,1.190321E3,2.2211105E2,1.4621733E0,4.5100656E2,1.1949365E3,3.244636E3,3.0703064E2,1.3056582E3,7.421342E1,9.421201E2,7.55842E2,2.789215E3,7.192264E2,5.497258E1,4.627143E0,2.0463026E1,1.945361E1,5.777413E2,2.6854148E0,5.6688437E0,4.6009474E0,2.9785602E2,2.3901186E2,5.664852E2,1.763366E1],"tree_param":{"num_deleted":"0","num_feature":"40","num_nodes":"71","size_leaf_vector":"1"}},{"base_weights":[3.9488636E-3,4.9893317E-1,-2.0710264E-1,-1.5603279E-1,7.231469E-1,-1.2692951E0,-2.3423133E-3,3.1368238E-1,1.2930421E0,-1.3045547E0,5.6047165E-1,1.1265073E-1,-7.517862E-1,1.5378974E-1,2.5956556E-2,1.3316998E0,-5.649269E-1,-1.3127443E0,8.857708E-1,9.185661E-1,8.12457E-2,3.9294535E-1,-2.5483438E-1,-5.6687385E-1,-1.3285574E0,1.5343814E-1,-2.5266385E-1,1.5161209E-1,1.2382575E0,-2.6685664E-1,-1.4416689E-1,-1.3285278E0,-3.140334E-1,-4.1024696E-2,1.146745E0,4.515747E-1,1.1455821E0,6.604487E-1,-6.6248816E-1,9.9091786E-1,-6.0734786E-2,-7.455205E-1,1.8821586E-2,-2.8090113E-1,-1.1213114E0,-1.3686806E0,6.56405E-2,1.966236E-2,-7.146893E-2,1.3478278E-1,8.159132E-2,-4.668471E-3,-1.0680147E-1,-1.345125E-1,-4.0205717E-2,-5.7545085E-2,9.475898E-2,-2.4691713E-3,1.5509783E-1,4.63399E-3,9.954783E-2,6.793549E-2,1.3863389E-1,1.3141136E-1,7.589493E-3,-1.0235285E-1,2.8226783E-2,7.170054E-2,1.545867E-1,1.4986702E-4,-1.5011677E-1,-8.153428E-2,1.5669167E-1,-2.3497319E-2,3.6691513E-2,2.0432165E-2,-7.0193425E-2,-1.176945E-1,1.4191004E-2,-1.3893487E-1,3.876907E-2,7.428288E-2,-5.227051E-2],"categories":[],"categories_nodes":[],"categories_segments":[],"categories_sizes":[],"default_left":[0,0,0,0,0,0,0,0,0,0,0,0,0,0,0,0,0,0,0,0,0,0,0,0,0,0,0,0,0,0,0,0,0,0,0,0,0,0,0,0,0,0,0,0,0,0,0,0,0,0,0,0,0,0,0,0,0,0,0,0,0,0,0,0,0,0,0,0,0,0,0,0,0,0,0,0,0,0,0,0,0,0,0],"id":4,"left_children":[1,3,5,-1,7,9,11,13,15,17,19,21,23,-1,25,27,29,31,33,35,37,39,41,43,45,-1,47,-1,49,51,-1,53,55,-1,57,59,61,63,65,67,69,71,73,75,77,79,81,-1,-1,-1,-1,-1,-1,-1,-1,-1,-1,-1,-1,-1,-1,-1,-1,-1,-1,-1,-1,-1,-1,-1,-1,-1,-1,-1,-1,-1,-1,-1,-1,-1,-1,-1,-1],"loss_changes":[2.0124537E3,2.659901E3,2.937377E3,0E0,1.2115625E3,1.4155298E2,9.7597943E2,1.0649827E3,1.5669531E2,3.958081E1,7.1269283E0,1.0114261E3,1.5991797E2,0E0,1.0297356E3,3.478003E1,1.1363506E1,3.322412E1,3.3708239E0,2.0186577E0,8.641239E0,1.5112212E3,5.705654E2,1.808349E2,2.0506958E1,0E0,4.2946356E2,0E0,6.448755E1,6.0844693E0,0E0,3.1760742E1,1.1928024E1,0E0,3.5431013E0,2.0423408E0,7.9190445E-1,4.1825175E0,3.3031857E0,3.64177E2,2.8401297E2,2.4690356E2,2.4115216E2,1.5440137E2,2.7465393E1,1.3418823E1,4.83633E0,0E0,0E0,0E0,0E0,0E0,0E0,0E0,0E0,0E0,0E0,0E0,0E0,0E0,0E0,0E0,0E0,0E0,0E0,0E0,0E0,0E0,0E0,0E0,0E0,0E0,0E0,0E0,0E0,0E0,0E0,0E0,0E0,0E0,0E0,0E0,0E0],"parents":[2147483647,0,0,1,1,2,2,4,4,5,5,6,6,7,7,8,8,9,9,10,10,11,11,12,12,14,14,15,15,16,16,17,17,18,18,19,19,20,20,21,21,22,22,23,23,24,24,26,26,28,28,29,29,31,31,32,32,34,34,35,35,36,36,37,37,38,38,39,39,40,40,41,41,42,42,43,43,44,44,45,45,46,46],"right_children":[2,4,6,-1,8,10,12,14,16,18,20,22,24,-1,26,28,30,32,34,36,38,40,42,44,46,-1,48,-1,50,52,-1,54,56,-1,58,60,62,64,66,68,70,72,74,76,78,80,82,-1,-1,-1,-1,-1,-1,-1,-1,-1,-1,-1,-1,-1,-1,-1,-1,-1,-1,-1,-1,-1,-1,-1,-1,-1,-1,-1,-1,-1,-1,-1,-1,-1,-1,-1,-1],"split_conditions":[2E0,1E0,2E0,-1.5603279E-1,2E0,3E0,9E0,1E0,3E0,3E0,1E0,3E0,3E0,1.5378974E-1,1E0,1E0,2E0,2E0,1E0,1E0,1E0,1E0,3E0,1E0,2E0,1.5343814E-1,9E0,1.5161209E-1,9E0,2E0,-1.4416689E-1,2E0,2E0,-4.1024696E-2,1E0,1E0,1E0,1E0,2E0,3E0,3E0,3E0,1E0,1E0,3E0,2E0,1E0,1.966236E-2,-7.146893E-2,1.3478278E-1,8.159132E-2,-4.668471E-3,-1.0680147E-1,-1.345125E-1,-4.0205717E-2,-5.7545085E-2,9.475898E-2,-2.4691713E-3,1.5509783E-1,4.63399E-3,9.954783E-2,6.793549E-2,1.3863389E-1,1.3141136E-1,7.589493E-3,-1.0235285E-1,2.8226783E-2,7.170054E-2,1.545867E-1,1.4986702E-4,-1.5011677E-1,-8.153428E-2,1.5669167E-1,-2.3497319E-2,3.6691513E-2,2.0432165E-2,-7.0193425E-2,-1.176945E-1,1.4191004E-2,-1.3893487E-1,3.876907E-2,7.428288E-2,-5.227051E-2],"split_indices":[0,20,20,0,20,18,39,0,38,12,8,0,0,0,1,1,32,5,29,30,11,1,20,1,18,0,39,0,39,23,0,14,3,0,38,36,29,10,3,20,38,18,37,2,20,14,14,0,0,0,0,0,0,0,0,0,0,0,0,0,0,0,0,0,0,0,0,0,0,0,0,0,0,0,0,0,0,0,0,0,0,0,0],"split_type":[0,0,0,0,0,0,0,0,0,0,0,0,0,0,0,0,0,0,0,0,0,0,0,0,0,0,0,0,0,0,0,0,0,0,0,0,0,0,0,0,0,0,0,0,0,0,0,0,0,0,0,0,0,0,0,0,0,0,0,0,0,0,0,0,0,0,0,0,0,0,0,0,0,0,0,0,0,0,0,0,0,0,0],"sum_hessian":[1.926199E4,5.757476E3,1.3504515E4,5.6473987E2,5.1927363E3,2.1817107E3,1.1322805E4,3.0225857E3,2.1701504E3,2.1407456E3,4.0965134E1,9.817308E3,1.5054967E3,5.743782E2,2.4482078E3,2.126195E3,4.395539E1,2.1331704E3,7.5752287E0,2.2920992E1,1.8044142E1,5.5693145E3,4.247993E3,1.141512E3,3.6398477E2,3.810004E2,2.0672073E3,7.0989545E2,1.4162996E3,3.3776577E1,1.0178815E1,2.0996575E3,3.351297E1,1.1738441E0,6.4013844E0,8.475448E0,1.4445545E1,1.0207082E1,7.8370605E0,2.4020764E3,3.167238E3,1.5202838E3,2.7277092E3,7.54075E2,3.874369E2,3.538206E2,1.0164202E1,1.0483422E3,1.0188651E3,1.1228132E3,2.9348636E2,2.7325369E1,6.4512067E0,2.0622612E3,3.7396236E1,2.8211273E1,5.301699E0,1.8831319E0,4.5182524E0,5.4787264E0,2.9967208E0,6.220755E0,8.22479E0,4.2294855E0,5.9775963E0,5.6098623E0,2.2271981E0,1.6098008E3,7.922755E2,3.0370234E3,1.3021469E2,1.4763539E3,4.3930008E1,1.5777198E3,1.1499895E3,3.5057123E2,4.0350378E2,3.71159E2,1.6277906E1,3.49912E2,3.9086058E0,4.6032586E0,5.560943E0],"tree_param":{"num_deleted":"0","num_feature":"40","num_nodes":"83","size_leaf_vector":"1"}},{"base_weights":[-1.8339951E-3,-1.8413228E-1,4.952242E-1,-7.99646E-1,-6.1085336E-3,-3.8188475E-4,9.7313935E-1,1.4895742E-1,-9.09454E-1,1.1682363E0,-1.2261397E-1,-1.4829944E-1,3.7660345E-1,1.2327169E0,7.709006E-1,-9.81515E-1,8.2829887E-1,1.259488E0,-6.9754744E-1,-3.9254025E-1,2.342085E-1,-1.4572734E-1,6.67103E-1,1.4352971E-1,1.0713065E0,6.219908E-1,1.2705574E0,-6.825954E-1,-1.2736914E0,4.6049294E-1,1.5303694E-1,1.271976E0,-9.877796E-1,-4.2669502E-1,-1.4426504E-1,-1.042515E0,1.0434852E-1,7.1504617E-1,-2.472832E-2,9.614432E-1,-7.3317075E-1,9.188929E-1,1.3020533E0,3.598491E-1,1.1293507E0,1.3261538E0,-5.8716E-1,1.5056804E-1,-7.930794E-2,-1.3009265E-1,-1.613069E-2,8.614806E-2,9.2473906E-4,1.3011913E-1,2.9567717E-2,-1.6568613E-1,1.0350604E-2,-1.766612E-2,-1.2677257E-1,-8.086451E-2,-1.5151979E-1,-1.5212364E-2,4.029161E-2,1.4715894E-1,2.102062E-2,2.0099303E-2,-3.3573393E-2,1.4460315E-1,7.7788085E-2,-8.583302E-2,-5.6801564E-3,4.6271108E-2,1.05689846E-1,1.3195796E-1,5.061059E-2,-1.1316694E-2,7.5249456E-2,1.16640024E-1,4.12685E-2,1.33856E-1,-8.247482E-2,-9.6850306E-2,3.889106E-2],"categories":[],"categories_nodes":[],"categories_segments":[],"categories_sizes":[],"default_left":[0,0,0,0,0,0,0,0,0,0,0,0,0,0,0,0,0,0,0,0,0,0,0,0,0,0,0,0,0,0,0,0,0,0,0,0,0,0,0,0,0,0,0,0,0,0,0,0,0,0,0,0,0,0,0,0,0,0,0,0,0,0,0,0,0,0,0,0,0,0,0,0,0,0,0,0,0,0,0,0,0,0,0],"id":5,"left_children":[1,3,5,7,9,11,13,-1,15,17,19,-1,21,23,25,27,29,31,33,35,37,-1,39,-1,41,43,45,47,49,51,-1,53,55,57,-1,59,61,63,65,67,69,71,73,75,77,79,81,-1,-1,-1,-1,-1,-1,-1,-1,-1,-1,-1,-1,-1,-1,-1,-1,-1,-1,-1,-1,-1,-1,-1,-1,-1,-1,-1,-1,-1,-1,-1,-1,-1,-1,-1,-1],"loss_changes":[1.7098573E3,1.5128419E3,1.1993405E3,7.799474E2,1.4654626E3,1.3904697E3,1.3437476E2,0E0,3.709995E2,1.6546936E2,9.386215E2,0E0,1.0576287E3,3.5319824E1,1.0721338E2,2.4707593E2,2.9830048E1,2.7131592E1,8.6112385E0,1.7919282E3,5.226057E2,0E0,7.066865E2,0E0,2.100531E1,1.4858905E2,3.5101746E1,3.4098474E2,4.3249756E1,1.4291475E1,0E0,2.5780762E1,4.302839E0,7.125713E0,0E0,2.645088E2,2.4090302E2,5.6081464E2,1.9165222E2,1.248147E2,2.518515E1,2.3658966E1,2.8017273E0,1.3754187E2,9.639435E0,9.722473E0,4.22898E0,0E0,0E0,0E0,0E0,0E0,0E0,0E0,0E0,0E0,0E0,0E0,0E0,0E0,0E0,0E0,0E0,0E0,0E0,0E0,0E0,0E0,0E0,0E0,0E0,0E0,0E0,0E0,0E0,0E0,0E0,0E0,0E0,0E0,0E0,0E0,0E0],"parents":[2147483647,0,0,1,1,2,2,3,3,4,4,5,5,6,6,8,8,9,9,10,10,12,12,13,13,14,14,15,15,16,16,17,17,18,18,19,19,20,20,22,22,24,24,25,25,26,26,27,27,28,28,29,29,31,31,32,32,33,33,35,35,36,36,37,37,38,38,39,39,40,40,41,41,42,42,43,43,44,44,45,45,46,46],"right_children":[2,4,6,8,10,12,14,-1,16,18,20,-1,22,24,26,28,30,32,34,36,38,-1,40,-1,42,44,46,48,50,52,-1,54,56,58,-1,60,62,64,66,68,70,72,74,76,78,80,82,-1,-1,-1,-1,-1,-1,-1,-1,-1,-1,-1,-1,-1,-1,-1,-1,-1,-1,-1,-1,-1,-1,-1,-1,-1,-1,-1,-1,-1,-1,-1,-1,-1,-1,-1,-1],"split_conditions":[9E0,2E0,2E0,1E0,2E0,1E0,2E0,1.4895742E-1,3E0,3E0,3E0,-1.4829944E-1,1E0,1E0,3E0,2E0,8E0,3E0,2E0,1E0,3E0,-1.4572734E-1,2E0,1.4352971E-1,1E0,1E0,2E0,1E0,2E0,1E0,1.5303694E-1,2E0,1E0,2E0,-1.4426504E-1,3E0,8E0,1E0,1E0,1E0,2E0,1E0,2E0,1E0,3E0,3E0,2E0,1.5056804E-1,-7.930794E-2,-1.3009265E-1,-1.613069E-2,8.614806E-2,9.2473906E-4,1.3011913E-1,2.9567717E-2,-1.6568613E-1,1.0350604E-2,-1.766612E-2,-1.2677257E-1,-8.086451E-2,-1.5151979E-1,-1.5212364E-2,4.029161E-2,1.4715894E-1,2.102062E-2,2.0099303E-2,-3.3573393E-2,1.4460315E-1,7.7788085E-2,-8.583302E-2,-5.6801564E-3,4.6271108E-2,1.05689846E-1,1.3195796E-1,5.061059E-2,-1.1316694E-2,7.5249456E-2,1.16640024E-1,4.12685E-2,1.33856E-1,-8.247482E-2,-9.6850306E-2,3.889106E-2],"split_indices":[19,20,20,0,0,21,0,0,18,38,20,0,20,1,20,0,19,32,32,21,0,0,0,0,37,21,38,1,17,11,0,37,34,35,0,0,19,1,17,0,3,38,31,22,0,32,6,0,0,0,0,0,0,0,0,0,0,0,0,0,0,0,0,0,0,0,0,0,0,0,0,0,0,0,0,0,0,0,0,0,0,0,0],"split_type":[0,0,0,0,0,0,0,0,0,0,0,0,0,0,0,0,0,0,0,0,0,0,0,0,0,0,0,0,0,0,0,0,0,0,0,0,0,0,0,0,0,0,0,0,0,0,0,0,0,0,0,0,0,0,0,0,0,0,0,0,0,0,0,0,0,0,0,0,0,0,0,0,0,0,0,0,0,0,0,0,0,0,0],"sum_hessian":[1.8867912E4,1.3805364E4,5.0625483E3,3.096339E3,1.0709025E4,2.485766E3,2.5767825E3,1.4115005E2,2.955189E3,9.657262E2,9.743299E3,5.0333E2,1.9824362E3,1.126194E3,1.4505884E3,2.8379407E3,1.17248375E2,9.210066E2,4.4719612E1,5.547027E3,4.196272E3,2.705406E2,1.7118955E3,4.9590717E2,6.3028687E2,1.1192653E3,3.3132315E2,1.4044315E3,1.433509E3,7.802695E1,3.922143E1,9.1634845E2,4.658142E0,3.3950817E1,1.0768796E1,2.4028228E3,3.1442043E3,1.4681678E3,2.728104E3,1.4148126E3,2.970829E2,3.8257166E2,2.4771518E2,7.3909845E2,3.8016675E2,3.219735E2,9.349639E0,6.689352E1,1.337538E3,1.3990851E3,3.4423954E1,4.083281E1,3.7194138E1,8.894008E2,2.6947601E1,2.5663896E0,2.0917528E0,2.7103228E1,6.8475885E0,1.6092986E3,7.9352405E2,1.6915978E3,1.4526067E3,5.868345E2,8.8133344E2,1.5810007E3,1.1471034E3,3.8680484E2,1.0280078E3,2.5046611E2,4.6616787E1,8.9866806E1,2.9270483E2,2.4173445E2,5.9807286E0,3.35562E2,4.0353647E2,3.6088263E2,1.9284124E1,3.2050253E2,1.4709594E0,6.728586E0,2.6210523E0],"tree_param":{"num_deleted":"0","num_feature":"40","num_nodes":"83","size_leaf_vector":"1"}},{"base_weights":[1.7381879E-3,-1.6650723E-1,4.657957E-1,3.5657522E-3,-1.4010794E0,6.9839287E-1,-1.4970143E-1,3.471137E-1,-2.7763578E-1,-1.479315E-1,-1.155619E0,1.3901124E0,2.9444328E-1,1.8260075E-2,1.0321946E0,-9.9407023E-1,-1.1333322E-2,-1.1884687E0,3.6532384E-1,1.4767218E0,1.1325223E0,2.8097618E-2,1.4393999E-1,1.49013E-1,-1.4778094E0,1.174801E0,-4.7488695E-1,-1.1329774E0,4.098047E-1,1.9679387E-1,-5.7887954E-1,-1.0416899E0,-1.4571758E-1,9.982014E-1,-3.5699514E-1,1.5885238E-1,1.4458755E-1,9.7413737E-1,1.444164E-1,5.399969E-1,-4.438047E-1,-3.2010365E-2,6.31464E-2,-1.563103E-1,-1.3675073E-1,1.4173417E-1,8.721089E-2,-2.9502923E-2,-1.1540692E-1,-1.3475677E-1,-8.745911E-2,6.49962E-2,-2.221936E-2,-1.2266273E-3,1.6741388E-1,-1.6773511E-1,-1.8142676E-3,-7.849033E-2,-1.450344E-1,1.8885208E-2,1.4877187E-1,6.501927E-2,-9.343218E-2,1.01317994E-1,-9.408264E-3,7.1351225E-3,1.5276083E-1,-6.883618E-2,1.5371832E-1],"categories":[],"categories_nodes":[],"categories_segments":[],"categories_sizes":[],"default_left":[0,0,0,0,0,0,0,0,0,0,0,0,0,0,0,0,0,0,0,0,0,0,0,0,0,0,0,0,0,0,0,0,0,0,0,0,0,0,0,0,0,0,0,0,0,0,0,0,0,0,0,0,0,0,0,0,0,0,0,0,0,0,0,0,0,0,0,0,0],"id":6,"left_children":[1,3,5,7,9,11,-1,13,15,-1,17,19,21,23,25,27,29,31,33,35,37,39,-1,41,43,45,47,49,51,53,55,57,-1,59,61,-1,-1,63,-1,65,67,-1,-1,-1,-1,-1,-1,-1,-1,-1,-1,-1,-1,-1,-1,-1,-1,-1,-1,-1,-1,-1,-1,-1,-1,-1,-1,-1,-1],"loss_changes":[1.4491652E3,2.8602385E3,2.2558218E3,1.1568497E3,2.9964355E1,1.2335708E3,0E0,1.2142861E3,1.2563236E3,0E0,2.0579712E1,3.4645508E1,8.505763E2,7.1281036E2,3.7626282E2,3.4843457E2,5.672856E2,1.4058228E1,4.602943E0,1.8930664E0,1.902356E1,5.471305E2,0E0,7.586051E2,6.178589E-1,1.1602954E2,1.8206165E1,8.886743E1,2.4640755E1,1.0853265E3,7.9369055E2,2.6031555E1,0E0,1.7850633E0,3.5583463E0,0E0,0E0,1.1669067E1,0E0,5.0271915E2,5.720177E2,0E0,0E0,0E0,0E0,0E0,0E0,0E0,0E0,0E0,0E0,0E0,0E0,0E0,0E0,0E0,0E0,0E0,0E0,0E0,0E0,0E0,0E0,0E0,0E0,0E0,0E0,0E0,0E0],"parents":[2147483647,0,0,1,1,2,2,3,3,4,4,5,5,7,7,8,8,10,10,11,11,12,12,13,13,14,14,15,15,16,16,17,17,18,18,19,19,20,20,21,21,23,23,24,24,25,25,26,26,27,27,28,28,29,29,30,30,31,31,33,33,34,34,37,37,39,39,40,40],"right_children":[2,4,6,8,10,12,-1,14,16,-1,18,20,22,24,26,28,30,32,34,36,38,40,-1,42,44,46,48,50,52,54,56,58,-1,60,62,-1,-1,64,-1,66,68,-1,-1,-1,-1,-1,-1,-1,-1,-1,-1,-1,-1,-1,-1,-1,-1,-1,-1,-1,-1,-1,-1,-1,-1,-1,-1,-1,-1],"split_conditions":[9E0,9E0,1E1,8E0,2E0,9E0,-1.4970143E-1,8E0,8E0,-1.479315E-1,2E0,2E0,1E1,3E0,3E0,3E0,2E0,2E0,2E0,2E0,2E0,1E0,1.4393999E-1,2E0,1E0,2E0,2E0,2E0,2E0,2E0,2E0,1E0,-1.4571758E-1,1E0,1E0,1.5885238E-1,1.4458755E-1,3E0,1.444164E-1,1E0,2E0,-3.2010365E-2,6.31464E-2,-1.563103E-1,-1.3675073E-1,1.4173417E-1,8.721089E-2,-2.9502923E-2,-1.1540692E-1,-1.3475677E-1,-8.745911E-2,6.49962E-2,-2.221936E-2,-1.2266273E-3,1.6741388E-1,-1.6773511E-1,-1.8142676E-3,-7.849033E-2,-1.450344E-1,1.8885208E-2,1.4877187E-1,6.501927E-2,-9.343218E-2,1.01317994E-1,-9.408264E-3,7.1351225E-3,1.5276083E-1,-6.883618E-2,1.5371832E-1],"split_indices":[19,39,39,39,18,39,0,19,19,0,8,38,19,38,38,18,38,38,20,20,18,38,0,18,28,38,23,18,23,18,18,37,0,33,6,0,0,20,0,18,18,0,0,0,0,0,0,0,0,0,0,0,0,0,0,0,0,0,0,0,0,0,0,0,0,0,0,0,0],"split_type":[0,0,0,0,0,0,0,0,0,0,0,0,0,0,0,0,0,0,0,0,0,0,0,0,0,0,0,0,0,0,0,0,0,0,0,0,0,0,0,0,0,0,0,0,0,0,0,0,0,0,0,0,0,0,0,0,0,0,0,0,0,0,0,0,0,0,0,0,0],"sum_hessian":[1.8559068E4,1.3621275E4,4.9377925E3,1.1972901E4,1.6483735E3,4.415223E3,5.2256915E2,5.388932E3,6.5839697E3,1.2461592E3,4.022144E2,1.6268976E3,2.7883257E3,3.6418108E3,1.7471211E3,1.7833864E3,4.8005835E3,3.9392493E2,8.289485E0,1.2139866E3,4.1291092E2,2.2629348E3,5.253909E2,3.3499348E3,2.9187598E2,1.5962937E3,1.5082742E2,1.6229916E3,1.6039479E2,3.5129783E3,1.2876053E3,2.5791684E2,1.3600807E2,4.2147174E0,4.0747676E0,2.5159251E2,9.623941E2,2.7650775E2,1.3640318E2,1.0853977E3,1.177537E3,1.6986093E3,1.6513256E3,1.5716977E2,1.3470619E2,8.8415594E2,7.121377E2,1.2038267E2,3.0444757E1,8.843347E2,7.386568E2,1.16207794E2,4.4186996E1,3.0783503E3,4.3462787E2,4.3447897E2,8.5312634E2,1.6018306E2,9.773377E1,2.1107223E0,2.1039948E0,1.4386778E0,2.63609E0,2.6680768E2,9.7000675E0,7.368274E2,3.4857037E2,1.0487225E3,1.288145E2],"tree_param":{"num_deleted":"0","num_feature":"40","num_nodes":"69","size_leaf_vector":"1"}},{"base_weights":[-2.5928384E-3,4.1103318E-1,-1.705496E-1,-1.3926397E-1,5.9943014E-1,-1.0856154E0,-7.14251E-3,2.5681517E-1,1.095255E0,-1.1147E0,3.3378538E-1,-1.03176184E-1,6.499642E-1,1.3633016E-1,3.0241944E-2,1.1331024E0,-5.701882E-1,-1.1253765E0,7.223116E-1,1.165616E-1,1.0814064E0,2.8364733E-1,-4.666338E-1,1.3185341E0,3.6124445E-2,1.3776334E-1,-1.9180807E-1,1.1523736E0,-3.565897E-2,-3.4728894E-1,-1.424666E-1,-1.1440758E0,-1.8719399E-1,-3.2250546E-2,1.0096254E0,5.4718995E-1,-4.2501733E-1,1.3250822E-1,-2.3327919E-2,2.3644999E-2,9.580568E-1,-3.210758E-1,-1.3438282E0,1.4020418E-1,7.677792E-1,1.1247133E-1,-1.6319242E-1,1.7659692E-2,-5.8090884E-2,1.3511147E-1,1.0555982E-1,3.5652477E-2,-7.775251E-2,-5.968243E-2,1.00825526E-1,-1.1514437E-1,6.0083527E-2,-4.3855812E-2,9.614492E-2,4.898927E-2,-3.9518297E-2,1.6182086E-1,5.8733102E-2,8.924795E-2,-1.4506042E-2,5.652647E-2,-8.707231E-2,1.4179261E-2,-1.3981347E-1,1.3543296E-1,4.5060914E-2,-9.74049E-2,-1.6870747E-3,-1.4310183E-1,-7.353242E-2,8.7756306E-2,-6.8144253E-3,-1.7251644E-2,5.74011E-2],"categories":[],"categories_nodes":[],"categories_segments":[],"categories_sizes":[],"default_left":[0,0,0,0,0,0,0,0,0,0,0,0,0,0,0,0,0,0,0,0,0,0,0,0,0,0,0,0,0,0,0,0,0,0,0,0,0,0,0,0,0,0,0,0,0,0,0,0,0,0,0,0,0,0,0,0,0,0,0,0,0,0,0,0,0,0,0,0,0,0,0,0,0,0,0,0,0,0,0],"id":7,"left_children":[1,3,5,-1,7,9,11,13,15,17,19,21,23,-1,25,27,29,31,33,35,37,39,41,43,45,-1,47,49,51,53,-1,55,57,59,61,63,65,-1,-1,67,69,71,73,-1,75,77,-1,-1,-1,-1,-1,-1,-1,-1,-1,-1,-1,-1,-1,-1,-1,-1,-1,-1,-1,-1,-1,-1,-1,-1,-1,-1,-1,-1,-1,-1,-1,-1,-1],"loss_changes":[1.2621185E3,1.7836757E3,1.9320227E3,0E0,8.0682837E2,8.1191895E1,6.9195087E2,7.0466956E2,1.2300342E2,3.8443115E1,6.3828664E0,1.3451857E3,5.737591E2,0E0,6.9863763E2,4.2798584E1,7.847171E0,3.3257812E1,2.5681114E0,7.7367887E0,3.1611204E0,8.127363E2,6.294037E2,2.9702759E1,9.314353E1,0E0,2.874912E2,3.449414E1,9.518733E0,1.27990055E1,0E0,2.4739014E1,1.153208E1,9.884249E-1,1.234415E0,4.518368E0,7.031213E0,0E0,0E0,5.62328E2,2.5873413E2,8.4063696E2,3.617798E1,0E0,8.348709E0,9.203315E1,0E0,0E0,0E0,0E0,0E0,0E0,0E0,0E0,0E0,0E0,0E0,0E0,0E0,0E0,0E0,0E0,0E0,0E0,0E0,0E0,0E0,0E0,0E0,0E0,0E0,0E0,0E0,0E0,0E0,0E0,0E0,0E0,0E0],"parents":[2147483647,0,0,1,1,2,2,4,4,5,5,6,6,7,7,8,8,9,9,10,10,11,11,12,12,14,14,15,15,16,16,17,17,18,18,19,19,20,20,21,21,22,22,23,23,24,24,26,26,27,27,28,28,29,29,31,31,32,32,33,33,34,34,35,35,36,36,39,39,40,40,41,41,42,42,44,44,45,45],"right_children":[2,4,6,-1,8,10,12,14,16,18,20,22,24,-1,26,28,30,32,34,36,38,40,42,44,46,-1,48,50,52,54,-1,56,58,60,62,64,66,-1,-1,68,70,72,74,-1,76,78,-1,-1,-1,-1,-1,-1,-1,-1,-1,-1,-1,-1,-1,-1,-1,-1,-1,-1,-1,-1,-1,-1,-1,-1,-1,-1,-1,-1,-1,-1,-1,-1,-1],"split_conditions":[2E0,1E0,2E0,-1.3926397E-1,2E0,3E0,9E0,1E0,3E0,3E0,2E0,8E0,9E0,1.3633016E-1,1E0,2E0,2E0,2E0,1E0,1E0,2E0,8E0,9E0,2E0,1E1,1.3776334E-1,9E0,1E0,9E0,2E0,-1.424666E-1,3E0,2E0,1E0,1E0,2E0,1E0,1.3250822E-1,-2.3327919E-2,3E0,2E0,8E0,2E0,1.4020418E-1,3E0,1E0,-1.6319242E-1,1.7659692E-2,-5.8090884E-2,1.3511147E-1,1.0555982E-1,3.5652477E-2,-7.775251E-2,-5.968243E-2,1.00825526E-1,-1.1514437E-1,6.0083527E-2,-4.3855812E-2,9.614492E-2,4.898927E-2,-3.9518297E-2,1.6182086E-1,5.8733102E-2,8.924795E-2,-1.4506042E-2,5.652647E-2,-8.707231E-2,1.4179261E-2,-1.3981347E-1,1.3543296E-1,4.5060914E-2,-9.74049E-2,-1.6870747E-3,-1.4310183E-1,-7.353242E-2,8.7756306E-2,-6.8144253E-3,-1.7251644E-2,5.74011E-2],"split_indices":[0,20,20,0,20,18,19,0,38,15,12,39,39,0,1,25,35,14,3,8,29,19,39,38,39,0,39,1,39,15,0,12,12,5,32,35,6,0,0,38,38,19,18,0,20,18,0,0,0,0,0,0,0,0,0,0,0,0,0,0,0,0,0,0,0,0,0,0,0,0,0,0,0,0,0,0,0,0,0],"split_type":[0,0,0,0,0,0,0,0,0,0,0,0,0,0,0,0,0,0,0,0,0,0,0,0,0,0,0,0,0,0,0,0,0,0,0,0,0,0,0,0,0,0,0,0,0,0,0,0,0,0,0,0,0,0,0,0,0,0,0,0,0,0,0,0,0,0,0,0,0,0,0,0,0,0,0,0,0,0,0],"sum_hessian":[1.8165477E4,5.2456357E3,1.291984E4,4.954935E2,4.750142E3,1.9567217E3,1.0963118E4,2.8099707E3,1.9401715E3,1.9176425E3,3.9079277E1,9.565936E3,1.3971825E3,4.7674347E2,2.3332273E3,1.8973732E3,4.2798344E1,1.9069469E3,1.0695559E1,3.1176693E1,7.9025836E0,4.634119E3,4.931817E3,6.682276E2,7.2895496E2,3.293768E2,2.0038505E3,1.8666096E3,3.0763514E1,3.505922E1,7.739122E0,1.8694662E3,3.748065E1,3.1942813E0,7.5012774E0,1.7361555E1,1.3815139E1,6.660211E0,1.2423724E0,3.3454114E3,1.2887078E3,4.231093E3,7.0072394E2,5.789059E2,8.9321724E1,6.9794257E2,3.1012384E1,1.0295793E3,9.742712E2,6.0703064E2,1.259579E3,2.0464489E1,1.0299026E1,3.0081402E1,4.977818E0,1.8619442E3,7.5219994E0,3.1258396E1,6.2222576E0,1.1663952E0,2.0278862E0,1.9127716E0,5.588506E0,1.1390707E1,5.9708476E0,4.2047215E0,9.610417E0,3.089573E3,2.5583833E2,7.2268463E2,5.6602313E2,1.3440026E3,2.8870903E3,6.117213E2,8.900266E1,7.890864E1,1.0413082E1,4.3188928E2,2.6605328E2],"tree_param":{"num_deleted":"0","num_feature":"40","num_nodes":"79","size_leaf_vector":"1"}},{"base_weights":[9.3294156E-4,-1.4344883E-1,4.1519353E-1,-6.7578465E-1,3.0959407E-3,-1.3080327E-1,5.0690997E-1,1.3520728E-1,-7.716817E-1,9.8867345E-1,-8.681464E-2,7.847099E-1,1.5445122E-1,-8.354051E-1,6.8311137E-1,1.0666606E0,-4.2309272E-1,-1.3536976E-1,1.230041E0,1.3032798E-1,5.96612E-1,-9.2685604E-1,5.941112E-1,-5.7168967E-1,-1.1109713E0,3.373343E-1,1.4395595E-1,1.0920117E0,-3.0485567E-1,-1.1805697E-1,-1.1384519E0,-3.5126707E-1,1.4736238E-1,1.3401772E0,8.909315E-1,1.2987556E-1,4.3926504E-1,-1.3104902E-1,-5.2921116E-1,4.6455458E-1,1.0837145E0,1.3574772E-1,-6.595307E-2,-1.1351328E-1,-1.1699624E-2,6.8964936E-2,-8.396424E-3,1.1136049E-1,-1.6056146E-2,-9.022118E-2,3.840765E-2,-5.4385252E-2,3.5272207E-2,-1.22590005E-1,-2.3574468E-2,-9.207869E-2,6.5877037E-3,5.7481956E-2,-7.160824E-3,1.4527684E-1,9.9355124E-2,6.5395266E-2,1.2944625E-1,1.5042449E-2,8.93362E-2,-6.6114426E-2,1.4682898E-2,2.3992755E-2,9.213578E-2,1.1300951E-1,-9.777109E-3],"categories":[],"categories_nodes":[],"categories_segments":[],"categories_sizes":[],"default_left":[0,0,0,0,0,0,0,0,0,0,0,0,0,0,0,0,0,0,0,0,0,0,0,0,0,0,0,0,0,0,0,0,0,0,0,0,0,0,0,0,0,0,0,0,0,0,0,0,0,0,0,0,0,0,0,0,0,0,0,0,0,0,0,0,0,0,0,0,0,0,0],"id":8,"left_children":[1,3,5,7,9,-1,11,-1,13,15,17,19,21,23,25,27,29,31,33,-1,35,37,39,41,43,45,-1,47,49,51,53,55,57,59,61,-1,63,-1,65,67,69,-1,-1,-1,-1,-1,-1,-1,-1,-1,-1,-1,-1,-1,-1,-1,-1,-1,-1,-1,-1,-1,-1,-1,-1,-1,-1,-1,-1,-1,-1],"loss_changes":[1.0607983E3,1.0259912E3,7.2512354E2,5.531299E2,9.14036E2,0E0,4.2608228E2,0E0,2.5193274E2,9.539215E1,6.0456244E2,2.3664038E2,9.132709E2,1.8817175E2,2.9419746E1,2.875531E1,9.872165E0,5.5658167E2,1.1363892E1,0E0,1.9696576E2,8.402661E1,8.61127E1,2.262193E2,3.035376E1,1.1898482E1,0E0,2.1893372E1,6.7736697E0,6.8599033E0,7.840214E-1,1.2283005E3,3.6960663E2,8.384552E0,7.321556E0,0E0,1.9164554E2,0E0,2.4569374E1,1.10755356E2,1.5726715E1,0E0,0E0,0E0,0E0,0E0,0E0,0E0,0E0,0E0,0E0,0E0,0E0,0E0,0E0,0E0,0E0,0E0,0E0,0E0,0E0,0E0,0E0,0E0,0E0,0E0,0E0,0E0,0E0,0E0,0E0],"parents":[2147483647,0,0,1,1,2,2,3,3,4,4,6,6,8,8,9,9,10,10,11,11,12,12,13,13,14,14,15,15,16,16,17,17,18,18,20,20,21,21,22,22,23,23,24,24,25,25,27,27,28,28,29,29,30,30,31,31,32,32,33,33,34,34,36,36,38,38,39,39,40,40],"right_children":[2,4,6,8,10,-1,12,-1,14,16,18,20,22,24,26,28,30,32,34,-1,36,38,40,42,44,46,-1,48,50,52,54,56,58,60,62,-1,64,-1,66,68,70,-1,-1,-1,-1,-1,-1,-1,-1,-1,-1,-1,-1,-1,-1,-1,-1,-1,-1,-1,-1,-1,-1,-1,-1,-1,-1,-1,-1,-1,-1],"split_conditions":[9E0,2E0,1E0,1E0,2E0,-1.3080327E-1,2E0,1.3520728E-1,3E0,3E0,3E0,1E0,2E0,2E0,8E0,2E0,2E0,3E0,2E0,1.3032798E-1,1E0,1E0,3E0,1E0,2E0,1E0,1.4395595E-1,2E0,1E0,1E0,2E0,1E0,3E0,2E0,1E0,1.2987556E-1,2E0,-1.3104902E-1,2E0,1E0,2E0,1.3574772E-1,-6.595307E-2,-1.1351328E-1,-1.1699624E-2,6.8964936E-2,-8.396424E-3,1.1136049E-1,-1.6056146E-2,-9.022118E-2,3.840765E-2,-5.4385252E-2,3.5272207E-2,-1.22590005E-1,-2.3574468E-2,-9.207869E-2,6.5877037E-3,5.7481956E-2,-7.160824E-3,1.4527684E-1,9.9355124E-2,6.5395266E-2,1.2944625E-1,1.5042449E-2,8.93362E-2,-6.6114426E-2,1.4682898E-2,2.3992755E-2,9.213578E-2,1.1300951E-1,-9.777109E-3],"split_indices":[19,20,20,0,0,0,0,0,18,38,18,1,20,0,19,28,26,20,23,0,0,21,20,1,17,8,0,34,34,28,29,21,0,26,21,0,20,0,3,21,38,0,0,0,0,0,0,0,0,0,0,0,0,0,0,0,0,0,0,0,0,0,0,0,0,0,0,0,0,0,0],"split_type":[0,0,0,0,0,0,0,0,0,0,0,0,0,0,0,0,0,0,0,0,0,0,0,0,0,0,0,0,0,0,0,0,0,0,0,0,0,0,0,0,0,0,0,0,0,0,0,0,0,0,0,0,0,0,0,0,0,0,0,0,0,0,0,0,0,0,0,0,0,0,0],"sum_hessian":[1.7733643E4,1.3150846E4,4.582796E3,2.8379934E3,1.0312853E4,2.3091716E2,4.351879E3,1.2755667E2,2.7104365E3,8.613167E2,9.451536E3,2.4330098E3,1.9188689E3,2.597103E3,1.1333356E2,8.164592E2,4.4857483E1,9.116297E3,3.3523898E2,6.4603033E2,1.7869794E3,5.5435956E2,1.3645094E3,1.3286586E3,1.2684445E3,7.877223E1,3.4561325E1,8.0184186E2,1.4617398E1,3.226459E1,1.2592888E1,5.168972E3,3.9473252E3,2.5082419E2,8.4414795E1,3.2581427E2,1.461165E3,2.8098203E2,2.7337753E2,1.0805325E3,2.839769E2,5.723386E1,1.2714247E3,1.2382045E3,3.0240051E1,4.2551315E1,3.6220913E1,7.883621E2,1.3479728E1,7.6632247E0,6.9541736E0,1.6860193E1,1.54044E1,1.1154309E1,1.4385792E0,2.1848396E3,2.9841323E3,1.3365643E3,2.6107607E3,1.8691815E2,6.3906036E1,5.4833614E1,2.9581182E1,8.939044E2,5.672607E2,2.2875644E2,4.462109E1,7.253676E2,3.551649E2,2.7329196E2,1.0684915E1],"tree_param":{"num_deleted":"0","num_feature":"40","num_nodes":"71","size_leaf_vector":"1"}},{"base_weights":[2.2083696E-3,-1.344014E-1,4.0097392E-1,-1.8868345E-1,1.081097E0,2.982379E-1,1.3318288E-1,-1.4555264E-1,-1.1183913E0,1.1625147E0,8.275117E-1,2.343811E-1,1.3684568E-1,-2.9189032E-1,1.8848492E-1,-1.3059614E0,-9.373728E-1,1.2792275E0,1.0291346E0,4.9371833E-1,1.087379E0,1.2732679E-1,1.8748178E-1,-1.9536726E-1,-8.100811E-1,5.7818115E-1,-9.171592E-2,-1.3728441E-1,-1.0902127E0,-1.1242627E0,-7.1658915E-1,1.3594612E-1,1.0401659E0,1.1498888E0,5.8626E-1,2.2487657E-1,1.2846008E-1,1.1966373E0,6.626066E-1,1.6827342E-1,1.4019592E-1,-2.4682483E-2,5.515806E-2,-1.1763414E-1,-5.967139E-2,5.1212516E-2,9.725824E-2,-1.8014584E-1,4.4147023E-3,-1.3456008E-1,-7.1482055E-2,-1.2792899E-1,-8.992187E-2,-8.764291E-2,-5.478578E-3,7.090845E-2,1.3299908E-1,1.07209265E-1,1.415904E-1,4.0499132E-2,1.2448072E-1,-2.1451576E-2,6.678492E-2,1.3143711E-1,7.234206E-2,1.1285602E-1,-1.4023532E-2,1.4603359E-2,1.0067365E-1],"categories":[],"categories_nodes":[],"categories_segments":[],"categories_sizes":[],"default_left":[0,0,0,0,0,0,0,0,0,0,0,0,0,0,0,0,0,0,0,0,0,0,0,0,0,0,0,0,0,0,0,0,0,0,0,0,0,0,0,0,0,0,0,0,0,0,0,0,0,0,0,0,0,0,0,0,0,0,0,0,0,0,0,0,0,0,0,0,0],"id":9,"left_children":[1,3,5,7,9,11,-1,13,15,17,19,21,-1,23,25,27,29,31,33,35,37,-1,39,41,43,45,47,-1,49,51,53,-1,55,57,59,61,-1,63,65,67,-1,-1,-1,-1,-1,-1,-1,-1,-1,-1,-1,-1,-1,-1,-1,-1,-1,-1,-1,-1,-1,-1,-1,-1,-1,-1,-1,-1,-1],"loss_changes":[9.4652905E2,8.540999E2,4.235998E2,4.966401E2,1.0463684E1,2.7264673E2,0E0,5.788826E2,1.742096E1,5.1661377E0,1.143058E1,1.834725E2,0E0,4.1170593E2,3.9400394E2,2.3581543E0,1.0871201E1,2.7669373E0,9.992508E0,1.2941424E1,2.7686691E0,0E0,8.3951164E1,2.6698898E2,1.0031671E2,3.8820526E1,4.8780438E2,0E0,5.564537E0,4.1352234E0,1.3967033E1,0E0,4.721386E0,1.7038879E0,4.8405E0,9.41798E0,0E0,2.3808289E0,6.8699217E0,6.6121216E1,0E0,0E0,0E0,0E0,0E0,0E0,0E0,0E0,0E0,0E0,0E0,0E0,0E0,0E0,0E0,0E0,0E0,0E0,0E0,0E0,0E0,0E0,0E0,0E0,0E0,0E0,0E0,0E0,0E0],"parents":[2147483647,0,0,1,1,2,2,3,3,4,4,5,5,7,7,8,8,9,9,10,10,11,11,13,13,14,14,15,15,16,16,17,17,18,18,19,19,20,20,22,22,23,23,24,24,25,25,26,26,28,28,29,29,30,30,32,32,33,33,34,34,35,35,37,37,38,38,39,39],"right_children":[2,4,6,8,10,12,-1,14,16,18,20,22,-1,24,26,28,30,32,34,36,38,-1,40,42,44,46,48,-1,50,52,54,-1,56,58,60,62,-1,64,66,68,-1,-1,-1,-1,-1,-1,-1,-1,-1,-1,-1,-1,-1,-1,-1,-1,-1,-1,-1,-1,-1,-1,-1,-1,-1,-1,-1,-1,-1],"split_conditions":[9E0,3E0,1E1,3E0,2E0,2E0,1.3318288E-1,2E0,8E0,1E0,2E0,1E0,1.3684568E-1,2E0,2E0,2E0,1E0,2E0,2E0,8E0,2E0,1.2732679E-1,2E0,2E0,8E0,1E0,7E0,-1.3728441E-1,1E0,1E0,2E0,1.3594612E-1,2E0,2E0,8E0,1E0,1.2846008E-1,2E0,1E0,2E0,1.4019592E-1,-2.4682483E-2,5.515806E-2,-1.1763414E-1,-5.967139E-2,5.1212516E-2,9.725824E-2,-1.8014584E-1,4.4147023E-3,-1.3456008E-1,-7.1482055E-2,-1.2792899E-1,-8.992187E-2,-8.764291E-2,-5.478578E-3,7.090845E-2,1.3299908E-1,1.07209265E-1,1.415904E-1,4.0499132E-2,1.2448072E-1,-2.1451576E-2,6.678492E-2,1.3143711E-1,7.234206E-2,1.1285602E-1,-1.4023532E-2,1.4603359E-2,1.0067365E-1],"split_indices":[19,18,19,38,29,18,0,18,19,5,9,0,0,38,38,15,31,35,26,19,35,0,17,17,19,17,19,0,34,22,12,0,15,12,19,24,0,26,14,14,0,0,0,0,0,0,0,0,0,0,0,0,0,0,0,0,0,0,0,0,0,0,0,0,0,0,0,0,0],"split_type":[0,0,0,0,0,0,0,0,0,0,0,0,0,0,0,0,0,0,0,0,0,0,0,0,0,0,0,0,0,0,0,0,0,0,0,0,0,0,0,0,0,0,0,0,0,0,0,0,0,0,0,0,0,0,0,0,0,0,0,0,0,0,0,0,0,0,0,0,0],"sum_hessian":[1.73734E4,1.2940788E4,4.432614E3,1.2388389E4,5.5239923E2,3.9932134E3,4.3940018E2,1.1840254E4,5.481342E2,4.154333E2,1.3696594E2,3.7695166E3,2.2369693E2,8.233421E3,3.6068335E3,2.6614355E2,2.8199063E2,2.1697807E2,1.9845522E2,6.1224457E1,7.5741486E1,1.6169057E2,3.607826E3,6.9417603E3,1.2916604E3,1.5082015E3,2.0986318E3,1.990685E2,6.7075066E1,1.5050145E2,1.3148918E2,1.5894603E2,5.8032047E1,1.54683E2,4.3772217E1,4.6650917E1,1.4573539E1,5.8800053E1,1.6941431E1,3.5527732E3,5.5052612E1,6.4949873E3,4.4677313E2,4.7381302E2,8.178474E2,1.2938076E3,2.1439386E2,1.5358684E2,1.945045E3,3.8379845E1,2.8695225E1,8.63396E1,6.416184E1,1.0564847E2,2.5840715E1,2.8696823E1,2.9335222E1,1.23574E2,3.1108992E1,3.5590668E1,8.181548E0,2.3679018E1,2.2971899E1,4.5662056E1,1.3137997E1,1.0463131E1,6.4783006E0,3.4621165E3,9.065685E1],"tree_param":{"num_deleted":"0","num_feature":"40","num_nodes":"69","size_leaf_vector":"1"}},{"base_weights":[-1.5919969E-3,1.4924973E-1,-4.4066414E-1,1.8458907E-2,1.2422339E0,-1.2508924E0,-5.2913666E-2,3.0887184E-1,-2.2158284E-1,1.3334941E0,1.1509053E0,-1.3328914E-1,-1.0112412E0,1.8761215E-1,-1.3811601E0,2.7715333E-2,9.0037924E-1,-8.589847E-1,7.3650326E-3,1.4666498E-1,1.2983601E-1,1.0800943E0,1.3461113E-1,-1.0380619E0,4.2545968E-1,-2.1747177E-2,1.2886806E-1,-1.2546735E-1,-1.4150363E0,-7.57481E-2,1.2934861E0,6.478864E-1,1.218577E0,-9.7579306E-1,2.6817837E-1,-1.5739372E-1,4.896002E-1,1.0882797E0,-6.0748625E-1,-1.0525782E0,1.388871E-1,7.1744305E-1,-4.95852E-2,-4.1549385E-1,3.6822358E-1,-1.3092898E-1,-1.5290902E0,-3.519773E-2,2.0087518E-2,1.2000602E-1,1.385492E-1,4.081551E-2,1.2218847E-1,1.2931152E-1,6.323539E-2,-1.1908867E-1,-7.2207205E-2,4.803337E-2,-2.8102387E-2,-6.1145823E-2,-3.6168233E-3,-1.384372E-1,5.8981802E-2,1.1061721E-1,4.5423657E-2,-1.2532079E-1,3.0910565E-2,-1.0833385E-1,7.148083E-3,1.1613492E-1,-2.3432225E-2,-4.580101E-2,1.3785723E-1,1.7463801E-2,1.4414756E-1,-1.4076506E-1,-1.6534546E-1],"categories":[],"categories_nodes":[],"categories_segments":[],"categories_sizes":[],"default_left":[0,0,0,0,0,0,0,0,0,0,0,0,0,0,0,0,0,0,0,0,0,0,0,0,0,0,0,0,0,0,0,0,0,0,0,0,0,0,0,0,0,0,0,0,0,0,0,0,0,0,0,0,0,0,0,0,0,0,0,0,0,0,0,0,0,0,0,0,0,0,0,0,0,0,0,0,0],"id":10,"left_children":[1,3,5,7,9,11,13,15,17,19,21,-1,23,25,27,29,31,33,35,-1,-1,37,-1,39,41,43,-1,-1,45,47,49,51,53,55,57,59,61,63,65,67,-1,69,-1,71,73,-1,75,-1,-1,-1,-1,-1,-1,-1,-1,-1,-1,-1,-1,-1,-1,-1,-1,-1,-1,-1,-1,-1,-1,-1,-1,-1,-1,-1,-1,-1,-1],"loss_changes":[1.1410365E3,1.8330548E3,1.3839294E3,7.985102E2,9.887451E0,2.6671143E1,9.524538E2,8.620048E2,9.151693E2,1.2731934E0,8.115112E0,0E0,1.4607788E1,5.8194666E2,1.8322754E-1,4.60351E2,1.3337976E2,2.1846167E2,3.667419E2,0E0,0E0,7.748169E0,0E0,1.4186462E1,2.3589282E0,3.2599506E2,0E0,0E0,2.251892E0,2.483935E2,6.204529E-1,1.2792148E2,3.141748E1,8.110278E1,1.8358297E1,1.8935504E2,2.2157019E2,5.2938232E0,2.232952E0,1.2511261E1,0E0,2.8338006E0,0E0,8.120952E1,2.2136679E2,0E0,1.4529419E-1,0E0,0E0,0E0,0E0,0E0,0E0,0E0,0E0,0E0,0E0,0E0,0E0,0E0,0E0,0E0,0E0,0E0,0E0,0E0,0E0,0E0,0E0,0E0,0E0,0E0,0E0,0E0,0E0,0E0,0E0],"parents":[2147483647,0,0,1,1,2,2,3,3,4,4,5,5,6,6,7,7,8,8,9,9,10,10,12,12,13,13,14,14,15,15,16,16,17,17,18,18,21,21,23,23,24,24,25,25,28,28,29,29,30,30,31,31,32,32,33,33,34,34,35,35,36,36,37,37,38,38,39,39,41,41,43,43,44,44,46,46],"right_children":[2,4,6,8,10,12,14,16,18,20,22,-1,24,26,28,30,32,34,36,-1,-1,38,-1,40,42,44,-1,-1,46,48,50,52,54,56,58,60,62,64,66,68,-1,70,-1,72,74,-1,76,-1,-1,-1,-1,-1,-1,-1,-1,-1,-1,-1,-1,-1,-1,-1,-1,-1,-1,-1,-1,-1,-1,-1,-1,-1,-1,-1,-1,-1,-1],"split_conditions":[9E0,9E0,9E0,8E0,1E0,2E0,1E1,8E0,8E0,2E0,1E0,-1.3328914E-1,2E0,1E1,1E0,3E0,1E0,3E0,2E0,1.4666498E-1,1.2983601E-1,3E0,1.3461113E-1,3E0,1E0,1E0,1.2886806E-1,-1.2546735E-1,1E0,1E0,7E0,1E0,2E0,2E0,2E0,2E0,1E0,2E0,1E0,2E0,1.388871E-1,1E0,-4.95852E-2,2E0,1E0,-1.3092898E-1,1E0,-3.519773E-2,2.0087518E-2,1.2000602E-1,1.385492E-1,4.081551E-2,1.2218847E-1,1.2931152E-1,6.323539E-2,-1.1908867E-1,-7.2207205E-2,4.803337E-2,-2.8102387E-2,-6.1145823E-2,-3.6168233E-3,-1.384372E-1,5.8981802E-2,1.1061721E-1,4.5423657E-2,-1.2532079E-1,3.0910565E-2,-1.0833385E-1,7.148083E-3,1.1613492E-1,-2.3432225E-2,-4.580101E-2,1.3785723E-1,1.7463801E-2,1.4414756E-1,-1.4076506E-1,-1.6534546E-1],"split_indices":[39,19,19,39,18,18,39,19,19,20,37,0,11,19,20,18,37,18,18,0,0,29,0,6,16,18,0,0,1,37,19,17,37,18,23,20,20,25,32,8,0,5,0,17,17,0,21,0,0,0,0,0,0,0,0,0,0,0,0,0,0,0,0,0,0,0,0,0,0,0,0,0,0,0,0,0,0],"split_type":[0,0,0,0,0,0,0,0,0,0,0,0,0,0,0,0,0,0,0,0,0,0,0,0,0,0,0,0,0,0,0,0,0,0,0,0,0,0,0,0,0,0,0,0,0,0,0,0,0,0,0,0,0,0,0,0,0,0,0,0,0,0,0,0,0,0,0,0,0,0,0,0,0,0,0,0,0],"sum_hessian":[1.7226297E4,1.2822002E4,4.404295E3,1.145256E4,1.369442E3,1.4248202E3,2.9794746E3,5.182391E3,6.2701685E3,6.7817444E2,6.912676E2,1.0581891E3,3.666311E2,2.5233855E3,4.5608908E2,3.5134282E3,1.668963E3,1.6562731E3,4.6138955E3,1.3307689E2,5.4509753E2,5.120535E2,1.7921405E2,3.6018454E2,6.4465632E0,2.1210627E3,4.0232278E2,1.0438278E2,3.517063E2,3.248812E3,2.6461603E2,9.322502E2,7.367128E2,1.5008715E3,1.5540155E2,3.4394568E3,1.1744388E3,5.099353E2,2.1182523E0,3.5860587E2,1.5786557E0,5.0632057E0,1.3833573E0,1.0553892E3,1.0656736E3,1.8897519E2,1.6273112E2,1.6254276E3,1.6233845E3,1.3826262E2,1.2635342E2,6.588087E2,2.7344147E2,6.5253705E2,8.41758E1,8.102677E2,6.9060376E2,1.1218874E2,4.321281E1,7.239124E2,2.7155442E3,5.896874E1,1.1154701E3,4.9521597E2,1.4719336E1,1.0272949E0,1.0909573E0,3.4908917E2,9.51671E0,3.3026397E0,1.7605662E0,1.0316847E3,2.3704407E1,9.038129E2,1.6186063E2,8.856635E1,7.4164764E1],"tree_param":{"num_deleted":"0","num_feature":"40","num_nodes":"77","size_leaf_vector":"1"}},{"base_weights":[5.584247E-4,1.363009E-1,-4.0254262E-1,1.8833731E-1,-1.0548637E0,-4.8968412E-2,-7.274546E-1,7.0583916E-1,5.4991256E-2,-9.270428E-1,-1.4622302E-1,1.22275114E-1,-3.214823E-1,-9.838854E-1,-5.539927E-1,-1.3261746E-1,7.7243614E-1,-8.5082376E-1,1.2814361E-1,-4.8401403E-1,-1.0347122E0,1.2049599E-1,-4.9454358E-1,-1.2512353E-1,-7.914085E-1,-4.3589395E-1,-9.8032403E-1,5.278584E-1,1.0451791E0,-8.881331E-1,2.882047E-1,3.2841E-1,-1.2717977E-1,-2.9634774E-1,-1.2167207E0,-1.1423782E0,-7.0405084E-1,-6.813065E-1,4.348126E-1,-6.39683E-1,-1.0287825E0,-2.4110705E-1,-8.5001576E-1,-1.0078517E0,6.675612E-1,-1.5559083E-1,6.49479E-2,1.06930174E-1,1.3481122E-2,-9.174193E-2,2.8971339E-2,-2.6825673E-3,1.13772705E-1,8.51985E-2,-4.024599E-3,-4.78523E-2,5.7507595E-3,-8.264704E-3,-9.309469E-2,-1.3575506E-1,-4.4850636E-2,-1.0030898E-1,-1.2637031E-1,-1.0478365E-1,-1.5493314E-2,-1.2615089E-1,-4.9245395E-2,6.383457E-2,-2.112822E-3,-6.676837E-2,1.4803319E-1,-1.2531988E-1,-8.445527E-2,1.6222345E-2,-5.9804406E-2,-8.929651E-2,-1.0156565E-2,-1.0350906E-1,4.0207822E-2,-2.8889447E-3,1.1469682E-1],"categories":[],"categories_nodes":[],"categories_segments":[],"categories_sizes":[],"default_left":[0,0,0,0,0,0,0,0,0,0,0,0,0,0,0,0,0,0,0,0,0,0,0,0,0,0,0,0,0,0,0,0,0,0,0,0,0,0,0,0,0,0,0,0,0,0,0,0,0,0,0,0,0,0,0,0,0,0,0,0,0,0,0,0,0,0,0,0,0,0,0,0,0,0,0,0,0,0,0,0,0],"id":11,"left_children":[1,3,5,7,9,11,13,15,17,19,-1,-1,21,23,25,-1,27,29,31,33,35,-1,37,-1,39,41,43,45,47,49,51,53,55,57,59,61,63,65,67,69,71,73,75,77,79,-1,-1,-1,-1,-1,-1,-1,-1,-1,-1,-1,-1,-1,-1,-1,-1,-1,-1,-1,-1,-1,-1,-1,-1,-1,-1,-1,-1,-1,-1,-1,-1,-1,-1,-1,-1],"loss_changes":[9.200392E2,7.7986145E2,4.865686E2,8.316882E2,2.6066895E1,7.0373083E2,9.76366E1,3.3518542E2,6.352032E2,1.8751038E1,0E0,0E0,4.4231714E2,4.477423E1,6.597937E1,0E0,1.5898291E2,3.0697144E1,4.5354755E2,1.0748112E1,1.0723633E1,0E0,2.6109412E2,0E0,1.8062805E1,8.3253235E1,1.3614807E1,3.2106918E2,2.4663574E1,2.419989E1,6.3128443E0,9.594908E2,2.5305476E2,8.824381E0,1.1384544E0,2.833252E0,1.5344547E1,1.3651135E2,2.3402283E1,1.9969543E1,7.253708E0,1.0159805E2,1.0535782E1,1.1208466E1,1.799104E0,0E0,0E0,0E0,0E0,0E0,0E0,0E0,0E0,0E0,0E0,0E0,0E0,0E0,0E0,0E0,0E0,0E0,0E0,0E0,0E0,0E0,0E0,0E0,0E0,0E0,0E0,0E0,0E0,0E0,0E0,0E0,0E0,0E0,0E0,0E0,0E0],"parents":[2147483647,0,0,1,1,2,2,3,3,4,4,5,5,6,6,7,7,8,8,9,9,12,12,13,13,14,14,16,16,17,17,18,18,19,19,20,20,22,22,24,24,25,25,26,26,27,27,28,28,29,29,30,30,31,31,32,32,33,33,34,34,35,35,36,36,37,37,38,38,39,39,40,40,41,41,42,42,43,43,44,44],"right_children":[2,4,6,8,10,12,14,16,18,20,-1,-1,22,24,26,-1,28,30,32,34,36,-1,38,-1,40,42,44,46,48,50,52,54,56,58,60,62,64,66,68,70,72,74,76,78,80,-1,-1,-1,-1,-1,-1,-1,-1,-1,-1,-1,-1,-1,-1,-1,-1,-1,-1,-1,-1,-1,-1,-1,-1,-1,-1,-1,-1,-1,-1,-1,-1,-1,-1,-1,-1],"split_conditions":[9E0,3E0,2E0,2E0,8E0,1E0,2E0,1E0,2E0,2E0,-1.4622302E-1,1.22275114E-1,1E0,1E0,3E0,-1.3261746E-1,2E0,2E0,3E0,2E0,2E0,1.2049599E-1,2E0,-1.2512353E-1,1E0,1E0,2E0,1E0,2E0,2E0,1E0,1E0,3E0,2E0,2E0,1E0,1E0,1E0,1E0,3E0,1E0,1E0,3E0,2E0,1E0,-1.5559083E-1,6.49479E-2,1.06930174E-1,1.3481122E-2,-9.174193E-2,2.8971339E-2,-2.6825673E-3,1.13772705E-1,8.51985E-2,-4.024599E-3,-4.78523E-2,5.7507595E-3,-8.264704E-3,-9.309469E-2,-1.3575506E-1,-4.4850636E-2,-1.0030898E-1,-1.2637031E-1,-1.0478365E-1,-1.5493314E-2,-1.2615089E-1,-4.9245395E-2,6.383457E-2,-2.112822E-3,-6.676837E-2,1.4803319E-1,-1.2531988E-1,-8.445527E-2,1.6222345E-2,-5.9804406E-2,-8.929651E-2,-1.0156565E-2,-1.0350906E-1,4.0207822E-2,-2.8889447E-3,1.1469682E-1],"split_indices":[39,38,0,0,39,1,20,20,20,0,0,0,0,21,0,0,20,17,0,23,15,0,20,0,17,1,14,21,37,14,16,1,20,26,12,14,34,20,2,3,37,2,20,11,10,0,0,0,0,0,0,0,0,0,0,0,0,0,0,0,0,0,0,0,0,0,0,0,0,0,0,0,0,0,0,0,0,0,0,0,0],"split_type":[0,0,0,0,0,0,0,0,0,0,0,0,0,0,0,0,0,0,0,0,0,0,0,0,0,0,0,0,0,0,0,0,0,0,0,0,0,0,0,0,0,0,0,0,0,0,0,0,0,0,0,0,0,0,0,0,0,0,0,0,0,0,0,0,0,0,0,0,0,0,0,0,0,0,0,0,0,0,0,0,0],"sum_hessian":[1.681221E4,1.2577468E4,4.234744E3,1.2051821E4,5.2564575E2,2.0284761E3,2.2062683E3,2.468304E3,9.583518E3,4.0259705E2,1.2304869E2,3.573538E2,1.6711223E3,8.8834503E2,1.3179232E3,7.772861E1,2.3905754E3,7.153244E2,8.868193E3,7.978789E1,3.2280914E2,1.6956404E2,1.5015582E3,3.6954605E2,5.18799E2,1.0336207E3,2.8430246E2,1.261912E3,1.1286633E3,6.928501E2,2.2474321E1,4.9697866E3,3.8984067E3,6.463703E1,1.515086E1,2.4166592E2,8.114322E1,1.2505211E3,2.510371E2,3.1875253E2,2.0004646E2,7.0404663E2,3.2957413E2,2.8001328E2,4.2891774E0,6.894039E1,1.1929716E3,1.0993584E3,2.9305002E1,6.7625665E2,1.6593441E1,1.7101103E1,5.373219E0,2.052897E3,2.9168894E3,1.3426334E3,2.5557732E3,4.9199406E1,1.5437621E1,1.2155373E1,2.9954872E0,1.16818726E2,1.248472E2,4.9342922E1,3.1800295E1,3.0568866E2,9.4483246E2,1.7328307E2,7.775403E1,3.1527353E2,3.4790168E0,8.757101E1,1.1247546E2,3.3079807E2,3.7324857E2,3.1150546E2,1.8068647E1,2.7496695E2,5.046324E0,2.1318736E0,2.1573038E0],"tree_param":{"num_deleted":"0","num_feature":"40","num_nodes":"81","size_leaf_vector":"1"}},{"base_weights":[-4.2526037E-3,1.2153083E-1,-3.8482958E-1,5.6998814E-3,1.170954E0,-1.1726502E0,-2.9176725E-2,2.8041378E-1,-2.2136311E-1,1.2758039E0,8.6328554E-1,-1.266496E-1,-9.0788186E-1,1.866327E-1,-1.3113444E-1,3.3918906E-2,8.247963E-1,-8.0839926E-1,-1.0720737E-2,1.3711524E-1,1.247683E0,6.9717777E-1,1.22938156E-1,-7.39547E-1,-1.2709133E-1,4.538168E-3,1.2483137E-1,1.2525578E-1,-1.1789299E0,9.4760895E-1,-3.513356E-1,-9.159507E-1,1.9412823E-1,1.7421931E-1,-5.572174E-1,1.2514915E-1,7.0987815E-1,4.3610924E-1,1.2476015E-1,-4.4785374E-1,-1.2771124E-1,4.5189923E-1,-4.2121792E-1,-2.3669127E-2,5.1026125E-2,-1.2424655E-1,-9.8424405E-2,1.1811209E-1,6.754951E-2,-6.05852E-2,4.704301E-4,-7.920902E-2,-1.4736435E-1,5.5585932E-2,-2.4511194E-2,1.6652495E-3,1.4766657E-1,-1.4997415E-1,-7.7889995E-3,3.3403279E-3,1.03173986E-1,-2.875366E-3,6.734086E-2,2.1135031E-4,-6.902486E-2,8.033697E-3,1.3491344E-1,-1.3433558E-1,-1.4472228E-3],"categories":[],"categories_nodes":[],"categories_segments":[],"categories_sizes":[],"default_left":[0,0,0,0,0,0,0,0,0,0,0,0,0,0,0,0,0,0,0,0,0,0,0,0,0,0,0,0,0,0,0,0,0,0,0,0,0,0,0,0,0,0,0,0,0,0,0,0,0,0,0,0,0,0,0,0,0,0,0,0,0,0,0,0,0,0,0,0,0],"id":12,"left_children":[1,3,5,7,9,11,13,15,17,19,21,-1,23,25,-1,27,29,31,33,-1,35,37,-1,39,-1,41,-1,43,45,47,49,51,53,55,57,-1,59,61,-1,63,-1,65,67,-1,-1,-1,-1,-1,-1,-1,-1,-1,-1,-1,-1,-1,-1,-1,-1,-1,-1,-1,-1,-1,-1,-1,-1,-1,-1],"loss_changes":[7.917785E2,1.5111057E3,1.1511768E3,6.984833E2,3.8761963E1,3.0602417E1,7.8380975E2,6.7992053E2,7.5806366E2,7.5476074E-1,1.8430954E1,0E0,1.9712067E1,4.6875073E2,0E0,3.866407E2,2.2844592E2,1.7473047E2,4.561896E2,0E0,5.888672E-1,3.1140396E1,0E0,3.600659E1,0E0,3.9459128E2,0E0,4.5238162E2,1.8006287E0,9.0079956E1,1.35995865E1,9.98363E1,2.5188286E1,6.92074E2,5.1547266E2,0E0,1.5728116E0,1.6686878E1,0E0,1.6663E1,0E0,3.3667657E2,3.9811996E2,0E0,0E0,0E0,0E0,0E0,0E0,0E0,0E0,0E0,0E0,0E0,0E0,0E0,0E0,0E0,0E0,0E0,0E0,0E0,0E0,0E0,0E0,0E0,0E0,0E0,0E0],"parents":[2147483647,0,0,1,1,2,2,3,3,4,4,5,5,6,6,7,7,8,8,9,9,10,10,12,12,13,13,15,15,16,16,17,17,18,18,20,20,21,21,23,23,25,25,27,27,28,28,29,29,30,30,31,31,32,32,33,33,34,34,36,36,37,37,39,39,41,41,42,42],"right_children":[2,4,6,8,10,12,14,16,18,20,22,-1,24,26,-1,28,30,32,34,-1,36,38,-1,40,-1,42,-1,44,46,48,50,52,54,56,58,-1,60,62,-1,64,-1,66,68,-1,-1,-1,-1,-1,-1,-1,-1,-1,-1,-1,-1,-1,-1,-1,-1,-1,-1,-1,-1,-1,-1,-1,-1,-1,-1],"split_conditions":[9E0,9E0,9E0,8E0,2E0,2E0,1E1,8E0,8E0,2E0,2E0,-1.266496E-1,2E0,1E1,-1.3113444E-1,3E0,3E0,3E0,2E0,1.3711524E-1,3E0,1E0,1.22938156E-1,1E0,-1.2709133E-1,1E0,1.2483137E-1,2E0,2E0,2E0,1E0,2E0,1E0,2E0,2E0,1.2514915E-1,1E0,1E0,1.2476015E-1,1E0,-1.2771124E-1,1E0,1E0,-2.3669127E-2,5.1026125E-2,-1.2424655E-1,-9.8424405E-2,1.1811209E-1,6.754951E-2,-6.05852E-2,4.704301E-4,-7.920902E-2,-1.4736435E-1,5.5585932E-2,-2.4511194E-2,1.6652495E-3,1.4766657E-1,-1.4997415E-1,-7.7889995E-3,3.3403279E-3,1.03173986E-1,-2.875366E-3,6.734086E-2,2.1135031E-4,-6.902486E-2,8.033697E-3,1.3491344E-1,-1.3433558E-1,-1.4472228E-3],"split_indices":[39,19,19,39,38,18,39,19,19,20,18,0,38,19,0,38,38,18,38,0,35,17,0,37,0,38,0,18,15,38,28,38,8,18,18,0,7,23,0,3,0,18,18,0,0,0,0,0,0,0,0,0,0,0,0,0,0,0,0,0,0,0,0,0,0,0,0,0,0],"split_type":[0,0,0,0,0,0,0,0,0,0,0,0,0,0,0,0,0,0,0,0,0,0,0,0,0,0,0,0,0,0,0,0,0,0,0,0,0,0,0,0,0,0,0,0,0,0,0,0,0,0,0,0,0,0,0,0,0,0,0,0,0,0,0,0,0,0,0,0,0],"sum_hessian":[1.6538111E4,1.243044E4,4.10767E3,1.119571E4,1.2347303E3,1.276888E3,2.8307817E3,5.0661523E3,6.129558E3,9.185516E2,3.161787E2,9.399454E2,3.369425E2,2.4236902E3,4.0709155E2,3.4879026E3,1.57825E3,1.6178784E3,4.5116797E3,1.9832831E2,7.2022327E2,2.1949307E2,9.668565E1,2.3227539E2,1.0466712E2,2.069708E3,3.5398227E2,3.244466E3,2.4343658E2,1.4292054E3,1.4904451E2,1.4612062E3,1.5667223E2,3.3714333E3,1.1402462E3,7.138414E2,6.3819184E0,1.5009476E2,6.939832E1,1.5176039E2,8.051499E1,1.009217E3,1.060491E3,1.6725099E3,1.571956E3,1.7948114E2,6.395544E1,7.673613E2,6.618441E2,8.650467E1,6.253983E1,1.1976377E3,2.635685E2,8.577101E1,7.090121E1,3.0084866E3,3.6294666E2,3.836764E2,7.565698E2,2.4133747E0,3.9685435E0,5.10223E1,9.907245E1,5.3478115E1,9.828228E1,7.144423E2,2.9477466E2,3.2389108E2,7.365999E2],"tree_param":{"num_deleted":"0","num_feature":"40","num_nodes":"69","size_leaf_vector":"1"}},{"base_weights":[-2.7852068E-3,1.1565207E-1,-3.7174782E-1,7.6022493E-3,1.1325645E0,-1.1377463E0,-3.8642038E-2,2.6551414E-1,-2.0537847E-1,1.2351218E0,1.0293548E0,-1.23543516E-1,-8.690526E-1,1.5791623E-1,-1.2729298E-1,3.8915183E-2,7.736145E-1,-7.434112E-1,-1.8514141E-2,1.2393689E-1,7.880419E-1,9.546223E-1,1.24536894E-1,-9.070344E-1,5.023849E-1,-1.6348617E-2,1.22456804E-1,-4.643354E-2,1.187313E0,5.6429034E-1,1.0563608E0,-8.5086155E-1,2.425137E-1,-3.7521467E-1,1.2996374E-1,9.751914E-1,-7.14428E-3,7.559836E-1,1.0356001E0,-9.334353E-1,5.9409297E-1,1.041917E0,-9.940993E-2,-3.302375E-1,2.9942468E-1,-2.8520972E-2,1.9200196E-2,1.0860181E-1,1.2971798E-1,1.4740069E-2,8.99999E-2,1.3452512E-1,8.598324E-2,-1.0798787E-1,-5.865702E-2,4.225923E-2,-2.8817216E-2,-7.2004914E-2,-3.8661305E-3,-2.6409125E-2,3.3087455E-2,2.7007058E-2,1.0890646E-1,-2.6878033E-2,9.00697E-2,1.0516297E-1,-2.9913267E-2,-9.630105E-2,1.0179724E-2,1.2921567E-1,1.1904766E-2,1.8848198E-2,1.7632829E-1,-5.8244266E-2,-6.2056794E-3,1.2924102E-2,1.3839768E-1],"categories":[],"categories_nodes":[],"categories_segments":[],"categories_sizes":[],"default_left":[0,0,0,0,0,0,0,0,0,0,0,0,0,0,0,0,0,0,0,0,0,0,0,0,0,0,0,0,0,0,0,0,0,0,0,0,0,0,0,0,0,0,0,0,0,0,0,0,0,0,0,0,0,0,0,0,0,0,0,0,0,0,0,0,0,0,0,0,0,0,0,0,0,0,0,0,0],"id":13,"left_children":[1,3,5,7,9,11,13,15,17,19,21,-1,23,25,-1,27,29,31,33,-1,35,37,-1,39,41,43,-1,45,47,49,51,53,55,57,59,61,-1,63,65,67,69,71,-1,73,75,-1,-1,-1,-1,-1,-1,-1,-1,-1,-1,-1,-1,-1,-1,-1,-1,-1,-1,-1,-1,-1,-1,-1,-1,-1,-1,-1,-1,-1,-1,-1,-1],"loss_changes":[7.022322E2,1.3366335E3,9.96331E2,6.0414856E2,1.1095947E1,2.9989746E1,6.6070374E2,5.72709E2,6.056312E2,1.2658691E-1,8.309082E0,0E0,1.7067627E1,4.3672415E2,0E0,3.3735144E2,9.0206665E1,1.6471082E2,2.3690265E2,0E0,1.3908892E0,6.3172607E0,0E0,1.2866852E1,8.494333E0,2.0036082E2,0E0,1.8247835E2,1.2410278E0,1.2354526E2,3.583203E1,8.4132324E1,1.4779734E1,1.5254651E2,2.5014273E2,2.5295305E-1,0E0,1.9748497E1,6.9656677E0,9.457489E0,1.8294003E0,4.1483054E0,0E0,6.852847E1,1.8581973E2,0E0,0E0,0E0,0E0,0E0,0E0,0E0,0E0,0E0,0E0,0E0,0E0,0E0,0E0,0E0,0E0,0E0,0E0,0E0,0E0,0E0,0E0,0E0,0E0,0E0,0E0,0E0,0E0,0E0,0E0,0E0,0E0],"parents":[2147483647,0,0,1,1,2,2,3,3,4,4,5,5,6,6,7,7,8,8,9,9,10,10,12,12,13,13,15,15,16,16,17,17,18,18,20,20,21,21,23,23,24,24,25,25,27,27,28,28,29,29,30,30,31,31,32,32,33,33,34,34,35,35,37,37,38,38,39,39,40,40,41,41,43,43,44,44],"right_children":[2,4,6,8,10,12,14,16,18,20,22,-1,24,26,-1,28,30,32,34,-1,36,38,-1,40,42,44,-1,46,48,50,52,54,56,58,60,62,-1,64,66,68,70,72,-1,74,76,-1,-1,-1,-1,-1,-1,-1,-1,-1,-1,-1,-1,-1,-1,-1,-1,-1,-1,-1,-1,-1,-1,-1,-1,-1,-1,-1,-1,-1,-1,-1,-1],"split_conditions":[9E0,9E0,9E0,8E0,1E0,2E0,1E1,8E0,8E0,3E0,1E0,-1.23543516E-1,3E0,1E1,-1.2729298E-1,3E0,1E0,3E0,1E0,1.2393689E-1,2E0,1E0,1.24536894E-1,2E0,2E0,1E0,1.22456804E-1,1E0,7E0,1E0,1E0,2E0,2E0,1E0,2E0,1E0,-7.14428E-3,1E0,3E0,2E0,1E0,1E0,-9.940993E-2,1E0,1E0,-2.8520972E-2,1.9200196E-2,1.0860181E-1,1.2971798E-1,1.4740069E-2,8.99999E-2,1.3452512E-1,8.598324E-2,-1.0798787E-1,-5.865702E-2,4.225923E-2,-2.8817216E-2,-7.2004914E-2,-3.8661305E-3,-2.6409125E-2,3.3087455E-2,2.7007058E-2,1.0890646E-1,-2.6878033E-2,9.00697E-2,1.0516297E-1,-2.9913267E-2,-9.630105E-2,1.0179724E-2,1.2921567E-1,1.1904766E-2,1.8848198E-2,1.7632829E-1,-5.8244266E-2,-6.2056794E-3,1.2924102E-2,1.3839768E-1],"split_indices":[39,19,19,39,18,18,39,19,19,35,37,0,0,19,0,18,37,18,18,0,24,23,0,11,29,18,0,37,19,36,17,18,23,37,20,23,0,24,23,8,3,25,0,37,17,0,0,0,0,0,0,0,0,0,0,0,0,0,0,0,0,0,0,0,0,0,0,0,0,0,0,0,0,0,0,0,0],"split_type":[0,0,0,0,0,0,0,0,0,0,0,0,0,0,0,0,0,0,0,0,0,0,0,0,0,0,0,0,0,0,0,0,0,0,0,0,0,0,0,0,0,0,0,0,0,0,0,0,0,0,0,0,0,0,0,0,0,0,0,0,0,0,0,0,0,0,0,0,0,0,0,0,0,0,0,0,0],"sum_hessian":[1.6067797E4,1.2163871E4,3.903925E3,1.0996473E4,1.1673988E3,1.1824314E3,2.7214937E3,4.9734995E3,6.022973E3,5.800489E2,5.873499E2,8.645203E2,3.1791104E2,2.3483887E3,3.7310495E2,3.440297E3,1.5332024E3,1.5518374E3,4.4711357E3,5.72835E2,7.2138658E0,4.4040582E2,1.4694406E2,3.096733E2,8.237743E0,2.0194453E3,3.289434E2,3.2031958E3,2.3710136E2,8.8270764E2,6.5049475E2,1.3994557E3,1.5238177E2,1.3136707E3,3.157465E3,5.813397E0,1.4004688E0,1.305361E2,3.0986972E2,3.0469275E2,4.980571E0,6.278054E0,1.9596893E0,1.0127215E3,1.0067238E3,1.6003564E3,1.6028392E3,1.2902646E2,1.08074905E2,3.943879E2,4.8831973E2,2.6099536E2,3.894994E2,7.481087E2,6.513469E2,1.1392655E2,3.845522E1,6.482898E2,6.6538086E2,1.0661212E3,2.091344E3,1.2770958E0,4.536301E0,1.6046692E1,1.144894E2,3.064021E2,3.4676466E0,2.9629767E2,8.395054E0,1.3203249E0,3.6602457E0,3.4535298E0,2.8245244E0,5.213019E2,4.9141962E2,8.711462E2,1.3557767E2],"tree_param":{"num_deleted":"0","num_feature":"40","num_nodes":"77","size_leaf_vector":"1"}},{"base_weights":[9.721303E-3,1.192958E-1,-3.38708E-1,2.1443779E-2,1.0994711E0,-1.0947381E0,-1.9921822E-2,2.4788116E-1,-1.6550167E-1,1.2083745E-1,9.9406844E-1,-1.2064759E-1,-7.9591024E-1,1.6200149E-1,-1.24056734E-1,4.6115674E-2,7.131843E-1,-6.865083E-1,8.540143E-3,9.216264E-1,1.2132672E-1,-6.666322E-1,-1.21789865E-1,2.589442E-3,1.1982151E-1,-3.2641955E-2,1.1599073E0,5.01301E-1,1.0080353E0,-1.025677E0,-3.8087803E-1,-1.2552708E-1,4.1356683E-1,9.43146E-1,-1.8735303E-2,-7.0968336E-1,5.202565E-1,-6.985249E-2,1.3544504E-1,-1.2944715E-1,1.1734583E-3,1.221044E-1,9.652618E-2,8.716336E-3,8.39767E-2,1.0934093E-1,3.779952E-2,-1.1126864E-1,-3.0126179E-2,-5.0325394E-2,5.5563416E-2,-1.6356375E-2,8.35742E-2,-1.2747785E-1,4.9820196E-2,8.779878E-2,1.18229546E-1,-1.337886E-1,3.2360535E-2,-7.291721E-2,1.0273663E-1,7.935526E-2,-4.562798E-2,-1.228701E-1,-6.07746E-4],"categories":[],"categories_nodes":[],"categories_segments":[],"categories_sizes":[],"default_left":[0,0,0,0,0,0,0,0,0,0,0,0,0,0,0,0,0,0,0,0,0,0,0,0,0,0,0,0,0,0,0,0,0,0,0,0,0,0,0,0,0,0,0,0,0,0,0,0,0,0,0,0,0,0,0,0,0,0,0,0,0,0,0,0,0],"id":14,"left_children":[1,3,5,7,9,11,13,15,17,-1,19,-1,21,23,-1,25,27,29,31,33,-1,35,-1,37,-1,39,41,43,45,47,49,51,53,55,57,59,61,63,-1,-1,-1,-1,-1,-1,-1,-1,-1,-1,-1,-1,-1,-1,-1,-1,-1,-1,-1,-1,-1,-1,-1,-1,-1,-1,-1],"loss_changes":[6.024304E2,1.1513055E3,9.0981305E2,4.6210657E2,1.1305786E1,3.6425293E1,5.90094E2,4.6343652E2,5.422271E2,0E0,7.76355E0,0E0,1.5971985E1,3.8202676E2,0E0,3.0219656E2,9.277576E1,1.5482446E2,2.4350197E2,8.608978E0,0E0,1.25158615E1,0E0,1.9648491E2,0E0,1.802138E2,1.5287476E0,1.21985825E2,3.3115295E1,4.436255E1,9.072757E1,1.23324905E2,1.599896E2,5.4298706E0,5.16515E0,8.529182E0,2.7367463E0,1.4073396E2,0E0,0E0,0E0,0E0,0E0,0E0,0E0,0E0,0E0,0E0,0E0,0E0,0E0,0E0,0E0,0E0,0E0,0E0,0E0,0E0,0E0,0E0,0E0,0E0,0E0,0E0,0E0],"parents":[2147483647,0,0,1,1,2,2,3,3,4,4,5,5,6,6,7,7,8,8,10,10,12,12,13,13,15,15,16,16,17,17,18,18,19,19,21,21,23,23,25,25,26,26,27,27,28,28,29,29,30,30,31,31,32,32,33,33,34,34,35,35,36,36,37,37],"right_children":[2,4,6,8,10,12,14,16,18,-1,20,-1,22,24,-1,26,28,30,32,34,-1,36,-1,38,-1,40,42,44,46,48,50,52,54,56,58,60,62,64,-1,-1,-1,-1,-1,-1,-1,-1,-1,-1,-1,-1,-1,-1,-1,-1,-1,-1,-1,-1,-1,-1,-1,-1,-1,-1,-1],"split_conditions":[9E0,9E0,9E0,8E0,1E0,2E0,1E1,8E0,8E0,1.2083745E-1,1E0,-1.2064759E-1,1E0,1E1,-1.24056734E-1,3E0,1E0,2E0,2E0,2E0,1.2132672E-1,2E0,-1.21789865E-1,2E0,1.1982151E-1,2E0,2E0,1E0,2E0,2E0,3E0,2E0,1E0,2E0,1E0,3E0,2E0,1E0,1.3544504E-1,-1.2944715E-1,1.1734583E-3,1.221044E-1,9.652618E-2,8.716336E-3,8.39767E-2,1.0934093E-1,3.779952E-2,-1.1126864E-1,-3.0126179E-2,-5.0325394E-2,5.5563416E-2,-1.6356375E-2,8.35742E-2,-1.2747785E-1,4.9820196E-2,8.779878E-2,1.18229546E-1,-1.337886E-1,3.2360535E-2,-7.291721E-2,1.0273663E-1,7.935526E-2,-4.562798E-2,-1.228701E-1,-6.07746E-4],"split_indices":[39,19,19,39,18,18,39,19,19,0,37,0,37,19,0,18,37,18,18,22,0,2,0,18,0,20,23,36,37,17,20,17,20,18,12,12,32,20,0,0,0,0,0,0,0,0,0,0,0,0,0,0,0,0,0,0,0,0,0,0,0,0,0,0,0],"split_type":[0,0,0,0,0,0,0,0,0,0,0,0,0,0,0,0,0,0,0,0,0,0,0,0,0,0,0,0,0,0,0,0,0,0,0,0,0,0,0,0,0,0,0,0,0,0,0,0,0,0,0,0,0,0,0,0,0,0,0,0,0,0,0,0,0],"sum_hessian":[1.577706E4,1.2002999E4,3.7740608E3,1.0914422E4,1.0885773E3,1.1186493E3,2.6554116E3,4.935717E3,5.978705E3,5.3025085E2,5.583264E2,8.1199194E2,3.0665732E2,2.3117402E3,3.436713E2,3.4435974E3,1.4921191E3,1.496345E3,4.4823604E3,4.2355276E2,1.3477362E2,2.3671758E2,6.993975E1,2.0043862E3,3.073541E2,3.217084E3,2.2651341E2,8.6978326E2,6.2233594E2,7.081405E2,7.882044E2,3.368161E3,1.1141993E3,4.14074E2,9.478776E0,2.2881982E2,7.8977532E0,1.9033406E3,1.01045654E2,1.0833893E2,3.108745E3,1.683598E2,5.8153618E1,3.9173038E2,4.780529E2,5.474218E2,7.491413E1,6.317278E2,7.641273E1,6.975207E2,9.0683754E1,3.2407563E3,1.2740434E2,5.251622E1,1.0616831E3,3.2908377E2,8.499023E1,1.353859E0,8.124917E0,2.2685486E2,1.9649587E0,6.3171883E0,1.580565E0,9.833009E1,1.8050105E3],"tree_param":{"num_deleted":"0","num_feature":"40","num_nodes":"65","size_leaf_vector":"1"}},{"base_weights":[-1.3822409E-4,2.5808444E-2,-1.216468E-1,-8.6678565E-2,4.2986533E-1,8.282304E-3,-1.0662732E0,1.0638149E0,1.4956002E-1,1.7879654E-1,-2.7721298E-1,-1.1790474E-1,-7.734078E-1,1.1820968E0,7.3898125E-1,4.0357755E-3,1.17947E-1,4.543702E-2,8.1034064E-1,-4.2432415E-1,8.3087164E-1,-5.886294E-1,-1.19761206E-1,1.185586E-1,6.5786695E-1,5.731224E-1,1.1597657E-1,4.3811333E-1,-4.1996267E-1,4.1551605E-2,-1.4389023E-2,5.7427224E-2,1.3926658E-1,-2.0425169E-2,-8.3966635E-2,7.1091376E-2,1.2647633E-1,-3.0511353E-2,-1.1898412E-1,1.8722325E-3,9.847875E-2,3.0900467E-2,1.1742951E-1,1.0863817E-2,1.2892644E-1,-5.888447E-2,1.3079523E-1],"categories":[],"categories_nodes":[],"categories_segments":[],"categories_sizes":[],"default_left":[0,0,0,0,0,0,0,0,0,0,0,0,0,0,0,0,0,0,0,0,0,0,0,0,0,0,0,0,0,0,0,0,0,0,0,0,0,0,0,0,0,0,0,0,0,0,0],"id":15,"left_children":[1,3,-1,5,7,9,11,13,15,17,19,-1,21,23,25,27,-1,29,31,33,35,37,-1,-1,39,41,-1,43,45,-1,-1,-1,-1,-1,-1,-1,-1,-1,-1,-1,-1,-1,-1,-1,-1,-1,-1],"loss_changes":[4.8496994E2,6.838859E2,0E0,1.094903E3,5.82103E2,5.2244385E2,3.344226E1,3.771924E1,3.4069897E2,5.6585156E2,6.5451636E2,0E0,2.2189941E1,5.637207E-1,1.8233734E1,3.6695374E2,0E0,3.8882788E2,1.6022845E2,3.2370715E2,2.359851E1,3.465287E1,0E0,0E0,1.4659276E0,3.0790688E1,0E0,2.7613745E2,2.950966E2,0E0,0E0,0E0,0E0,0E0,0E0,0E0,0E0,0E0,0E0,0E0,0E0,0E0,0E0,0E0,0E0,0E0,0E0],"parents":[2147483647,0,0,1,1,3,3,4,4,5,5,6,6,7,7,8,8,9,9,10,10,12,12,13,13,14,14,15,15,17,17,18,18,19,19,20,20,21,21,24,24,25,25,27,27,28,28],"right_children":[2,4,-1,6,8,10,12,14,16,18,20,-1,22,24,26,28,-1,30,32,34,36,38,-1,-1,40,42,-1,44,46,-1,-1,-1,-1,-1,-1,-1,-1,-1,-1,-1,-1,-1,-1,-1,-1,-1,-1],"split_conditions":[1E1,9E0,-1.216468E-1,9E0,9E0,2E0,2E0,2E0,1E1,2E0,3E0,-1.1790474E-1,2E0,3E0,2E0,1E0,1.17947E-1,8E0,8E0,8E0,8E0,1E0,-1.19761206E-1,1.185586E-1,1E0,1E0,1.1597657E-1,1E0,2E0,4.1551605E-2,-1.4389023E-2,5.7427224E-2,1.3926658E-1,-2.0425169E-2,-8.3966635E-2,7.1091376E-2,1.2647633E-1,-3.0511353E-2,-1.1898412E-1,1.8722325E-3,9.847875E-2,3.0900467E-2,1.1742951E-1,1.0863817E-2,1.2892644E-1,-5.888447E-2,1.3079523E-1],"split_indices":[39,19,0,39,39,38,18,38,19,18,18,0,38,35,18,38,0,39,19,39,19,37,0,0,7,17,0,18,18,0,0,0,0,0,0,0,0,0,0,0,0,0,0,0,0,0,0],"split_type":[0,0,0,0,0,0,0,0,0,0,0,0,0,0,0,0,0,0,0,0,0,0,0,0,0,0,0,0,0,0,0,0,0,0,0,0,0,0,0,0,0,0,0,0,0,0,0],"sum_hessian":[1.536475E4,1.5044794E4,3.199558E2,1.1769126E4,3.2756685E3,1.0729966E4,1.03916E3,1.0034442E3,2.272224E3,6.7179766E3,4.011989E3,7.4807263E2,2.9108737E2,7.3365765E2,2.6978656E2,1.9917919E3,2.804323E2,5.547595E3,1.1703817E3,3.5423215E3,4.6966748E2,2.0442839E2,8.665898E1,7.275537E2,6.103942E0,1.952053E2,7.458124E1,9.841815E2,1.00761035E3,1.8771416E3,3.6704536E3,8.341943E2,3.3618735E2,2.3164326E3,1.2258892E3,3.700095E2,9.965797E1,1.3994258E2,6.448581E1,2.423384E0,3.6805582E0,1.3667351E2,5.85318E1,7.103407E2,2.738408E2,9.1849786E2,8.911245E1],"tree_param":{"num_deleted":"0","num_feature":"40","num_nodes":"47","size_leaf_vector":"1"}},{"base_weights":[-2.2570554E-3,2.1728907E-2,-1.19289614E-1,-8.264633E-2,4.048235E-1,3.498342E-3,-1.0337732E0,1.0336794E0,1.4156476E-1,2.0109709E-1,-1.6066928E-1,-1.16167955E-1,-7.165704E-1,1.1588868E-1,9.146976E-1,7.882751E-3,1.1573043E-1,1.373496E-2,6.4202696E-1,-6.5112036E-1,2.492062E-3,-7.71916E-1,7.8282523E-1,8.336842E-1,1.1664589E-1,-2.71412E-1,2.9769984E-1,-5.473133E-3,1.0675093E-1,4.4988073E-2,9.1995105E-2,-9.535777E-2,-3.889799E-2,-3.518148E-2,1.5319976E-2,-8.0880836E-2,7.626202E-2,2.7191225E-2,1.475241E-1,8.573591E-2,-2.7999928E-2,-3.0446315E-2,1.2919225E-1,1.4029716E-2,1.3380548E-1],"categories":[],"categories_nodes":[],"categories_segments":[],"categories_sizes":[],"default_left":[0,0,0,0,0,0,0,0,0,0,0,0,0,0,0,0,0,0,0,0,0,0,0,0,0,0,0,0,0,0,0,0,0,0,0,0,0,0,0,0,0,0,0,0,0],"id":16,"left_children":[1,3,-1,5,7,9,11,13,15,17,19,-1,21,-1,23,25,-1,27,29,31,33,35,37,39,-1,41,43,-1,-1,-1,-1,-1,-1,-1,-1,-1,-1,-1,-1,-1,-1,-1,-1,-1,-1],"loss_changes":[4.298328E2,5.899715E2,0E0,9.500815E2,5.228634E2,3.4497803E2,3.8239014E1,1.2825989E1,3.0253418E2,3.9867593E2,4.6482672E2,0E0,2.3785248E1,0E0,8.872284E0,1.59538E2,0E0,2.4448125E2,7.6437256E1,1.1459595E2,2.3284494E2,1.5896484E1,3.2923036E0,9.960754E0,0E0,5.225525E1,1.5820325E2,0E0,0E0,0E0,0E0,0E0,0E0,0E0,0E0,0E0,0E0,0E0,0E0,0E0,0E0,0E0,0E0,0E0,0E0],"parents":[2147483647,0,0,1,1,3,3,4,4,5,5,6,6,7,7,8,8,9,9,10,10,12,12,14,14,15,15,17,17,18,18,19,19,20,20,21,21,22,22,23,23,25,25,26,26],"right_children":[2,4,-1,6,8,10,12,14,16,18,20,-1,22,-1,24,26,-1,28,30,32,34,36,38,40,-1,42,44,-1,-1,-1,-1,-1,-1,-1,-1,-1,-1,-1,-1,-1,-1,-1,-1,-1,-1],"split_conditions":[1E1,9E0,-1.19289614E-1,9E0,9E0,8E0,2E0,1E0,1E1,8E0,8E0,-1.16167955E-1,3E0,1.1588868E-1,1E0,1E0,1.1573043E-1,3E0,1E0,2E0,1E0,2E0,1E0,2E0,1.1664589E-1,2E0,1E0,-5.473133E-3,1.0675093E-1,4.4988073E-2,9.1995105E-2,-9.535777E-2,-3.889799E-2,-3.518148E-2,1.5319976E-2,-8.0880836E-2,7.626202E-2,2.7191225E-2,1.475241E-1,8.573591E-2,-2.7999928E-2,-3.0446315E-2,1.2919225E-1,1.4029716E-2,1.3380548E-1],"split_indices":[39,19,0,39,39,39,18,18,19,19,19,0,0,0,37,18,0,18,37,18,18,11,31,34,0,17,17,0,0,0,0,0,0,0,0,0,0,0,0,0,0,0,0,0,0],"split_type":[0,0,0,0,0,0,0,0,0,0,0,0,0,0,0,0,0,0,0,0,0,0,0,0,0,0,0,0,0,0,0,0,0,0,0,0,0,0,0,0,0,0,0,0,0],"sum_hessian":[1.5048986E4,1.4752767E4,2.9621942E2,1.1594575E4,3.1581914E3,1.0632567E4,9.620077E2,9.3110364E2,2.227088E3,4.8249E3,5.807668E3,6.836686E2,2.783391E2,4.4942374E2,4.8167987E2,1.9689597E3,2.5812808E2,3.3867964E3,1.4381034E3,1.4490223E3,4.3586455E3,2.688987E2,9.440397E0,3.6767755E2,1.1400232E2,1.00271436E3,9.662454E2,3.181063E3,2.0573337E2,8.5181165E2,5.8629175E2,6.7155054E2,7.774718E2,1.3003196E3,3.058326E3,2.630476E2,5.8510914E0,6.233548E0,3.2068489E0,3.6024945E2,7.428096E0,9.82743E2,1.9971355E1,8.402525E2,1.25992905E2],"tree_param":{"num_deleted":"0","num_feature":"40","num_nodes":"45","size_leaf_vector":"1"}},{"base_weights":[4.1978885E-3,2.652506E-2,-1.17121756E-1,3.3509007E-3,7.7085745E-1,-2.024018E-2,7.1692854E-1,1.0404794E0,5.6205285E-1,2.4221924E-3,-6.5899223E-1,5.833041E-1,1.2596735E0,1.1162268E0,7.953708E-1,6.916881E-1,1.9802323E-1,-8.494379E-3,1.2409991E0,-5.2625144E-1,-1.1979442E0,6.9959956E-1,-1.381492E-1,1.322452E0,3.952186E-1,1.1804431E-1,9.0205526E-1,1.0234194E0,4.9250868E-1,1.0118784E0,5.281785E-1,-3.6654916E-1,6.5433997E-1,-2.9166772E-3,6.695816E-2,1.3738592E-1,7.379242E-2,-6.566002E-2,1.8291773E-2,-5.277108E-2,-1.3441943E-1,9.883247E-2,4.7363084E-2,5.800742E-3,-3.5497677E-2,1.4636563E-1,8.7774165E-2,7.2105944E-2,-1.4719111E-2,6.1711337E-2,1.09582126E-1,1.1174754E-1,3.049008E-2,9.939678E-2,-1.52717335E-2,1.0962468E-1,7.251187E-2,7.681953E-2,1.7161725E-2,-8.985082E-3,-7.801031E-2,8.668362E-2,-6.138079E-3],"categories":[],"categories_nodes":[],"categories_segments":[],"categories_sizes":[],"default_left":[0,0,0,0,0,0,0,0,0,0,0,0,0,0,0,0,0,0,0,0,0,0,0,0,0,0,0,0,0,0,0,0,0,0,0,0,0,0,0,0,0,0,0,0,0,0,0,0,0,0,0,0,0,0,0,0,0,0,0,0,0,0,0],"id":17,"left_children":[1,3,-1,5,7,9,11,13,15,17,19,21,23,25,27,29,31,33,35,37,39,41,43,45,47,-1,49,51,53,55,57,59,61,-1,-1,-1,-1,-1,-1,-1,-1,-1,-1,-1,-1,-1,-1,-1,-1,-1,-1,-1,-1,-1,-1,-1,-1,-1,-1,-1,-1,-1,-1],"loss_changes":[3.8781918E2,2.5014568E2,0E0,2.3678714E2,2.4066498E1,1.9710106E2,3.1911346E1,2.638443E0,1.1610786E1,1.7781743E2,3.274582E1,3.0559196E1,4.256729E0,8.9656067E-1,2.833088E0,9.055153E0,1.7441969E1,1.8275822E2,6.6658936E0,3.4888397E1,8.251175E0,1.9942291E1,2.1997972E0,3.8443298E0,1.4120443E0,0E0,1.3741531E0,1.4593124E0,7.490624E0,6.766777E-1,1.0423851E1,3.4185014E0,5.723873E0,0E0,0E0,0E0,0E0,0E0,0E0,0E0,0E0,0E0,0E0,0E0,0E0,0E0,0E0,0E0,0E0,0E0,0E0,0E0,0E0,0E0,0E0,0E0,0E0,0E0,0E0,0E0,0E0,0E0,0E0],"parents":[2147483647,0,0,1,1,3,3,4,4,5,5,6,6,7,7,8,8,9,9,10,10,11,11,12,12,13,13,14,14,15,15,16,16,17,17,18,18,19,19,20,20,21,21,22,22,23,23,24,24,26,26,27,27,28,28,29,29,30,30,31,31,32,32],"right_children":[2,4,-1,6,8,10,12,14,16,18,20,22,24,26,28,30,32,34,36,38,40,42,44,46,48,-1,50,52,54,56,58,60,62,-1,-1,-1,-1,-1,-1,-1,-1,-1,-1,-1,-1,-1,-1,-1,-1,-1,-1,-1,-1,-1,-1,-1,-1,-1,-1,-1,-1,-1,-1],"split_conditions":[1E1,3E0,-1.17121756E-1,2E0,8E0,2E0,2E0,2E0,2E0,3E0,2E0,2E0,9E0,2E0,1E0,1E0,2E0,2E0,9E0,2E0,1E0,8E0,1E0,2E0,1E0,1.1804431E-1,1E0,1E0,1E0,2E0,1E0,2E0,2E0,-2.9166772E-3,6.695816E-2,1.3738592E-1,7.379242E-2,-6.566002E-2,1.8291773E-2,-5.277108E-2,-1.3441943E-1,9.883247E-2,4.7363084E-2,5.800742E-3,-3.5497677E-2,1.4636563E-1,8.7774165E-2,7.2105944E-2,-1.4719111E-2,6.1711337E-2,1.09582126E-1,1.1174754E-1,3.049008E-2,9.939678E-2,-1.52717335E-2,1.0962468E-1,7.251187E-2,7.681953E-2,1.7161725E-2,-8.985082E-3,-7.801031E-2,8.668362E-2,-6.138079E-3],"split_indices":[39,18,0,17,39,37,15,32,23,15,35,35,39,26,14,6,3,14,39,15,18,39,7,29,10,0,13,33,15,35,5,29,35,0,0,0,0,0,0,0,0,0,0,0,0,0,0,0,0,0,0,0,0,0,0,0,0,0,0,0,0,0,0],"split_type":[0,0,0,0,0,0,0,0,0,0,0,0,0,0,0,0,0,0,0,0,0,0,0,0,0,0,0,0,0,0,0,0,0,0,0,0,0,0,0,0,0,0,0,0,0,0,0,0,0,0,0,0,0,0,0,0,0,0,0,0,0,0,0],"sum_hessian":[1.4775427E4,1.4500956E4,2.7447012E2,1.4064087E4,4.3686893E2,1.3614945E4,4.4914233E2,1.8892882E2,2.4794012E2,1.3149411E4,4.6553357E2,3.6207404E2,8.706829E1,1.4161176E2,4.731707E1,1.8216788E2,6.577224E1,1.3035512E4,1.1389928E2,3.7512006E2,9.0413506E1,3.1183737E2,5.0236664E1,8.067938E1,6.3889127E0,1.0547493E2,3.613682E1,2.5635178E1,2.1681892E1,5.9825993E1,1.2234189E2,2.9486788E1,3.628545E1,1.2650786E4,3.847255E2,8.873404E1,2.5165234E1,3.169392E2,5.818085E1,1.7020489E1,7.339301E1,1.354264E2,1.7641096E2,2.6760136E1,2.347653E1,5.949673E1,2.1182652E1,3.7854958E0,2.6034172E0,1.6320946E1,1.9815876E1,2.2176912E1,3.4582667E0,1.1896011E1,9.785882E0,4.4044624E1,1.5781369E1,7.243099E1,4.9910896E1,1.8395857E1,1.109093E1,2.781584E1,8.46961E0],"tree_param":{"num_deleted":"0","num_feature":"40","num_nodes":"63","size_leaf_vector":"1"}},{"base_weights":[1.5878426E-3,3.366917E-2,-9.453433E-1,-7.139547E-2,3.1814983E-1,-1.037378E0,-6.7679936E-1,2.9940445E-2,-6.907386E-1,6.4439553E-1,1.2792274E-1,-1.1798497E-1,-9.175544E-1,-2.7726018E-1,-1.1145618E0,3.7942408E-4,1.14026785E-1,-2.933298E-1,-8.1157494E-1,1.9210611E-1,7.8851724E-1,-1.0640178E-3,7.33409E-1,-1.108575E0,-6.8076754E-1,-7.612037E-1,4.0633962E-3,-1.2147633E-1,-7.716775E-1,-3.0607605E-1,1.0259504E-1,-5.54959E-1,4.4685987E-1,-6.823642E-1,-1.026702E0,-1.1275961E-1,3.3936623E-1,5.891776E-1,1.0661767E0,-1.6138075E-1,1.3293083E-1,5.987315E-1,1.2165689E-1,-1.1856505E0,-7.144399E-1,-9.964284E-1,-2.3839614E-1,2.9742282E-2,-1.0376861E0,-5.2742624E-1,1.124379E0,-1.2747605E-1,-1.1851821E-1,-1.21833436E-1,-1.265063E-2,-2.6161803E-2,2.3559963E-2,1.0623302E-1,-6.6986255E-2,6.008742E-2,-1.3048436E-1,-3.186199E-2,-9.541818E-2,-1.368648E-1,-7.947703E-2,-3.3371467E-2,6.276785E-2,1.5414596E-2,9.814087E-2,3.816988E-2,1.2333413E-1,-1.3105472E-3,5.7658684E-2,1.6577903E-2,7.196425E-2,-1.338973E-1,-1.02573454E-1,-2.6353745E-2,-1.14241675E-1,-6.103285E-2,-1.2996446E-1,5.8491565E-2,-8.169143E-2,5.333012E-2,-8.3720416E-2,-1.1851116E-1,-3.6745463E-2,-7.987555E-2,3.5348974E-2,1.2820575E-1,-2.419873E-3,4.1242402E-2,-1.0375259E-1],"categories":[],"categories_nodes":[],"categories_segments":[],"categories_sizes":[],"default_left":[0,0,0,0,0,0,0,0,0,0,0,0,0,0,0,0,0,0,0,0,0,0,0,0,0,0,0,0,0,0,0,0,0,0,0,0,0,0,0,0,0,0,0,0,0,0,0,0,0,0,0,0,0,0,0,0,0,0,0,0,0,0,0,0,0,0,0,0,0,0,0,0,0,0,0,0,0,0,0,0,0,0,0,0,0,0,0,0,0,0,0,0,0],"id":18,"left_children":[1,3,5,7,9,11,13,15,17,19,21,-1,23,25,27,29,-1,31,33,35,37,39,41,43,45,47,49,-1,51,53,55,57,59,61,63,-1,65,67,69,-1,71,73,-1,75,77,79,81,83,85,87,89,91,-1,-1,-1,-1,-1,-1,-1,-1,-1,-1,-1,-1,-1,-1,-1,-1,-1,-1,-1,-1,-1,-1,-1,-1,-1,-1,-1,-1,-1,-1,-1,-1,-1,-1,-1,-1,-1,-1,-1,-1,-1],"loss_changes":[4.4742294E2,4.25803E2,1.1226196E1,6.530007E2,2.3837604E2,5.021576E0,2.1739872E1,2.935019E2,7.001642E1,9.208234E1,1.896563E2,0E0,8.2335205E0,9.157502E0,1.1179733E0,2.729068E2,0E0,6.661003E1,3.0467834E1,6.7088745E1,5.8745117E1,4.3304163E2,2.7022202E1,2.445816E0,1.2514412E1,5.4375362E0,2.650429E1,0E0,4.1829977E0,3.5680957E2,3.1654083E2,4.7845116E1,2.5077488E1,6.925458E1,3.2124847E1,0E0,6.0281364E1,1.0677742E2,5.0681763E1,0E0,1.1988091E2,1.7442398E1,0E0,8.124161E-1,3.6060152E0,5.40905E0,1.9216627E1,3.6665547E0,1.3774605E0,7.499548E0,2.624691E0,4.1037326E0,0E0,0E0,0E0,0E0,0E0,0E0,0E0,0E0,0E0,0E0,0E0,0E0,0E0,0E0,0E0,0E0,0E0,0E0,0E0,0E0,0E0,0E0,0E0,0E0,0E0,0E0,0E0,0E0,0E0,0E0,0E0,0E0,0E0,0E0,0E0,0E0,0E0,0E0,0E0,0E0,0E0],"parents":[2147483647,0,0,1,1,2,2,3,3,4,4,5,5,6,6,7,7,8,8,9,9,10,10,12,12,13,13,14,14,15,15,17,17,18,18,19,19,20,20,21,21,22,22,23,23,24,24,25,25,26,26,28,28,29,29,30,30,31,31,32,32,33,33,34,34,36,36,37,37,38,38,40,40,41,41,43,43,44,44,45,45,46,46,47,47,48,48,49,49,50,50,51,51],"right_children":[2,4,6,8,10,12,14,16,18,20,22,-1,24,26,28,30,-1,32,34,36,38,40,42,44,46,48,50,-1,52,54,56,58,60,62,64,-1,66,68,70,-1,72,74,-1,76,78,80,82,84,86,88,90,92,-1,-1,-1,-1,-1,-1,-1,-1,-1,-1,-1,-1,-1,-1,-1,-1,-1,-1,-1,-1,-1,-1,-1,-1,-1,-1,-1,-1,-1,-1,-1,-1,-1,-1,-1,-1,-1,-1,-1,-1,-1],"split_conditions":[3E0,2E0,2E0,2E0,2E0,8E0,2E0,1E1,2E0,2E0,3E0,-1.1798497E-1,2E0,2E0,2E0,2E0,1.14026785E-1,2E0,3E0,1E0,1E0,7E0,8E0,2E0,1E0,1E0,8E0,-1.2147633E-1,2E0,1E0,8E0,1E0,1E0,1E0,3E0,-1.1275961E-1,8E0,3E0,7E0,-1.6138075E-1,3E0,2E0,1.2165689E-1,1E0,1E0,1E0,1E0,2E0,2E0,2E0,2E0,2E0,-1.1851821E-1,-1.21833436E-1,-1.265063E-2,-2.6161803E-2,2.3559963E-2,1.0623302E-1,-6.6986255E-2,6.008742E-2,-1.3048436E-1,-3.186199E-2,-9.541818E-2,-1.368648E-1,-7.947703E-2,-3.3371467E-2,6.276785E-2,1.5414596E-2,9.814087E-2,3.816988E-2,1.2333413E-1,-1.3105472E-3,5.7658684E-2,1.6577903E-2,7.196425E-2,-1.338973E-1,-1.02573454E-1,-2.6353745E-2,-1.14241675E-1,-6.103285E-2,-1.2996446E-1,5.8491565E-2,-8.169143E-2,5.333012E-2,-8.3720416E-2,-1.1851116E-1,-3.6745463E-2,-7.987555E-2,3.5348974E-2,1.2820575E-1,-2.419873E-3,4.1242402E-2,-1.0375259E-1],"split_indices":[38,18,15,38,38,19,35,19,0,20,18,0,20,20,6,20,0,20,0,21,21,19,19,21,22,26,19,0,26,21,19,0,37,1,20,0,19,20,19,0,20,20,0,22,11,10,2,0,21,23,29,29,0,0,0,0,0,0,0,0,0,0,0,0,0,0,0,0,0,0,0,0,0,0,0,0,0,0,0,0,0,0,0,0,0,0,0,0,0,0,0,0,0],"split_type":[0,0,0,0,0,0,0,0,0,0,0,0,0,0,0,0,0,0,0,0,0,0,0,0,0,0,0,0,0,0,0,0,0,0,0,0,0,0,0,0,0,0,0,0,0,0,0,0,0,0,0,0,0,0,0,0,0,0,0,0,0,0,0,0,0,0,0,0,0,0,0,0,0,0,0,0,0,0,0,0,0,0,0,0,0,0,0,0,0,0,0,0,0],"sum_hessian":[1.4726079E4,1.4244452E4,4.8162708E2,1.0403114E4,3.8413381E3,3.5656366E2,1.2506341E2,8.941133E3,1.4619819E3,1.4139612E3,2.427377E3,1.5884647E2,1.977172E2,6.624028E1,5.8823128E1,8.710234E3,2.308983E2,3.4168137E2,1.1203005E3,3.422451E2,1.0717161E3,2.0019084E3,4.254684E2,1.0739654E2,9.0320656E1,2.3723837E1,4.251644E1,4.355285E1,1.5270277E1,2.1780793E3,6.532155E3,2.5263474E2,8.904662E1,7.0252106E2,4.177795E2,3.3687786E1,3.0855728E2,6.256593E2,4.4605673E2,1.5272215E2,1.8491863E3,3.34475E2,9.09934E1,8.815003E1,1.9246498E1,5.197829E1,3.834237E1,6.3760386E0,1.73478E1,2.9195162E1,1.3321278E1,6.4813004E0,8.788977E0,3.5727094E2,1.8208085E3,1.747078E3,4.7850767E3,1.6211355E1,2.3642337E2,8.2454025E1,6.592593E0,3.013837E2,4.0113736E2,1.6686426E2,2.5091525E2,9.248603E1,2.1607126E2,2.9730508E2,3.2835425E2,8.819873E1,3.57858E2,1.3919686E3,4.572177E2,7.3535065E1,2.6093994E2,4.1238655E1,4.691138E1,1.0159039E1,9.08746E0,2.418949E1,2.7788801E1,1.5818864E1,2.2523502E1,4.276765E0,2.0992737E0,1.3590247E1,3.7575514E0,2.2391626E1,6.8035355E0,1.161108E1,1.7101979E0,4.41114E0,2.0701602E0],"tree_param":{"num_deleted":"0","num_feature":"40","num_nodes":"93","size_leaf_vector":"1"}},{"base_weights":[-2.9123146E-3,-1.1750243E-1,2.0766322E-2,3.900674E-1,-9.566392E-2,1.17203526E-1,2.4952751E-1,-7.501041E-1,-5.1585403E-3,1.1788904E-1,1.578325E-1,-1.1790424E-1,-5.936445E-1,1.6768284E-1,-1.3986608E-1,-1.0021781E-1,6.1944443E-1,-3.0650258E-1,-8.0388355E-1,7.137736E-3,6.466245E-1,-6.712125E-1,-6.0777646E-3,-1.2908429E-1,9.041621E-3,7.514116E-2,1.8688466E-2,-5.1179923E-2,2.411297E-2,-9.170314E-2,-6.041668E-3,4.937472E-3,-7.701069E-2,4.497501E-2,9.424725E-2,-4.9106922E-2,-9.340014E-2,1.1662272E-2,-3.654823E-2],"categories":[],"categories_nodes":[],"categories_segments":[],"categories_sizes":[],"default_left":[0,0,0,0,0,0,0,0,0,0,0,0,0,0,0,0,0,0,0,0,0,0,0,0,0,0,0,0,0,0,0,0,0,0,0,0,0,0,0],"id":19,"left_children":[1,-1,3,5,7,-1,9,11,13,-1,15,-1,17,19,21,23,25,27,29,31,33,35,37,-1,-1,-1,-1,-1,-1,-1,-1,-1,-1,-1,-1,-1,-1,-1,-1],"loss_changes":[4.0433792E2,0E0,6.140576E2,3.759082E2,6.43124E2,0E0,2.4719762E2,8.783148E1,2.2214151E2,0E0,3.1494284E2,0E0,5.822699E1,3.2132358E2,3.8116516E2,3.851594E2,5.3974396E1,4.6335342E1,4.6932343E1,1.0281862E2,6.068271E1,5.059793E1,1.8898186E2,0E0,0E0,0E0,0E0,0E0,0E0,0E0,0E0,0E0,0E0,0E0,0E0,0E0,0E0,0E0,0E0],"parents":[2147483647,0,0,2,2,3,3,4,4,6,6,7,7,8,8,10,10,12,12,13,13,14,14,15,15,16,16,17,17,18,18,19,19,20,20,21,21,22,22],"right_children":[2,-1,4,6,8,-1,10,12,14,-1,16,-1,18,20,22,24,26,28,30,32,34,36,38,-1,-1,-1,-1,-1,-1,-1,-1,-1,-1,-1,-1,-1,-1,-1,-1],"split_conditions":[1E0,-1.1750243E-1,2E0,1E0,2E0,1.17203526E-1,1E0,1E0,8E0,1.1788904E-1,2E0,-1.1790424E-1,1E0,8E0,8E0,1E0,9E0,2E0,9E0,2E0,1E0,1E0,9E0,-1.2908429E-1,9.041621E-3,7.514116E-2,1.8688466E-2,-5.1179923E-2,2.411297E-2,-9.170314E-2,-6.041668E-3,4.937472E-3,-7.701069E-2,4.497501E-2,9.424725E-2,-4.9106922E-2,-9.340014E-2,1.1662272E-2,-3.654823E-2],"split_indices":[20,0,0,1,20,0,0,21,39,0,20,0,1,19,19,21,39,3,19,37,37,17,39,0,0,0,0,0,0,0,0,0,0,0,0,0,0,0,0],"split_type":[0,0,0,0,0,0,0,0,0,0,0,0,0,0,0,0,0,0,0,0,0,0,0,0,0,0,0,0,0,0,0,0,0,0,0,0,0,0,0],"sum_hessian":[1.4566751E4,2.87483E2,1.4279269E4,3.4221902E3,1.0857078E4,5.2023706E2,2.9019531E3,1.3181692E3,9.538908E3,2.5954205E2,2.6424111E3,3.5056104E2,9.6760815E2,4.177969E3,5.3609395E3,1.6954203E3,9.4699097E2,4.100393E2,5.5756885E2,3.1298372E3,1.0481318E3,1.0775165E3,4.283423E3,2.3319635E2,1.4622239E3,7.250519E2,2.2193909E2,2.9828394E2,1.1175538E2,4.837185E2,7.385035E1,2.9694102E3,1.6042705E2,6.308488E2,4.1728305E2,6.409857E2,4.3653073E2,3.1937532E3,1.0896698E3],"tree_param":{"num_deleted":"0","num_feature":"40","num_nodes":"39","size_leaf_vector":"1"}},{"base_weights":[1.2695645E-4,1.0604412E-1,-2.5235146E-1,4.9507523E-1,-5.45441E-3,-3.5104457E-1,6.9444185E-1,6.028493E-1,-4.308578E-1,-1.7332539E-1,2.9280192E-1,-1.517461E0,-3.0301645E-1,9.7261554E-1,4.8135662E-1,-7.920192E-3,7.130121E-1,-7.222827E-1,2.8064537E-1,-2.3548689E-2,-9.778023E-1,1.1367711E-1,6.3811444E-2,-1.5288332E0,-4.176889E-2,-7.490532E-2,-6.0945207E-1,8.147219E-1,1.15688935E-1,1.3899301E-1,1.1743694E-1,-2.7787447E-1,8.5818297E-1,5.6636685E-1,1.4764113E0,-1.050299E0,-3.4135526E-1,-1.0645399E-1,7.0738286E-1,-5.564443E-1,1.4073728E-1,-1.1302769E0,-4.7252455E-1,2.0364617E-1,-1.1433419E-1,-1.5346117E-1,-4.4223063E-2,6.820603E-2,-7.582342E-1,1.1684128E-1,-6.7052305E-1,1.0832434E0,4.8589543E-1,4.3093422E-1,-1.971023E-1,2.9941604E-2,-7.4103214E-2,1.0754859E-1,2.263002E-2,3.1426813E-2,9.826557E-2,1.482489E-1,4.0121425E-2,-1.4444001E-1,-7.364768E-2,2.3698958E-2,-6.843581E-2,-5.4279488E-2,3.6129102E-2,8.752611E-2,-7.656991E-2,-8.70185E-2,-7.394619E-3,-3.171116E-2,4.4834375E-2,-1.1332665E-1,-6.5913014E-2,-1.9768462E-2,-1.1392184E-1,9.771331E-3,1.123395E-1,-4.683358E-2,5.33604E-2,-1.05838396E-1,-3.602244E-2,-8.2667015E-2,-6.360087E-3,1.1146361E-1,4.3850344E-2,7.9941876E-2,-7.7625886E-2,6.508285E-2,-2.1217028E-2,-7.720904E-2,2.5474286E-2],"categories":[],"categories_nodes":[],"categories_segments":[],"categories_sizes":[],"default_left":[0,0,0,0,0,0,0,0,0,0,0,0,0,0,0,0,0,0,0,0,0,0,0,0,0,0,0,0,0,0,0,0,0,0,0,0,0,0,0,0,0,0,0,0,0,0,0,0,0,0,0,0,0,0,0,0,0,0,0,0,0,0,0,0,0,0,0,0,0,0,0,0,0,0,0,0,0,0,0,0,0,0,0,0,0,0,0,0,0,0,0,0,0,0,0],"id":20,"left_children":[1,3,5,7,9,11,13,15,17,19,21,23,25,27,29,31,33,35,37,39,41,-1,43,45,-1,47,49,51,-1,53,-1,55,57,59,61,63,65,67,69,71,73,75,77,79,-1,-1,-1,81,83,-1,85,87,89,91,93,-1,-1,-1,-1,-1,-1,-1,-1,-1,-1,-1,-1,-1,-1,-1,-1,-1,-1,-1,-1,-1,-1,-1,-1,-1,-1,-1,-1,-1,-1,-1,-1,-1,-1,-1,-1,-1,-1,-1,-1],"loss_changes":[3.8188885E2,4.3637933E2,3.9460297E2,2.2389655E2,3.9159668E2,2.1368698E2,2.3166702E1,1.3509894E2,4.8770943E1,6.0297363E2,5.44292E2,1.2490845E0,2.5668146E2,4.061096E0,5.3876144E1,7.220319E1,1.8959009E2,2.0439606E1,1.1437441E1,3.695277E2,5.997937E1,0E0,3.7440732E2,2.56958E-1,0E0,2.060571E2,1.709372E2,7.9498825E0,0E0,1.5154533E1,0E0,6.3165005E1,9.832928E0,1.4960971E2,1.1921997E0,9.938042E0,1.5733666E1,7.734482E0,8.793182E0,1.5049976E2,4.545372E2,1.01867676E-1,3.3452694E1,1.9352385E2,0E0,0E0,0E0,4.3541077E2,4.3206802E1,0E0,1.4359186E2,5.6433105E-1,1.841433E1,1.1805428E1,1.8923195E1,0E0,0E0,0E0,0E0,0E0,0E0,0E0,0E0,0E0,0E0,0E0,0E0,0E0,0E0,0E0,0E0,0E0,0E0,0E0,0E0,0E0,0E0,0E0,0E0,0E0,0E0,0E0,0E0,0E0,0E0,0E0,0E0,0E0,0E0,0E0,0E0,0E0,0E0,0E0,0E0],"parents":[2147483647,0,0,1,1,2,2,3,3,4,4,5,5,6,6,7,7,8,8,9,9,10,10,11,11,12,12,13,13,14,14,15,15,16,16,17,17,18,18,19,19,20,20,22,22,23,23,25,25,26,26,27,27,29,29,31,31,32,32,33,33,34,34,35,35,36,36,37,37,38,38,39,39,40,40,41,41,42,42,43,43,47,47,48,48,50,50,51,51,52,52,53,53,54,54],"right_children":[2,4,6,8,10,12,14,16,18,20,22,24,26,28,30,32,34,36,38,40,42,-1,44,46,-1,48,50,52,-1,54,-1,56,58,60,62,64,66,68,70,72,74,76,78,80,-1,-1,-1,82,84,-1,86,88,90,92,94,-1,-1,-1,-1,-1,-1,-1,-1,-1,-1,-1,-1,-1,-1,-1,-1,-1,-1,-1,-1,-1,-1,-1,-1,-1,-1,-1,-1,-1,-1,-1,-1,-1,-1,-1,-1,-1,-1,-1,-1],"split_conditions":[2E0,8E0,3E0,2E0,9E0,7E0,8E0,7E0,8E0,9E0,9E0,3E0,8E0,7E0,8E0,2E0,2E0,1E0,1E0,8E0,2E0,1.1367711E-1,1E1,3E0,-4.176889E-2,3E0,1E0,1E0,1.15688935E-1,1E0,1.1743694E-1,1E0,2E0,8E0,3E0,1E0,7E0,1E0,2E0,2E0,1E0,3E0,1E0,1E1,-1.1433419E-1,-1.5346117E-1,-4.4223063E-2,2E0,8E0,1.1684128E-1,9E0,2E0,2E0,2E0,1E0,2.9941604E-2,-7.4103214E-2,1.0754859E-1,2.263002E-2,3.1426813E-2,9.826557E-2,1.482489E-1,4.0121425E-2,-1.4444001E-1,-7.364768E-2,2.3698958E-2,-6.843581E-2,-5.4279488E-2,3.6129102E-2,8.752611E-2,-7.656991E-2,-8.70185E-2,-7.394619E-3,-3.171116E-2,4.4834375E-2,-1.1332665E-1,-6.5913014E-2,-1.9768462E-2,-1.1392184E-1,9.771331E-3,1.123395E-1,-4.683358E-2,5.33604E-2,-1.05838396E-1,-3.602244E-2,-8.2667015E-2,-6.360087E-3,1.1146361E-1,4.3850344E-2,7.9941876E-2,-7.7625886E-2,6.508285E-2,-2.1217028E-2,-7.720904E-2,2.5474286E-2],"split_indices":[38,39,18,37,19,19,39,19,19,39,39,9,39,19,19,15,18,34,34,19,18,0,39,6,0,38,0,11,0,11,0,15,32,19,26,33,39,22,34,18,18,9,37,19,0,0,0,18,19,0,19,21,32,29,31,0,0,0,0,0,0,0,0,0,0,0,0,0,0,0,0,0,0,0,0,0,0,0,0,0,0,0,0,0,0,0,0,0,0,0,0,0,0,0,0],"split_type":[0,0,0,0,0,0,0,0,0,0,0,0,0,0,0,0,0,0,0,0,0,0,0,0,0,0,0,0,0,0,0,0,0,0,0,0,0,0,0,0,0,0,0,0,0,0,0,0,0,0,0,0,0,0,0,0,0,0,0,0,0,0,0,0,0,0,0,0,0,0,0,0,0,0,0,0,0,0,0,0,0,0,0,0,0,0,0,0,0,0,0,0,0,0,0],"sum_hessian":[1.4278597E4,1.0059231E4,4.2193657E3,2.240039E3,7.8191924E3,3.8216306E3,3.9773492E2,2.0068057E3,2.3323341E2,5.003458E3,2.8157341E3,1.499256E2,3.671705E3,1.7097278E2,2.2676215E2,3.0679382E2,1.7000118E3,1.6545108E2,6.7782326E1,4.2189985E3,7.8445966E2,6.000864E2,2.2156477E3,1.48005E2,1.9205871E0,2.1055645E3,1.5661406E3,9.4996765E1,7.597602E1,1.5258322E2,7.417893E1,2.344101E2,7.2383736E1,1.427532E3,2.7247992E2,8.795547E1,7.749561E1,3.5935387E1,3.184694E1,9.9361505E2,3.2253835E3,6.0166254E2,1.8279712E2,1.98638E3,2.2926779E2,1.4681195E2,1.193046E0,1.7416967E3,3.6386786E2,5.140928E1,1.5147313E3,5.1030613E1,4.3966152E1,8.150428E1,7.107894E1,1.04505516E2,1.2990457E2,5.3338673E1,1.9045061E1,8.901963E2,5.3733563E2,2.7057172E2,1.9082047E0,3.739361E1,5.056186E1,2.8965425E1,4.853019E1,1.8508802E1,1.7426584E1,2.8953152E1,2.8937864E0,6.0161566E2,3.919994E2,1.2961427E3,1.9292408E3,5.9647253E2,5.19001E0,1.3035548E2,5.244163E1,1.7822178E3,2.0416222E2,8.090098E2,9.3268677E2,2.0648949E2,1.5737837E2,1.2044835E3,3.1024786E2,4.79663E1,3.06431E0,3.551158E1,8.454571E0,6.0727833E1,2.0776445E1,3.0965525E1,4.0113415E1],"tree_param":{"num_deleted":"0","num_feature":"40","num_nodes":"95","size_leaf_vector":"1"}},{"base_weights":[-5.3219486E-4,-1.15132175E-1,2.0954048E-2,3.6019397E-1,-8.399883E-2,1.1525432E-1,2.2801271E-1,-6.976315E-1,-3.8646944E-3,1.1490955E-1,1.4353311E-1,-1.1560416E-1,-5.3879887E-1,1.0513237E-1,-2.6722682E-1,-7.617532E-2,5.530018E-1,-2.5952038E-1,-7.552046E-1,1.8488448E-2,6.3835317E-1,-6.5002203E-1,-5.7801057E-2,-1.24970905E-1,9.259746E-3,1.2292724E-1,4.7419112E-2,1.7118795E-2,-5.15334E-2,-8.5855834E-2,-9.621903E-3,-5.277893E-3,3.7023183E-2,4.3273818E-2,9.35136E-2,-4.5996625E-2,-9.067144E-2,8.023393E-3,-8.65318E-2],"categories":[],"categories_nodes":[],"categories_segments":[],"categories_sizes":[],"default_left":[0,0,0,0,0,0,0,0,0,0,0,0,0,0,0,0,0,0,0,0,0,0,0,0,0,0,0,0,0,0,0,0,0,0,0,0,0,0,0],"id":21,"left_children":[1,-1,3,5,7,-1,9,11,13,-1,15,-1,17,19,21,23,25,27,29,31,33,35,37,-1,-1,-1,-1,-1,-1,-1,-1,-1,-1,-1,-1,-1,-1,-1,-1],"loss_changes":[3.4566562E2,0E0,4.8864658E2,3.3936346E2,5.1541785E2,0E0,2.1618431E2,8.752905E1,2.6619E2,0E0,2.2926443E2,0E0,5.426004E1,3.0300153E2,2.1756912E2,3.2871402E2,4.684433E1,4.359821E1,3.445764E1,1.4147595E2,5.553723E1,4.6407288E1,1.9576044E2,0E0,0E0,0E0,0E0,0E0,0E0,0E0,0E0,0E0,0E0,0E0,0E0,0E0,0E0,0E0,0E0],"parents":[2147483647,0,0,2,2,3,3,4,4,6,6,7,7,8,8,10,10,12,12,13,13,14,14,15,15,16,16,17,17,18,18,19,19,20,20,21,21,22,22],"right_children":[2,-1,4,6,8,-1,10,12,14,-1,16,-1,18,20,22,24,26,28,30,32,34,36,38,-1,-1,-1,-1,-1,-1,-1,-1,-1,-1,-1,-1,-1,-1,-1,-1],"split_conditions":[1E0,-1.15132175E-1,2E0,1E0,2E0,1.1525432E-1,1E0,1E0,2E0,1.1490955E-1,2E0,-1.1560416E-1,1E0,2E0,2E0,1E0,8E0,1E0,9E0,9E0,1E0,3E0,3E0,-1.24970905E-1,9.259746E-3,1.2292724E-1,4.7419112E-2,1.7118795E-2,-5.15334E-2,-8.5855834E-2,-9.621903E-3,-5.277893E-3,3.7023183E-2,4.3273818E-2,9.35136E-2,-4.5996625E-2,-9.067144E-2,8.023393E-3,-8.65318E-2],"split_indices":[20,0,0,1,20,0,0,21,38,0,20,0,1,18,18,21,19,2,19,19,21,0,38,0,0,0,0,0,0,0,0,0,0,0,0,0,0,0,0],"split_type":[0,0,0,0,0,0,0,0,0,0,0,0,0,0,0,0,0,0,0,0,0,0,0,0,0,0,0,0,0,0,0,0,0,0,0,0,0,0,0],"sum_hessian":[1.3977786E4,2.5523027E2,1.3722557E4,3.24176E3,1.0480796E4,4.623748E2,2.7793853E3,1.2097034E3,9.271093E3,2.3244379E2,2.5469414E3,3.096726E2,9.000307E2,6.557681E3,2.7134116E3,1.6580802E3,8.888614E2,3.9389548E2,5.0613525E2,5.641947E3,9.1573456E2,9.587936E2,1.7546179E3,2.0767079E2,1.4504094E3,9.125019E1,7.9761115E2,1.4689763E2,2.4699785E2,4.372545E2,6.888078E1,4.692118E3,9.4982874E2,5.4240643E2,3.733281E2,5.525074E2,4.062862E2,1.4992418E3,2.5537613E2],"tree_param":{"num_deleted":"0","num_feature":"40","num_nodes":"39","size_leaf_vector":"1"}},{"base_weights":[1.6471957E-3,9.711337E-2,-2.2652309E-1,2.2301048E-1,-2.082382E-1,-3.1359103E-1,6.19369E-1,1.4813654E-1,1.11279E-1,-9.527464E-1,4.5844775E-2,3.441543E-1,-3.947559E-1,5.0463086E-1,1.1486067E-1,4.7417384E-2,6.414239E-1,-1.1136164E-1,-4.456777E-1,1.6459177E-1,-1.1259849E-1,7.7359086E-1,-8.252187E-1,-7.677017E-1,-1.6284062E-1,8.8484156E-1,1.1087678E-1,3.2667997E-1,-9.4125934E-2,4.1454998E-1,1.288005E-1,-2.1908239E-1,-1.11313336E-1,6.932629E-2,1.1068439E-1,3.0923354E-2,1.5248916E0,-1.0781802E0,-4.9862617E-1,-6.469239E-1,-1.6536441E0,3.521051E-1,-4.5897192E-1,6.9324297E-1,1.1339227E-1,-7.250025E-2,7.6411223E-1,6.4219967E-3,8.728394E-2,-7.956092E-2,4.284221E-3,8.6262785E-2,-3.6301368E-3,-4.7506306E-2,1.5378731E-2,-2.5019957E-2,4.5526963E-2,-4.3807883E-2,5.3794842E-2,1.5992947E-1,1.1559033E-1,-1.1538631E-1,-7.461383E-2,-7.233573E-2,1.562664E-2,-1.3424633E-1,-4.7643837E-2,-1.7419574E-1,-1.42027E-1,5.1116105E-2,-2.6556699E-2,-8.130489E-2,-1.7488346E-2,9.877081E-2,3.5074223E-2,6.805993E-3,-1.073425E-1,9.385349E-2,1.8985377E-3],"categories":[],"categories_nodes":[],"categories_segments":[],"categories_sizes":[],"default_left":[0,0,0,0,0,0,0,0,0,0,0,0,0,0,0,0,0,0,0,0,0,0,0,0,0,0,0,0,0,0,0,0,0,0,0,0,0,0,0,0,0,0,0,0,0,0,0,0,0,0,0,0,0,0,0,0,0,0,0,0,0,0,0,0,0,0,0,0,0,0,0,0,0,0,0,0,0,0,0],"id":22,"left_children":[1,3,5,7,9,11,13,15,-1,17,19,21,23,25,-1,27,29,-1,31,33,-1,35,37,39,41,43,45,47,49,51,-1,53,-1,55,-1,57,59,61,63,65,67,69,71,73,-1,75,77,-1,-1,-1,-1,-1,-1,-1,-1,-1,-1,-1,-1,-1,-1,-1,-1,-1,-1,-1,-1,-1,-1,-1,-1,-1,-1,-1,-1,-1,-1,-1,-1],"loss_changes":[2.989509E2,3.7201675E2,2.983593E2,4.5630115E2,5.34491E2,1.9612866E2,2.2383102E1,3.1401883E2,0E0,5.814679E1,2.9342682E2,2.0341489E2,2.8256934E2,4.66949E1,0E0,2.0756319E2,1.566766E2,0E0,2.6195362E1,1.717614E2,0E0,1.6503056E2,8.462791E0,1.3299512E2,3.0766602E2,6.795807E0,1.8585217E1,2.5312364E2,3.3488263E2,1.6059596E2,0E0,1.2648508E1,0E0,2.1464221E2,0E0,3.5858315E1,2.1885376E0,6.6020966E-1,7.385171E0,1.3030121E2,6.107178E-1,7.2524185E1,1.2868375E2,8.969513E0,0E0,1.7194378E1,4.4001083E0,0E0,0E0,0E0,0E0,0E0,0E0,0E0,0E0,0E0,0E0,0E0,0E0,0E0,0E0,0E0,0E0,0E0,0E0,0E0,0E0,0E0,0E0,0E0,0E0,0E0,0E0,0E0,0E0,0E0,0E0,0E0,0E0],"parents":[2147483647,0,0,1,1,2,2,3,3,4,4,5,5,6,6,7,7,9,9,10,10,11,11,12,12,13,13,15,15,16,16,18,18,19,19,21,21,22,22,23,23,24,24,25,25,26,26,27,27,28,28,29,29,31,31,33,33,35,35,36,36,37,37,38,38,39,39,40,40,41,41,42,42,43,43,45,45,46,46],"right_children":[2,4,6,8,10,12,14,16,-1,18,20,22,24,26,-1,28,30,-1,32,34,-1,36,38,40,42,44,46,48,50,52,-1,54,-1,56,-1,58,60,62,64,66,68,70,72,74,-1,76,78,-1,-1,-1,-1,-1,-1,-1,-1,-1,-1,-1,-1,-1,-1,-1,-1,-1,-1,-1,-1,-1,-1,-1,-1,-1,-1,-1,-1,-1,-1,-1,-1],"split_conditions":[2E0,9E0,3E0,9E0,9E0,7E0,8E0,2E0,1.11279E-1,2E0,1E1,3E0,8E0,8E0,1.1486067E-1,8E0,8E0,-1.1136164E-1,1E0,1E1,-1.1259849E-1,2E0,1E0,1E0,8E0,7E0,2E0,8E0,8E0,8E0,1.288005E-1,1E0,-1.11313336E-1,1E0,1.1068439E-1,1E0,2E0,2E0,2E0,2E0,1E0,3E0,2E0,1E0,1.1339227E-1,2E0,2E0,6.4219967E-3,8.728394E-2,-7.956092E-2,4.284221E-3,8.6262785E-2,-3.6301368E-3,-4.7506306E-2,1.5378731E-2,-2.5019957E-2,4.5526963E-2,-4.3807883E-2,5.3794842E-2,1.5992947E-1,1.1559033E-1,-1.1538631E-1,-7.461383E-2,-7.233573E-2,1.562664E-2,-1.3424633E-1,-4.7643837E-2,-1.7419574E-1,-1.42027E-1,5.1116105E-2,-2.6556699E-2,-8.130489E-2,-1.7488346E-2,9.877081E-2,3.5074223E-2,6.805993E-3,-1.073425E-1,9.385349E-2,1.8985377E-3],"split_indices":[38,39,18,19,19,39,19,18,0,18,39,38,19,39,0,39,19,0,37,19,0,18,28,37,39,19,12,19,19,39,0,22,0,18,0,34,35,3,6,18,17,38,18,11,0,32,35,0,0,0,0,0,0,0,0,0,0,0,0,0,0,0,0,0,0,0,0,0,0,0,0,0,0,0,0,0,0,0,0],"split_type":[0,0,0,0,0,0,0,0,0,0,0,0,0,0,0,0,0,0,0,0,0,0,0,0,0,0,0,0,0,0,0,0,0,0,0,0,0,0,0,0,0,0,0,0,0,0,0,0,0,0,0,0,0,0,0,0,0,0,0,0,0,0,0,0,0,0,0,0,0,0,0,0,0,0,0,0,0,0,0],"sum_hessian":[1.3722324E4,9.674923E3,4.0474016E3,6.8506533E3,2.8242693E3,3.670251E3,3.771508E2,6.319999E3,5.3065424E2,7.179115E2,2.1063577E3,4.0279932E2,3.2674517E3,3.1155872E2,6.559208E1,5.2492964E3,1.0707025E3,5.440978E2,1.7381375E2,1.9133306E3,1.930272E2,2.948559E2,1.0794341E2,1.2519176E3,2.015534E3,1.5787079E2,1.5368793E2,1.7652263E3,3.48407E3,7.9380975E2,2.7689276E2,1.3075262E2,4.306113E1,1.7386224E3,1.7470816E2,1.4880348E2,1.4605241E2,5.9531845E1,4.841157E1,1.1032457E3,1.4867189E2,7.3582007E2,1.279714E3,9.13701E1,6.650069E1,1.2069524E2,3.2992695E1,1.1930276E3,5.7219867E2,5.683668E2,2.9157034E3,3.9767142E2,3.9613837E2,7.7365776E1,5.3386845E1,9.5134625E2,7.872761E2,7.7370834E1,7.143265E1,1.18769394E2,2.7283014E1,4.646577E1,1.3066077E1,3.5965282E1,1.2446289E1,2.1583145E2,8.8741425E2,1.03167206E2,4.550468E1,5.8527826E2,1.5054178E2,5.688541E2,7.1085986E2,4.8117363E1,4.325274E1,1.0665031E2,1.4044935E1,2.6524223E1,6.4684725E0],"tree_param":{"num_deleted":"0","num_feature":"40","num_nodes":"79","size_leaf_vector":"1"}},{"base_weights":[2.448687E-3,-1.1317942E-1,2.1745926E-2,3.2671186E-1,-6.929029E-2,1.1358503E-1,2.0146139E-1,-6.33194E-1,3.970568E-4,1.13196485E-1,1.2251867E-1,