{"learner":{"attributes":{"scikit_learn":"{\"_estimator_type\": \"classifier\"}"},"feature_names":[],"feature_types":[],"gradient_booster":{"model":{"gbtree_model_param":{"num_parallel_tree":"1","num_trees":"100"},"iteration_indptr":[0,1,2,3,4,5,6,7,8,9,10,11,12,13,14,15,16,17,18,19,20,21,22,23,24,25,26,27,28,29,30,31,32,33,34,35,36,37,38,39,40,41,42,43,44,45,46,47,48,49,50,51,52,53,54,55,56,57,58,59,60,61,62,63,64,65,66,67,68,69,70,71,72,73,74,75,76,77,78,79,80,81,82,83,84,85,86,87,88,89,90,91,92,93,94,95,96,97,98,99,100],"tree_info":[0,0,0,0,0,0,0,0,0,0,0,0,0,0,0,0,0,0,0,0,0,0,0,0,0,0,0,0,0,0,0,0,0,0,0,0,0,0,0,0,0,0,0,0,0,0,0,0,0,0,0,0,0,0,0,0,0,0,0,0,0,0,0,0,0,0,0,0,0,0,0,0,0,0,0,0,0,0,0,0,0,0,0,0,0,0,0,0,0,0,0,0,0,0,0,0,0,0,0,0],"trees":[{"base_weights":[2.4204233E-3,-2.0003645E-1,6.75378E-2,-1.7986071E-1,7.238453E-1,2.9306374E-2,-1.6875782E0,9.864774E-1,-2.0010515E-1,-7.668794E-2,1.9875401E-1,-1.9909415E-1,-6.406112E-1,1.7096678E0,5.2679694E-1,2.6142016E-1,-7.026695E-1,-7.763752E-2,-1.9965805E-1,1.9858992E-1,8.907815E-1,1.3424277E-1,1.996455E-1,1.5264448E-3,1.3430245E-1,-4.8942145E-2,-1.9961771E-1,-2.648052E-2,1.808367E-1,3.3770215E-2,1.9933222E-1,-3.1696007E-4,1.9933788E-1],"categories":[],"categories_nodes":[],"categories_segments":[],"categories_sizes":[],"default_left":[0,0,0,0,0,0,0,0,0,0,0,0,0,0,0,0,0,0,0,0,0,0,0,0,0,0,0,0,0,0,0,0,0],"id":0,"left_children":[1,-1,3,5,7,9,11,13,-1,15,-1,-1,17,19,21,23,25,27,-1,-1,29,31,-1,-1,-1,-1,-1,-1,-1,-1,-1,-1,-1],"loss_changes":[7.824437E3,0E0,9.43488E3,1.3308505E4,1.1386084E4,7.692375E3,1.6316406E3,4.822663E3,0E0,7.4413438E3,0E0,0E0,8.8268665E2,1.2736113E3,5.11845E3,6.0779663E3,3.4001675E3,2.8931992E2,0E0,0E0,8.6767004E2,1.7891119E3,0E0,0E0,0E0,0E0,0E0,0E0,0E0,0E0,0E0,0E0,0E0],"parents":[2147483647,0,0,2,2,3,3,4,4,5,5,6,6,7,7,9,9,12,12,13,13,14,14,15,15,16,16,17,17,20,20,21,21],"right_children":[2,-1,4,6,8,10,12,14,-1,16,-1,-1,18,20,22,24,26,28,-1,-1,30,32,-1,-1,-1,-1,-1,-1,-1,-1,-1,-1,-1],"split_conditions":[1E0,-2.0003645E-1,6E0,6E0,7E0,3E0,2E0,6E0,-2.0010515E-1,2E0,1.9875401E-1,-1.9909415E-1,2E0,2E0,7E0,2E0,3E0,3E0,-1.9965805E-1,1.9858992E-1,2E0,2E0,1.996455E-1,1.5264448E-3,1.3430245E-1,-4.8942145E-2,-1.9961771E-1,-2.648052E-2,1.808367E-1,3.3770215E-2,1.9933222E-1,-3.1696007E-4,1.9933788E-1],"split_indices":[20,0,19,39,39,18,18,39,0,38,0,0,38,38,19,18,38,0,0,0,18,18,0,0,0,0,0,0,0,0,0,0,0],"split_type":[0,0,0,0,0,0,0,0,0,0,0,0,0,0,0,0,0,0,0,0,0,0,0,0,0,0,0,0,0,0,0,0,0],"sum_hessian":[5.9993906E4,1.8882471E3,5.810566E4,4.2199184E4,1.5906476E4,3.705894E4,5.140242E3,1.4508728E4,1.3977478E3,3.5156945E4,1.9019971E3,3.984744E3,1.1554982E3,5.637241E3,8.871486E3,2.2827715E4,1.232923E4,8.172487E2,3.3824948E2,4.2142437E3,1.4229978E3,7.0022393E3,1.8692471E3,1.859647E4,4.2312437E3,1.0585483E4,1.7437473E3,7.4424884E2,7.2999886E1,9.4849854E2,4.7449927E2,6.5212397E3,4.8099927E2],"tree_param":{"num_deleted":"0","num_feature":"40","num_nodes":"33","size_leaf_vector":"1"}},{"base_weights":[-5.709224E-4,1.8888783E-1,-6.121189E-2,-6.8323386E-1,1.6889815E-1,-1.8187039E-1,-5.279523E-1,1.1387826E0,-9.518233E-4,-8.978356E-3,-1.1422997E0,1.1931951E0,-1.7965756E-1,5.665885E-2,-1.8149225E-1,1.8817972E-1,-1.3935399E-1,-1.893711E-1,-1.0114019E0,1.8818563E-1,1.0699095E0,2.0674692E-1,-7.247557E-1,-1.9006579E-1,-1.2919306E-3,-9.440949E-2,-1.8162741E-1,1.24687724E-1,5.1215835E-2,2.5778934E-2,-1.2275594E-1,-5.9877157E-2,-1.8133503E-1],"categories":[],"categories_nodes":[],"categories_segments":[],"categories_sizes":[],"default_left":[0,0,0,0,0,0,0,0,0,0,0,0,0,0,0,0,0,0,0,0,0,0,0,0,0,0,0,0,0,0,0,0,0],"id":1,"left_children":[1,-1,3,5,7,-1,9,11,13,15,17,19,-1,21,-1,-1,23,-1,25,-1,27,29,31,-1,-1,-1,-1,-1,-1,-1,-1,-1,-1],"loss_changes":[6.853312E3,0E0,8.295201E3,2.7584067E3,6.969029E3,0E0,4.389851E3,1.0090923E3,3.762358E3,1.8403868E3,6.182285E2,5.235586E2,0E0,4.0925337E3,0E0,0E0,1.5552621E3,0E0,2.8929102E2,0E0,5.178247E2,2.1433594E3,7.700127E2,0E0,0E0,0E0,0E0,0E0,0E0,0E0,0E0,0E0,0E0],"parents":[2147483647,0,0,2,2,3,3,4,4,6,6,7,7,8,8,9,9,10,10,11,11,13,13,16,16,18,18,20,20,21,21,22,22],"right_children":[2,-1,4,6,8,-1,10,12,14,16,18,20,-1,22,-1,-1,24,-1,26,-1,28,30,32,-1,-1,-1,-1,-1,-1,-1,-1,-1,-1],"split_conditions":[1E0,1.8888783E-1,2E0,1E0,2E0,-1.8187039E-1,2E0,3E0,3E0,1E0,1E0,1E0,-1.7965756E-1,6E0,-1.8149225E-1,1.8817972E-1,1E0,-1.893711E-1,7E0,1.8818563E-1,6E0,2E0,3E0,-1.9006579E-1,-1.2919306E-3,-9.440949E-2,-1.8162741E-1,1.24687724E-1,5.1215835E-2,2.5778934E-2,-1.2275594E-1,-5.9877157E-2,-1.8133503E-1],"split_indices":[0,0,20,20,0,0,0,38,38,1,21,1,0,39,0,0,21,0,39,0,39,37,20,0,0,0,0,0,0,0,0,0,0],"split_type":[0,0,0,0,0,0,0,0,0,0,0,0,0,0,0,0,0,0,0,0,0,0,0,0,0,0,0,0,0,0,0,0,0],"sum_hessian":[5.981148E4,1.8589897E3,5.795249E4,1.56489795E4,4.230351E4,1.8813339E3,1.37676455E4,6.3034688E3,3.6000043E4,7.463674E3,6.303972E3,6.1893315E3,1.1413747E2,3.4892832E4,1.1072078E3,4.8058246E2,6.9830913E3,9.332481E2,5.370724E3,9.376193E2,5.251712E3,2.9271354E4,5.62148E3,4.667652E2,6.516326E3,4.958264E3,4.1245966E2,3.9858225E3,1.2658895E3,2.8266266E4,1.00508704E3,5.0397725E3,5.8170776E2],"tree_param":{"num_deleted":"0","num_feature":"40","num_nodes":"33","size_leaf_vector":"1"}},{"base_weights":[-8.924732E-4,-5.847005E-2,1.7748563E-1,-2.882662E-1,5.077791E-1,-8.907845E-1,-1.1484318E-1,-1.6824526E-1,6.381381E-1,-9.49028E-1,8.5487634E-1,-3.2103252E-1,3.322772E-1,4.9235442E-1,1.7548133E-1,-1.2736725E0,-5.3538495E-1,3.0297834E-1,1.2770522E0,-4.154095E-1,1.294469E0,4.78951E-2,8.589857E-1,4.0331677E-1,1.7410074E-1,-1.2892799E-1,6.217901E-2,-1.6785355E-1,-3.7895128E-2,6.7533264E-3,8.3829425E-2,6.2123496E-2,1.8673474E-1,-9.9390805E-2,-1.4271733E-2,1.476054E-1,1.094759E-1,-2.2943147E-2,4.052339E-2,5.9378713E-2,1.2048186E-1,-8.009115E-4,7.021E-2],"categories":[],"categories_nodes":[],"categories_segments":[],"categories_sizes":[],"default_left":[0,0,0,0,0,0,0,0,0,0,0,0,0,0,0,0,0,0,0,0,0,0,0,0,0,0,0,0,0,0,0,0,0,0,0,0,0,0,0,0,0,0,0],"id":2,"left_children":[1,3,-1,5,7,9,11,-1,13,15,17,19,21,23,-1,25,27,29,31,33,35,37,39,41,-1,-1,-1,-1,-1,-1,-1,-1,-1,-1,-1,-1,-1,-1,-1,-1,-1,-1,-1],"loss_changes":[6.0858755E3,7.5022E3,0E0,4.2852188E3,4.753058E3,9.3274316E2,2.9360933E3,0E0,2.5564946E3,1.1905068E3,6.8690216E1,3.3237053E3,1.5055403E3,1.544283E3,0E0,1.4780469E2,6.972024E2,1.630373E1,6.374771E1,3.248575E3,4.2020264E1,6.4704895E2,3.2250195E2,1.5943447E3,0E0,0E0,0E0,0E0,0E0,0E0,0E0,0E0,0E0,0E0,0E0,0E0,0E0,0E0,0E0,0E0,0E0,0E0,0E0],"parents":[2147483647,0,0,1,1,3,3,4,4,5,5,6,6,8,8,9,9,10,10,11,11,12,12,13,13,15,15,16,16,17,17,18,18,19,19,20,20,21,21,22,22,23,23],"right_children":[2,4,-1,6,8,10,12,-1,14,16,18,20,22,24,-1,26,28,30,32,34,36,38,40,42,-1,-1,-1,-1,-1,-1,-1,-1,-1,-1,-1,-1,-1,-1,-1,-1,-1,-1,-1],"split_conditions":[3E0,6E0,1.7748563E-1,2E0,1E0,2E0,2E0,-1.6824526E-1,7E0,2E0,1E0,2E0,5E0,2E0,1.7548133E-1,3E0,1E0,2E0,5E0,5E0,1E0,1E0,1E0,2E0,1.7410074E-1,-1.2892799E-1,6.217901E-2,-1.6785355E-1,-3.7895128E-2,6.7533264E-3,8.3829425E-2,6.2123496E-2,1.8673474E-1,-9.9390805E-2,-1.4271733E-2,1.476054E-1,1.094759E-1,-2.2943147E-2,4.052339E-2,5.9378713E-2,1.2048186E-1,-8.009115E-4,7.021E-2],"split_indices":[18,19,0,20,20,17,18,0,19,18,18,17,19,18,0,15,20,14,19,19,11,36,36,20,0,0,0,0,0,0,0,0,0,0,0,0,0,0,0,0,0,0,0],"split_type":[0,0,0,0,0,0,0,0,0,0,0,0,0,0,0,0,0,0,0,0,0,0,0,0,0,0,0,0,0,0,0,0,0,0,0,0,0,0,0,0,0,0,0],"sum_hessian":[5.952144E4,5.7653043E4,1.868398E3,4.1010562E4,1.664248E4,9.164943E3,3.1845617E4,9.3422095E2,1.5708261E4,8.869473E3,2.9547113E2,2.17951E4,1.0050518E4,1.3895608E4,1.8126523E3,4.968167E3,3.9013057E3,1.2880534E2,1.666658E2,2.0592818E4,1.2022816E3,6.527344E3,3.5231736E3,1.2971941E4,9.236666E2,4.92791E3,4.0256695E1,4.6843713E2,3.4328684E3,9.024121E1,3.8564137E1,7.992341E1,8.674239E1,6.5963823E3,1.3996437E4,6.2636926E2,5.759124E2,3.6753247E3,2.8520195E3,1.9955907E3,1.5275828E3,5.4584414E3,7.5134995E3],"tree_param":{"num_deleted":"0","num_feature":"40","num_nodes":"43","size_leaf_vector":"1"}},{"base_weights":[-6.57452E-4,1.8936116E-1,-4.9346796E-1,4.756466E-3,1.4408684E0,-7.4980557E-1,1.6341575E0,9.039429E-2,-1.6970216E-1,1.717761E-1,6.324382E-1,-1.4445791E0,-3.376678E-1,1.6155748E-1,1.7219234E-1,4.5952353E-1,-1.9431157E-1,2.2723489E-1,1.7879382E-1,-1.7025852E-1,-1.1849211E0,-2.6637285E-3,-1.7060588E-1,1.6925964E-1,1.0431654E0,-8.4315425E-1,5.6108452E-2,1.609033E-1,2.6731251E-3,-1.0201706E0,-1.6891432E-1,1.197812E-1,-1.8434517E-1,2.616486E-2,-1.5747178E-1,1.4651246E-1,5.4053158E-2,-1.5988618E-1,-5.9432656E-2,2.3926606E-2,-4.792885E-2,-3.3933688E-2,6.1047E-2,-6.529713E-2,-1.3977681E-1,1.7567414E-1,2.3658632E-4],"categories":[],"categories_nodes":[],"categories_segments":[],"categories_sizes":[],"default_left":[0,0,0,0,0,0,0,0,0,0,0,0,0,0,0,0,0,0,0,0,0,0,0,0,0,0,0,0,0,0,0,0,0,0,0,0,0,0,0,0,0,0,0,0,0,0,0],"id":3,"left_children":[1,3,5,7,9,11,13,15,-1,-1,17,19,21,-1,-1,23,25,27,-1,-1,29,31,-1,33,35,37,39,-1,41,43,-1,45,-1,-1,-1,-1,-1,-1,-1,-1,-1,-1,-1,-1,-1,-1,-1],"loss_changes":[5.537424E3,9.859967E3,8.975994E3,5.4204736E3,1.2269404E3,4.20501E3,1.0498047E-1,3.7216084E3,0E0,0E0,6.5564844E2,3.6430957E2,4.2265244E3,0E0,0E0,2.612114E3,3.248521E3,3.2225574E2,0E0,0E0,2.2494556E2,1.6698563E3,0E0,1.6599036E3,1.0854238E3,1.0459629E3,1.414777E3,0E0,1.8612099E2,2.8459644E2,0E0,1.335148E3,0E0,0E0,0E0,0E0,0E0,0E0,0E0,0E0,0E0,0E0,0E0,0E0,0E0,0E0,0E0],"parents":[2147483647,0,0,1,1,2,2,3,3,4,4,5,5,6,6,7,7,10,10,11,11,12,12,15,15,16,16,17,17,20,20,21,21,23,23,24,24,25,25,26,26,28,28,29,29,31,31],"right_children":[2,4,6,8,10,12,14,16,-1,-1,18,20,22,-1,-1,24,26,28,-1,-1,30,32,-1,34,36,38,40,-1,42,44,-1,46,-1,-1,-1,-1,-1,-1,-1,-1,-1,-1,-1,-1,-1,-1,-1],"split_conditions":[6E0,6E0,7E0,3E0,2E0,6E0,2E0,5E0,-1.6970216E-1,1.717761E-1,1E0,1E0,7E0,1.6155748E-1,1.7219234E-1,5E0,5E0,1E0,1.7879382E-1,-1.7025852E-1,1E0,2E0,-1.7060588E-1,2E0,2E0,1E0,2E0,1.609033E-1,1E0,1E0,-1.6891432E-1,1E0,-1.8434517E-1,2.616486E-2,-1.5747178E-1,1.4651246E-1,5.4053158E-2,-1.5988618E-1,-5.9432656E-2,2.3926606E-2,-4.792885E-2,-3.3933688E-2,6.1047E-2,-6.529713E-2,-1.3977681E-1,1.7567414E-1,2.3658632E-4],"split_indices":[39,19,19,38,38,19,0,39,0,0,17,38,39,0,0,19,19,0,0,0,17,38,0,37,38,38,38,0,36,16,0,0,0,0,0,0,0,0,0,0,0,0,0,0,0,0,0],"split_type":[0,0,0,0,0,0,0,0,0,0,0,0,0,0,0,0,0,0,0,0,0,0,0,0,0,0,0,0,0,0,0,0,0,0,0,0,0,0,0,0,0,0,0,0,0,0,0],"sum_hessian":[5.9131242E4,4.2676566E4,1.6454678E4,3.719159E4,5.4849746E3,1.4685952E4,1.768725E3,3.5410586E4,1.7810043E3,4.0847844E3,1.4001904E3,5.4671084E3,9.218845E3,1.4756831E3,2.9304178E2,1.5418913E4,1.9991674E4,1.0375468E3,3.6264362E2,2.7394893E3,2.727619E3,7.4065933E3,1.812251E3,1.0298451E4,5.1204614E3,5.566474E3,1.4425199E4,1.4418242E2,8.933643E2,2.058156E3,6.694629E2,6.945528E3,4.6106543E2,9.781136E3,5.1731555E2,2.7825806E3,2.3378809E3,1.3774956E3,4.1889785E3,1.0748667E4,3.676532E3,5.7196106E2,3.2140332E2,1.044829E3,1.01332715E3,4.6390988E2,6.481618E3],"tree_param":{"num_deleted":"0","num_feature":"40","num_nodes":"47","size_leaf_vector":"1"}},{"base_weights":[3.2311273E-3,-5.0370704E-2,1.6543362E-1,1.3368882E-1,-5.76293E-1,4.264027E-1,-3.8076803E-1,-1.0729166E0,-2.7278763E-1,5.118074E-1,-1.0812638E0,1.5640464E-1,-4.9683395E-1,1.6573952E-1,-1.132724E0,3.5621148E-2,-1.587249E-1,-6.414401E-2,7.0731777E-1,3.8584605E-1,-1.3947176E0,-3.454456E-1,-1.595911E0,-6.286537E-1,-1.3108016E0,4.8654613E-1,-4.2588142E-1,4.2860035E-2,-7.258669E-2,1.22868076E-1,5.594313E-2,1.08453035E-1,-1.1862947E-3,-1.5525034E-1,-1.2091464E-1,1.3336748E-3,-6.0131826E-2,-1.4840312E-1,-1.6300224E-1,1.615677E-1,-7.809865E-2,-1.1294265E-1,-1.589476E-1,1.7012818E-1,3.1203154E-2,1.7109369E-1,-5.6544174E-2],"categories":[],"categories_nodes":[],"categories_segments":[],"categories_sizes":[],"default_left":[0,0,0,0,0,0,0,0,0,0,0,0,0,0,0,0,0,0,0,0,0,0,0,0,0,0,0,0,0,0,0,0,0,0,0,0,0,0,0,0,0,0,0,0,0,0,0],"id":4,"left_children":[1,3,-1,5,7,9,11,13,15,17,19,-1,21,-1,23,25,-1,27,29,31,33,35,37,39,41,43,45,-1,-1,-1,-1,-1,-1,-1,-1,-1,-1,-1,-1,-1,-1,-1,-1,-1,-1,-1,-1],"loss_changes":[5.182864E3,5.4906904E3,0E0,6.327426E3,2.216123E3,3.4488281E3,3.4403103E3,9.126406E2,3.700581E3,2.8540347E3,6.609193E2,0E0,2.3921333E3,0E0,4.8915137E2,1.53903E3,0E0,2.0949631E3,1.4582568E3,7.047642E1,3.277417E1,1.1604413E3,4.224121E0,4.89094E2,2.0203174E2,7.924335E2,1.0909235E3,0E0,0E0,0E0,0E0,0E0,0E0,0E0,0E0,0E0,0E0,0E0,0E0,0E0,0E0,0E0,0E0,0E0,0E0,0E0,0E0],"parents":[2147483647,0,0,1,1,3,3,4,4,5,5,6,6,7,7,8,8,9,9,10,10,12,12,14,14,15,15,17,17,18,18,19,19,20,20,21,21,22,22,23,23,24,24,25,25,26,26],"right_children":[2,4,-1,6,8,10,12,14,16,18,20,-1,22,-1,24,26,-1,28,30,32,34,36,38,40,42,44,46,-1,-1,-1,-1,-1,-1,-1,-1,-1,-1,-1,-1,-1,-1,-1,-1,-1,-1,-1,-1],"split_conditions":[3E0,2E0,1.6543362E-1,6E0,2E0,2E0,1E0,1E0,3E0,1E0,1E0,1.5640464E-1,7E0,1.6573952E-1,2E0,5E0,-1.587249E-1,1E0,2E0,5E0,1E0,2E0,1E0,1E0,5E0,2E0,1E0,4.2860035E-2,-7.258669E-2,1.22868076E-1,5.594313E-2,1.08453035E-1,-1.1862947E-3,-1.5525034E-1,-1.2091464E-1,1.3336748E-3,-6.0131826E-2,-1.4840312E-1,-1.6300224E-1,1.615677E-1,-7.809865E-2,-1.1294265E-1,-1.589476E-1,1.7012818E-1,3.1203154E-2,1.7109369E-1,-5.6544174E-2],"split_indices":[18,38,0,39,18,37,0,0,38,38,18,0,39,0,0,39,0,18,0,39,31,0,20,1,39,0,0,0,0,0,0,0,0,0,0,0,0,0,0,0,0,0,0,0,0,0,0],"split_type":[0,0,0,0,0,0,0,0,0,0,0,0,0,0,0,0,0,0,0,0,0,0,0,0,0,0,0,0,0,0,0,0,0,0,0,0,0,0,0,0,0,0,0,0,0,0,0],"sum_hessian":[5.8560004E4,5.6719617E4,1.8403885E3,4.2015867E4,1.4703747E4,2.6779268E4,1.5236602E4,5.5764727E3,9.127274E3,2.5344254E4,1.4350137E3,8.574016E2,1.43792E4,1.18961655E2,5.4575107E3,7.393524E3,1.7337511E3,6.4231265E3,1.8921127E4,2.5258186E2,1.1824318E3,1.2639529E4,1.7396715E3,1.4258888E3,4.031622E3,3.73959E3,3.6539336E3,3.6818396E3,2.741287E3,4.1794546E3,1.4741672E4,9.0995865E1,1.61586E2,6.35078E2,5.473538E2,5.2620615E3,7.3774673E3,4.1687878E2,1.3227927E3,9.0019424E1,1.3358693E3,2.44521E3,1.5864122E3,4.686602E2,3.27093E3,2.2332521E2,3.4306084E3],"tree_param":{"num_deleted":"0","num_feature":"40","num_nodes":"47","size_leaf_vector":"1"}},{"base_weights":[1.6572204E-3,-4.6762392E-2,1.552503E-1,-2.408145E-1,4.4369966E-1,-7.8503597E-1,-9.276151E-2,-1.4836209E-1,5.5148184E-1,-1.4314E0,-6.1611766E-1,2.5760123E-1,-6.122477E-1,4.298251E-1,1.5295812E0,-1.4747889E0,-9.4897115E-1,-1.4568437E0,-4.2579114E-1,2.3198565E-2,8.983494E-1,-1.1500858E0,-3.528789E-1,3.4819174E-1,1.6026926E0,1.4092155E-1,1.5638742E-1,-1.3932559E-1,-1.5900539E-1,-6.5468475E-2,-1.2286859E-1,-1.5049532E-1,-1.394099E-1,-4.9363296E-2,1.908778E-1,8.496564E-2,-2.2933757E-2,2.26584E-2,1.13160945E-1,-1.4508592E-1,-9.9845275E-2,-7.5645433E-3,-1.5024257E-1,2.8204799E-2,1.7376725E-1,1.4008664E-1,1.660872E-1],"categories":[],"categories_nodes":[],"categories_segments":[],"categories_sizes":[],"default_left":[0,0,0,0,0,0,0,0,0,0,0,0,0,0,0,0,0,0,0,0,0,0,0,0,0,0,0,0,0,0,0,0,0,0,0,0,0,0,0,0,0,0,0,0,0,0,0],"id":5,"left_children":[1,3,-1,5,7,9,11,-1,13,15,17,19,21,23,25,27,29,31,33,35,37,39,41,43,45,-1,-1,-1,-1,-1,-1,-1,-1,-1,-1,-1,-1,-1,-1,-1,-1,-1,-1,-1,-1,-1,-1],"loss_changes":[4.344565E3,5.3399497E3,0E0,3.2390505E3,3.3049033E3,9.3780566E2,5.7524316E3,0E0,1.7918384E3,3.587085E1,1.0903215E3,2.8349192E3,1.7754233E3,1.282325E3,4.6728516E0,1.3120117E1,1.1520767E1,1.6994629E0,8.8165875E2,2.8847239E3,7.919331E2,1.8742188E2,2.7374077E3,1.1509309E3,7.907959E0,0E0,0E0,0E0,0E0,0E0,0E0,0E0,0E0,0E0,0E0,0E0,0E0,0E0,0E0,0E0,0E0,0E0,0E0,0E0,0E0,0E0,0E0],"parents":[2147483647,0,0,1,1,3,3,4,4,5,5,6,6,8,8,9,9,10,10,11,11,12,12,13,13,14,14,15,15,16,16,17,17,18,18,19,19,20,20,21,21,22,22,23,23,24,24],"right_children":[2,4,-1,6,8,10,12,-1,14,16,18,20,22,24,26,28,30,32,34,36,38,40,42,44,46,-1,-1,-1,-1,-1,-1,-1,-1,-1,-1,-1,-1,-1,-1,-1,-1,-1,-1,-1,-1,-1,-1],"split_conditions":[3E0,6E0,1.552503E-1,1E0,1E0,5E0,2E0,-1.4836209E-1,7E0,4E0,2E0,2E0,2E0,2E0,1E0,1E0,1E0,1E0,4E0,1E0,2E0,5E0,3E0,3E0,1E0,1.4092155E-1,1.5638742E-1,-1.3932559E-1,-1.5900539E-1,-6.5468475E-2,-1.2286859E-1,-1.5049532E-1,-1.394099E-1,-4.9363296E-2,1.908778E-1,8.496564E-2,-2.2933757E-2,2.26584E-2,1.13160945E-1,-1.4508592E-1,-9.9845275E-2,-7.5645433E-3,-1.5024257E-1,2.8204799E-2,1.7376725E-1,1.4008664E-1,1.660872E-1],"split_indices":[18,19,0,38,20,19,38,0,19,0,20,18,18,18,0,11,11,31,0,18,20,19,38,0,0,0,0,0,0,0,0,0,0,0,0,0,0,0,0,0,0,0,0,0,0,0,0],"split_type":[0,0,0,0,0,0,0,0,0,0,0,0,0,0,0,0,0,0,0,0,0,0,0,0,0,0,0,0,0,0,0,0,0,0,0,0,0,0,0,0,0,0,0,0,0,0,0],"sum_hessian":[5.7855094E4,5.6104406E4,1.7506896E3,4.0199797E4,1.5904607E4,8.596394E3,3.1603404E4,8.416567E2,1.506295E4,1.7795382E3,6.816855E3,1.8874305E4,1.2729099E4,1.3397943E4,1.6650074E3,1.6308086E3,1.4872963E2,1.2571248E3,5.5597305E3,1.3819721E4,5.054584E3,4.140256E3,8.588843E3,1.252732E4,8.7062335E2,3.7852097E2,1.2864865E3,9.6283295E2,6.679757E2,7.4104836E1,7.4624794E1,6.985372E2,5.585876E2,5.403495E3,1.5623529E2,3.2339214E3,1.05858E4,1.3032697E3,3.7513145E3,1.3848179E3,2.7554382E3,6.920829E3,1.668014E3,1.1959226E4,5.680946E2,2.0042377E2,6.701996E2],"tree_param":{"num_deleted":"0","num_feature":"40","num_nodes":"47","size_leaf_vector":"1"}},{"base_weights":[-3.0769396E-3,1.6348472E-1,-4.4476295E-1,4.4144145E-3,1.2814691E0,-6.574945E-1,1.4550953E-1,-6.6501886E-2,1.4705323E-1,1.5358259E-1,5.563842E-1,-1.2930359E0,-2.900137E-1,1.8113372E-1,-5.252998E-1,1.3942382E-1,1.508331E-1,-1.5312731E0,-6.1564827E-1,-1.2278234E-2,-1.5071772E0,-5.2253795E-3,1.0334909E0,-1.0554072E0,-2.5680473E-1,3.1293508E-1,-1.6961013E0,-1.4873762E0,-1.566456E-1,-1.4054275E-1,-1.594378E-1,8.8643186E-2,-1.6260293E0,-1.3588214E-1,-1.5502532E-1,5.705298E-2,-3.1534296E-2,7.454185E-2,1.619508E-1,-7.774588E-2,-1.6254197E-1,2.734075E-3,-1.4307939E-1,-1.2525731E-3,8.489465E-2,-1.8312363E-1,-1.2212012E-1,-1.4556353E-1,-1.5342903E-1,8.224623E-2,-1.6968992E-1,1.6818916E-2,-1.6765304E-1,-1.369209E-1,-1.6959578E-1],"categories":[],"categories_nodes":[],"categories_segments":[],"categories_sizes":[],"default_left":[0,0,0,0,0,0,0,0,0,0,0,0,0,0,0,0,0,0,0,0,0,0,0,0,0,0,0,0,0,0,0,0,0,0,0,0,0,0,0,0,0,0,0,0,0,0,0,0,0,0,0,0,0,0,0],"id":6,"left_children":[1,3,5,7,9,11,-1,13,-1,-1,15,17,19,21,23,25,-1,27,29,31,33,35,37,39,41,43,45,47,-1,49,-1,51,53,-1,-1,-1,-1,-1,-1,-1,-1,-1,-1,-1,-1,-1,-1,-1,-1,-1,-1,-1,-1,-1,-1],"loss_changes":[4.217156E3,7.402677E3,6.3451816E3,3.789035E3,9.554053E2,3.2967183E3,0E0,3.9495242E3,0E0,0E0,5.348727E2,8.3369727E2,3.024309E3,3.5862217E3,1.7341355E3,2.9944766E2,0E0,3.5791016E0,6.262987E2,1.1866384E3,8.515625E0,3.3082637E3,6.825947E2,6.477749E2,2.6987712E3,1.497497E2,2.9756927E0,3.305664E-1,0E0,1.3625079E3,0E0,9.6315015E2,5.3796387E0,0E0,0E0,0E0,0E0,0E0,0E0,0E0,0E0,0E0,0E0,0E0,0E0,0E0,0E0,0E0,0E0,0E0,0E0,0E0,0E0,0E0,0E0],"parents":[2147483647,0,0,1,1,2,2,3,3,4,4,5,5,7,7,10,10,11,11,12,12,13,13,14,14,15,15,17,17,18,18,19,19,20,20,21,21,22,22,23,23,24,24,25,25,26,26,27,27,29,29,31,31,32,32],"right_children":[2,4,6,8,10,12,-1,14,-1,-1,16,18,20,22,24,26,-1,28,30,32,34,36,38,40,42,44,46,48,-1,50,-1,52,54,-1,-1,-1,-1,-1,-1,-1,-1,-1,-1,-1,-1,-1,-1,-1,-1,-1,-1,-1,-1,-1,-1],"split_conditions":[6E0,6E0,7E0,3E0,2E0,6E0,1.4550953E-1,2E0,1.4705323E-1,1.5358259E-1,2E0,2E0,7E0,2E0,2E0,3E0,1.508331E-1,2E0,2E0,2E0,1E0,5E0,5E0,5E0,3E0,1E0,2E0,1E0,-1.566456E-1,1E0,-1.594378E-1,3E0,1E0,-1.3588214E-1,-1.5502532E-1,5.705298E-2,-3.1534296E-2,7.454185E-2,1.619508E-1,-7.774588E-2,-1.6254197E-1,2.734075E-3,-1.4307939E-1,-1.2525731E-3,8.489465E-2,-1.8312363E-1,-1.2212012E-1,-1.4556353E-1,-1.5342903E-1,8.224623E-2,-1.6968992E-1,1.6818916E-2,-1.6765304E-1,-1.369209E-1,-1.6959578E-1],"split_indices":[39,19,19,18,38,19,0,38,0,0,18,18,39,18,18,20,0,20,38,38,20,39,19,39,38,36,6,38,0,37,0,20,20,0,0,0,0,0,0,0,0,0,0,0,0,0,0,0,0,0,0,0,0,0,0],"split_type":[0,0,0,0,0,0,0,0,0,0,0,0,0,0,0,0,0,0,0,0,0,0,0,0,0,0,0,0,0,0,0,0,0,0,0,0,0,0,0,0,0,0,0,0,0,0,0,0,0,0,0,0,0,0,0],"sum_hessian":[5.732128E4,4.162496E4,1.5696319E4,3.6441023E4,5.1839385E3,1.4116334E4,1.5799849E3,3.47606E4,1.6804199E3,3.8368645E3,1.3470739E3,5.1709287E3,8.945405E3,2.2575895E4,1.2184707E4,9.375609E2,4.0951288E2,3.8245679E3,1.3463611E3,7.284272E3,1.6611335E3,1.8526305E4,4.049591E3,4.095588E3,8.089119E3,8.5734595E2,8.021497E1,1.7208174E3,2.1037505E3,9.0714746E2,4.3921365E2,6.856427E3,4.2784497E2,3.8111087E2,1.2800226E3,6.485211E3,1.2041093E4,2.716496E3,1.3330951E3,2.754707E3,1.340881E3,6.5135854E3,1.5755336E3,5.340517E2,3.2329428E2,6.0222374E1,1.99926E1,1.0454899E3,6.7532745E2,5.6068915E2,3.4645828E2,6.561637E3,2.9478964E2,9.5968895E1,3.3187607E2],"tree_param":{"num_deleted":"0","num_feature":"40","num_nodes":"55","size_leaf_vector":"1"}},{"base_weights":[-1.955338E-3,1.4801825E0,-4.4389002E-2,1.6315808E0,1.4232615E0,1.2194103E-1,-5.0545365E-1,1.7010902E-1,1.3573192E-1,1.4696445E0,1.3061751E-1,-1.4668533E-2,1.1876179E0,-6.715E-1,1.4174317E-1,1.5116467E-1,1.3205747E-1,-7.708679E-2,1.408046E-1,1.459363E-1,3.538339E-1,-1.2138891E0,-3.50038E-1,1.4984806E-1,-5.0217557E-1,-7.1672164E-2,1.4764112E-1,-1.454673E0,-5.53935E-1,-1.0309552E-1,-1.436576E0,6.44473E-2,-1.1544055E-2,-9.804215E-2,-2.5921443E-2,8.770678E-3,-1.5293805E-1,-1.4169456E-1,-1.4845304E-1,-1.2350583E-2,-1.5072599E-1,-1.8086618E-2,1.7106558E-1,-1.3126187E-1,-1.4718264E-1],"categories":[],"categories_nodes":[],"categories_segments":[],"categories_sizes":[],"default_left":[0,0,0,0,0,0,0,0,0,0,0,0,0,0,0,0,0,0,0,0,0,0,0,0,0,0,0,0,0,0,0,0,0,0,0,0,0,0,0,0,0,0,0,0,0],"id":7,"left_children":[1,3,5,7,9,11,13,-1,-1,15,-1,17,19,21,-1,-1,-1,23,-1,-1,25,27,29,31,33,35,-1,37,39,41,43,-1,-1,-1,-1,-1,-1,-1,-1,-1,-1,-1,-1,-1,-1],"loss_changes":[3.542703E3,1.1188721E1,4.199667E3,5.727661E0,4.311035E0,5.8588667E3,4.6364297E3,0E0,0E0,3.098999E0,0E0,3.1679592E3,1.0355679E3,2.32983E3,0E0,0E0,0E0,3.2967847E3,0E0,0E0,5.376364E2,7.8943506E2,2.251748E3,2.9237266E3,1.3818293E3,1.8994101E2,0E0,2.0004883E0,5.4597034E2,9.650885E2,4.8588867E0,0E0,0E0,0E0,0E0,0E0,0E0,0E0,0E0,0E0,0E0,0E0,0E0,0E0,0E0],"parents":[2147483647,0,0,1,1,2,2,3,3,4,4,5,5,6,6,9,9,11,11,12,12,13,13,17,17,20,20,21,21,22,22,23,23,24,24,25,25,27,27,28,28,29,29,30,30],"right_children":[2,4,6,8,10,12,14,-1,-1,16,-1,18,20,22,-1,-1,-1,24,-1,-1,26,28,30,32,34,36,-1,38,40,42,44,-1,-1,-1,-1,-1,-1,-1,-1,-1,-1,-1,-1,-1,-1],"split_conditions":[1E0,6E0,6E0,3E0,7E0,6E0,7E0,1.7010902E-1,1.3573192E-1,2E0,1.3061751E-1,3E0,2E0,6E0,1.4174317E-1,1.5116467E-1,1.3205747E-1,2E0,1.408046E-1,1.459363E-1,2E0,2E0,7E0,5E0,2E0,3E0,1.4764112E-1,2E0,2E0,3E0,1E0,6.44473E-2,-1.1544055E-2,-9.804215E-2,-2.5921443E-2,8.770678E-3,-1.5293805E-1,-1.4169456E-1,-1.4845304E-1,-1.2350583E-2,-1.5072599E-1,-1.8086618E-2,1.7106558E-1,-1.3126187E-1,-1.4718264E-1],"split_indices":[0,19,39,18,19,19,19,0,0,18,0,18,38,19,0,0,0,38,0,0,18,18,39,39,18,20,0,20,38,0,20,0,0,0,0,0,0,0,0,0,0,0,0,0,0],"split_type":[0,0,0,0,0,0,0,0,0,0,0,0,0,0,0,0,0,0,0,0,0,0,0,0,0,0,0,0,0,0,0,0,0,0,0,0,0,0,0,0,0,0,0,0,0],"sum_hessian":[5.6327414E4,1.5668276E3,5.4760586E4,4.205595E2,1.1462682E3,4.024342E4,1.4517164E4,3.3137314E2,8.918636E1,8.12751E2,3.335172E2,3.5671645E4,4.571777E3,1.33638125E4,1.153351E3,6.2695795E2,1.85793E2,3.4173316E4,1.4983282E3,3.4474436E3,1.1243333E3,4.971998E3,8.391815E3,2.2279818E4,1.1893497E4,8.1597797E2,3.0835532E2,3.6420088E3,1.3299891E3,6.8386567E3,1.5531581E3,7.7774683E3,1.4502351E4,4.005673E3,7.887824E3,7.3640295E2,7.957499E1,1.6303583E3,2.0116505E3,9.170622E2,4.1292688E2,6.558346E3,2.8031076E2,3.523531E2,1.200805E3],"tree_param":{"num_deleted":"0","num_feature":"40","num_nodes":"45","size_leaf_vector":"1"}},{"base_weights":[2.368805E-3,1.4151328E0,-3.6891565E-2,1.5392015E0,1.3678471E0,-4.5984054E-1,1.135307E-1,1.5933916E-1,1.3092597E-1,1.4057186E0,1.2680282E-1,-1.5286344E0,-3.5901213E-1,8.1709194E-1,-3.6017613E-3,1.4388801E-1,1.279691E-1,-1.4149188E-1,-1.5668293E0,-1.3995328E0,-2.223172E-1,8.5415334E-1,-1.3626097E-1,-2.7413604E-1,1.7985953E-1,-1.7890494E-1,-1.5266331E0,-1.3160318E-1,-1.427185E0,1.1288369E-1,-6.6769826E-1,1.5096723E0,7.443333E-1,-3.7867922E-1,1.3473135E-1,8.61216E-2,8.2017505E-1,-1.4531721E-1,-1.6202705E-1,-1.3827571E-1,-1.4869426E-1,1.5498708E-1,1.5893094E-3,-7.1352E-2,1.3839716E-1,1.5627293E-1,1.3018759E-1,5.84094E-2,1.16651945E-1,-1.3014014E-1,-2.459973E-2,1.805207E-2,-6.611735E-2,1.0518032E-1,-1.3609983E-1],"categories":[],"categories_nodes":[],"categories_segments":[],"categories_sizes":[],"default_left":[0,0,0,0,0,0,0,0,0,0,0,0,0,0,0,0,0,0,0,0,0,0,0,0,0,0,0,0,0,0,0,0,0,0,0,0,0,0,0,0,0,0,0,0,0,0,0,0,0,0,0,0,0,0,0],"id":8,"left_children":[1,3,5,7,9,11,13,-1,-1,15,-1,17,19,21,23,-1,-1,-1,25,27,29,31,-1,33,35,-1,37,-1,39,41,43,45,47,49,-1,51,53,-1,-1,-1,-1,-1,-1,-1,-1,-1,-1,-1,-1,-1,-1,-1,-1,-1,-1],"loss_changes":[3.0702288E3,6.675049E0,3.4264915E3,2.9606323E0,2.3479004E0,1.5221086E3,3.2740352E3,0E0,0E0,1.4307861E0,0E0,3.0722656E0,1.8363141E3,4.592207E2,1.6905057E3,0E0,0E0,0E0,5.3276367E0,1.5834961E0,1.7041726E3,4.0029028E2,0E0,2.3336555E3,1.218162E3,0E0,2.947998E0,0E0,9.025879E-1,9.0781714E2,4.6181152E2,6.776245E0,3.2254712E2,1.5828077E3,0E0,1.2491539E3,1.3108258E3,0E0,0E0,0E0,0E0,0E0,0E0,0E0,0E0,0E0,0E0,0E0,0E0,0E0,0E0,0E0,0E0,0E0,0E0],"parents":[2147483647,0,0,1,1,2,2,3,3,4,4,5,5,6,6,9,9,11,11,12,12,13,13,14,14,18,18,19,19,20,20,21,21,23,23,24,24,26,26,28,28,29,29,30,30,31,31,32,32,33,33,35,35,36,36],"right_children":[2,4,6,8,10,12,14,-1,-1,16,-1,18,20,22,24,-1,-1,-1,26,28,30,32,-1,34,36,-1,38,-1,40,42,44,46,48,50,-1,52,54,-1,-1,-1,-1,-1,-1,-1,-1,-1,-1,-1,-1,-1,-1,-1,-1,-1,-1],"split_conditions":[1E0,6E0,2E0,3E0,7E0,1E0,2E0,1.5933916E-1,1.3092597E-1,2E0,1.2680282E-1,1E0,1E0,3E0,5E0,1.4388801E-1,1.279691E-1,-1.4149188E-1,1E0,1E0,2E0,1E0,-1.3626097E-1,3E0,2E0,-1.7890494E-1,1E0,-1.3160318E-1,1E0,1E0,3E0,7E0,2E0,1E0,1.3473135E-1,2E0,3E0,-1.4531721E-1,-1.6202705E-1,-1.3827571E-1,-1.4869426E-1,1.5498708E-1,1.5893094E-3,-7.1352E-2,1.3839716E-1,1.5627293E-1,1.3018759E-1,5.84094E-2,1.16651945E-1,-1.3014014E-1,-2.459973E-2,1.805207E-2,-6.611735E-2,1.0518032E-1,-1.3609983E-1],"split_indices":[0,19,20,18,19,21,0,0,0,18,0,38,20,38,19,0,0,0,18,38,0,1,0,18,18,0,37,0,37,1,18,19,18,38,0,38,38,0,0,0,0,0,0,0,0,0,0,0,0,0,0,0,0,0,0],"split_type":[0,0,0,0,0,0,0,0,0,0,0,0,0,0,0,0,0,0,0,0,0,0,0,0,0,0,0,0,0,0,0,0,0,0,0,0,0,0,0,0,0,0,0,0,0,0,0,0,0,0,0,0,0,0,0],"sum_hessian":[5.535177E4,1.4956741E3,5.3856094E4,4.0402747E2,1.0916466E3,1.4128449E4,3.9727645E4,3.2217215E2,8.185532E1,7.819078E2,3.0973886E2,1.2167358E3,1.2911714E4,5.669225E3,3.405842E4,6.10777E2,1.7113077E2,3.1548923E2,9.012466E2,1.4981987E3,1.1413515E4,5.5750405E3,9.418413E1,1.3762935E4,2.0295486E4,1.3138576E2,7.6986084E2,3.8480515E2,1.1133936E3,6.5126997E3,4.900815E3,7.9814465E2,4.776896E3,1.2930035E4,8.3289935E2,1.7704762E4,2.590725E3,4.406655E2,3.2919537E2,6.524529E2,4.6094067E2,4.1083893E2,6.101861E3,4.79439E3,1.0642489E2,6.3060944E2,1.675352E2,3.464384E3,1.3125122E3,1.6244142E3,1.1305621E4,1.5719781E4,1.9849806E3,2.3424844E3,2.4824072E2],"tree_param":{"num_deleted":"0","num_feature":"40","num_nodes":"55","size_leaf_vector":"1"}},{"base_weights":[1.427542E-4,1.3598627E0,-3.5351228E-2,1.3909721E0,1.2353907E-1,2.9683887E-4,-1.3387434E-1,1.4611005E0,1.3527538E0,-1.4402966E-1,4.1449413E-1,1.5053783E-1,1.2686084E-1,1.3801622E-1,1.2444248E-1,2.3572402E-1,-3.6127868E-1,3.1641144E-1,1.3114291E-1,-4.4645593E-2,6.342364E-1,-4.0479496E-1,1.2258613E0,7.684746E-1,-1.1334652E-2,6.538983E-2,-4.603893E-2,5.4537322E-2,1.3841216E-1,-8.948339E-2,-2.2199199E-2,1.1046922E-1,1.6903202E-1,7.196039E-2,1.5117775E-1,-4.185135E-2,4.5546528E-2],"categories":[],"categories_nodes":[],"categories_segments":[],"categories_sizes":[],"default_left":[0,0,0,0,0,0,0,0,0,0,0,0,0,0,0,0,0,0,0,0,0,0,0,0,0,0,0,0,0,0,0,0,0,0,0,0,0],"id":9,"left_children":[1,3,5,7,-1,9,-1,11,13,15,17,-1,-1,-1,-1,19,21,23,-1,25,27,29,31,33,35,-1,-1,-1,-1,-1,-1,-1,-1,-1,-1,-1,-1],"loss_changes":[2.6356792E3,3.661377E0,2.4729097E3,9.812012E-1,0E0,3.0970527E3,0E0,1.3017578E0,4.4335938E-1,3.169804E3,1.1773342E3,0E0,0E0,0E0,0E0,1.562219E3,1.68845E3,1.7881996E3,0E0,2.3841436E3,3.840315E2,2.1307551E3,3.485138E1,1.83177E2,1.330232E3,0E0,0E0,0E0,0E0,0E0,0E0,0E0,0E0,0E0,0E0,0E0,0E0],"parents":[2147483647,0,0,1,1,2,2,3,3,5,5,7,7,8,8,9,9,10,10,15,15,16,16,17,17,19,19,20,20,21,21,22,22,23,23,24,24],"right_children":[2,4,6,8,-1,10,-1,12,14,16,18,-1,-1,-1,-1,20,22,24,-1,26,28,30,32,34,36,-1,-1,-1,-1,-1,-1,-1,-1,-1,-1,-1,-1],"split_conditions":[1E0,7E0,3E0,6E0,1.2353907E-1,2E0,-1.3387434E-1,3E0,2E0,1E0,3E0,1.5053783E-1,1.2686084E-1,1.3801622E-1,1.2444248E-1,1E0,2E0,2E0,1.3114291E-1,1E0,2E0,5E0,5E0,6E0,5E0,6.538983E-2,-4.603893E-2,5.4537322E-2,1.3841216E-1,-8.948339E-2,-2.2199199E-2,1.1046922E-1,1.6903202E-1,7.196039E-2,1.5117775E-1,-4.185135E-2,4.5546528E-2],"split_indices":[0,19,38,19,0,18,0,18,18,18,18,0,0,0,0,38,17,38,0,17,17,19,19,19,19,0,0,0,0,0,0,0,0,0,0,0,0],"split_type":[0,0,0,0,0,0,0,0,0,0,0,0,0,0,0,0,0,0,0,0,0,0,0,0,0,0,0,0,0,0,0,0,0,0,0,0,0],"sum_hessian":[5.461004E4,1.38832E3,5.3221723E4,1.1025767E3,2.8574326E2,5.180582E4,1.4159009E3,3.757923E2,7.267844E2,3.8419312E4,1.3386507E4,2.9997098E2,7.58213E1,5.7066003E2,1.5612437E2,1.3980741E4,2.4438572E4,1.2068168E4,1.3183394E3,8.207395E3,5.7733467E3,2.3787121E4,6.514514E2,5.0715664E3,6.996601E3,3.0619873E3,5.1454067E3,5.1632197E3,6.101269E2,6.4616143E3,1.7325506E4,5.1934265E2,1.321088E2,4.7605386E3,3.1102768E2,3.737003E3,3.2595981E3],"tree_param":{"num_deleted":"0","num_feature":"40","num_nodes":"37","size_leaf_vector":"1"}},{"base_weights":[-1.2500237E-3,1.4167112E-1,-3.90557E-1,1.3249223E-2,1.1165237E0,-5.6245077E-1,1.314216E-1,2.8945452E-1,-2.0946486E-1,1.3612415E-1,8.897206E-1,-1.1438738E0,-2.435862E-1,3.0435422E-2,7.974395E-1,-7.658472E-1,-2.9800602E-3,7.439726E-1,1.4952915E0,-1.3771608E0,-5.397563E-1,-2.3953592E-2,-1.3552687E0,-5.053557E-2,1.2650064E-1,1.2388818E0,6.50626E-1,-9.0988135E-1,1.2711577E-1,-1.7873514E-1,4.962278E-1,5.599429E-1,1.3895628E-1,1.5556094E-1,1.3470407E-1,-1.3306917E-1,-1.4125524E-1,-1.7187688E-1,-1.6026049E0,-1.0420216E-1,1.3985421E-1,-1.2339635E-1,-1.3861047E-1,-1.2705018E-2,1.3249429E-1,1.2669866E-1,3.484982E-2,7.090201E-2,-6.1548125E-2,-1.13057114E-1,-6.595153E-2,-2.421629E-2,1.3047104E-1,3.2100823E-2,1.6425836E-1,3.2984454E-2,1.3296333E-1,-1.3671595E-1,-4.584922E-4,-1.5439714E-1,-1.86723E-1,-1.4030384E-1,-2.4892795E-3],"categories":[],"categories_nodes":[],"categories_segments":[],"categories_sizes":[],"default_left":[0,0,0,0,0,0,0,0,0,0,0,0,0,0,0,0,0,0,0,0,0,0,0,0,0,0,0,0,0,0,0,0,0,0,0,0,0,0,0,0,0,0,0,0,0,0,0,0,0,0,0,0,0,0,0,0,0,0,0,0,0,0,0],"id":10,"left_children":[1,3,5,7,9,11,-1,13,15,-1,17,19,21,23,25,27,29,31,33,35,37,39,41,43,-1,45,47,49,-1,51,53,55,-1,-1,-1,-1,-1,57,59,61,-1,-1,-1,-1,-1,-1,-1,-1,-1,-1,-1,-1,-1,-1,-1,-1,-1,-1,-1,-1,-1,-1,-1],"loss_changes":[3.0062026E3,4.9476714E3,4.2523643E3,2.1482458E3,2.541128E2,2.443316E3,0E0,2.0511558E3,2.221098E3,0E0,2.0986475E2,6.571304E2,2.0786306E3,1.032263E3,3.4038013E2,1.536491E3,1.237321E3,2.2836218E2,2.0423584E0,3.6577148E0,5.0883463E2,8.1177344E2,3.5429688E0,1.02009863E3,0E0,3.2408936E1,2.9267017E2,2.693291E2,0E0,9.8171375E2,7.3707684E2,2.656637E2,0E0,0E0,0E0,0E0,0E0,1.9363477E2,2.3098755E0,6.933484E2,0E0,0E0,0E0,0E0,0E0,0E0,0E0,0E0,0E0,0E0,0E0,0E0,0E0,0E0,0E0,0E0,0E0,0E0,0E0,0E0,0E0,0E0,0E0],"parents":[2147483647,0,0,1,1,2,2,3,3,4,4,5,5,7,7,8,8,10,10,11,11,12,12,13,13,14,14,15,15,16,16,17,17,18,18,19,19,20,20,21,21,22,22,23,23,25,25,26,26,27,27,29,29,30,30,31,31,37,37,38,38,39,39],"right_children":[2,4,6,8,10,12,-1,14,16,-1,18,20,22,24,26,28,30,32,34,36,38,40,42,44,-1,46,48,50,-1,52,54,56,-1,-1,-1,-1,-1,58,60,62,-1,-1,-1,-1,-1,-1,-1,-1,-1,-1,-1,-1,-1,-1,-1,-1,-1,-1,-1,-1,-1,-1,-1],"split_conditions":[6E0,6E0,7E0,5E0,1E0,6E0,1.314216E-1,5E0,5E0,1.3612415E-1,1E0,2E0,7E0,3E0,1E0,3E0,2E0,1E0,1E0,2E0,1E0,2E0,1E0,2E0,1.2650064E-1,3E0,2E0,2E0,1.2711577E-1,2E0,1E0,2E0,1.3895628E-1,1.5556094E-1,1.3470407E-1,-1.3306917E-1,-1.4125524E-1,1E0,2E0,1E0,1.3985421E-1,-1.2339635E-1,-1.3861047E-1,-1.2705018E-2,1.3249429E-1,1.2669866E-1,3.484982E-2,7.090201E-2,-6.1548125E-2,-1.13057114E-1,-6.595153E-2,-2.421629E-2,1.3047104E-1,3.2100823E-2,1.6425836E-1,3.2984454E-2,1.3296333E-1,-1.3671595E-1,-4.584922E-4,-1.5439714E-1,-1.86723E-1,-1.4030384E-1,-2.4892795E-3],"split_indices":[39,19,19,39,18,19,0,19,19,0,17,18,39,18,18,18,18,37,37,20,37,18,20,17,0,32,37,18,0,17,17,18,0,0,0,0,0,20,20,20,0,0,0,0,0,0,0,0,0,0,0,0,0,0,0,0,0,0,0,0,0,0,0],"split_type":[0,0,0,0,0,0,0,0,0,0,0,0,0,0,0,0,0,0,0,0,0,0,0,0,0,0,0,0,0,0,0,0,0,0,0,0,0,0,0,0,0,0,0,0,0,0,0,0,0,0,0,0,0,0,0,0,0,0,0,0,0,0,0],"sum_hessian":[5.402734E4,3.9519645E4,1.4507692E4,3.492043E4,4.599218E3,1.3179465E4,1.3282273E3,1.5588099E4,1.933233E4,2.2098337E3,2.3893843E3,4.666997E3,8.512468E3,1.0324663E4,5.2634355E3,5.231937E3,1.4100393E4,1.9276649E3,4.617194E2,3.3659258E3,1.3010713E3,7.108984E3,1.4034843E3,9.690085E3,6.345781E2,1.3117617E3,3.951674E3,4.886941E3,3.4499637E2,1.0429235E4,3.6711572E3,1.5015155E3,4.261495E2,3.214428E2,1.4027657E2,1.471912E3,1.8940139E3,9.673932E2,3.3367813E2,6.730232E3,3.7875208E2,2.9277084E2,1.1107134E3,9.180313E3,5.0977148E2,1.2712131E3,4.054866E1,3.7778748E3,1.7379926E2,2.595539E3,2.2914016E3,1.0002399E4,4.2683646E2,3.1855312E3,4.8562595E2,1.1570459E3,3.4446954E2,1.1789243E2,8.4950073E2,2.7874957E2,5.4928543E1,3.8635013E2,6.3438813E3],"tree_param":{"num_deleted":"0","num_feature":"40","num_nodes":"63","size_leaf_vector":"1"}},{"base_weights":[2.2442245E-3,1.3296203E-1,-3.6389676E-1,1.8394491E-1,-1.3022618E-1,1.2692502E-1,-4.3516105E-1,6.093161E-1,7.1229115E-2,-3.400073E-1,-1.3087524E0,-1.4229308E-1,6.846586E-1,-6.8566394E-1,1.3980718E-1,-2.6548126E-1,-1.4558959E0,-1.20639645E-1,-1.3353805E-1,7.3256356E-1,-7.71395E-1,-7.48418E-1,1.186657E0,3.61135E-1,-5.2206308E-2,-2.1048605E-1,-1.444666E0,-1.2572709E-1,-1.5053539E-1,9.72751E-2,4.2130645E-2,-4.203409E-2,-1.0543101E-1,-7.749266E-2,1.06636636E-1,1.5388054E-1,6.4342484E-2,4.2297613E-2,-8.446815E-2,7.770512E-3,-7.4784696E-2,-1.3464953E-1,-1.5111853E-2,-1.5305412E-1,-1.2982915E-1],"categories":[],"categories_nodes":[],"categories_segments":[],"categories_sizes":[],"default_left":[0,0,0,0,0,0,0,0,0,0,0,0,0,0,0,0,0,0,0,0,0,0,0,0,0,0,0,0,0,0,0,0,0,0,0,0,0,0,0,0,0,0,0,0,0],"id":11,"left_children":[1,3,5,7,-1,-1,9,11,13,15,17,-1,19,21,23,25,27,-1,-1,29,31,33,35,37,39,41,43,-1,-1,-1,-1,-1,-1,-1,-1,-1,-1,-1,-1,-1,-1,-1,-1,-1,-1],"loss_changes":[2.5443943E3,2.8667964E3,1.6283501E3,1.813884E3,0E0,0E0,1.1136252E3,1.2143862E3,1.55255E3,1.0048179E3,1.9758301E0,0E0,5.3362915E2,2.9285535E2,1.1655198E3,7.345509E2,5.5388184E0,0E0,0E0,5.527644E2,2.3781876E1,1.16522095E2,1.449971E1,9.503728E2,1.3272394E3,7.300541E2,4.35791E0,0E0,0E0,0E0,0E0,0E0,0E0,0E0,0E0,0E0,0E0,0E0,0E0,0E0,0E0,0E0,0E0,0E0,0E0],"parents":[2147483647,0,0,1,1,2,2,3,3,6,6,7,7,8,8,9,9,10,10,12,12,13,13,14,14,15,15,16,16,19,19,20,20,21,21,22,22,23,23,24,24,25,25,26,26],"right_children":[2,4,6,8,-1,-1,10,12,14,16,18,-1,20,22,24,26,28,-1,-1,30,32,34,36,38,40,42,44,-1,-1,-1,-1,-1,-1,-1,-1,-1,-1,-1,-1,-1,-1,-1,-1,-1,-1],"split_conditions":[6E0,3E0,1E0,2E0,-1.3022618E-1,1.2692502E-1,7E0,1E0,2E0,2E0,1E0,-1.4229308E-1,2E0,2E0,5E0,3E0,1E0,-1.20639645E-1,-1.3353805E-1,2E0,1E0,3E0,1E0,2E0,2E0,1E0,1E0,-1.2572709E-1,-1.5053539E-1,9.72751E-2,4.2130645E-2,-4.203409E-2,-1.0543101E-1,-7.749266E-2,1.06636636E-1,1.5388054E-1,6.4342484E-2,4.2297613E-2,-8.446815E-2,7.770512E-3,-7.4784696E-2,-1.3464953E-1,-1.5111853E-2,-1.5305412E-1,-1.2982915E-1],"split_indices":[39,38,0,0,0,0,39,20,20,38,20,0,37,17,39,20,20,0,0,38,38,14,11,37,38,20,37,0,0,0,0,0,0,0,0,0,0,0,0,0,0,0,0,0,0],"split_type":[0,0,0,0,0,0,0,0,0,0,0,0,0,0,0,0,0,0,0,0,0,0,0,0,0,0,0,0,0,0,0,0,0,0,0,0,0,0,0,0,0,0,0,0,0],"sum_hessian":[5.3159996E4,3.9174684E4,1.3985311E4,3.7831676E4,1.3430077E3,5.840466E2,1.3401264E4,7.9238687E3,2.9907807E4,1.2086194E4,1.3150693E3,2.8262433E2,7.641244E3,2.4839177E3,2.742389E4,1.1330697E4,7.5549713E2,2.810482E2,1.0340211E3,7.3983315E3,2.429125E2,2.4039456E3,7.997209E1,1.2739079E4,1.4684811E4,1.0826927E4,5.0377124E2,1.5588354E2,5.996136E2,4.174712E3,3.2236196E3,1.0951141E2,1.334011E2,2.3699014E3,3.404425E1,4.7407593E1,3.2564503E1,1.2118235E4,6.208429E2,1.2374712E4,2.3100986E3,5.3663477E2,1.0290292E4,3.1154007E2,1.9223116E2],"tree_param":{"num_deleted":"0","num_feature":"40","num_nodes":"45","size_leaf_vector":"1"}},{"base_weights":[-1.2429238E-3,1.17858864E-1,-3.3575693E-1,2.2501997E-3,1.0503414E0,-4.9102825E-1,1.277919E-1,4.9474973E-2,-1.263147E-1,1.315799E0,3.600964E-1,-1.0714372E0,-1.8492034E-1,-1.5021975E-1,4.299944E-1,1.318602E-1,1.0958664E0,-2.2349421E-2,1.4618477E-1,-1.3184956E0,-4.5308137E-1,4.7671953E-3,-1.2715167E0,-5.239931E-4,-8.560278E-1,1.8761988E-1,8.518793E-1,1.1807666E0,5.266614E-1,-7.5154966E-1,1.2837937E-1,-1.2811981E-1,-1.3466267E-1,-9.090181E-2,-1.5093482E0,8.183518E-2,-1.4096419E0,-1.182246E-1,-1.2937306E-1,-4.3697115E-2,2.2924166E-2,-6.139949E-2,-1.4077313E-1,4.895106E-2,-3.5007253E-2,1.6441302E-1,6.371054E-2,1.24792E-1,6.1866105E-2,-9.022417E-2,9.8324925E-2,-8.663828E-2,1.5659213E-1,7.159456E-2,-1.374972E-1,-1.2892957E-1,-1.5608649E-1,1.4844078E-2,-1.4343223E-1,-1.19746864E-1,-1.4570177E-1],"categories":[],"categories_nodes":[],"categories_segments":[],"categories_sizes":[],"default_left":[0,0,0,0,0,0,0,0,0,0,0,0,0,0,0,0,0,0,0,0,0,0,0,0,0,0,0,0,0,0,0,0,0,0,0,0,0,0,0,0,0,0,0,0,0,0,0,0,0,0,0,0,0,0,0,0,0,0,0,0,0],"id":12,"left_children":[1,3,5,7,9,11,-1,13,-1,15,17,19,21,23,25,-1,27,29,-1,31,33,35,37,39,41,43,45,47,49,51,-1,-1,-1,53,55,57,59,-1,-1,-1,-1,-1,-1,-1,-1,-1,-1,-1,-1,-1,-1,-1,-1,-1,-1,-1,-1,-1,-1,-1,-1],"loss_changes":[2.092974E3,4.176267E3,3.4565894E3,2.0597837E3,7.824995E2,2.235414E3,0E0,2.5250273E3,0E0,4.5751953E-1,5.0073325E2,6.631338E2,1.6982715E3,2.3025588E3,1.1692874E3,0E0,1.5408936E0,8.4204767E2,0E0,1.53125E0,4.749362E2,7.648843E2,8.988037E-1,1.8032025E3,5.0832886E2,1.1794493E3,7.089614E2,6.676445E-1,5.8546762E0,1.5233655E2,0E0,0E0,0E0,9.601715E2,1.5813599E0,6.721929E2,1.8998413E0,0E0,0E0,0E0,0E0,0E0,0E0,0E0,0E0,0E0,0E0,0E0,0E0,0E0,0E0,0E0,0E0,0E0,0E0,0E0,0E0,0E0,0E0,0E0,0E0],"parents":[2147483647,0,0,1,1,2,2,3,3,4,4,5,5,7,7,9,9,10,10,11,11,12,12,13,13,14,14,16,16,17,17,19,19,20,20,21,21,22,22,23,23,24,24,25,25,26,26,27,27,28,28,29,29,33,33,34,34,35,35,36,36],"right_children":[2,4,6,8,10,12,-1,14,-1,16,18,20,22,24,26,-1,28,30,-1,32,34,36,38,40,42,44,46,48,50,52,-1,-1,-1,54,56,58,60,-1,-1,-1,-1,-1,-1,-1,-1,-1,-1,-1,-1,-1,-1,-1,-1,-1,-1,-1,-1,-1,-1,-1,-1],"split_conditions":[6E0,6E0,7E0,3E0,2E0,6E0,1.277919E-1,2E0,-1.263147E-1,3E0,1E0,2E0,7E0,2E0,5E0,1.318602E-1,3E0,2E0,1.4618477E-1,2E0,1E0,2E0,1E0,5E0,5E0,5E0,5E0,2E0,1E0,2E0,1.2837937E-1,-1.2811981E-1,-1.3466267E-1,2E0,1E0,3E0,1E0,-1.182246E-1,-1.2937306E-1,-4.3697115E-2,2.2924166E-2,-6.139949E-2,-1.4077313E-1,4.895106E-2,-3.5007253E-2,1.6441302E-1,6.371054E-2,1.24792E-1,6.1866105E-2,-9.022417E-2,9.8324925E-2,-8.663828E-2,1.5659213E-1,7.159456E-2,-1.374972E-1,-1.2892957E-1,-1.5608649E-1,1.4844078E-2,-1.4343223E-1,-1.19746864E-1,-1.4570177E-1],"split_indices":[39,19,19,38,38,19,0,18,0,26,17,18,39,38,19,0,20,18,0,20,37,38,20,19,39,39,39,36,12,16,0,0,0,38,20,20,20,0,0,0,0,0,0,0,0,0,0,0,0,0,0,0,0,0,0,0,0,0,0,0,0],"split_type":[0,0,0,0,0,0,0,0,0,0,0,0,0,0,0,0,0,0,0,0,0,0,0,0,0,0,0,0,0,0,0,0,0,0,0,0,0,0,0,0,0,0,0,0,0,0,0,0,0,0,0,0,0,0,0,0,0,0,0,0,0],"sum_hessian":[5.2530895E4,3.873881E4,1.3792083E4,3.4466656E4,4.272155E3,1.2582103E4,1.209981E3,3.322756E4,1.2390956E3,3.084859E3,1.1872959E3,4.343646E3,8.238456E3,2.1791889E4,1.143567E4,3.041105E3,4.3753933E1,8.820824E2,3.0521344E2,3.1028135E3,1.2408326E3,7.0148643E3,1.2235919E3,1.7979578E4,3.8123115E3,7.263948E3,4.171722E3,3.7139896E1,6.614036E0,5.663322E2,3.157502E2,1.3540632E3,1.7487501E3,9.248129E2,3.1601974E2,6.6532837E3,3.615804E2,2.5461156E2,9.689804E2,6.2005444E3,1.1779033E4,2.6512974E3,1.1610139E3,4.652092E3,2.611856E3,8.883076E2,3.2834146E3,3.2086514E1,5.053383E0,1.3652862E0,5.2487497E0,5.401913E2,2.6140892E1,5.68216E2,3.565969E2,6.488637E1,2.5113339E2,6.3741655E3,2.7911835E2,7.079586E1,2.9078455E2],"tree_param":{"num_deleted":"0","num_feature":"40","num_nodes":"61","size_leaf_vector":"1"}},{"base_weights":[-6.4809935E-4,-1.2728268E0,2.9731661E-2,-1.299264E-1,-1.1611515E-1,-8.762233E-2,3.7688914E-1,1.5596521E-2,-1.0061195E0,5.030587E-1,-1.2581861E-1,-2.9373419E-2,1.231639E-1,-1.2788035E-1,-2.7197403E-1,1.0054766E0,2.4225947E-1,-3.0169752E-1,1.8424922E-1,7.551856E-2,-1.4640166E-1,1.2595103E0,7.805097E-1,7.265603E-2,1.2445439E0,-5.6095803E-3,-7.8955136E-2,6.9988094E-2,-1.5519455E-3,-5.2069076E-3,1.4179589E-1,1.2614551E-1,7.621371E-2,6.428935E-2,1.354157E-1,1.2499712E-2,-1.7277572E-1,1.1384546E-1,1.2670355E-1],"categories":[],"categories_nodes":[],"categories_segments":[],"categories_sizes":[],"default_left":[0,0,0,0,0,0,0,0,0,0,0,0,0,0,0,0,0,0,0,0,0,0,0,0,0,0,0,0,0,0,0,0,0,0,0,0,0,0,0],"id":13,"left_children":[1,3,5,-1,-1,7,9,11,13,15,-1,17,-1,-1,19,21,23,25,27,29,-1,31,33,35,37,-1,-1,-1,-1,-1,-1,-1,-1,-1,-1,-1,-1,-1,-1],"loss_changes":[1.9907748E3,2.038086E0,2.049614E3,0E0,0E0,3.5646665E3,2.6226821E3,1.8485023E3,7.6007056E2,1.5459512E3,0E0,1.8963955E3,0E0,0E0,4.26776E2,2.2944067E2,1.3206248E3,1.7169708E3,1.8817615E3,1.3683836E2,0E0,8.6865234E-1,1.6814258E2,6.265021E2,1.2403564E0,0E0,0E0,0E0,0E0,0E0,0E0,0E0,0E0,0E0,0E0,0E0,0E0,0E0,0E0],"parents":[2147483647,0,0,1,1,2,2,5,5,6,6,7,7,8,8,9,9,11,11,14,14,15,15,16,16,17,17,18,18,19,19,21,21,22,22,23,23,24,24],"right_children":[2,4,6,-1,-1,8,10,12,14,16,-1,18,-1,-1,20,22,24,26,28,30,-1,32,34,36,38,-1,-1,-1,-1,-1,-1,-1,-1,-1,-1,-1,-1,-1,-1],"split_conditions":[1E0,7E0,6E0,-1.299264E-1,-1.1611515E-1,6E0,7E0,3E0,2E0,6E0,-1.2581861E-1,5E0,1.231639E-1,-1.2788035E-1,1E0,1E0,7E0,5E0,5E0,3E0,-1.4640166E-1,3E0,1E0,2E0,1E0,-5.6095803E-3,-7.8955136E-2,6.9988094E-2,-1.5519455E-3,-5.2069076E-3,1.4179589E-1,1.2614551E-1,7.621371E-2,6.428935E-2,1.354157E-1,1.2499712E-2,-1.7277572E-1,1.1384546E-1,1.2670355E-1],"split_indices":[20,39,19,0,0,39,39,18,18,39,0,19,0,0,37,18,19,39,39,0,0,29,17,31,0,0,0,0,0,0,0,0,0,0,0,0,0,0,0],"split_type":[0,0,0,0,0,0,0,0,0,0,0,0,0,0,0,0,0,0,0,0,0,0,0,0,0,0,0,0,0,0,0,0,0,0,0,0,0,0,0],"sum_hessian":[5.150779E4,1.2003698E3,5.030742E4,9.619999E2,2.3836992E2,3.7598332E4,1.2709087E4,3.3800844E4,3.7974873E3,1.1799295E4,9.097926E2,3.2596389E4,1.204457E3,2.7684565E3,1.0290308E3,4.0309656E3,7.768329E3,1.4329222E4,1.8267168E4,7.9749066E2,2.3154004E2,1.891019E3,2.1399465E3,6.644962E3,1.1233672E3,9.531743E3,4.7974785E3,5.1002314E3,1.3166936E4,7.291521E2,6.833855E1,1.8821237E3,8.895397E0,1.7276171E3,4.1232944E2,6.4581436E3,1.8681871E2,2.0552904E2,9.1783813E2],"tree_param":{"num_deleted":"0","num_feature":"40","num_nodes":"39","size_leaf_vector":"1"}},{"base_weights":[-7.0725137E-4,-1.2410048E0,2.6945509E-2,-1.2631993E-1,-1.1423329E-1,5.3001996E-2,-1.3190454E0,-5.5111658E-2,3.778817E-1,-8.8821936E-1,-1.5429945E0,4.130284E-2,-9.592711E-1,4.913493E-1,-1.22756265E-1,-1.2945818E0,-3.1669676E-1,-1.6204499E0,-1.3828121E0,9.827301E-4,1.2020224E-1,-1.2433476E0,-2.4051288E-1,9.671773E-1,2.5211993E-1,-1.6681246E-1,-8.93903E-1,3.5729212E-1,-6.082368E-1,-1.7016605E0,-1.286591E-1,-2.3398376E-1,-1.7669837E0,-2.5250548E-2,1.9960476E-2,-1.2462618E-1,-1.016341E-1,7.3033976E-3,-1.381381E-1,1.2248825E-1,7.488459E-2,9.726231E-3,1.21635616E-1,2.7227036E-3,-1.2596832E-1,-3.145661E-2,8.265836E-2,-1.6836515E-2,-1.6525428E-1,-1.81956E-1,-1.3762878E-1,-8.5307285E-2,1.0383945E-1,-1.8955103E-1,-1.1846663E-1],"categories":[],"categories_nodes":[],"categories_segments":[],"categories_sizes":[],"default_left":[0,0,0,0,0,0,0,0,0,0,0,0,0,0,0,0,0,0,0,0,0,0,0,0,0,0,0,0,0,0,0,0,0,0,0,0,0,0,0,0,0,0,0,0,0,0,0,0,0,0,0,0,0,0,0],"id":14,"left_children":[1,3,5,-1,-1,7,9,11,13,15,17,19,21,23,-1,25,27,29,31,33,-1,35,37,39,41,-1,43,45,47,49,-1,51,53,-1,-1,-1,-1,-1,-1,-1,-1,-1,-1,-1,-1,-1,-1,-1,-1,-1,-1,-1,-1,-1,-1],"loss_changes":[1.7390815E3,9.7875977E-1,1.7396218E3,0E0,0E0,1.7091075E3,8.9515015E1,3.1827717E3,2.2138618E3,7.4962524E1,5.432251E0,1.5440804E3,7.180398E2,1.2915652E3,0E0,2.6849304E1,2.6977255E1,8.955444E0,9.1561035E1,1.605475E3,0E0,4.0112305E-1,3.5704065E2,2.126853E2,1.1276936E3,0E0,3.1541473E1,1.3424076E1,4.3560966E1,1.0060059E1,0E0,4.2931423E1,9.431427E0,0E0,0E0,0E0,0E0,0E0,0E0,0E0,0E0,0E0,0E0,0E0,0E0,0E0,0E0,0E0,0E0,0E0,0E0,0E0,0E0,0E0,0E0],"parents":[2147483647,0,0,1,1,2,2,5,5,6,6,7,7,8,8,9,9,10,10,11,11,12,12,13,13,15,15,16,16,17,17,18,18,19,19,21,21,22,22,23,23,24,24,26,26,27,27,28,28,29,29,31,31,32,32],"right_children":[2,4,6,-1,-1,8,10,12,14,16,18,20,22,24,-1,26,28,30,32,34,-1,36,38,40,42,-1,44,46,48,50,-1,52,54,-1,-1,-1,-1,-1,-1,-1,-1,-1,-1,-1,-1,-1,-1,-1,-1,-1,-1,-1,-1,-1,-1],"split_conditions":[1E0,7E0,3E0,-1.2631993E-1,-1.1423329E-1,6E0,5E0,6E0,7E0,5E0,6E0,3E0,2E0,6E0,-1.22756265E-1,2E0,1E0,6E0,6E0,5E0,1.2020224E-1,3E0,1E0,1E0,7E0,-1.6681246E-1,4E0,1E0,1E0,2E0,-1.286591E-1,1E0,7E0,-2.5250548E-2,1.9960476E-2,-1.2462618E-1,-1.016341E-1,7.3033976E-3,-1.381381E-1,1.2248825E-1,7.488459E-2,9.726231E-3,1.21635616E-1,2.7227036E-3,-1.2596832E-1,-3.145661E-2,8.265836E-2,-1.6836515E-2,-1.6525428E-1,-1.81956E-1,-1.3762878E-1,-8.5307285E-2,1.0383945E-1,-1.8955103E-1,-1.1846663E-1],"split_indices":[20,39,32,0,0,19,39,39,39,19,19,18,18,39,0,18,18,39,39,19,0,6,37,18,19,0,39,34,17,18,0,37,39,0,0,0,0,0,0,0,0,0,0,0,0,0,0,0,0,0,0,0,0,0,0],"split_type":[0,0,0,0,0,0,0,0,0,0,0,0,0,0,0,0,0,0,0,0,0,0,0,0,0,0,0,0,0,0,0,0,0,0,0,0,0,0,0,0,0,0,0,0,0,0,0,0,0,0,0,0,0,0,0],"sum_hessian":[5.0703582E4,1.1048387E3,4.9598742E4,8.9232513E2,2.1251355E2,4.8657758E4,9.409849E2,3.650908E4,1.2148682E4,3.2353836E2,6.174466E2,3.2991953E4,3.517123E3,1.1347379E4,8.013022E2,1.8835182E2,1.3518654E2,4.100517E2,2.0739491E2,3.1885348E4,1.1066057E3,2.520292E3,9.968311E2,3.7953582E3,7.552021E3,9.583964E1,9.2512184E1,4.075127E1,9.443526E1,3.2652744E2,8.352424E1,5.2376633E1,1.5501828E2,1.4007819E4,1.787753E4,2.4839146E3,3.6377373E1,7.8266565E2,2.1416544E2,1.7386042E3,2.056754E3,6.5079385E3,1.0440826E3,2.655794E1,6.595425E1,1.689432E1,2.385695E1,6.726417E1,2.717109E1,2.3630841E2,9.021903E1,3.5455116E1,1.6921516E1,1.2514231E2,2.9875967E1],"tree_param":{"num_deleted":"0","num_feature":"40","num_nodes":"55","size_leaf_vector":"1"}},{"base_weights":[-2.371264E-3,2.6653832E-2,-1.23188615E-1,-9.684241E-2,3.7171814E-1,2.8710696E-3,-7.333711E-1,7.745873E-1,1.18805006E-1,-4.8258066E-2,1.0039517E0,-1.0525916E0,-4.1144094E-1,1.0663279E0,4.7975713E-1,-3.9947588E-2,1.1754389E-1,-2.2438341E-1,2.6765174E-1,4.6878138E-1,1.1382535E0,-1.0710765E0,6.046248E-1,-6.271361E-1,1.3013928E-1,1.324708E0,9.2621166E-1,6.981031E-1,-1.3112931E-1,1.5643795E0,-1.582984E-1,-7.862279E-3,-1.21176295E-1,1.2208734E-1,-2.168569E-3,1.90163E-3,1.7089662E-1,1.3345641E-1,9.271866E-2,-1.08497396E-1,7.2938316E-2,2.2817427E-2,1.446544E-1,-1.1133257E-1,-2.5717331E-2,1.3494216E-1,-6.614513E-2,9.4378576E-2,-9.090053E-2,1.1992204E-1,3.1988293E-2,1.3873418E-1,1.763018E-1,-6.521862E-2,3.3749793E-2],"categories":[],"categories_nodes":[],"categories_segments":[],"categories_sizes":[],"default_left":[0,0,0,0,0,0,0,0,0,0,0,0,0,0,0,0,0,0,0,0,0,0,0,0,0,0,0,0,0,0,0,0,0,0,0,0,0,0,0,0,0,0,0,0,0,0,0,0,0,0,0,0,0,0,0],"id":15,"left_children":[1,3,-1,5,7,9,11,13,15,17,19,21,23,25,27,29,-1,31,33,35,37,39,41,43,-1,45,47,49,-1,51,53,-1,-1,-1,-1,-1,-1,-1,-1,-1,-1,-1,-1,-1,-1,-1,-1,-1,-1,-1,-1,-1,-1,-1,-1],"loss_changes":[1.7795775E3,2.076052E3,0E0,2.2771577E3,1.3082079E3,1.5877526E3,4.989187E2,4.2541675E2,1.3234333E3,1.6421533E3,1.0780542E2,7.536792E1,8.952235E2,8.8852295E1,9.647835E2,1.3027449E3,0E0,2.727102E3,2.9138003E3,1.6958395E2,4.8660645E1,6.1158936E1,8.400393E0,3.8658685E2,0E0,4.372119E1,5.2997192E1,4.1612122E2,0E0,1.4130737E1,1.5647896E3,0E0,0E0,0E0,0E0,0E0,0E0,0E0,0E0,0E0,0E0,0E0,0E0,0E0,0E0,0E0,0E0,0E0,0E0,0E0,0E0,0E0,0E0,0E0,0E0],"parents":[2147483647,0,0,1,1,3,3,4,4,5,5,6,6,7,7,8,8,9,9,10,10,11,11,12,12,13,13,14,14,15,15,17,17,18,18,19,19,20,20,21,21,22,22,23,23,25,25,26,26,27,27,29,29,30,30],"right_children":[2,4,-1,6,8,10,12,14,16,18,20,22,24,26,28,30,-1,32,34,36,38,40,42,44,-1,46,48,50,-1,52,54,-1,-1,-1,-1,-1,-1,-1,-1,-1,-1,-1,-1,-1,-1,-1,-1,-1,-1,-1,-1,-1,-1,-1,-1],"split_conditions":[3E0,2E0,-1.23188615E-1,2E0,2E0,2E0,1E0,1E0,3E0,6E0,1E0,2E0,6E0,1E0,6E0,4E0,1.1754389E-1,6E0,6E0,6E0,1E0,3E0,6E0,5E0,1.3013928E-1,3E0,3E0,5E0,-1.3112931E-1,1E0,5E0,-7.862279E-3,-1.21176295E-1,1.2208734E-1,-2.168569E-3,1.90163E-3,1.7089662E-1,1.3345641E-1,9.271866E-2,-1.08497396E-1,7.2938316E-2,2.2817427E-2,1.446544E-1,-1.1133257E-1,-2.5717331E-2,1.3494216E-1,-6.614513E-2,9.4378576E-2,-9.090053E-2,1.1992204E-1,3.1988293E-2,1.3873418E-1,1.763018E-1,-6.521862E-2,3.3749793E-2],"split_indices":[38,18,0,38,38,17,17,37,18,19,38,5,19,36,39,39,0,39,39,19,11,14,19,19,0,35,27,39,0,31,19,0,0,0,0,0,0,0,0,0,0,0,0,0,0,0,0,0,0,0,0,0,0,0,0],"split_type":[0,0,0,0,0,0,0,0,0,0,0,0,0,0,0,0,0,0,0,0,0,0,0,0,0,0,0,0,0,0,0,0,0,0,0,0,0,0,0,0,0,0,0,0,0,0,0,0,0,0,0,0,0,0,0],"sum_hessian":[4.9864645E4,4.8715594E4,1.1490482E3,3.587639E4,1.2839205E4,3.1018307E4,4.8580835E3,4.950853E3,7.8883516E3,2.9511965E4,1.5063407E3,2.438168E3,2.4199158E3,2.4871492E3,2.4637039E3,6.8588193E3,1.0295323E3,1.8948262E4,1.0563704E4,3.0308557E2,1.2032551E3,2.411622E3,2.654601E1,2.1498245E3,2.700911E2,8.715404E2,1.6156089E3,2.1965356E3,2.6716818E2,4.703728E2,6.388447E3,1.6511807E4,2.4364546E3,2.459073E3,8.1046313E3,2.2316716E2,7.99184E1,6.206622E2,5.825929E2,2.3935442E3,1.8077883E1,1.9222153E1,7.3238573E0,9.2811957E2,1.2217051E3,8.611459E2,1.03945265E1,1.6007656E3,1.4843256E1,9.438389E2,1.2526967E3,2.5293092E2,2.1744186E2,3.200225E3,3.1882214E3],"tree_param":{"num_deleted":"0","num_feature":"40","num_nodes":"55","size_leaf_vector":"1"}},{"base_weights":[-5.0676585E-4,-2.6523737E-2,1.3131018E0,-5.3430256E-2,1.2798264E0,9.8209476E-1,1.4758704E0,-8.6908385E-2,9.907032E-1,9.562902E-1,1.4403169E0,1.3913293E0,4.39916E-1,1.5685033E0,1.2936623E0,1.236904E0,-1.12405345E-1,3.8382614E-1,1.3000002E0,1.261163E0,4.628469E-1,1.5465655E0,1.2282333E0,9.9014384E-1,1.5582832E0,1.0962771E-1,8.919507E-1,1.6485811E0,1.2306317E-1,-7.76095E-2,1.6880276E0,1.2617041E-1,1.1063794E-1,1.80535E-1,-2.4365462E-1,7.94881E-1,-2.3031533E-1,1.1799427E0,1.4716896E0,6.3085866E-1,1.5655313E0,-3.125441E-2,8.693278E-1,1.622221E0,1.2311818E-1,-1.8774053E-1,1.6424445E0,5.017229E-1,1.505477E-1,1.5765593E0,5.942418E-1,8.097092E-1,-9.681776E-1,6.100364E-1,1.5592678E-1,1.4713178E0,1.7078668E0,-1.0793387E-1,1.6222103E-1,1.8205892E0,1.1583497E-1,1.1201995E-1,6.421219E-3,-4.1753348E-2,8.227366E-3,5.5014887E-3,1.1224689E-1,-8.373149E-2,3.8095426E-2,1.387787E-1,-3.2631267E-2,1.2268448E-1,1.5882356E-1,1.1519052E-3,1.5591805E-1,1.3566372E-1,1.7382137E-1,6.841231E-2,-5.958574E-2,1.3165057E-1,-3.018007E-2,1.3920228E-1,1.7076991E-1,-1.0842395E-1,1.5182672E-1,1.7599618E-1,1.1566073E-1,1.6456869E-1,2.6293179E-2,1.611496E-1,1.0364552E-1,8.6377375E-2,-5.884382E-3,-3.8566634E-2,1.1758876E-1,-1.1935605E-1,1.7687069E-1,2.24225E-2,1.3822077E-1,1.488329E-1,7.139548E-2,1.607316E-1,1.8457267E-1,1.878904E-1,1.2233364E-1],"categories":[],"categories_nodes":[],"categories_segments":[],"categories_sizes":[],"default_left":[0,0,0,0,0,0,0,0,0,0,0,0,0,0,0,0,0,0,0,0,0,0,0,0,0,0,0,0,0,0,0,0,0,0,0,0,0,0,0,0,0,0,0,0,0,0,0,0,0,0,0,0,0,0,0,0,0,0,0,0,0,0,0,0,0,0,0,0,0,0,0,0,0,0,0,0,0,0,0,0,0,0,0,0,0,0,0,0,0,0,0,0,0,0,0,0,0,0,0,0,0,0,0,0,0],"id":16,"left_children":[1,3,5,7,9,11,13,15,17,19,21,23,25,27,29,31,33,35,37,39,41,43,45,47,49,51,53,55,-1,57,59,-1,-1,61,63,65,67,69,71,73,75,77,79,81,-1,83,85,87,-1,89,91,93,95,97,-1,99,101,-1,-1,103,-1,-1,-1,-1,-1,-1,-1,-1,-1,-1,-1,-1,-1,-1,-1,-1,-1,-1,-1,-1,-1,-1,-1,-1,-1,-1,-1,-1,-1,-1,-1,-1,-1,-1,-1,-1,-1,-1,-1,-1,-1,-1,-1,-1,-1],"loss_changes":[1.6728119E3,1.6871025E3,4.9766724E1,1.6439984E3,4.8919556E1,6.9578094E1,8.692993E0,1.538219E3,2.7376E2,4.8181427E1,1.2645752E1,1.0500793E1,2.0436163E1,9.238403E0,1.1900256E2,1.3916016E0,1.7189968E3,1.250645E2,1.8204834E1,3.733957E1,2.5207458E1,8.171997E0,1.2951926E2,1.3234783E1,1.2695618E0,6.1607037E1,9.94598E0,9.941406E-1,0E0,8.6978775E1,9.8811035E0,0E0,0E0,1.5120278E3,1.7498076E3,7.181711E1,7.420085E1,1.8026703E2,9.296326E0,3.8349625E1,2.4773865E0,2.3653502E1,3.6438683E1,4.324585E0,0E0,7.9275696E1,7.7016296E0,7.772259E0,0E0,6.3739014E-1,7.434685E-1,2.208197E1,2.1971476E1,1.2310928E1,0E0,1.0795593E-1,4.1363525E-1,0E0,0E0,2.3974E0,0E0,0E0,0E0,0E0,0E0,0E0,0E0,0E0,0E0,0E0,0E0,0E0,0E0,0E0,0E0,0E0,0E0,0E0,0E0,0E0,0E0,0E0,0E0,0E0,0E0,0E0,0E0,0E0,0E0,0E0,0E0,0E0,0E0,0E0,0E0,0E0,0E0,0E0,0E0,0E0,0E0,0E0,0E0,0E0,0E0],"parents":[2147483647,0,0,1,1,2,2,3,3,4,4,5,5,6,6,7,7,8,8,9,9,10,10,11,11,12,12,13,13,14,14,15,15,16,16,17,17,18,18,19,19,20,20,21,21,22,22,23,23,24,24,25,25,26,26,27,27,29,29,30,30,33,33,34,34,35,35,36,36,37,37,38,38,39,39,40,40,41,41,42,42,43,43,45,45,46,46,47,47,49,49,50,50,51,51,52,52,53,53,55,55,56,56,59,59],"right_children":[2,4,6,8,10,12,14,16,18,20,22,24,26,28,30,32,34,36,38,40,42,44,46,48,50,52,54,56,-1,58,60,-1,-1,62,64,66,68,70,72,74,76,78,80,82,-1,84,86,88,-1,90,92,94,96,98,-1,100,102,-1,-1,104,-1,-1,-1,-1,-1,-1,-1,-1,-1,-1,-1,-1,-1,-1,-1,-1,-1,-1,-1,-1,-1,-1,-1,-1,-1,-1,-1,-1,-1,-1,-1,-1,-1,-1,-1,-1,-1,-1,-1,-1,-1,-1,-1,-1,-1],"split_conditions":[3E0,3E0,5E0,2E0,5E0,5E0,6E0,1E0,5E0,5E0,6E0,4E0,1E0,6E0,6E0,7E0,5E0,5E0,6E0,4E0,2E0,6E0,6E0,1E0,3E0,1E0,2E0,2E0,1.2306317E-1,2E0,7E0,1.2617041E-1,1.1063794E-1,1E0,6E0,4E0,2E0,6E0,6E0,1E0,2E0,3E0,1E0,2E0,1.2311818E-1,2E0,7E0,2E0,1.505477E-1,3E0,2E0,2E0,2E0,2E0,1.5592678E-1,3E0,1E0,-1.0793387E-1,1.6222103E-1,2E0,1.1583497E-1,1.1201995E-1,6.421219E-3,-4.1753348E-2,8.227366E-3,5.5014887E-3,1.1224689E-1,-8.373149E-2,3.8095426E-2,1.387787E-1,-3.2631267E-2,1.2268448E-1,1.5882356E-1,1.1519052E-3,1.5591805E-1,1.3566372E-1,1.7382137E-1,6.841231E-2,-5.958574E-2,1.3165057E-1,-3.018007E-2,1.3920228E-1,1.7076991E-1,-1.0842395E-1,1.5182672E-1,1.7599618E-1,1.1566073E-1,1.6456869E-1,2.6293179E-2,1.611496E-1,1.0364552E-1,8.6377375E-2,-5.884382E-3,-3.8566634E-2,1.1758876E-1,-1.1935605E-1,1.7687069E-1,2.24225E-2,1.3822077E-1,1.488329E-1,7.139548E-2,1.607316E-1,1.8457267E-1,1.878904E-1,1.2233364E-1],"split_indices":[12,13,19,11,19,39,39,0,19,39,39,19,37,19,19,19,39,39,19,19,18,19,19,37,2,17,18,0,0,18,19,0,0,18,19,19,18,39,39,37,18,0,17,0,0,18,19,18,0,18,27,18,16,17,0,6,37,0,0,18,0,0,0,0,0,0,0,0,0,0,0,0,0,0,0,0,0,0,0,0,0,0,0,0,0,0,0,0,0,0,0,0,0,0,0,0,0,0,0,0,0,0,0,0,0],"split_type":[0,0,0,0,0,0,0,0,0,0,0,0,0,0,0,0,0,0,0,0,0,0,0,0,0,0,0,0,0,0,0,0,0,0,0,0,0,0,0,0,0,0,0,0,0,0,0,0,0,0,0,0,0,0,0,0,0,0,0,0,0,0,0,0,0,0,0,0,0,0,0,0,0,0,0,0,0,0,0,0,0,0,0,0,0,0,0,0,0,0,0,0,0,0,0,0,0,0,0,0,0,0,0,0,0],"sum_hessian":[4.8944793E4,4.7995195E4,9.495999E2,4.702754E4,9.6765356E2,3.1534555E2,6.3425433E2,4.5567426E4,1.460115E3,3.2315567E2,6.4449786E2,1.7881241E2,1.3653314E2,4.1544025E2,2.188141E2,8.6015814E2,4.470727E4,4.93686E2,9.6642896E2,1.9878252E2,1.24373146E2,4.2519403E2,2.1930386E2,5.4582615E1,1.242298E2,7.960827E1,5.6924873E1,3.3270706E2,8.2733185E1,4.9052803E1,1.6976129E2,7.15538E2,1.4462012E2,1.383284E4,3.0874428E4,2.9556516E2,1.9812085E2,5.73364E2,3.9306488E2,6.573245E1,1.3305006E2,5.6552895E1,6.7820244E1,3.3958868E2,8.5605354E1,4.975703E1,1.6954683E2,2.9036283E1,2.5546333E1,1.2129495E2,2.9348462E0,4.8411583E1,3.1196688E1,4.13643E1,1.5560575E1,8.9855995E1,2.4285107E2,3.1093796E1,1.795901E1,1.3383061E2,3.593069E1,1.5228129E3,1.2310026E4,2.0133281E4,1.0741146E4,9.106358E1,2.0450157E2,9.9222084E1,9.889876E1,5.0390952E2,6.945452E1,1.3047807E2,2.6258682E2,4.0035053E1,2.5697401E1,6.421971E1,6.883035E1,2.4852264E1,3.1700632E1,4.899001E1,1.8830236E1,9.6633606E1,2.4295508E2,3.285588E1,1.6901152E1,1.344119E2,3.513494E1,3.9968832E0,2.50394E1,1.120625E2,9.232452E0,1.8491061E0,1.0857401E0,1.13398485E1,3.707173E1,2.9344095E1,1.8525922E0,2.844319E1,1.2921109E1,8.693813E1,2.9178631E0,1.4774763E2,9.510343E1,1.1997095E2,1.3859663E1],"tree_param":{"num_deleted":"0","num_feature":"40","num_nodes":"105","size_leaf_vector":"1"}},{"base_weights":[-5.9907575E-4,-3.228997E-2,1.03375E0,-5.6983814E-2,1.2582769E0,1.2494147E0,7.9965E-1,-8.1378184E-2,1.2053127E0,1.3859222E0,1.1128255E0,1.4776913E0,1.070814E0,1.2424258E0,5.408895E-1,-1.06336735E-1,1.1756645E0,1.3410265E0,1.0550101E0,1.5500222E0,1.1661569E0,7.7502316E-1,1.3883705E0,1.5287154E0,1.1533034E-1,1.535889E-1,9.0374744E-1,1.3089358E0,8.863428E-1,1.8681052E-1,9.686071E-1,-1.321091E-1,1.1453508E0,1.3638889E0,9.667724E-1,1.4880441E0,1.2354112E0,6.9213146E-1,1.3970798E0,1.6115198E-1,1.1419435E-1,1.5787278E0,9.850694E-1,1.287581E0,5.5334896E-1,1.5714864E-1,1.286472E0,1.5999827E0,1.4001808E-1,1.1652739E0,6.577301E-1,1.5081976E-1,1.0790037E0,1.02296E0,4.6770534E-1,8.343298E-2,5.723535E-1,1.270262E0,7.7248263E-1,-1.5703242E-2,1.1380035E-1,1.3291523E-1,9.422707E-2,1.6401681E-1,1.304735E-1,6.746687E-2,1.2521233E-1,1.5352991E-1,1.1069804E-1,1.5388282E-1,1.1282434E-1,1.2986724E-1,4.6183024E-2,1.4718452E-1,1.0373843E-1,1.6016553E-1,5.5097606E-2,7.378669E-2,1.3032873E-1,1.4102903E-1,7.71018E-2,4.8820097E-2,1.7387389E-1,1.4834131E-1,1.20406866E-1,1.6147026E-1,9.479291E-2,5.5212256E-2,1.23720564E-1,1.1479505E-2,7.518475E-2,1.2971336E-1,8.813447E-2,1.1693324E-1,5.34856E-2,1.0651626E-1,6.587082E-3,4.8365127E-3,1.3689546E-1,1.15079634E-1,1.8945808E-2,1.0297113E-1,1.470566E-1,7.355007E-2,1.5371905E-1],"categories":[],"categories_nodes":[],"categories_segments":[],"categories_sizes":[],"default_left":[0,0,0,0,0,0,0,0,0,0,0,0,0,0,0,0,0,0,0,0,0,0,0,0,0,0,0,0,0,0,0,0,0,0,0,0,0,0,0,0,0,0,0,0,0,0,0,0,0,0,0,0,0,0,0,0,0,0,0,0,0,0,0,0,0,0,0,0,0,0,0,0,0,0,0,0,0,0,0,0,0,0,0,0,0,0,0,0,0,0,0,0,0,0,0,0,0,0,0,0,0,0,0,0,0],"id":17,"left_children":[1,3,5,7,9,11,13,15,17,19,21,23,25,27,29,31,33,35,37,39,41,43,45,47,-1,-1,49,51,53,55,57,59,61,63,65,67,69,71,73,-1,-1,75,77,79,81,-1,83,85,-1,87,89,-1,91,93,95,97,99,101,103,-1,-1,-1,-1,-1,-1,-1,-1,-1,-1,-1,-1,-1,-1,-1,-1,-1,-1,-1,-1,-1,-1,-1,-1,-1,-1,-1,-1,-1,-1,-1,-1,-1,-1,-1,-1,-1,-1,-1,-1,-1,-1,-1,-1,-1,-1],"loss_changes":[1.5952831E3,1.5049412E3,7.2043945E1,1.4268821E3,1.4918457E1,2.9046509E1,7.912894E1,1.4262998E3,1.6505493E1,1.5074829E1,3.796826E1,3.6514893E0,3.1643097E1,4.905884E0,6.666319E1,1.4380359E3,3.3480835E1,5.272827E0,5.1359406E1,4.809265E0,1.36979065E1,2.0956177E1,2.265503E0,3.209839E-1,0E0,0E0,1.9513275E1,8.164825E0,2.0042648E0,9.625908E0,1.083107E1,1.3827246E3,3.2317383E1,5.428955E0,3.4407745E1,1.6600647E0,7.121582E0,2.8250229E1,4.2822876E0,0E0,0E0,5.458832E-1,1.0408722E1,2.514557E0,9.567806E0,0E0,6.9898987E-1,1.2854004E-1,0E0,5.9982147E0,8.3302765E0,0E0,3.2864685E0,1.6526947E0,2.9363265E0,8.614664E0,1.1110516E1,2.201355E0,2.3633347E0,0E0,0E0,0E0,0E0,0E0,0E0,0E0,0E0,0E0,0E0,0E0,0E0,0E0,0E0,0E0,0E0,0E0,0E0,0E0,0E0,0E0,0E0,0E0,0E0,0E0,0E0,0E0,0E0,0E0,0E0,0E0,0E0,0E0,0E0,0E0,0E0,0E0,0E0,0E0,0E0,0E0,0E0,0E0,0E0,0E0,0E0],"parents":[2147483647,0,0,1,1,2,2,3,3,4,4,5,5,6,6,7,7,8,8,9,9,10,10,11,11,12,12,13,13,14,14,15,15,16,16,17,17,18,18,19,19,20,20,21,21,22,22,23,23,26,26,27,27,28,28,29,29,30,30,31,31,32,32,33,33,34,34,35,35,36,36,37,37,38,38,41,41,42,42,43,43,44,44,46,46,47,47,49,49,50,50,52,52,53,53,54,54,55,55,56,56,57,57,58,58],"right_children":[2,4,6,8,10,12,14,16,18,20,22,24,26,28,30,32,34,36,38,40,42,44,46,48,-1,-1,50,52,54,56,58,60,62,64,66,68,70,72,74,-1,-1,76,78,80,82,-1,84,86,-1,88,90,-1,92,94,96,98,100,102,104,-1,-1,-1,-1,-1,-1,-1,-1,-1,-1,-1,-1,-1,-1,-1,-1,-1,-1,-1,-1,-1,-1,-1,-1,-1,-1,-1,-1,-1,-1,-1,-1,-1,-1,-1,-1,-1,-1,-1,-1,-1,-1,-1,-1,-1,-1],"split_conditions":[2E0,3E0,1E0,3E0,1E0,1E0,1E0,3E0,1E0,1E0,1E0,3E0,1E0,2E0,1E0,3E0,1E0,1E0,1E0,3E0,1E0,1E0,5E0,2E0,1.1533034E-1,1.535889E-1,1E0,1E0,2E0,2E0,5E0,3E0,1E0,1E0,1E0,3E0,1E0,1E0,6E0,1.6115198E-1,1.1419435E-1,2E0,1E0,2E0,1E0,1.5714864E-1,1E0,1E0,1.4001808E-1,1E0,1E0,1.5081976E-1,1E0,2E0,5E0,2E0,5E0,1E0,2E0,-1.5703242E-2,1.1380035E-1,1.3291523E-1,9.422707E-2,1.6401681E-1,1.304735E-1,6.746687E-2,1.2521233E-1,1.5352991E-1,1.1069804E-1,1.5388282E-1,1.1282434E-1,1.2986724E-1,4.6183024E-2,1.4718452E-1,1.0373843E-1,1.6016553E-1,5.5097606E-2,7.378669E-2,1.3032873E-1,1.4102903E-1,7.71018E-2,4.8820097E-2,1.7387389E-1,1.4834131E-1,1.20406866E-1,1.6147026E-1,9.479291E-2,5.5212256E-2,1.23720564E-1,1.1479505E-2,7.518475E-2,1.2971336E-1,8.813447E-2,1.1693324E-1,5.34856E-2,1.0651626E-1,6.587082E-3,4.8365127E-3,1.3689546E-1,1.15079634E-1,1.8945808E-2,1.0297113E-1,1.470566E-1,7.355007E-2,1.5371905E-1],"split_indices":[5,14,17,13,17,16,18,6,17,16,37,18,18,17,37,7,17,16,37,18,18,18,39,15,0,0,15,16,1,15,39,8,17,18,37,18,18,18,39,0,0,16,37,32,15,0,26,37,0,36,35,0,15,3,39,16,39,36,16,0,0,0,0,0,0,0,0,0,0,0,0,0,0,0,0,0,0,0,0,0,0,0,0,0,0,0,0,0,0,0,0,0,0,0,0,0,0,0,0,0,0,0,0,0,0],"split_type":[0,0,0,0,0,0,0,0,0,0,0,0,0,0,0,0,0,0,0,0,0,0,0,0,0,0,0,0,0,0,0,0,0,0,0,0,0,0,0,0,0,0,0,0,0,0,0,0,0,0,0,0,0,0,0,0,0,0,0,0,0,0,0,0,0,0,0,0,0,0,0,0,0,0,0,0,0,0,0,0,0,0,0,0,0,0,0,0,0,0,0,0,0,0,0,0,0,0,0,0,0,0,0,0,0],"sum_hessian":[4.8665156E4,4.7219395E4,1.4457621E3,4.6333793E4,8.855999E2,7.5025385E2,6.955082E2,4.545627E4,8.7752454E2,4.6712857E2,4.1847134E2,3.2613455E2,4.241193E2,2.5513489E2,4.4037332E2,4.4572207E4,8.840645E2,4.5697897E2,4.2054556E2,2.6396854E2,2.0316002E2,1.8971016E2,2.2876118E2,2.786E2,4.7534557E1,1.09923706E2,3.141956E2,2.1272565E2,4.240925E1,2.4171242E2,1.9866089E2,4.367385E4,8.983543E2,4.6212936E2,4.2193515E2,1.8557184E2,2.7140714E2,2.0553296E2,2.150126E2,2.268354E2,3.7133144E1,5.961694E1,1.4354309E2,5.5824234E1,1.3388593E2,7.663068E1,1.5213051E2,1.7186165E2,1.0673835E2,1.5048613E2,1.6370946E2,1.1098522E2,1.01740425E2,3.0886328E1,1.152292E1,1.9156386E2,5.0148563E1,7.611433E1,1.2254656E2,4.2834195E4,8.3965564E2,4.6864948E2,4.2970483E2,7.67836E1,3.8534576E2,2.10163E2,2.1177217E2,1.6240355E2,2.3168291E1,6.735374E1,2.040534E2,5.528655E1,1.5024641E2,1.7545177E2,3.956083E1,5.7769787E1,1.8471519E0,8.2653656E1,6.0889427E1,4.3710655E1,1.2113577E1,1.2824931E2,5.636618E0,3.986134E1,1.1226917E2,1.6662386E2,5.2377963E0,1.671152E1,1.3377461E2,2.451417E1,1.3919528E2,4.572136E1,5.6019062E1,2.268723E1,8.199099E0,3.9697907E0,7.5531287E0,1.87487E2,4.076851E0,1.9175097E1,3.0973465E1,3.73729E1,3.8741432E1,1.1876481E2,3.7817566E0],"tree_param":{"num_deleted":"0","num_feature":"40","num_nodes":"105","size_leaf_vector":"1"}},{"base_weights":[2.5845857E-3,2.919642E-2,-1.2003999E-1,-8.856257E-2,3.571337E-1,2.15543E-3,-6.716601E-1,7.39196E-1,1.1992146E-1,5.075702E-2,-9.685884E-1,-9.74051E-1,-3.6189556E-1,1.0048681E0,4.7006693E-1,-2.1023585E-2,1.1492542E-1,1.3818353E-2,1.1843234E-1,-4.4678786E-1,-1.1109922E0,1.227833E-1,-9.9477416E-1,-5.50553E-1,1.2462419E-1,-1.2999426E-1,1.0300491E0,2.7312487E-1,1.0641723E0,-1.5392847E0,9.098141E-2,-3.5310031E-3,9.2123434E-2,-1.1675791E-1,-8.5789105E-3,-1.360714E-1,-9.979343E-2,-1.1201618E-1,-7.816737E-2,-1.03894785E-1,-1.939725E-2,1.10333756E-1,5.101749E-2,-1.8811932E-2,4.541616E-2,1.2747669E-1,8.166898E-2,-1.3613974E-1,-1.7383538E-1,-3.125251E-2,2.5346944E-2],"categories":[],"categories_nodes":[],"categories_segments":[],"categories_sizes":[],"default_left":[0,0,0,0,0,0,0,0,0,0,0,0,0,0,0,0,0,0,0,0,0,0,0,0,0,0,0,0,0,0,0,0,0,0,0,0,0,0,0,0,0,0,0,0,0,0,0,0,0,0,0],"id":18,"left_children":[1,3,-1,5,7,9,11,13,15,17,19,21,23,25,27,29,-1,31,-1,33,35,-1,37,39,-1,-1,41,43,45,47,49,-1,-1,-1,-1,-1,-1,-1,-1,-1,-1,-1,-1,-1,-1,-1,-1,-1,-1,-1,-1],"loss_changes":[1.551647E3,1.8312474E3,0E0,1.8456593E3,1.1354133E3,1.4246267E3,4.396643E2,3.426582E2,1.1216301E3,1.2040675E3,1.06483154E2,1.09659424E2,7.051698E2,1.414502E2,2.7886774E2,1.1566466E3,0E0,1.2415615E3,0E0,8.0652565E1,3.0555908E1,0E0,6.204663E1,3.6185138E2,0E0,0E0,9.044507E1,1.4982384E2,2.989917E1,1.4181274E1,4.1540494E2,0E0,0E0,0E0,0E0,0E0,0E0,0E0,0E0,0E0,0E0,0E0,0E0,0E0,0E0,0E0,0E0,0E0,0E0,0E0,0E0],"parents":[2147483647,0,0,1,1,3,3,4,4,5,5,6,6,7,7,8,8,9,9,10,10,11,11,12,12,13,13,14,14,15,15,17,17,19,19,20,20,22,22,23,23,26,26,27,27,28,28,29,29,30,30],"right_children":[2,4,-1,6,8,10,12,14,16,18,20,22,24,26,28,30,-1,32,-1,34,36,-1,38,40,-1,-1,42,44,46,48,50,-1,-1,-1,-1,-1,-1,-1,-1,-1,-1,-1,-1,-1,-1,-1,-1,-1,-1,-1,-1],"split_conditions":[3E0,2E0,-1.2003999E-1,2E0,2E0,2E0,1E0,1E0,3E0,7E0,1E0,1E0,6E0,1E0,1E0,4E0,1.1492542E-1,2E0,1.1843234E-1,2E0,1E0,1.227833E-1,1E0,5E0,1.2462419E-1,-1.2999426E-1,2E0,2E0,1E0,1E0,2E0,-3.5310031E-3,9.2123434E-2,-1.1675791E-1,-8.5789105E-3,-1.360714E-1,-9.979343E-2,-1.1201618E-1,-7.816737E-2,-1.03894785E-1,-1.939725E-2,1.10333756E-1,5.101749E-2,-1.8811932E-2,4.541616E-2,1.2747669E-1,8.166898E-2,-1.3613974E-1,-1.7383538E-1,-3.125251E-2,2.5346944E-2],"split_indices":[38,18,0,38,38,37,17,37,18,19,18,0,19,20,17,19,0,17,0,20,32,0,36,19,0,0,36,20,11,11,20,0,0,0,0,0,0,0,0,0,0,0,0,0,0,0,0,0,0,0,0],"split_type":[0,0,0,0,0,0,0,0,0,0,0,0,0,0,0,0,0,0,0,0,0,0,0,0,0,0,0,0,0,0,0,0,0,0,0,0,0,0,0,0,0,0,0,0,0,0,0,0,0,0,0],"sum_hessian":[4.846624E4,4.741825E4,1.0479877E3,3.4890242E4,1.2528007E4,3.0193717E4,4.6965254E3,4.7980244E3,7.7299824E3,2.8755008E4,1.4387102E3,2.3754636E3,2.321062E3,2.413144E3,2.3848806E3,6.799866E3,9.3011633E2,2.7848541E4,9.064669E2,3.0934305E2,1.1293672E3,2.1605263E1,2.3538584E3,2.0779468E3,2.4311513E2,2.553258E1,2.3876113E3,1.7922283E3,5.926523E2,4.6629916E2,6.3335674E3,2.6419143E4,1.4293971E3,1.02483734E2,2.0685931E2,3.4852087E2,7.808463E2,1.4792286E3,8.7462964E2,8.7608826E2,1.2018586E3,2.0916257E3,2.9598572E2,5.05156E2,1.2870723E3,3.1794595E2,2.747063E2,2.5039017E2,2.15909E2,1.8180013E3,4.515566E3],"tree_param":{"num_deleted":"0","num_feature":"40","num_nodes":"51","size_leaf_vector":"1"}},{"base_weights":[-9.878236E-4,2.3817211E-2,-1.2304648E0,4.8612308E-2,-1.2046958E0,-7.6E-1,-1.46693E0,-1.19837485E-1,7.295431E-2,-7.88837E-1,-1.4155791E0,-1.145385E0,-1.7122306E-1,-1.4012129E0,-1.7318287E0,1.0242111E-1,-9.426625E-1,-1.1567296E0,-2.516605E-1,-1.5185637E0,-1.1945606E0,-4.869489E-1,-1.4493934E0,9.809801E-2,-6.229098E-1,-1.2487892E0,-1.5752323E0,-1.833599E-1,-1.1386754E-1,1.2660813E-1,-1.1564307E0,-3.9491576E-1,-1.2358673E0,-6.4547104E-1,-1.4044814E0,-6.404777E-1,1.6285928E-1,-1.310602E0,-1.6196332E0,2.6165527E-1,-1.6194583E0,2.0153545E-1,-1.4551298E-1,-1.3111582E0,-1.6357683E-1,-4.939825E-1,1.052021E0,-1.3993881E0,-3.3710015E-1,-1.5301723E0,2.6812268E-2,-1.2592404E-1,-1.6754587E0,1.51248565E-2,-1.1245533E-1,-6.4728685E-2,-1.4115466E-1,-7.16579E-2,6.2078573E-3,-1.3942589E-1,-1.03514604E-1,-2.160663E-2,-1.320806E-1,-1.2793173E-1,-1.5892828E-1,-1.2234632E-1,2.645657E-2,1.10190205E-1,-4.6729486E-2,-1.1816745E-1,-1.4152451E-1,-1.6770326E-1,-1.20602705E-1,-3.6127776E-2,1.1103624E-1,-1.7462553E-1,-1.1534281E-1,3.283864E-2,-1.0131021E-1,-1.513838E-1,-1.063617E-1,-1.2134697E-1,1.4797436E-2,1.12506784E-1,-9.25764E-3,-1.6156048E-1,-6.646557E-2,-5.866105E-2,2.758639E-2,-1.6888928E-1,-1.3451162E-1,-6.961442E-2,9.90997E-2,-1.8070698E-1,-1.1554052E-1],"categories":[],"categories_nodes":[],"categories_segments":[],"categories_sizes":[],"default_left":[0,0,0,0,0,0,0,0,0,0,0,0,0,0,0,0,0,0,0,0,0,0,0,0,0,0,0,0,0,0,0,0,0,0,0,0,0,0,0,0,0,0,0,0,0,0,0,0,0,0,0,0,0,0,0,0,0,0,0,0,0,0,0,0,0,0,0,0,0,0,0,0,0,0,0,0,0,0,0,0,0,0,0,0,0,0,0,0,0,0,0,0,0,0,0],"id":19,"left_children":[1,3,5,7,9,11,13,-1,15,17,19,21,23,25,27,29,31,33,35,37,39,41,43,45,47,49,51,-1,-1,53,55,57,59,61,63,65,67,69,71,73,75,77,-1,79,-1,81,83,85,87,89,91,-1,93,-1,-1,-1,-1,-1,-1,-1,-1,-1,-1,-1,-1,-1,-1,-1,-1,-1,-1,-1,-1,-1,-1,-1,-1,-1,-1,-1,-1,-1,-1,-1,-1,-1,-1,-1,-1,-1,-1,-1,-1,-1,-1],"loss_changes":[1.461875E3,1.431327E3,1.0434546E2,1.3981444E3,8.040808E1,7.222476E1,8.537231E0,0E0,1.3521143E3,6.1970154E1,1.21970215E1,3.787233E1,1.5564073E1,1.1556641E1,5.2132263E0,1.33694E3,2.0410266E2,2.274318E1,2.0950298E1,6.6256104E0,1.2438483E2,4.187617E1,1.2391357E0,4.609954E1,1.0122831E1,9.932794E1,5.3085938E0,0E0,0E0,1.3282148E3,1.06604004E2,6.555058E1,2.4921387E1,1.7924772E1,8.5614014E-1,3.564392E1,3.8030163E1,2.3484802E-1,4.5264893E0,2.4780855E1,7.158539E0,6.0853066E0,0E0,2.426178E0,0E0,2.3492954E1,2.7149315E0,9.162388E-1,5.700182E0,4.385193E0,3.6221916E1,0E0,9.87677E0,0E0,0E0,0E0,0E0,0E0,0E0,0E0,0E0,0E0,0E0,0E0,0E0,0E0,0E0,0E0,0E0,0E0,0E0,0E0,0E0,0E0,0E0,0E0,0E0,0E0,0E0,0E0,0E0,0E0,0E0,0E0,0E0,0E0,0E0,0E0,0E0,0E0,0E0,0E0,0E0,0E0,0E0],"parents":[2147483647,0,0,1,1,2,2,3,3,4,4,5,5,6,6,8,8,9,9,10,10,11,11,12,12,13,13,14,14,15,15,16,16,17,17,18,18,19,19,20,20,21,21,22,22,23,23,24,24,25,25,26,26,29,29,30,30,31,31,32,32,33,33,34,34,35,35,36,36,37,37,38,38,39,39,40,40,41,41,43,43,45,45,46,46,47,47,48,48,49,49,50,50,52,52],"right_children":[2,4,6,8,10,12,14,-1,16,18,20,22,24,26,28,30,32,34,36,38,40,42,44,46,48,50,52,-1,-1,54,56,58,60,62,64,66,68,70,72,74,76,78,-1,80,-1,82,84,86,88,90,92,-1,94,-1,-1,-1,-1,-1,-1,-1,-1,-1,-1,-1,-1,-1,-1,-1,-1,-1,-1,-1,-1,-1,-1,-1,-1,-1,-1,-1,-1,-1,-1,-1,-1,-1,-1,-1,-1,-1,-1,-1,-1,-1,-1],"split_conditions":[3E0,3E0,5E0,1E0,5E0,5E0,3E0,-1.19837485E-1,2E0,5E0,6E0,4E0,1E0,6E0,6E0,3E0,5E0,4E0,1E0,2E0,6E0,1E0,1E0,1E0,2E0,6E0,6E0,-1.833599E-1,-1.1386754E-1,3E0,5E0,5E0,1E0,1E0,1E0,1E0,1E0,2E0,6E0,1E0,7E0,2E0,-1.4551298E-1,3E0,-1.6357683E-1,1E0,3E0,1E0,2E0,1E0,1E0,-1.2592404E-1,7E0,1.51248565E-2,-1.1245533E-1,-6.4728685E-2,-1.4115466E-1,-7.16579E-2,6.2078573E-3,-1.3942589E-1,-1.03514604E-1,-2.160663E-2,-1.320806E-1,-1.2793173E-1,-1.5892828E-1,-1.2234632E-1,2.645657E-2,1.10190205E-1,-4.6729486E-2,-1.1816745E-1,-1.4152451E-1,-1.6770326E-1,-1.20602705E-1,-3.6127776E-2,1.1103624E-1,-1.7462553E-1,-1.1534281E-1,3.283864E-2,-1.0131021E-1,-1.513838E-1,-1.063617E-1,-1.2134697E-1,1.4797436E-2,1.12506784E-1,-9.25764E-3,-1.6156048E-1,-6.646557E-2,-5.866105E-2,2.758639E-2,-1.6888928E-1,-1.3451162E-1,-6.961442E-2,9.90997E-2,-1.8070698E-1,-1.1554052E-1],"split_indices":[33,34,39,20,39,19,0,0,25,19,19,39,17,39,39,27,39,39,37,20,39,17,17,37,0,19,19,0,0,26,39,19,37,17,17,36,17,0,39,37,39,16,0,20,0,36,26,31,9,37,37,0,39,0,0,0,0,0,0,0,0,0,0,0,0,0,0,0,0,0,0,0,0,0,0,0,0,0,0,0,0,0,0,0,0,0,0,0,0,0,0,0,0,0,0],"split_type":[0,0,0,0,0,0,0,0,0,0,0,0,0,0,0,0,0,0,0,0,0,0,0,0,0,0,0,0,0,0,0,0,0,0,0,0,0,0,0,0,0,0,0,0,0,0,0,0,0,0,0,0,0,0,0,0,0,0,0,0,0,0,0,0,0,0,0,0,0,0,0,0,0,0,0,0,0,0,0,0,0,0,0,0,0,0,0,0,0,0,0,0,0,0,0],"sum_hessian":[4.7932734E4,4.6985766E4,9.4697003E2,4.6057152E4,9.286117E2,3.1816708E2,6.28803E2,8.809281E2,4.5176227E4,3.1405014E2,6.145616E2,1.9172667E2,1.2644041E2,5.0885416E2,1.199488E2,4.390333E4,1.2728987E3,1.8571046E2,1.2833968E2,4.1521802E2,1.9934355E2,6.1382725E1,1.3034395E2,7.9701004E1,4.6739407E1,2.7561707E2,2.3323709E2,1.0059752E2,1.935128E1,4.307657E4,8.267547E2,4.4462503E2,8.282736E2,6.1795364E1,1.2391511E2,6.594166E1,6.2398018E1,1.4036623E2,2.748518E2,4.511362E1,1.5422993E2,3.633578E1,2.5046942E1,7.945028E1,5.0893665E1,4.947502E1,3.0225979E1,1.1527001E1,3.5212406E1,2.2564319E2,4.997389E1,5.9430275E1,1.7380681E2,4.224547E4,8.3110474E2,2.7715787E2,5.495968E2,2.606172E2,1.8400786E2,4.5962863E2,3.68645E2,3.8582817E1,2.3212545E1,7.860167E1,4.531344E1,3.9892807E1,2.6048855E1,2.475701E1,3.764101E1,6.839334E1,7.1972885E1,2.3867444E2,3.6177353E1,2.6348616E1,1.8765003E1,1.1908289E2,3.5147038E1,3.3560524E1,2.7752578E0,4.087086E1,3.8579414E1,2.2908995E1,2.6566027E1,2.8428753E1,1.7972257E0,7.979805E0,3.5471961E0,2.5056154E1,1.0156251E1,1.1709007E2,1.08553116E2,2.8718462E1,2.1255426E1,1.3672957E2,3.7077236E1],"tree_param":{"num_deleted":"0","num_feature":"40","num_nodes":"95","size_leaf_vector":"1"}},{"base_weights":[2.8859542E-3,2.6682757E-2,-1.2085521E0,5.6707367E-2,-9.502154E-1,-8.3740616E-1,-1.385642E0,8.151281E-2,-1.162184E0,-3.5463905E-1,-1.2490691E0,-1.1785374E0,-3.661106E-1,-1.3286538E0,-1.5998877E0,1.05593376E-1,-1.1754396E-1,-7.4180067E-1,-1.3711971E0,-7.0255727E-1,1.8151215E-1,-1.3779199E0,-1.094098E0,-1.5128176E-1,-8.273223E-1,-5.337593E-1,3.7149626E-1,-1.1834673E0,-1.497471E0,-1.681265E-1,-1.1442411E-1,1.2999563E-1,-1.1821916E-1,-1.0482733E0,-2.745767E-1,-1.3100535E0,-1.6161462E0,1.0165945E-2,-1.0448586E0,8.001389E-1,-4.9398023E-1,-1.3076214E0,-1.6767913E0,-9.4486785E-1,-1.3266749E0,1.8729655E-1,-1.2308834E0,-4.7325186E-2,-1.4706813E-1,1.2277105E0,-1.0840049E-1,-1.4318477E0,-2.2590334E-2,-1.21988945E-1,-1.58221E0,2.9220867E-3,4.4801157E-2,-1.5008682E-1,-5.6400996E-2,1.2573923E-2,-7.067198E-2,-1.1612079E-1,-1.4898644E-1,-1.6960822E-1,-1.1140535E-1,-6.610766E-2,7.873926E-2,-1.4273381E-1,-6.3557126E-2,9.658822E-2,-8.682092E-3,-1.03942834E-1,6.9124006E-2,-1.1769301E-1,-1.4425708E-1,-1.7962936E-1,-9.101596E-2,-1.2274011E-1,1.18869305E-1,-1.5112366E-1,-1.1677002E-1,8.594395E-2,-1.0551747E-1,6.4071896E-3,-1.648011E-1,-1.4916436E-1,1.648455E-2,1.3347481E-1,6.9180685E-3,-1.5980345E-1,-1.097271E-1,1.06244706E-1,-1.6616978E-1,-1.690106E-1,-1.14818394E-1],"categories":[],"categories_nodes":[],"categories_segments":[],"categories_sizes":[],"default_left":[0,0,0,0,0,0,0,0,0,0,0,0,0,0,0,0,0,0,0,0,0,0,0,0,0,0,0,0,0,0,0,0,0,0,0,0,0,0,0,0,0,0,0,0,0,0,0,0,0,0,0,0,0,0,0,0,0,0,0,0,0,0,0,0,0,0,0,0,0,0,0,0,0,0,0,0,0,0,0,0,0,0,0,0,0,0,0,0,0,0,0,0,0,0,0],"id":20,"left_children":[1,3,5,7,9,11,13,15,17,19,21,23,25,27,29,31,-1,33,35,37,39,41,43,-1,45,47,49,51,53,-1,-1,55,-1,57,59,61,63,65,67,69,71,73,75,77,79,81,83,85,-1,87,-1,89,91,-1,93,-1,-1,-1,-1,-1,-1,-1,-1,-1,-1,-1,-1,-1,-1,-1,-1,-1,-1,-1,-1,-1,-1,-1,-1,-1,-1,-1,-1,-1,-1,-1,-1,-1,-1,-1,-1,-1,-1,-1,-1],"loss_changes":[1.375317E3,1.3723893E3,5.9247192E1,1.3725801E3,2.478866E2,4.7705093E1,5.4522705E0,1.3467312E3,7.853967E1,8.734592E1,1.7035156E1,1.9087204E1,1.5923824E1,1.0388733E1,2.730011E0,1.3719708E3,0E0,4.3079346E1,6.9226074E0,6.9239685E1,7.761977E1,8.379517E0,1.3546936E1,0E0,3.5724876E1,4.7341274E1,3.1415384E1,7.8257385E1,3.3774414E0,0E0,0E0,1.373018E3,0E0,3.9161438E1,2.1076958E1,1.1338562E1,2.7777405E0,4.9069374E1,2.910347E1,1.4320499E1,5.8228317E1,5.5669556E0,6.818878E0,1.6013818E2,3.053009E0,2.2231955E1,3.3676765E1,2.1546545E1,0E0,1.8506279E0,0E0,1.0681854E1,8.868244E1,0E0,5.9971924E0,0E0,0E0,0E0,0E0,0E0,0E0,0E0,0E0,0E0,0E0,0E0,0E0,0E0,0E0,0E0,0E0,0E0,0E0,0E0,0E0,0E0,0E0,0E0,0E0,0E0,0E0,0E0,0E0,0E0,0E0,0E0,0E0,0E0,0E0,0E0,0E0,0E0,0E0,0E0,0E0],"parents":[2147483647,0,0,1,1,2,2,3,3,4,4,5,5,6,6,7,7,8,8,9,9,10,10,11,11,12,12,13,13,14,14,15,15,17,17,18,18,19,19,20,20,21,21,22,22,24,24,25,25,26,26,27,27,28,28,31,31,33,33,34,34,35,35,36,36,37,37,38,38,39,39,40,40,41,41,42,42,43,43,44,44,45,45,46,46,47,47,49,49,51,51,52,52,54,54],"right_children":[2,4,6,8,10,12,14,16,18,20,22,24,26,28,30,32,-1,34,36,38,40,42,44,-1,46,48,50,52,54,-1,-1,56,-1,58,60,62,64,66,68,70,72,74,76,78,80,82,84,86,-1,88,-1,90,92,-1,94,-1,-1,-1,-1,-1,-1,-1,-1,-1,-1,-1,-1,-1,-1,-1,-1,-1,-1,-1,-1,-1,-1,-1,-1,-1,-1,-1,-1,-1,-1,-1,-1,-1,-1,-1,-1,-1,-1,-1,-1],"split_conditions":[3E0,2E0,5E0,3E0,5E0,5E0,3E0,3E0,5E0,5E0,1E0,2E0,2E0,6E0,6E0,7E0,-1.1754396E-1,5E0,3E0,4E0,2E0,3E0,6E0,-1.5128176E-1,4E0,2E0,3E0,6E0,6E0,-1.681265E-1,-1.1442411E-1,6E0,-1.1821916E-1,2E0,2E0,6E0,6E0,2E0,2E0,2E0,1E0,6E0,6E0,6E0,1E0,3E0,2E0,2E0,-1.4706813E-1,3E0,-1.0840049E-1,2E0,2E0,-1.21988945E-1,7E0,2.9220867E-3,4.4801157E-2,-1.5008682E-1,-5.6400996E-2,1.2573923E-2,-7.067198E-2,-1.1612079E-1,-1.4898644E-1,-1.6960822E-1,-1.1140535E-1,-6.610766E-2,7.873926E-2,-1.4273381E-1,-6.3557126E-2,9.658822E-2,-8.682092E-3,-1.03942834E-1,6.9124006E-2,-1.1769301E-1,-1.4425708E-1,-1.7962936E-1,-9.101596E-2,-1.2274011E-1,1.18869305E-1,-1.5112366E-1,-1.1677002E-1,8.594395E-2,-1.0551747E-1,6.4071896E-3,-1.648011E-1,-1.4916436E-1,1.648455E-2,1.3347481E-1,6.9180685E-3,-1.5980345E-1,-1.097271E-1,1.06244706E-1,-1.6616978E-1,-1.690106E-1,-1.14818394E-1],"split_indices":[32,31,39,33,39,19,0,38,39,19,37,18,18,39,39,39,0,19,0,39,38,20,39,0,39,38,38,19,19,0,0,19,0,18,38,39,39,18,18,37,37,39,19,19,18,38,38,0,0,26,0,18,38,0,39,0,0,0,0,0,0,0,0,0,0,0,0,0,0,0,0,0,0,0,0,0,0,0,0,0,0,0,0,0,0,0,0,0,0,0,0,0,0,0,0],"split_type":[0,0,0,0,0,0,0,0,0,0,0,0,0,0,0,0,0,0,0,0,0,0,0,0,0,0,0,0,0,0,0,0,0,0,0,0,0,0,0,0,0,0,0,0,0,0,0,0,0,0,0,0,0,0,0,0,0,0,0,0,0,0,0,0,0,0,0,0,0,0,0,0,0,0,0,0,0,0,0,0,0,0,0,0,0,0,0,0,0,0,0,0,0,0,0],"sum_hessian":[4.770498E4,4.6786902E4,9.1807745E2,4.539272E4,1.3941868E3,2.984059E2,6.196715E2,4.4488277E4,9.044399E2,4.6656683E2,9.276199E2,1.7223724E2,1.26168686E2,4.9516226E2,1.2450928E2,4.3652895E4,8.3538184E2,3.0186157E2,6.025783E2,2.8276508E2,1.8380176E2,5.02186E2,4.254339E2,8.655163E1,8.568561E1,1.0302807E2,2.3140614E1,2.7051962E2,2.2464264E2,1.0335969E2,2.114959E1,4.284198E4,8.1091406E2,1.8153873E2,1.2032284E2,4.872903E2,1.15287994E2,9.205758E1,1.907075E2,9.584283E1,8.795892E1,4.1090973E2,9.127625E1,2.6223605E2,1.6319783E2,2.453542E1,6.1150192E1,6.850957E1,3.45185E1,1.466832E1,8.472294E0,2.2264847E2,4.787114E1,5.6139896E1,1.6850275E2,3.2533627E4,1.03083545E4,9.27525E1,8.8786224E1,6.2829628E1,5.749321E1,2.706812E2,2.166091E2,9.7402885E1,1.7885109E1,4.9476894E1,4.2580685E1,9.729647E1,9.341103E1,8.067784E1,1.51649885E1,6.0321484E1,2.7637438E1,2.1368675E2,1.9722299E2,7.7804955E1,1.3471304E1,2.3194576E2,3.0290312E1,7.158508E1,9.161275E1,1.6122091E1,8.413328E0,1.5104699E1,4.604549E1,8.002618E0,6.050695E1,1.3288482E1,1.3798381E0,1.4623576E2,7.641271E1,2.9015564E1,1.8855576E1,1.3263626E2,3.5866486E1],"tree_param":{"num_deleted":"0","num_feature":"40","num_nodes":"95","size_leaf_vector":"1"}},{"base_weights":[-2.3187806E-3,-2.5400367E-2,1.1822295E0,-4.8653632E-2,1.1501621E0,8.5682595E-1,1.3481385E0,1.1985476E0,-7.1017414E-2,7.348195E-1,1.361896E0,-4.2766818E-1,1.0041822E0,1.2726461E0,1.6366084E0,1.218758E-1,1.0753896E-1,-3.790166E-1,3.0804364E-2,-4.3506315E-1,8.7081856E-1,1.2787132E0,1.655532E0,4.2121224E-3,-7.671388E-1,6.5735793E-1,1.5321115E-1,1.1153601E0,1.460967E0,1.7187926E0,1.12668924E-1,-1.4106233E0,-2.862424E-1,4.819327E-1,-3.601139E-2,-5.93235E-1,1.2491163E-1,5.446094E-1,1.4416133E-1,1.1459489E0,1.4385312E0,1.7351209E0,1.1155003E-1,3.1173116E-1,-7.382953E-1,-9.72097E-1,4.1588575E-1,5.295611E-1,1.6092247E-1,9.4794196E-1,1.4528038E-1,1.5123422E0,1.1055533E-1,1.7689322E-1,1.2422347E-1,-1.2519515E-1,-1.450592E-1,-1.1748991E-1,-2.0391664E-2,1.3422064E-1,3.6255587E-2,-6.810937E-3,8.9831084E-2,-7.325687E-2,7.478904E-2,-1.2643657E-3,7.547802E-2,7.155852E-2,1.2704387E-1,1.4834091E-1,1.094077E-1,1.7781854E-1,1.2405386E-1,8.260257E-2,-6.7232564E-2,-1.0680153E-1,2.1883357E-2,-3.446873E-2,-1.1197728E-1,7.0455916E-2,-2.0496876E-3,-1.2835033E-2,7.895403E-2,1.1370873E-1,-2.5473386E-2,1.5477483E-1,1.149134E-1],"categories":[],"categories_nodes":[],"categories_segments":[],"categories_sizes":[],"default_left":[0,0,0,0,0,0,0,0,0,0,0,0,0,0,0,0,0,0,0,0,0,0,0,0,0,0,0,0,0,0,0,0,0,0,0,0,0,0,0,0,0,0,0,0,0,0,0,0,0,0,0,0,0,0,0,0,0,0,0,0,0,0,0,0,0,0,0,0,0,0,0,0,0,0,0,0,0,0,0,0,0,0,0,0,0,0,0],"id":21,"left_children":[1,3,5,7,9,11,13,15,17,19,21,23,25,27,29,-1,-1,31,33,35,37,39,41,43,45,47,-1,49,51,53,-1,55,57,59,61,63,-1,65,-1,67,69,71,-1,73,75,77,79,81,-1,83,-1,85,-1,-1,-1,-1,-1,-1,-1,-1,-1,-1,-1,-1,-1,-1,-1,-1,-1,-1,-1,-1,-1,-1,-1,-1,-1,-1,-1,-1,-1,-1,-1,-1,-1,-1,-1],"loss_changes":[1.2960244E3,1.2710469E3,4.7757324E1,1.2718213E3,7.831543E1,5.8856903E1,1.0946655E1,6.8859863E-1,1.4047524E3,4.9176437E1,1.2445679E1,4.76355E0,4.9750793E1,1.2549927E1,3.1176758E0,0E0,0E0,1.0647119E3,1.0147513E3,9.427486E0,5.0437393E1,8.302612E0,3.575409E0,3.7200603E0,4.8135967E0,1.9712784E1,0E0,1.3598022E1,2.2470703E0,2.3886108E-1,0E0,4.0059814E0,7.468614E2,4.4551147E2,8.794455E2,6.244729E0,0E0,2.0699707E1,0E0,1.3079193E1,1.6062317E0,1.3589478E-1,0E0,6.3810368E0,1.7400401E0,1.0778818E0,4.409412E-1,2.584954E1,0E0,4.124756E1,0E0,5.9802246E-1,0E0,0E0,0E0,0E0,0E0,0E0,0E0,0E0,0E0,0E0,0E0,0E0,0E0,0E0,0E0,0E0,0E0,0E0,0E0,0E0,0E0,0E0,0E0,0E0,0E0,0E0,0E0,0E0,0E0,0E0,0E0,0E0,0E0,0E0,0E0],"parents":[2147483647,0,0,1,1,2,2,3,3,4,4,5,5,6,6,7,7,8,8,9,9,10,10,11,11,12,12,13,13,14,14,17,17,18,18,19,19,20,20,21,21,22,22,23,23,24,24,25,25,27,27,28,28,29,29,31,31,32,32,33,33,34,34,35,35,37,37,39,39,40,40,41,41,43,43,44,44,45,45,46,46,47,47,49,49,51,51],"right_children":[2,4,6,8,10,12,14,16,18,20,22,24,26,28,30,-1,-1,32,34,36,38,40,42,44,46,48,-1,50,52,54,-1,56,58,60,62,64,-1,66,-1,68,70,72,-1,74,76,78,80,82,-1,84,-1,86,-1,-1,-1,-1,-1,-1,-1,-1,-1,-1,-1,-1,-1,-1,-1,-1,-1,-1,-1,-1,-1,-1,-1,-1,-1,-1,-1,-1,-1,-1,-1,-1,-1,-1,-1],"split_conditions":[3E0,3E0,5E0,1E0,5E0,1E0,3E0,7E0,2E0,1E0,3E0,1E0,1E0,6E0,6E0,1.218758E-1,1.0753896E-1,1E0,2E0,3E0,1E0,6E0,6E0,2E0,4E0,2E0,1.5321115E-1,2E0,7E0,2E0,1.12668924E-1,1E0,1E0,1E0,4E0,2E0,1.2491163E-1,2E0,1.4416133E-1,1E0,7E0,2E0,1.1155003E-1,1E0,1E0,1E0,1E0,2E0,1.6092247E-1,2E0,1.4528038E-1,2E0,1.1055533E-1,1.7689322E-1,1.2422347E-1,-1.2519515E-1,-1.450592E-1,-1.1748991E-1,-2.0391664E-2,1.3422064E-1,3.6255587E-2,-6.810937E-3,8.9831084E-2,-7.325687E-2,7.478904E-2,-1.2643657E-3,7.547802E-2,7.155852E-2,1.2704387E-1,1.4834091E-1,1.094077E-1,1.7781854E-1,1.2405386E-1,8.260257E-2,-6.7232564E-2,-1.0680153E-1,2.1883357E-2,-3.446873E-2,-1.1197728E-1,7.0455916E-2,-2.0496876E-3,-1.2835033E-2,7.895403E-2,1.1370873E-1,-2.5473386E-2,1.5477483E-1,1.149134E-1],"split_indices":[12,14,19,0,19,38,20,19,20,38,20,14,37,19,19,0,0,21,0,7,37,19,19,29,0,36,0,18,19,18,0,38,20,1,0,11,0,18,0,38,19,18,0,10,4,18,5,18,0,38,0,18,0,0,0,0,0,0,0,0,0,0,0,0,0,0,0,0,0,0,0,0,0,0,0,0,0,0,0,0,0,0,0,0,0,0,0],"split_type":[0,0,0,0,0,0,0,0,0,0,0,0,0,0,0,0,0,0,0,0,0,0,0,0,0,0,0,0,0,0,0,0,0,0,0,0,0,0,0,0,0,0,0,0,0,0,0,0,0,0,0,0,0,0,0,0,0,0,0,0,0,0,0,0,0,0,0,0,0,0,0,0,0,0,0,0,0,0,0,0,0,0,0,0,0,0,0],"sum_hessian":[4.7399695E4,4.6494695E4,9.049966E2,4.5593785E4,9.009114E2,3.0768546E2,5.973111E2,8.022223E2,4.4791562E4,3.0570438E2,5.95207E2,3.1469112E1,2.7621634E2,4.7770724E2,1.1960387E2,6.814926E2,1.2072966E2,1.11279795E4,3.3663582E4,3.1608107E1,2.7409625E2,4.6798755E2,1.2721945E2,1.4284156E1,1.7184956E1,1.6805644E2,1.081599E2,2.6407446E2,2.1363278E2,1.0096113E2,1.8642738E1,9.170129E2,1.0210967E4,4.341864E3,2.932172E4,2.9486595E1,2.121511E0,1.7566045E2,9.843581E1,2.600929E2,2.0789464E2,1.0894966E2,1.8269789E1,1.0511038E1,3.773118E0,1.4799286E1,2.3856707E0,1.4953618E2,1.8520262E1,1.7905022E2,8.502425E1,1.8380807E2,2.9824715E1,8.889628E1,1.2064847E1,1.910167E2,7.2599615E2,8.6462244E2,9.346345E3,5.278363E2,3.8140273E3,2.8348746E4,9.729742E2,2.7122517E1,2.364078E0,4.836468E1,1.2729577E2,5.9869854E1,2.0022304E2,1.8100542E2,2.6889229E1,9.783554E1,1.1114121E1,7.0086966E0,3.5023417E0,2.72019E0,1.052928E0,3.454922E0,1.1344364E1,1.0659709E0,1.3196996E0,4.249736E1,1.07038826E2,1.5476483E2,2.428538E1,1.6451007E2,1.9297997E1],"tree_param":{"num_deleted":"0","num_feature":"40","num_nodes":"87","size_leaf_vector":"1"}},{"base_weights":[5.157013E-4,9.323501E-2,-2.8606278E-1,1.8190766E-2,8.499482E-1,-9.1261864E-1,-4.0597536E-2,2.4238762E-1,-1.5869993E-1,1.1738863E0,1.3187593E-1,-1.1700011E0,-3.8139322E-1,-1.661046E-1,1.15227126E-1,3.1373617E-1,-1.15627445E-1,-6.1893296E-1,1.0095738E-2,1.20161705E-1,1.1388061E0,-1.8037143E-1,1.18535236E-1,-1.1732018E-1,-9.453984E-1,-3.0975256E-2,-1.291844E-1,-4.242525E-2,-1.1554777E-1,9.769321E-2,7.3940974E-1,-7.1314967E-1,1.10125594E-1,-2.9239338E-2,1.714128E-1,1.1415223E0,5.826538E-1,-6.952313E-1,1.1756795E-1,-1.0178406E0,2.4785802E-2,4.535984E-1,-1.2173026E-1,-1.0579003E-1,1.4439574E0,-1.9398464E-2,4.1279484E-2,5.8792442E-2,1.459827E-1,-5.377656E-2,-1.4981857E-1,-1.7524092E-2,4.209801E-2,1.1525426E-1,9.6206576E-2,-4.064628E-2,9.647457E-2,-7.7885054E-2,1.4242387E-1,-1.12358324E-1,-2.0742547E-2,5.5853266E-2,-1.7052822E-1,-1.556845E-2,1.5403429E-1,1.5498589E-1,1.24260604E-1],"categories":[],"categories_nodes":[],"categories_segments":[],"categories_sizes":[],"default_left":[0,0,0,0,0,0,0,0,0,0,0,0,0,0,0,0,0,0,0,0,0,0,0,0,0,0,0,0,0,0,0,0,0,0,0,0,0,0,0,0,0,0,0,0,0,0,0,0,0,0,0,0,0,0,0,0,0,0,0,0,0,0,0,0,0,0,0],"id":22,"left_children":[1,3,5,7,9,11,13,15,17,19,21,23,25,27,-1,29,-1,31,33,-1,35,37,-1,-1,39,41,-1,43,-1,45,47,49,-1,51,-1,53,55,57,-1,59,-1,61,-1,63,65,-1,-1,-1,-1,-1,-1,-1,-1,-1,-1,-1,-1,-1,-1,-1,-1,-1,-1,-1,-1,-1,-1],"loss_changes":[1.2479331E3,2.0150513E3,1.7656643E3,1.2803734E3,7.445576E2,4.414109E2,1.2353313E3,1.4212673E3,1.401958E3,7.7783203E-1,3.279794E2,4.555664E-1,3.3693317E2,9.134684E2,0E0,1.2458799E3,0E0,7.8564233E2,8.851483E2,0E0,8.352051E-1,5.380432E2,0E0,0E0,3.3407955E0,4.3957434E2,0E0,6.252542E2,0E0,8.261708E2,4.9690332E2,6.3141016E2,0E0,8.485457E2,0E0,8.4350586E-1,2.9882884E0,1.0006418E2,0E0,2.6703148E0,0E0,1.23952415E2,0E0,5.2314465E2,3.8620605E0,0E0,0E0,0E0,0E0,0E0,0E0,0E0,0E0,0E0,0E0,0E0,0E0,0E0,0E0,0E0,0E0,0E0,0E0,0E0,0E0,0E0,0E0],"parents":[2147483647,0,0,1,1,2,2,3,3,4,4,5,5,6,6,7,7,8,8,9,9,10,10,11,11,12,12,13,13,15,15,17,17,18,18,20,20,21,21,24,24,25,25,27,27,29,29,30,30,31,31,33,33,35,35,36,36,37,37,39,39,41,41,43,43,44,44],"right_children":[2,4,6,8,10,12,14,16,18,20,22,24,26,28,-1,30,-1,32,34,-1,36,38,-1,-1,40,42,-1,44,-1,46,48,50,-1,52,-1,54,56,58,-1,60,-1,62,-1,64,66,-1,-1,-1,-1,-1,-1,-1,-1,-1,-1,-1,-1,-1,-1,-1,-1,-1,-1,-1,-1,-1,-1],"split_conditions":[6E0,6E0,6E0,5E0,2E0,2E0,7E0,3E0,5E0,1E0,2E0,3E0,2E0,7E0,1.15227126E-1,5E0,-1.15627445E-1,3E0,4E0,1.20161705E-1,3E0,1E0,1.18535236E-1,-1.1732018E-1,3E0,1E0,-1.291844E-1,3E0,-1.1554777E-1,2E0,2E0,2E0,1.10125594E-1,2E0,1.714128E-1,2E0,1E0,2E0,1.1756795E-1,2E0,2.4785802E-2,2E0,-1.2173026E-1,2E0,1E0,-1.9398464E-2,4.1279484E-2,5.8792442E-2,1.459827E-1,-5.377656E-2,-1.4981857E-1,-1.7524092E-2,4.209801E-2,1.1525426E-1,9.6206576E-2,-4.064628E-2,9.647457E-2,-7.7885054E-2,1.4242387E-1,-1.12358324E-1,-2.0742547E-2,5.5853266E-2,-1.7052822E-1,-1.556845E-2,1.5403429E-1,1.5498589E-1,1.24260604E-1],"split_indices":[39,19,19,39,38,18,19,38,19,17,18,6,38,39,0,19,0,18,0,0,35,17,0,0,14,37,0,0,0,18,18,38,0,18,0,36,12,16,0,16,0,36,0,5,17,0,0,0,0,0,0,0,0,0,0,0,0,0,0,0,0,0,0,0,0,0,0],"split_type":[0,0,0,0,0,0,0,0,0,0,0,0,0,0,0,0,0,0,0,0,0,0,0,0,0,0,0,0,0,0,0,0,0,0,0,0,0,0,0,0,0,0,0,0,0,0,0,0,0,0,0,0,0,0,0,0,0,0,0,0,0,0,0,0,0,0,0],"sum_hessian":[4.6963344E4,3.5483668E4,1.1479675E4,3.2283133E4,3.2005366E3,3.230649E3,8.249026E3,1.423759E4,1.8045541E4,2.2051228E3,9.954138E2,2.1754336E3,1.0552155E3,7.464512E3,7.845139E2,1.3547291E4,6.9029877E2,4.8416855E3,1.3203856E4,1.2130005E3,9.9212225E2,7.684702E2,2.2694357E2,2.140704E3,3.4729298E1,7.6269885E2,2.9251663E2,6.636003E3,8.285092E2,8.98722E3,4.560072E3,4.590826E3,2.508594E2,1.2906902E4,2.96954E2,9.8625287E2,5.869345E0,5.573465E2,2.1112373E2,3.288016E1,1.8491368E0,5.4194904E2,2.207498E2,6.3655664E3,2.7043646E2,4.667278E3,4.3199414E3,3.7693008E3,7.9077124E2,3.7538643E3,8.3696204E2,9.746743E3,3.160159E3,9.240832E2,6.2169685E1,1.6177393E0,4.251606E0,5.3680066E2,2.0545826E1,2.8743317E1,4.1368437E0,5.175351E2,2.4413954E1,6.17918E3,1.8638625E2,1.7283572E2,9.760075E1],"tree_param":{"num_deleted":"0","num_feature":"40","num_nodes":"67","size_leaf_vector":"1"}},{"base_weights":[-3.1040183E-3,-3.0747604E-2,9.210389E-1,-5.8129378E-2,9.056804E-1,4.911454E-1,1.1495531E0,-8.02063E-2,1.1206012E0,3.690061E-1,1.1850902E0,-6.124968E-1,6.1491513E-1,1.0370836E0,1.3312515E0,-1.0309757E-1,1.0939158E0,8.151484E-1,1.2782434E0,-8.3351564E-1,4.9464267E-1,1.0653584E0,1.3701108E0,1.01517074E-1,-8.6980414E-1,8.747035E-1,2.046505E-1,9.072926E-1,1.4030725E-1,1.3592677E-1,1.0935124E-1,-1.2578866E-1,1.0785401E0,7.4877334E-1,1.2749367E0,-3.3998972E-1,9.495681E-1,1.2146949E0,1.5205684E0,-9.451304E-1,6.2085223E-1,1.3995731E-1,1.1174285E0,6.5203613E-1,1.1821184E0,1.4030325E0,1.0935997E-1,9.95899E-1,-6.1615837E-1,-1.0143162E0,3.8074434E-2,7.066902E-1,1.1457077E0,7.936741E-1,-5.17465E-1,-4.537221E-2,1.094151E0,-1.4891425E-2,1.0557697E-1,5.7587057E-2,1.3280347E-1,-4.2936433E-2,8.777199E-2,1.20369844E-1,1.5512346E-1,2.89657E-2,-6.4235926E-2,6.224018E-2,1.466865E-1,1.0610644E-1,1.4108431E-1,1.5827383E-1,1.0769862E-1,-2.9850835E-2,-1.0961937E-1,1.2349453E-1,-1.1961147E-2,9.033281E-2,-8.353682E-2,1.4093135E-1,8.9388914E-2,9.116064E-3,1.5082286E-1,1.4377083E-1,1.0503638E-1,1.5245186E-1,1.3079618E-1,8.1001146E-4,1.4732513E-1,-8.772931E-2,2.5292886E-2,-1.1001902E-1,5.4282833E-2,-9.593173E-2,8.563115E-2,7.3993364E-3,1.0456194E-1,9.53777E-2,1.3548109E-1,1.3182034E-1,1.6753674E-2,-1.1348637E-1,-2.4577228E-2,2.4098173E-2,-1.1465211E-1,1.313322E-1,8.3812095E-2],"categories":[],"categories_nodes":[],"categories_segments":[],"categories_sizes":[],"default_left":[0,0,0,0,0,0,0,0,0,0,0,0,0,0,0,0,0,0,0,0,0,0,0,0,0,0,0,0,0,0,0,0,0,0,0,0,0,0,0,0,0,0,0,0,0,0,0,0,0,0,0,0,0,0,0,0,0,0,0,0,0,0,0,0,0,0,0,0,0,0,0,0,0,0,0,0,0,0,0,0,0,0,0,0,0,0,0,0,0,0,0,0,0,0,0,0,0,0,0,0,0,0,0,0,0,0,0],"id":23,"left_children":[1,3,5,7,9,11,13,15,17,19,21,23,25,27,29,31,33,35,37,39,41,43,45,47,49,51,53,55,-1,-1,-1,57,59,61,63,65,67,69,71,73,75,77,79,81,83,85,-1,87,89,91,93,95,97,99,101,103,105,-1,-1,-1,-1,-1,-1,-1,-1,-1,-1,-1,-1,-1,-1,-1,-1,-1,-1,-1,-1,-1,-1,-1,-1,-1,-1,-1,-1,-1,-1,-1,-1,-1,-1,-1,-1,-1,-1,-1,-1,-1,-1,-1,-1,-1,-1,-1,-1,-1,-1],"loss_changes":[1.1760868E3,1.1461997E3,1.3078674E2,1.1302756E3,1.8999817E2,6.400523E1,1.6444824E1,1.1459708E3,3.740973E1,6.632344E1,1.7031494E1,8.809982E0,4.451494E1,2.4535156E1,7.114258E-1,1.1214075E3,4.9989197E1,4.2959717E1,6.2368164E0,7.3462753E0,8.723416E1,2.3902527E1,1.4192505E0,9.260434E0,4.630768E0,1.0867126E1,7.011954E1,7.194971E1,0E0,0E0,0E0,1.1213179E3,9.806378E1,4.3361526E1,8.632446E0,5.7756157E0,4.0760086E1,1.1185303E1,1.1935883E0,3.48909E0,1.7717053E0,1.8927896E2,8.09761E0,5.5013023E1,1.1873047E1,1.3137207E0,0E0,2.9961638E0,2.0582898E0,4.6396713E0,5.530488E0,3.4429276E1,2.5820465E0,2.955338E1,1.2172884E1,2.146313E1,1.7849731E1,0E0,0E0,0E0,0E0,0E0,0E0,0E0,0E0,0E0,0E0,0E0,0E0,0E0,0E0,0E0,0E0,0E0,0E0,0E0,0E0,0E0,0E0,0E0,0E0,0E0,0E0,0E0,0E0,0E0,0E0,0E0,0E0,0E0,0E0,0E0,0E0,0E0,0E0,0E0,0E0,0E0,0E0,0E0,0E0,0E0,0E0,0E0,0E0,0E0,0E0],"parents":[2147483647,0,0,1,1,2,2,3,3,4,4,5,5,6,6,7,7,8,8,9,9,10,10,11,11,12,12,13,13,14,14,15,15,16,16,17,17,18,18,19,19,20,20,21,21,22,22,23,23,24,24,25,25,26,26,27,27,31,31,32,32,33,33,34,34,35,35,36,36,37,37,38,38,39,39,40,40,41,41,42,42,43,43,44,44,45,45,47,47,48,48,49,49,50,50,51,51,52,52,53,53,54,54,55,55,56,56],"right_children":[2,4,6,8,10,12,14,16,18,20,22,24,26,28,30,32,34,36,38,40,42,44,46,48,50,52,54,56,-1,-1,-1,58,60,62,64,66,68,70,72,74,76,78,80,82,84,86,-1,88,90,92,94,96,98,100,102,104,106,-1,-1,-1,-1,-1,-1,-1,-1,-1,-1,-1,-1,-1,-1,-1,-1,-1,-1,-1,-1,-1,-1,-1,-1,-1,-1,-1,-1,-1,-1,-1,-1,-1,-1,-1,-1,-1,-1,-1,-1,-1,-1,-1,-1,-1,-1,-1,-1,-1,-1],"split_conditions":[2E0,2E0,5E0,3E0,5E0,1E0,6E0,3E0,5E0,1E0,6E0,1E0,2E0,2E0,7E0,3E0,5E0,1E0,3E0,3E0,1E0,2E0,7E0,1E0,2E0,2E0,1E0,2E0,1.4030725E-1,1.3592677E-1,1.0935124E-1,3E0,5E0,1E0,3E0,1E0,1E0,6E0,6E0,1E0,1E0,1E0,1E0,2E0,1E0,1E0,1.0935997E-1,1E0,2E0,3E0,1E0,1E0,3E0,1E0,4E0,2E0,1E0,-1.4891425E-2,1.0557697E-1,5.7587057E-2,1.3280347E-1,-4.2936433E-2,8.777199E-2,1.20369844E-1,1.5512346E-1,2.89657E-2,-6.4235926E-2,6.224018E-2,1.466865E-1,1.0610644E-1,1.4108431E-1,1.5827383E-1,1.0769862E-1,-2.9850835E-2,-1.0961937E-1,1.2349453E-1,-1.1961147E-2,9.033281E-2,-8.353682E-2,1.4093135E-1,8.9388914E-2,9.116064E-3,1.5082286E-1,1.4377083E-1,1.0503638E-1,1.5245186E-1,1.3079618E-1,8.1001146E-4,1.4732513E-1,-8.772931E-2,2.5292886E-2,-1.1001902E-1,5.4282833E-2,-9.593173E-2,8.563115E-2,7.3993364E-3,1.0456194E-1,9.53777E-2,1.3548109E-1,1.3182034E-1,1.6753674E-2,-1.1348637E-1,-2.4577228E-2,2.4098173E-2,-1.1465211E-1,1.313322E-1,8.3812095E-2],"split_indices":[5,11,19,12,19,38,19,13,19,38,19,12,38,18,19,6,19,38,20,14,37,20,19,11,16,18,17,20,0,0,0,7,19,38,20,9,37,19,19,26,24,17,13,18,18,38,0,21,14,15,37,37,0,16,19,38,11,0,0,0,0,0,0,0,0,0,0,0,0,0,0,0,0,0,0,0,0,0,0,0,0,0,0,0,0,0,0,0,0,0,0,0,0,0,0,0,0,0,0,0,0,0,0,0,0,0,0],"split_type":[0,0,0,0,0,0,0,0,0,0,0,0,0,0,0,0,0,0,0,0,0,0,0,0,0,0,0,0,0,0,0,0,0,0,0,0,0,0,0,0,0,0,0,0,0,0,0,0,0,0,0,0,0,0,0,0,0,0,0,0,0,0,0,0,0,0,0,0,0,0,0,0,0,0,0,0,0,0,0,0,0,0,0,0,0,0,0,0,0,0,0,0,0,0,0,0,0,0,0,0,0,0,0,0,0,0,0],"sum_hessian":[4.6034766E4,4.4698676E4,1.3360901E3,4.34297E4,1.2689752E3,4.6481097E2,8.712791E2,4.2632156E4,7.9754285E2,4.352645E2,8.3371063E2,4.6472424E1,4.1833856E2,5.4230536E2,3.289738E2,4.181777E4,8.1438824E2,2.7359247E2,5.239504E2,4.0640686E1,3.946238E2,5.102635E2,3.2344717E2,1.2471144E1,3.4001278E1,2.5545004E2,1.628885E2,4.0290256E2,1.3940277E2,2.9007297E2,3.8900837E1,4.1030746E4,7.870234E2,2.819487E2,5.324396E2,2.8359053E1,2.4523343E2,4.1985742E2,1.04092964E2,3.8069225E1,2.5714605E0,2.5221089E2,1.4241293E2,1.1384491E2,3.9641858E2,2.8539368E2,3.8053474E1,5.3794675E0,7.0916767E0,2.9231155E1,4.770123E0,1.5991556E2,9.553448E1,8.965697E1,7.323154E1,6.619191E1,3.3671066E2,4.024396E4,7.8678503E2,2.6215482E2,5.248686E2,2.758498E1,2.5436371E2,4.275582E2,1.0488137E2,9.21403E0,1.9145023E1,1.5157343E2,9.3659996E1,2.3904109E2,1.8081633E2,8.904487E1,1.5048098E1,7.7730346E0,3.0296192E1,1.0406294E0,1.5308311E0,1.4151965E2,1.1069123E2,5.946387E1,8.294906E1,6.945362E1,4.4391285E1,1.3146967E2,2.649489E2,1.1869016E2,1.6670352E2,2.083985E0,3.2954822E0,5.4459033E0,1.6457733E0,2.7981478E1,1.2496767E0,2.0720155E0,2.6981072E0,5.620782E1,1.0370774E2,5.2712334E1,4.2822147E1,4.8185562E1,4.147141E1,2.140759E1,5.1823948E1,5.3151108E1,1.30408E1,1.7918887E2,1.5752179E2],"tree_param":{"num_deleted":"0","num_feature":"40","num_nodes":"107","size_leaf_vector":"1"}},{"base_weights":[-1.4640267E-3,2.0567695E-2,-1.1224254E0,4.2470176E-2,-1.1124715E0,-1.2449828E0,-7.742235E-1,1.3928021E-1,-2.1560596E-1,-1.357094E0,-1.0184366E0,-1.3054794E0,-1.1012452E0,-1.1589574E0,-2.405189E-1,4.8571568E-2,7.074857E-1,-3.091812E-1,1.112553E-1,-1.3979118E-1,-1.0335872E0,-1.2081105E0,-7.59836E-1,-1.3683438E-1,-1.2367641E0,-7.4774075E-1,-1.2729114E0,-1.443359E0,-1.3859053E-1,-4.6877247E-1,3.3726987E-1,9.085757E-2,-8.524379E-1,9.3694127E-1,4.728367E-1,-6.0375285E-1,-1.333906E-1,-6.409276E-1,-1.2148368E-1,-6.3407046E-1,-1.3046246E0,-9.9915063E-1,-3.124238E-1,-1.2655148E-1,-8.8441575E-1,-1.1848828E0,3.0301511E-2,-1.4970182E-1,-1.175398E0,-1.5685823E0,-1.0970022E-1,-4.054702E-1,8.536927E-1,-9.6917754E-1,-2.9580548E-1,-2.9370388E-1,6.8361217E-1,1.1384445E-2,-1.1869867E-1,-3.4725107E-2,-9.919613E-2,-1.1822426E-1,9.5684804E-2,4.220056E-2,1.2574404E-1,-7.289661E-2,-4.5485996E-2,-1.1119315E-3,-1.1362286E-1,-8.737477E-2,-5.8852276E-4,-1.0759627E-1,-3.839908E-2,-1.3970016E-1,-1.19508915E-1,-1.142314E-1,-5.77612E-2,-7.172879E-2,-1.4372549E-2,-1.0759928E-1,-2.6939183E-2,-1.3463794E-1,4.8505247E-2,1.3595029E-2,-1.2490318E-1,-1.3077289E-1,-9.8053284E-2,-1.624702E-1,-6.292878E-2,7.7233794E-3,-8.9298256E-2,2.9496283E-3,1.15504324E-1,-1.2196984E-1,-5.504976E-2,-8.899088E-3,-8.5477516E-2,-6.377838E-2,8.535843E-2,2.4339767E-2,1.23612605E-1],"categories":[],"categories_nodes":[],"categories_segments":[],"categories_sizes":[],"default_left":[0,0,0,0,0,0,0,0,0,0,0,0,0,0,0,0,0,0,0,0,0,0,0,0,0,0,0,0,0,0,0,0,0,0,0,0,0,0,0,0,0,0,0,0,0,0,0,0,0,0,0,0,0,0,0,0,0,0,0,0,0,0,0,0,0,0,0,0,0,0,0,0,0,0,0,0,0,0,0,0,0,0,0,0,0,0,0,0,0,0,0,0,0,0,0,0,0,0,0,0,0],"id":24,"left_children":[1,3,5,7,9,11,13,15,17,19,21,23,25,27,29,31,33,35,-1,-1,37,39,41,-1,43,45,47,49,51,53,55,57,59,61,63,65,67,69,-1,71,73,75,77,-1,79,81,83,-1,85,87,-1,89,91,93,95,97,99,-1,-1,-1,-1,-1,-1,-1,-1,-1,-1,-1,-1,-1,-1,-1,-1,-1,-1,-1,-1,-1,-1,-1,-1,-1,-1,-1,-1,-1,-1,-1,-1,-1,-1,-1,-1,-1,-1,-1,-1,-1,-1,-1,-1],"loss_changes":[1.1351233E3,1.1186862E3,3.684375E1,1.1049077E3,1.8282715E1,4.246399E0,4.762416E1,1.6575171E3,1.4996921E3,1.6499023E0,2.9567017E1,2.7160645E-1,1.1185913E1,3.906447E1,1.3212877E1,1.0567303E3,2.3792212E2,5.835525E2,0E0,0E0,1.3631859E0,1.894281E1,2.813359E1,0E0,1.1865234E0,2.309687E1,1.1514893E0,2.8639069E0,8.449283E0,5.8910923E0,6.453622E0,7.7828046E2,8.72926E1,9.5515625E1,8.684454E1,7.819397E1,8.656445E2,1.713048E0,0E0,5.4776535E0,1.4119873E0,9.758331E0,6.3196096E0,0E0,2.1246128E0,1.2367603E1,3.5983024E0,0E0,1.231308E0,2.9474335E0,0E0,5.902943E0,1.6566973E0,1.205492E0,6.222055E0,4.8233194E0,4.2653084E0,0E0,0E0,0E0,0E0,0E0,0E0,0E0,0E0,0E0,0E0,0E0,0E0,0E0,0E0,0E0,0E0,0E0,0E0,0E0,0E0,0E0,0E0,0E0,0E0,0E0,0E0,0E0,0E0,0E0,0E0,0E0,0E0,0E0,0E0,0E0,0E0,0E0,0E0,0E0,0E0,0E0,0E0,0E0,0E0],"parents":[2147483647,0,0,1,1,2,2,3,3,4,4,5,5,6,6,7,7,8,8,9,9,10,10,11,11,12,12,13,13,14,14,15,15,16,16,17,17,20,20,21,21,22,22,24,24,25,25,26,26,27,27,28,28,29,29,30,30,31,31,32,32,33,33,34,34,35,35,36,36,37,37,39,39,40,40,41,41,42,42,44,44,45,45,46,46,48,48,49,49,51,51,52,52,53,53,54,54,55,55,56,56],"right_children":[2,4,6,8,10,12,14,16,18,20,22,24,26,28,30,32,34,36,-1,-1,38,40,42,-1,44,46,48,50,52,54,56,58,60,62,64,66,68,70,-1,72,74,76,78,-1,80,82,84,-1,86,88,-1,90,92,94,96,98,100,-1,-1,-1,-1,-1,-1,-1,-1,-1,-1,-1,-1,-1,-1,-1,-1,-1,-1,-1,-1,-1,-1,-1,-1,-1,-1,-1,-1,-1,-1,-1,-1,-1,-1,-1,-1,-1,-1,-1,-1,-1,-1,-1,-1],"split_conditions":[3E0,3E0,2E0,2E0,1E0,3E0,1E0,2E0,3E0,2E0,1E0,1E0,1E0,1E0,3E0,2E0,1E0,2E0,1.112553E-1,-1.3979118E-1,1E0,1E0,2E0,-1.3683438E-1,2E0,1E0,1E0,3E0,3E0,1E0,1E0,3E0,1E0,1E0,2E0,1E0,3E0,3E0,-1.2148368E-1,2E0,1E0,3E0,2E0,-1.2655148E-1,1E0,2E0,3E0,-1.4970182E-1,1E0,1E0,-1.0970022E-1,1E0,1E0,1E0,2E0,2E0,1E0,1.1384445E-2,-1.1869867E-1,-3.4725107E-2,-9.919613E-2,-1.1822426E-1,9.5684804E-2,4.220056E-2,1.2574404E-1,-7.289661E-2,-4.5485996E-2,-1.1119315E-3,-1.1362286E-1,-8.737477E-2,-5.8852276E-4,-1.0759627E-1,-3.839908E-2,-1.3970016E-1,-1.19508915E-1,-1.142314E-1,-5.77612E-2,-7.172879E-2,-1.4372549E-2,-1.0759928E-1,-2.6939183E-2,-1.3463794E-1,4.8505247E-2,1.3595029E-2,-1.2490318E-1,-1.3077289E-1,-9.8053284E-2,-1.624702E-1,-6.292878E-2,7.7233794E-3,-8.9298256E-2,2.9496283E-3,1.15504324E-1,-1.2196984E-1,-5.504976E-2,-8.899088E-3,-8.5477516E-2,-6.377838E-2,8.535843E-2,2.4339767E-2,1.23612605E-1],"split_indices":[34,32,18,38,38,20,37,18,18,37,37,37,18,36,20,37,37,18,0,0,18,18,18,0,24,38,38,38,20,21,32,28,18,20,16,36,38,20,0,20,36,20,20,0,36,37,26,0,37,35,0,13,12,11,26,8,31,0,0,0,0,0,0,0,0,0,0,0,0,0,0,0,0,0,0,0,0,0,0,0,0,0,0,0,0,0,0,0,0,0,0,0,0,0,0,0,0,0,0,0,0],"split_type":[0,0,0,0,0,0,0,0,0,0,0,0,0,0,0,0,0,0,0,0,0,0,0,0,0,0,0,0,0,0,0,0,0,0,0,0,0,0,0,0,0,0,0,0,0,0,0,0,0,0,0,0,0,0,0,0,0,0,0,0,0,0,0,0,0,0,0,0,0,0,0,0,0,0,0,0,0,0,0,0,0,0,0,0,0,0,0,0,0,0,0,0,0,0,0,0,0,0,0,0,0],"sum_hessian":[4.5960598E4,4.507565E4,8.8494904E2,4.422177E4,8.53877E2,6.526567E2,2.3229234E2,3.215877E4,1.2063002E4,2.333661E2,6.2051086E2,4.5364377E2,1.990129E2,1.343043E2,9.798804E1,2.7732605E4,4.4261636E3,1.126976E4,7.9324225E2,2.0427153E2,2.9094576E1,3.558421E2,2.646688E2,2.270308E2,2.2661296E2,6.680345E1,1.3220946E2,1.0470567E2,2.959863E1,7.037521E1,2.761282E1,2.649027E4,1.2423372E3,2.2363333E3,2.1898303E3,4.2109883E3,7.058771E3,1.0621122E1,1.8473455E1,5.2306553E1,3.0353555E2,1.7163202E2,9.303677E1,2.0712082E2,1.9492146E1,4.243724E1,2.4366207E1,3.5733738E1,9.6475716E1,7.431041E1,3.039527E1,2.3791235E1,5.807398E0,1.6894638E1,5.3480576E1,9.83932E0,1.7773499E1,2.6023057E4,4.672126E2,2.6961224E2,9.727249E2,2.0268347E1,2.216065E3,2.0580369E3,1.3179341E2,2.2852695E3,1.9257189E3,6.29256E3,7.66211E2,7.4967613E0,3.1243606E0,1.7710148E1,3.4596405E1,1.5828862E2,1.4524692E2,1.2684346E2,4.4788555E1,2.6407862E1,6.6628914E1,1.42910385E1,5.2011065E0,3.8871773E1,3.5654685E0,2.333307E1,1.0331377E0,5.4055946E1,4.241977E1,6.943235E1,4.8780575E0,1.2377444E1,1.141379E1,1.8487983E0,3.9585996E0,9.373013E0,7.521626E0,3.9883266E1,1.3597308E1,7.9108844E0,1.9284362E0,1.0693778E1,7.0797215E0],"tree_param":{"num_deleted":"0","num_feature":"40","num_nodes":"101","size_leaf_vector":"1"}},{"base_weights":[7.607514E-4,2.7664762E-2,-8.868304E-1,4.9847618E-2,-1.067718E0,-1.1965802E0,-7.8076726E-1,7.4799076E-2,-8.573956E-1,-1.3506644E0,-9.644915E-1,-1.2935398E0,-9.154755E-1,-1.0248325E0,-6.789943E-1,9.5989846E-2,-1.0636704E0,-1.1749078E0,-7.3835754E-1,-1.4310291E-1,-1.2451723E0,-1.0671189E0,-7.122182E-1,-1.106047E0,-1.3484202E-1,-4.1706303E-1,-1.1862394E0,-8.7080866E-1,-1.2042408E0,-8.1364316E-1,-5.2546716E-1,1.16801575E-1,-1.0526365E0,-1.331614E-1,-9.72602E-1,-1.3112097E0,-1.0615183E0,-8.7713426E-1,-4.0438682E-1,-1.4450859E-1,-1.0669492E0,-1.2612077E0,-9.962154E-1,-9.211252E-1,-5.0747746E-1,-1.2860769E-1,-7.8941554E-1,-7.270114E-1,2.8317627E-1,-6.243994E-1,-1.2398856E-1,-9.5064116E-1,-6.0972875E-1,-1.2821048E0,-9.2075485E-1,-1.1204274E0,-7.3357385E-1,-3.3543882E-1,-6.912436E-1,-1.1509881E-1,1.3553581E-2,-1.2938054E-1,-9.6283846E-2,-1.0694583E-1,-7.14006E-2,-1.1536338E-1,-1.396546E-1,-1.170791E-1,-9.21816E-2,-1.0495471E-1,-7.4558884E-2,-1.7446911E-2,-7.5666E-2,-1.21818356E-1,-8.379841E-2,-1.1611854E-1,-1.5519881E-1,-1.1672168E-1,-8.4319904E-2,-5.4386344E-2,-1.0430481E-1,-2.2474105E-2,-1.1113926E-1,-9.317523E-2,-5.464074E-2,-1.0353947E-1,-3.4545552E-2,-5.289944E-2,8.966625E-2,-9.7815156E-2,5.6385268E-2,-1.0385572E-1,-6.888552E-2,-9.560979E-2,-2.3269132E-2,-9.9751666E-2,-1.339523E-1,-3.2116216E-2,-1.1008351E-1,-1.21519886E-1,-7.812118E-2,7.1874596E-3,-8.467134E-2,-6.7042135E-2,-1.7705059E-2,-8.751985E-2,-5.8085006E-2],"categories":[],"categories_nodes":[],"categories_segments":[],"categories_sizes":[],"default_left":[0,0,0,0,0,0,0,0,0,0,0,0,0,0,0,0,0,0,0,0,0,0,0,0,0,0,0,0,0,0,0,0,0,0,0,0,0,0,0,0,0,0,0,0,0,0,0,0,0,0,0,0,0,0,0,0,0,0,0,0,0,0,0,0,0,0,0,0,0,0,0,0,0,0,0,0,0,0,0,0,0,0,0,0,0,0,0,0,0,0,0,0,0,0,0,0,0,0,0,0,0,0,0,0,0,0,0],"id":25,"left_children":[1,3,