{"learner":{"attributes":{"scikit_learn":"{\"_estimator_type\": \"classifier\"}"},"feature_names":[],"feature_types":[],"gradient_booster":{"model":{"gbtree_model_param":{"num_parallel_tree":"1","num_trees":"100"},"iteration_indptr":[0,1,2,3,4,5,6,7,8,9,10,11,12,13,14,15,16,17,18,19,20,21,22,23,24,25,26,27,28,29,30,31,32,33,34,35,36,37,38,39,40,41,42,43,44,45,46,47,48,49,50,51,52,53,54,55,56,57,58,59,60,61,62,63,64,65,66,67,68,69,70,71,72,73,74,75,76,77,78,79,80,81,82,83,84,85,86,87,88,89,90,91,92,93,94,95,96,97,98,99,100],"tree_info":[0,0,0,0,0,0,0,0,0,0,0,0,0,0,0,0,0,0,0,0,0,0,0,0,0,0,0,0,0,0,0,0,0,0,0,0,0,0,0,0,0,0,0,0,0,0,0,0,0,0,0,0,0,0,0,0,0,0,0,0,0,0,0,0,0,0,0,0,0,0,0,0,0,0,0,0,0,0,0,0,0,0,0,0,0,0,0,0,0,0,0,0,0,0,0,0,0,0,0,0],"trees":[{"base_weights":[2.3695007E-3,2.6473752E-1,-6.8485045E-1,-2.6675563E-3,1.9570838E-1,-1.0563204E0,1.9386488E-1,5.741082E-1,-4.839385E-1,-2.022835E-1,-4.9417505E-1,4.4122253E-2,1.6548762E0,-1.7504859E0,-1.16426265E-2,-9.0051556E-1,1.9232361E-1,-1.5430704E-1,1.4466696E0,1.858856E0,1.5733406E-1,-1.9138117E0,-4.042359E-1,4.979434E-1,-6.285764E-1,-5.0638825E-1,-2.0049989E-1,1.6771771E-3,-1.3665067E-1,9.042474E-2,1.8898018E-1,1.8698674E-1,5.241689E-2,-3.6328822E-2,4.448444E-2,-1.9309044E-1,-2.0161467E-3,-6.985831E-2,8.629475E-2,7.2677704E-3,1.4761992E-1,-9.343077E-2,1.8882586E-1,2.9960434E-5,-1.9936787E-1],"categories":[],"categories_nodes":[],"categories_segments":[],"categories_sizes":[],"default_left":[0,0,0,0,0,0,0,0,0,0,0,0,0,0,0,0,0,0,0,0,0,0,0,0,0,0,0,0,0,0,0,0,0,0,0,0,0,0,0,0,0,0,0,0,0],"id":0,"left_children":[1,3,5,7,-1,9,-1,11,13,-1,15,17,19,21,23,25,-1,27,29,31,33,35,37,39,41,43,-1,-1,-1,-1,-1,-1,-1,-1,-1,-1,-1,-1,-1,-1,-1,-1,-1,-1,-1],"loss_changes":[3.6370795E2,6.6064325E2,5.4520703E2,3.5049185E2,0E0,2.6460986E2,0E0,3.289032E2,4.1171408E2,0E0,3.0664783E2,1.0775841E2,5.7424866E1,4.0331787E1,1.5824489E2,1.1496141E2,0E0,7.040919E1,9.82547E0,1.4625244E0,3.7156475E0,5.348877E0,8.620008E0,1.1457759E2,1.7696295E2,1.4898157E2,0E0,0E0,0E0,0E0,0E0,0E0,0E0,0E0,0E0,0E0,0E0,0E0,0E0,0E0,0E0,0E0,0E0,0E0,0E0],"parents":[2147483647,0,0,1,1,2,2,3,3,5,5,7,7,8,8,10,10,11,11,12,12,13,13,14,14,15,15,17,17,18,18,19,19,20,20,21,21,22,22,23,23,24,24,25,25],"right_children":[2,4,6,8,-1,10,-1,12,14,-1,16,18,20,22,24,26,-1,28,30,32,34,36,38,40,42,44,-1,-1,-1,-1,-1,-1,-1,-1,-1,-1,-1,-1,-1,-1,-1,-1,-1,-1,-1],"split_conditions":[9E0,9E0,1E1,8E0,1.9570838E-1,9E0,1.9386488E-1,8E0,8E0,-2.022835E-1,1E0,2E0,2E0,2E0,1E0,1E1,1.9232361E-1,2E0,7E0,3E0,1E0,3E0,2E0,1E0,2E0,1E0,-2.0049989E-1,1.6771771E-3,-1.3665067E-1,9.042474E-2,1.8898018E-1,1.8698674E-1,5.241689E-2,-3.6328822E-2,4.448444E-2,-1.9309044E-1,-2.0161467E-3,-6.985831E-2,8.629475E-2,7.2677704E-3,1.4761992E-1,-9.343077E-2,1.8882586E-1,2.9960434E-5,-1.9936787E-1],"split_indices":[39,19,19,39,0,19,0,19,19,0,18,18,38,18,38,39,0,38,19,36,27,17,16,18,18,38,0,0,0,0,0,0,0,0,0,0,0,0,0,0,0,0,0,0,0],"split_type":[0,0,0,0,0,0,0,0,0,0,0,0,0,0,0,0,0,0,0,0,0,0,0,0,0,0,0,0,0,0,0,0,0,0,0,0,0,0,0,0,0,0,0,0,0],"sum_hessian":[2.0151813E3,1.4588383E3,5.5634296E2,1.2606442E3,1.9819406E2,4.878623E2,6.8480675E1,5.733382E2,6.87306E2,1.7844963E2,3.0941266E2,3.8539124E2,1.8794695E2,1.8594751E2,5.013585E2,2.6542508E2,4.3987583E1,3.3840448E2,4.6986736E1,1.6520337E2,2.274358E1,1.6545331E2,2.0494215E1,2.746725E2,2.2668602E2,1.9669449E2,6.87306E1,2.9741605E2,4.098843E1,2.249365E1,2.4493088E1,1.6345387E2,1.7495062E0,7.9977427E0,1.4745838E1,1.6395372E2,1.4995768E0,1.6995203E1,3.4990125E0,1.9219576E2,8.247672E1,2.026928E2,2.3993229E1,1.4745837E2,4.9236103E1],"tree_param":{"num_deleted":"0","num_feature":"40","num_nodes":"45","size_leaf_vector":"1"}},{"base_weights":[2.4538003E-3,-5.9894675E-1,2.5585613E-1,1.8098277E-1,-8.6857706E-1,1.5075927E0,3.1957388E-2,-3.979882E-1,-1.5263443E0,1.5519375E0,-2.714235E-1,5.373607E-1,-3.0962527E-1,-1.8518183E-1,-4.1803257E-3,-1.5563475E0,2.5330552E-1,1.5689931E0,-4.6512138E-2,3.7478963E-1,-1.0382376E-1,6.590255E-1,-7.2799194E-1,-3.9993383E-2,-7.3508817E-1,-4.8797628E-1,5.53951E-1,-1.5769811E0,8.3689734E-2,-4.995775E-2,9.131328E-2,1.6788231E0,1.2808485E0,-4.704854E-2,1.072919E-1,6.897379E-1,-1.5542822E-1,-1.0488421E0,1.9404292E-1,5.7037014E-1,-3.5480827E-1,-8.546008E-1,6.694806E-1,1.7041183E-1,-7.774002E-2,1.3536607E-1,8.528343E-3,-1.6000628E-1,-5.716521E-3,1.7063442E-1,6.232621E-2,1.5057538E-1,1.2965254E-2,8.098077E-2,8.853598E-3,-5.5665553E-2,-1.22094035E-1,8.8530265E-2,-1.234154E-1,6.2623993E-3,1.3399719E-1,-5.9554387E-2,4.814899E-2,-1.179315E-1,-6.420901E-2,4.082231E-2,1.2285171E-1],"categories":[],"categories_nodes":[],"categories_segments":[],"categories_sizes":[],"default_left":[0,0,0,0,0,0,0,0,0,0,0,0,0,0,0,0,0,0,0,0,0,0,0,0,0,0,0,0,0,0,0,0,0,0,0,0,0,0,0,0,0,0,0,0,0,0,0,0,0,0,0,0,0,0,0,0,0,0,0,0,0,0,0,0,0,0,0],"id":1,"left_children":[1,3,5,-1,7,9,11,13,15,17,19,21,23,-1,25,27,29,31,-1,33,-1,35,37,39,41,43,45,47,-1,-1,-1,49,51,-1,-1,53,-1,55,57,59,61,63,65,-1,-1,-1,-1,-1,-1,-1,-1,-1,-1,-1,-1,-1,-1,-1,-1,-1,-1,-1,-1,-1,-1,-1,-1],"loss_changes":[3.0038287E2,3.8107135E2,3.886039E2,0E0,1.6226154E2,1.701889E1,2.034214E2,1.7637639E2,1.2092499E1,7.796753E0,3.3463602E0,7.363368E1,8.063729E1,0E0,6.599806E1,1.1966248E1,2.687888E0,4.3033752E0,0E0,2.8495312E0,0E0,3.057544E1,1.2674953E1,8.310887E1,4.6349777E1,8.4388245E1,4.2421677E1,7.4192505E0,0E0,0E0,0E0,3.1322327E0,1.5468025E1,0E0,0E0,3.0880219E1,0E0,1.982624E0,1.2669756E1,5.7436256E1,5.771808E1,1.6615677E1,2.7036695E0,0E0,0E0,0E0,0E0,0E0,0E0,0E0,0E0,0E0,0E0,0E0,0E0,0E0,0E0,0E0,0E0,0E0,0E0,0E0,0E0,0E0,0E0,0E0,0E0],"parents":[2147483647,0,0,1,1,2,2,4,4,5,5,6,6,7,7,8,8,9,9,10,10,11,11,12,12,14,14,15,15,16,16,17,17,19,19,21,21,22,22,23,23,24,24,25,25,26,26,27,27,31,31,32,32,35,35,37,37,38,38,39,39,40,40,41,41,42,42],"right_children":[2,4,6,-1,8,10,12,14,16,18,20,22,24,-1,26,28,30,32,-1,34,-1,36,38,40,42,44,46,48,-1,-1,-1,50,52,-1,-1,54,-1,56,58,60,62,64,66,-1,-1,-1,-1,-1,-1,-1,-1,-1,-1,-1,-1,-1,-1,-1,-1,-1,-1,-1,-1,-1,-1,-1,-1],"split_conditions":[2E0,1E0,2E0,1.8098277E-1,2E0,2E0,8E0,1E0,2E0,3E0,1E0,2E0,3E0,-1.8518183E-1,2E0,3E0,1E0,9E0,-4.6512138E-2,1E0,-1.0382376E-1,3E0,2E0,1E0,4E0,1E0,2E0,2E0,8.3689734E-2,-4.995775E-2,9.131328E-2,2E0,2E0,-4.704854E-2,1.072919E-1,2E0,-1.5542822E-1,1E0,2E0,1E0,3E0,1E0,2E0,1.7041183E-1,-7.774002E-2,1.3536607E-1,8.528343E-3,-1.6000628E-1,-5.716521E-3,1.7063442E-1,6.232621E-2,1.5057538E-1,1.2965254E-2,8.098077E-2,8.853598E-3,-5.5665553E-2,-1.22094035E-1,8.8530265E-2,-1.234154E-1,6.2623993E-3,1.3399719E-1,-5.9554387E-2,4.814899E-2,-1.179315E-1,-6.420901E-2,4.082231E-2,1.2285171E-1],"split_indices":[20,0,0,0,0,23,39,20,6,33,12,38,0,0,21,13,22,39,0,38,0,36,16,1,0,1,1,12,0,0,0,38,1,0,0,37,0,1,36,21,20,21,27,0,0,0,0,0,0,0,0,0,0,0,0,0,0,0,0,0,0,0,0,0,0,0,0],"split_type":[0,0,0,0,0,0,0,0,0,0,0,0,0,0,0,0,0,0,0,0,0,0,0,0,0,0,0,0,0,0,0,0,0,0,0,0,0,0,0,0,0,0,0,0,0,0,0,0,0,0,0,0,0,0,0,0,0,0,0,0,0,0,0,0,0,0,0],"sum_hessian":[1.9690585E3,5.8331396E2,1.3857445E3,5.8146156E1,5.2516785E2,2.0938966E2,1.1763549E3,3.0707855E2,2.1808928E2,2.0442177E2,4.9678884E0,4.7418332E2,7.021715E2,6.466199E1,2.4241656E2,2.1459686E2,3.4924111E0,2.0292801E2,1.4937644E0,2.973383E0,1.9945054E0,4.330266E2,4.1156715E1,4.3046417E2,2.7170734E2,1.2992311E2,1.12493454E2,2.1310066E2,1.4961997E0,1.7446166E0,1.7477945E0,1.4343108E2,5.949692E1,1.4924475E0,1.4809355E0,4.2777902E2,5.2475986E0,3.0430103E1,1.0726611E1,1.4619989E2,2.8426428E2,2.5076196E2,2.0945393E1,1.4583072E1,1.1534004E2,4.086879E1,7.162466E1,2.0986066E2,3.240007E0,1.3918565E2,4.2454295E0,4.9515297E1,9.981625E0,3.5627762E2,7.150139E1,8.980672E0,2.1449432E1,7.4842796E0,3.242331E0,8.873691E1,5.746297E1,2.2094986E2,6.331443E1,9.739461E1,1.5336734E2,1.5453604E1,5.4917893E0],"tree_param":{"num_deleted":"0","num_feature":"40","num_nodes":"67","size_leaf_vector":"1"}},{"base_weights":[1.4835586E-2,-5.545477E-1,2.4779402E-1,-6.7453486E-1,1.6437128E-1,-3.225033E-1,5.60154E-1,-1.0128318E0,-2.1456558E-1,-4.9297944E-1,9.7990465E-1,3.1209072E-1,1.0446067E0,-1.1464577E0,6.8591887E-1,-5.15322E-1,1.6529873E-1,-7.833861E-1,-1.7568094E-1,7.606988E-1,1.4631841E0,1.0806472E-1,6.8558437E-1,7.4726915E-1,1.2655306E0,-1.5417057E-1,-1.0548593E0,-7.70606E-1,1.594206E-1,-1.6768856E-1,-2.4509655E-1,-1.8056695E-1,-5.8923334E-1,1.2756386E-1,-4.3961093E-1,2.7306622E-1,9.3360853E-1,1.6371651E-1,8.937573E-1,-1.6133565E-1,4.274608E-1,3.4913152E-1,9.6255004E-1,-7.479073E-1,1.0951761E0,1.3091873E0,7.231427E-1,-1.6916843E-1,-9.604476E-2,7.913923E-3,-1.1602344E-1,-8.51782E-2,7.1231686E-2,-7.216673E-2,1.6491123E-2,3.9604463E-2,-1.978242E-2,-2.665924E-2,-9.265096E-2,9.3645416E-2,-2.1562299E-2,7.3580496E-2,1.3348477E-1,5.1470115E-3,1.3561024E-1,-5.016851E-2,8.0547564E-2,3.6561552E-2,1.3708855E-1,-2.5961061E-3,1.1031158E-1,1.0122587E-1,-9.373349E-2,-1.6902073E-1,4.476776E-2,1.13576524E-1,-7.1408E-2,1.3228068E-1,-8.456818E-3,1.04805544E-1,3.697306E-3],"categories":[],"categories_nodes":[],"categories_segments":[],"categories_sizes":[],"default_left":[0,0,0,0,0,0,0,0,0,0,0,0,0,0,0,0,0,0,0,0,0,0,0,0,0,0,0,0,0,0,0,0,0,0,0,0,0,0,0,0,0,0,0,0,0,0,0,0,0,0,0,0,0,0,0,0,0,0,0,0,0,0,0,0,0,0,0,0,0,0,0,0,0,0,0,0,0,0,0,0,0],"id":2,"left_children":[1,3,5,7,-1,9,11,13,15,17,19,21,23,25,27,29,-1,31,33,35,37,39,41,43,45,-1,47,49,-1,-1,51,-1,53,55,57,59,61,-1,63,65,67,69,71,73,75,77,79,-1,-1,-1,-1,-1,-1,-1,-1,-1,-1,-1,-1,-1,-1,-1,-1,-1,-1,-1,-1,-1,-1,-1,-1,-1,-1,-1,-1,-1,-1,-1,-1,-1,-1],"loss_changes":[2.6218137E2,1.5248486E2,2.5004657E2,8.457483E1,0E0,1.1083478E2,1.086293E2,7.1999146E1,1.3127249E2,4.0420555E1,5.016575E0,4.5726322E1,1.9194763E1,8.91684E0,3.2322197E1,6.2602238E1,0E0,4.4492203E1,1.6993729E1,3.276949E0,2.1819305E-1,3.3617153E1,1.9433022E1,7.007638E1,3.1843262E0,0E0,1.2780212E1,3.3038177E0,0E0,0E0,9.5886665E1,0E0,1.9532227E1,8.749212E0,9.303833E0,4.2149177E0,1.4392815E0,0E0,2.3346276E0,7.023709E1,9.923267E0,2.7562244E1,1.1884171E1,2.9739872E1,8.7725525E0,3.153473E0,3.35678E0,0E0,0E0,0E0,0E0,0E0,0E0,0E0,0E0,0E0,0E0,0E0,0E0,0E0,0E0,0E0,0E0,0E0,0E0,0E0,0E0,0E0,0E0,0E0,0E0,0E0,0E0,0E0,0E0,0E0,0E0,0E0,0E0,0E0,0E0],"parents":[2147483647,0,0,1,1,2,2,3,3,5,5,6,6,7,7,8,8,9,9,10,10,11,11,12,12,13,13,14,14,15,15,17,17,18,18,19,19,20,20,21,21,22,22,23,23,24,24,26,26,27,27,30,30,32,32,33,33,34,34,35,35,36,36,38,38,39,39,40,40,41,41,42,42,43,43,44,44,45,45,46,46],"right_children":[2,4,6,8,-1,10,12,14,16,18,20,22,24,26,28,30,-1,32,34,36,38,40,42,44,46,-1,48,50,-1,-1,52,-1,54,56,58,60,62,-1,64,66,68,70,72,74,76,78,80,-1,-1,-1,-1,-1,-1,-1,-1,-1,-1,-1,-1,-1,-1,-1,-1,-1,-1,-1,-1,-1,-1,-1,-1,-1,-1,-1,-1,-1,-1,-1,-1,-1,-1],"split_conditions":[2E0,1E1,8E0,9E0,1.6437128E-1,2E0,9E0,2E0,1E0,3E0,1E0,1E0,1E0,8E0,8E0,1E0,1.6529873E-1,1E0,1E0,1E0,1E0,3E0,1E0,1E0,2E0,-1.5417057E-1,1E0,1E0,1.594206E-1,-1.6768856E-1,2E0,-1.8056695E-1,2E0,1E0,2E0,1E0,3E0,1.6371651E-1,1E0,2E0,2E0,3E0,2E0,3E0,2E0,3E0,1E0,-1.6916843E-1,-9.604476E-2,7.913923E-3,-1.1602344E-1,-8.51782E-2,7.1231686E-2,-7.216673E-2,1.6491123E-2,3.9604463E-2,-1.978242E-2,-2.665924E-2,-9.265096E-2,9.3645416E-2,-2.1562299E-2,7.3580496E-2,1.3348477E-1,5.1470115E-3,1.3561024E-1,-5.016851E-2,8.0547564E-2,3.6561552E-2,1.3708855E-1,-2.5961061E-3,1.1031158E-1,1.0122587E-1,-9.373349E-2,-1.6902073E-1,4.476776E-2,1.13576524E-1,-7.1408E-2,1.3228068E-1,-8.456818E-3,1.04805544E-1,3.697306E-3],"split_indices":[20,19,19,19,0,18,19,18,18,20,17,18,21,19,19,20,0,21,11,21,23,20,21,22,34,0,20,13,0,0,21,0,17,6,36,31,20,0,2,21,17,20,35,20,23,33,15,0,0,0,0,0,0,0,0,0,0,0,0,0,0,0,0,0,0,0,0,0,0,0,0,0,0,0,0,0,0,0,0,0,0],"split_type":[0,0,0,0,0,0,0,0,0,0,0,0,0,0,0,0,0,0,0,0,0,0,0,0,0,0,0,0,0,0,0,0,0,0,0,0,0,0,0,0,0,0,0,0,0,0,0,0,0,0,0,0,0,0,0,0,0,0,0,0,0,0,0,0,0,0,0,0,0,0,0,0,0,0,0,0,0,0,0,0,0],"sum_hessian":[1.9745632E3,5.729099E2,1.4016533E3,5.4391473E2,2.8995207E1,4.9601382E2,9.056394E2,3.127167E2,2.3119801E2,4.3915323E2,5.686061E1,6.000361E2,3.0560336E2,2.902133E2,2.2503431E1,1.997532E2,3.1444807E1,2.2852623E2,2.10627E2,4.0888466E1,1.5972145E1,3.888893E2,2.1114677E2,1.3214044E2,1.7346292E2,5.162403E1,2.3858925E2,8.701434E0,1.3801997E1,3.671752E1,1.6303569E2,3.514979E1,1.9337643E2,9.825392E1,1.1237307E2,1.1378512E1,2.9509953E1,1.0797883E1,5.174262E0,2.1122372E2,1.7766559E2,9.635592E1,1.14790855E2,2.4726267E1,1.0741417E2,1.5923259E2,1.4230333E1,2.8620476E1,2.0996878E2,2.986037E0,5.7153974E0,9.9864655E1,6.3171036E1,1.6452719E2,2.8849245E1,5.371556E1,4.4538364E1,8.405264E1,2.8320425E1,4.4378896E0,6.940623E0,2.1663885E1,7.846068E0,2.227532E0,2.9467301E0,1.5658258E2,5.4641136E1,1.680376E2,9.627994E0,6.499014E1,3.1365772E1,1.12319336E2,2.47152E0,1.3596489E1,1.1129778E1,1.0542138E2,1.9927949E0,1.5774207E2,1.490516E0,9.299477E0,4.9308567E0],"tree_param":{"num_deleted":"0","num_feature":"40","num_nodes":"81","size_leaf_vector":"1"}},{"base_weights":[-4.908109E-3,2.2832638E-1,-6.181956E-1,8.357318E-3,1.665781E-1,-8.974931E-1,1.582639E-1,-4.5601344E-1,3.9928862E-1,-1.7138505E-1,-4.2957798E-1,3.5849117E-2,-1.4697559E0,1.3849748E0,4.4582598E-2,-7.795961E-2,-1.6594437E-1,1.6751897E-1,-1.0631108E0,-1.6083461E0,-1.2006669E0,1.5667195E0,5.0406624E-2,4.373526E-1,-4.4094792E-1,3.345153E-1,-1.6477199E-1,1.6647282E-1,8.193458E-3,-4.1520156E-2,-1.6409011E-1,-1.6299252E-1,4.2882827E-3,-1.2561141E-1,3.9582796E-2,1.5798216E-1,3.744669E-2,-3.5313778E-2,5.575457E-2,4.922041E-2,-1.5028298E-1,3.3036504E-2,-9.720287E-2,1.5355067E-1,2.3066884E-2],"categories":[],"categories_nodes":[],"categories_segments":[],"categories_sizes":[],"default_left":[0,0,0,0,0,0,0,0,0,0,0,0,0,0,0,0,0,0,0,0,0,0,0,0,0,0,0,0,0,0,0,0,0,0,0,0,0,0,0,0,0,0,0,0,0],"id":3,"left_children":[1,3,5,7,-1,9,-1,11,13,-1,15,17,19,21,23,25,-1,27,29,31,33,35,37,39,41,43,-1,-1,-1,-1,-1,-1,-1,-1,-1,-1,-1,-1,-1,-1,-1,-1,-1,-1,-1],"loss_changes":[2.789148E2,4.4667072E2,3.3165454E2,2.2278316E2,0E0,1.8161487E2,0E0,2.7974203E2,2.3288797E2,0E0,1.3167174E2,5.496924E1,4.903656E0,4.2678497E1,9.382639E1,1.5469708E2,0E0,4.3302795E1,1.4536152E1,4.2752686E0,6.3615417E0,1.8315735E0,4.7324986E0,2.967871E1,9.04672E1,2.3262629E1,0E0,0E0,0E0,0E0,0E0,0E0,0E0,0E0,0E0,0E0,0E0,0E0,0E0,0E0,0E0,0E0,0E0,0E0,0E0],"parents":[2147483647,0,0,1,1,2,2,3,3,5,5,7,7,8,8,10,10,11,11,12,12,13,13,14,14,15,15,17,17,18,18,19,19,20,20,21,21,22,22,23,23,24,24,25,25],"right_children":[2,4,6,8,-1,10,-1,12,14,-1,16,18,20,22,24,26,-1,28,30,32,34,36,38,40,42,44,-1,-1,-1,-1,-1,-1,-1,-1,-1,-1,-1,-1,-1,-1,-1,-1,-1,-1,-1],"split_conditions":[9E0,9E0,1E1,8E0,1.665781E-1,9E0,1.582639E-1,8E0,8E0,-1.7138505E-1,1E1,2E0,1E0,2E0,1E0,1E0,-1.6594437E-1,2E0,7E0,3E0,2E0,3E0,1E0,2E0,2E0,1E0,-1.6477199E-1,1.6647282E-1,8.193458E-3,-4.1520156E-2,-1.6409011E-1,-1.6299252E-1,4.2882827E-3,-1.2561141E-1,3.9582796E-2,1.5798216E-1,3.744669E-2,-3.5313778E-2,5.575457E-2,4.922041E-2,-1.5028298E-1,3.3036504E-2,-9.720287E-2,1.5355067E-1,2.3066884E-2],"split_indices":[39,19,19,19,0,19,0,39,39,0,39,38,38,38,38,38,0,0,39,17,6,36,29,35,0,0,0,0,0,0,0,0,0,0,0,0,0,0,0,0,0,0,0,0,0],"split_type":[0,0,0,0,0,0,0,0,0,0,0,0,0,0,0,0,0,0,0,0,0,0,0,0,0,0,0,0,0,0,0,0,0,0,0,0,0,0,0,0,0,0,0,0,0],"sum_hessian":[1.9479236E3,1.4116847E3,5.362389E2,1.2252018E3,1.8648288E2,4.7637643E2,5.9862484E1,5.599246E2,6.652772E2,1.7259409E2,3.0378235E2,3.7765366E2,1.8227095E2,1.752827E2,4.8999454E2,2.3706802E2,6.671431E1,3.380039E2,3.9649742E1,1.1702301E2,6.524794E1,1.5412029E2,2.1162418E1,2.709272E2,2.1906735E2,1.883607E2,4.870732E1,1.727876E1,3.2072516E2,1.9500885E1,2.0148859E1,1.1552615E2,1.4968531E0,6.3263954E1,1.9839871E0,1.5212347E2,1.9968007E0,1.1953979E1,9.208441E0,2.642041E2,6.723085E0,8.948383E1,1.2958353E2,1.3893628E1,1.7446707E2],"tree_param":{"num_deleted":"0","num_feature":"40","num_nodes":"45","size_leaf_vector":"1"}},{"base_weights":[6.3698525E-3,2.2136039E-1,-5.7789195E-1,8.8515764E-1,3.2848373E-2,1.4636306E-1,-6.8895656E-1,-1.5911062E-1,1.0239607E0,-1.280238E0,1.6096102E-1,-5.472571E-1,-1.5579239E-1,1.1406288E0,-7.253803E-1,-1.3052249E0,2.3666661E-2,4.3165174E-1,-9.201422E-2,-3.7449804E-1,-1.5570329E-1,8.3802736E-1,1.4321519E0,1.1490152E-2,-1.612917E-1,-1.3301171E0,-4.6166684E-3,5.452179E-1,-6.4056444E-1,2.0984651E-1,-4.9850237E-1,1.8987371E-1,-7.672865E-1,1.598556E-1,6.5616116E-2,1.457467E-1,1.3426944E-2,3.7542194E-2,-5.835802E-2,-1.3546978E-1,1.603632E-4,6.52413E-2,4.4756415E-3,-1.3269277E-1,-3.0428562E-2,9.6580036E-2,-1.16053065E-2,-1.9689731E-2,-1.04878105E-1,6.3619606E-2,-6.376117E-2,-6.2068373E-2,-1.2479639E-1],"categories":[],"categories_nodes":[],"categories_segments":[],"categories_sizes":[],"default_left":[0,0,0,0,0,0,0,0,0,0,0,0,0,0,0,0,0,0,0,0,0,0,0,0,0,0,0,0,0,0,0,0,0,0,0,0,0,0,0,0,0,0,0,0,0,0,0,0,0,0,0,0,0],"id":4,"left_children":[1,3,5,7,9,-1,11,-1,13,15,17,19,-1,21,23,25,-1,27,29,31,-1,33,35,37,-1,39,-1,41,43,45,47,49,51,-1,-1,-1,-1,-1,-1,-1,-1,-1,-1,-1,-1,-1,-1,-1,-1,-1,-1,-1,-1],"loss_changes":[2.422826E2,1.7640677E2,1.1865065E2,1.0880492E2,1.8511015E2,0E0,5.982077E1,0E0,6.1213287E1,4.01651E0,6.8678085E1,7.359318E1,0E0,2.3302979E1,1.2516613E1,2.9594727E0,0E0,5.9332397E1,6.378115E1,8.092613E1,0E0,1.8135765E1,4.406128E0,2.6953561E0,0E0,3.0950165E0,0E0,2.3497192E1,1.0410009E1,7.365313E1,3.654601E1,5.593047E1,1.4380539E1,0E0,0E0,0E0,0E0,0E0,0E0,0E0,0E0,0E0,0E0,0E0,0E0,0E0,0E0,0E0,0E0,0E0,0E0,0E0,0E0],"parents":[2147483647,0,0,1,1,2,2,3,3,4,4,6,6,8,8,9,9,10,10,11,11,13,13,14,14,15,15,17,17,18,18,19,19,21,21,22,22,23,23,25,25,27,27,28,28,29,29,30,30,31,31,32,32],"right_children":[2,4,6,8,10,-1,12,-1,14,16,18,20,-1,22,24,26,-1,28,30,32,-1,34,36,38,-1,40,-1,42,44,46,48,50,52,-1,-1,-1,-1,-1,-1,-1,-1,-1,-1,-1,-1,-1,-1,-1,-1,-1,-1,-1,-1],"split_conditions":[9E0,2E0,1E0,1E0,2E0,1.4636306E-1,1E0,-1.5911062E-1,2E0,3E0,8E0,1E1,-1.5579239E-1,2E0,8E0,2E0,2.3666661E-2,2E0,3E0,2E0,-1.5570329E-1,1E0,2E0,1E0,-1.612917E-1,2E0,-4.6166684E-3,2E0,1E0,1E0,1E0,2E0,1E0,1.598556E-1,6.5616116E-2,1.457467E-1,1.3426944E-2,3.7542194E-2,-5.835802E-2,-1.3546978E-1,1.603632E-4,6.52413E-2,4.4756415E-3,-1.3269277E-1,-3.0428562E-2,9.6580036E-2,-1.16053065E-2,-1.9689731E-2,-1.04878105E-1,6.3619606E-2,-6.376117E-2,-6.2068373E-2,-1.2479639E-1],"split_indices":[39,0,0,20,20,0,38,0,38,7,39,39,0,20,39,3,0,38,0,0,0,0,29,6,0,12,0,37,36,1,18,1,18,0,0,0,0,0,0,0,0,0,0,0,0,0,0,0,0,0,0,0,0],"split_type":[0,0,0,0,0,0,0,0,0,0,0,0,0,0,0,0,0,0,0,0,0,0,0,0,0,0,0,0,0,0,0,0,0,0,0,0,0,0,0,0,0,0,0,0,0,0,0,0,0,0,0,0,0],"sum_hessian":[1.926818E3,1.4089781E3,5.178399E2,3.108175E2,1.0981606E3,2.6090065E1,4.9174982E2,1.594227E1,2.9487524E2,9.681947E1,1.0013411E3,4.242058E2,6.754399E1,2.76765E2,1.8110228E1,9.538777E1,1.4317069E0,4.833918E2,5.179493E2,3.634033E2,6.0802544E1,1.3770334E2,1.3906166E2,1.0434291E1,7.6759353E0,9.348312E1,1.9046407E0,4.3754028E2,4.5851536E1,2.975044E2,2.2044492E2,1.4934128E2,2.14062E2,2.5071127E1,1.1263222E2,1.362806E2,2.7810802E0,6.70362E0,3.7306712E0,9.1771965E1,1.7111654E0,3.6010486E2,7.743544E1,1.4108801E1,3.1742737E1,8.90293E1,2.0847508E2,1.4327461E2,7.717031E1,9.71646E1,5.217668E1,1.6578896E2,4.827305E1],"tree_param":{"num_deleted":"0","num_feature":"40","num_nodes":"53","size_leaf_vector":"1"}},{"base_weights":[1.8117066E-3,-1.861921E-1,4.9284303E-1,-8.474161E-1,-2.8665767E-3,-1.4263207E-1,6.278146E-1,1.5485053E-1,-9.744595E-1,1.2017664E0,-1.1553851E-1,4.909926E-1,1.5044402E-1,-6.4352214E-1,-1.2845547E0,1.2550745E0,-8.212619E-2,-3.8981098E-1,2.016845E-1,3.4376732E-1,1.4670584E-1,-7.7206355E-1,7.524336E-1,-1.3049718E0,-3.5576978E-1,1.281105E0,-1.933939E-2,-4.838441E-1,8.1598717E-1,6.6894495E-1,-1.271845E-2,-1.1729818E-1,6.723942E-1,-1.477476E-1,-5.8264393E-2,-2.604728E-2,1.372808E-1,-1.3148968E-1,-2.0286402E-2,3.5172988E-2,-9.910823E-2,1.3046114E-1,5.8758266E-2,-1.0676527E-1,-2.9684475E-2,5.6578603E-2,1.3612595E-1,8.747737E-2,-2.913088E-3,-2.7341237E-2,3.54003E-2,-6.1632346E-2,6.424417E-2,3.187716E-2,9.1429554E-2],"categories":[],"categories_nodes":[],"categories_segments":[],"categories_sizes":[],"default_left":[0,0,0,0,0,0,0,0,0,0,0,0,0,0,0,0,0,0,0,0,0,0,0,0,0,0,0,0,0,0,0,0,0,0,0,0,0,0,0,0,0,0,0,0,0,0,0,0,0,0,0,0,0,0,0],"id":5,"left_children":[1,3,5,7,9,-1,11,-1,13,15,17,19,-1,21,23,25,-1,27,29,31,-1,33,35,37,39,41,-1,43,45,47,49,51,53,-1,-1,-1,-1,-1,-1,-1,-1,-1,-1,-1,-1,-1,-1,-1,-1,-1,-1,-1,-1,-1,-1],"loss_changes":[1.7404852E2,1.6526422E2,1.361097E2,9.1589584E1,1.451548E2,0E0,5.783992E1,0E0,2.807721E1,1.0895523E1,8.5166145E1,6.0416626E1,0E0,2.5388596E1,2.2740326E0,3.6230316E0,0E0,5.9902084E1,4.5504204E1,5.6092636E1,0E0,1.6120583E1,8.00087E0,1.274704E0,2.362659E0,6.6915894E-1,0E0,5.290277E1,4.4603767E0,2.055159E1,2.9950872E1,5.90447E1,1.818467E1,0E0,0E0,0E0,0E0,0E0,0E0,0E0,0E0,0E0,0E0,0E0,0E0,0E0,0E0,0E0,0E0,0E0,0E0,0E0,0E0,0E0,0E0],"parents":[2147483647,0,0,1,1,2,2,3,3,4,4,6,6,8,8,9,9,10,10,11,11,13,13,14,14,15,15,17,17,18,18,19,19,21,21,22,22,23,23,24,24,25,25,27,27,28,28,29,29,30,30,31,31,32,32],"right_children":[2,4,6,8,10,-1,12,-1,14,16,18,20,-1,22,24,26,-1,28,30,32,-1,34,36,38,40,42,-1,44,46,48,50,52,54,-1,-1,-1,-1,-1,-1,-1,-1,-1,-1,-1,-1,-1,-1,-1,-1,-1,-1,-1,-1,-1,-1],"split_conditions":[9E0,2E0,1E0,1E0,2E0,-1.4263207E-1,1E0,1.5485053E-1,2E0,2E0,3E0,1E1,1.5044402E-1,2E0,2E0,2E0,-8.212619E-2,2E0,3E0,2E0,1.4670584E-1,1E0,8E0,2E0,1E0,2E0,-1.933939E-2,1E0,1E0,2E0,8E0,2E0,1E0,-1.477476E-1,-5.8264393E-2,-2.604728E-2,1.372808E-1,-1.3148968E-1,-2.0286402E-2,3.5172988E-2,-9.910823E-2,1.3046114E-1,5.8758266E-2,-1.0676527E-1,-2.9684475E-2,5.6578603E-2,1.3612595E-1,8.747737E-2,-2.913088E-3,-2.7341237E-2,3.54003E-2,-6.1632346E-2,6.424417E-2,3.187716E-2,9.1429554E-2],"split_indices":[19,20,20,0,0,0,18,0,0,23,20,19,0,18,15,29,0,18,0,20,0,20,19,6,6,38,0,21,17,1,19,21,21,0,0,0,0,0,0,0,0,0,0,0,0,0,0,0,0,0,0,0,0,0,0],"split_type":[0,0,0,0,0,0,0,0,0,0,0,0,0,0,0,0,0,0,0,0,0,0,0,0,0,0,0,0,0,0,0,0,0,0,0,0,0,0,0,0,0,0,0,0,0,0,0,0,0,0,0,0,0,0,0],"sum_hessian":[1.8833671E3,1.36237E3,5.209971E2,2.9494196E2,1.067428E3,3.360462E1,4.8739246E2,1.4288341E1,2.806536E2,9.0472664E1,9.769553E2,4.229408E2,6.445167E1,1.372519E2,1.434017E2,8.8519714E1,1.9529518E0,5.23825E2,4.531303E2,3.686826E2,5.42582E1,1.2608845E2,1.1163462E1,1.3992085E2,3.4808462E0,8.707052E1,1.4492004E0,4.864856E2,3.733942E1,1.4185585E2,3.1127448E2,1.5369319E2,2.149894E2,2.525119E1,1.0083726E2,4.46061E0,6.7028522E0,1.384807E2,1.4401501E0,1.8580467E0,1.6227995E0,8.336383E1,3.7066884E0,1.1687975E2,3.6960583E2,2.6991735E1,1.0347685E1,1.0935827E2,3.249758E1,1.8208725E2,1.2918723E2,9.2876945E1,6.0816246E1,8.827E1,1.267194E2],"tree_param":{"num_deleted":"0","num_feature":"40","num_nodes":"55","size_leaf_vector":"1"}},{"base_weights":[-2.2831567E-2,1.7201938E-1,-5.53658E-1,-2.2370253E-2,1.4921835E-1,-7.836038E-1,1.398394E-1,4.0131575E-1,-3.697177E-1,-1.5132101E-1,-3.770039E-1,-2.9201541E-2,1.300036E0,-1.2958953E0,-4.239768E-2,-6.628109E-1,1.4450979E-1,-1.7160128E-1,1.0503174E0,1.4472972E0,1.4524777E-1,-1.4020677E0,-5.052782E-1,-4.045793E-1,4.10518E-1,-4.2076716E-1,-1.4504687E-1,-6.948103E-4,-7.228651E-2,5.6419577E-2,1.4684162E-1,1.4589027E-1,4.5619216E-2,5.209675E-2,-8.754553E-2,-1.4267553E-1,-2.5748091E-3,-7.562529E-2,5.6485113E-2,-4.6900637E-3,-1.244845E-1,6.373509E-2,-1.5151809E-1,-1.0497647E-2,-1.4455743E-1],"categories":[],"categories_nodes":[],"categories_segments":[],"categories_sizes":[],"default_left":[0,0,0,0,0,0,0,0,0,0,0,0,0,0,0,0,0,0,0,0,0,0,0,0,0,0,0,0,0,0,0,0,0,0,0,0,0,0,0,0,0,0,0,0,0],"id":6,"left_children":[1,3,5,7,-1,9,-1,11,13,-1,15,17,19,21,23,25,-1,27,29,31,33,35,37,39,41,43,-1,-1,-1,-1,-1,-1,-1,-1,-1,-1,-1,-1,-1,-1,-1,-1,-1,-1,-1],"loss_changes":[1.9367917E2,3.515664E2,2.2677667E2,1.760115E2,0E0,1.3305493E2,0E0,2.0851547E2,1.9917215E2,0E0,1.5228098E2,5.6332832E1,2.9470734E1,1.36935425E1,7.9987564E1,4.740677E1,0E0,2.9364925E1,7.8521614E0,1.113678E0,8.452624E0,5.0836487E0,6.302535E0,8.1356125E1,9.562933E1,6.2653484E1,0E0,0E0,0E0,0E0,0E0,0E0,0E0,0E0,0E0,0E0,0E0,0E0,0E0,0E0,0E0,0E0,0E0,0E0,0E0],"parents":[2147483647,0,0,1,1,2,2,3,3,5,5,7,7,8,8,10,10,11,11,12,12,13,13,14,14,15,15,17,17,18,18,19,19,20,20,21,21,22,22,23,23,24,24,25,25],"right_children":[2,4,6,8,-1,10,-1,12,14,-1,16,18,20,22,24,26,-1,28,30,32,34,36,38,40,42,44,-1,-1,-1,-1,-1,-1,-1,-1,-1,-1,-1,-1,-1,-1,-1,-1,-1,-1,-1],"split_conditions":[9E0,9E0,1E1,8E0,1.4921835E-1,9E0,1.398394E-1,8E0,8E0,-1.5132101E-1,1E0,2E0,2E0,2E0,1E0,1E1,1.4450979E-1,2E0,7E0,3E0,2E0,3E0,2E0,1E0,2E0,1E0,-1.4504687E-1,-6.948103E-4,-7.228651E-2,5.6419577E-2,1.4684162E-1,1.4589027E-1,4.5619216E-2,5.209675E-2,-8.754553E-2,-1.4267553E-1,-2.5748091E-3,-7.562529E-2,5.6485113E-2,-4.6900637E-3,-1.244845E-1,6.373509E-2,-1.5151809E-1,-1.0497647E-2,-1.4455743E-1],"split_indices":[39,19,19,39,0,19,0,19,19,0,18,18,38,18,18,39,0,36,19,36,27,16,16,38,38,38,0,0,0,0,0,0,0,0,0,0,0,0,0,0,0,0,0,0,0],"split_type":[0,0,0,0,0,0,0,0,0,0,0,0,0,0,0,0,0,0,0,0,0,0,0,0,0,0,0,0,0,0,0,0,0,0,0,0,0,0,0,0,0,0,0,0,0],"sum_hessian":[1.8706051E3,1.3688252E3,5.0177994E2,1.1939963E3,1.7482881E2,4.4943628E2,5.2343655E1,5.378205E2,6.5617584E2,1.5986021E2,2.8957608E2,3.6428378E2,1.7353671E2,1.7057144E2,4.8560437E2,2.5086302E2,3.871305E1,3.2257397E2,4.1709812E1,1.5368513E2,1.9851574E1,1.496954E2,2.087604E1,2.6988947E2,2.1571492E2,1.930682E2,5.779481E1,2.4916516E2,7.340881E1,2.0372374E1,2.133744E1,1.5143985E2,2.245285E0,1.4868203E1,4.9833703E0,1.4702156E2,2.6738386E0,1.7147734E1,3.728306E0,1.9004724E2,7.984222E1,1.935815E2,2.2133415E1,1.4843188E2,4.4636326E1],"tree_param":{"num_deleted":"0","num_feature":"40","num_nodes":"45","size_leaf_vector":"1"}},{"base_weights":[-8.588442E-3,1.7199822E-1,-5.0493765E-1,6.1848015E-4,1.4237124E-1,-1.4427623E-1,-6.5485194E-2,3.8922366E-1,-3.2748777E-1,-3.1776065E-1,1.3454786E-1,1.658419E-2,1.2069706E0,-1.1931642E0,-1.6668009E-2,-5.6890917E-1,1.3800904E-1,-1.3038275E-1,1.0882492E0,1.3592201E0,1.3798785E-1,-1.3130784E0,-3.1943208E-1,3.0923215E-1,-4.169683E-1,-3.3865348E-1,-1.38151E-1,1.4118095E-1,-1.828653E-2,7.2531305E-2,1.4003058E-1,1.3760225E-1,5.7131168E-2,-3.6214482E-2,7.885893E-2,-1.3303445E-1,-1.3056598E-2,-5.754313E-2,5.4294135E-2,-1.936525E-3,1.152934E-1,-6.40611E-2,1.3994372E-1,-2.3749142E-3,-1.3834782E-1],"categories":[],"categories_nodes":[],"categories_segments":[],"categories_sizes":[],"default_left":[0,0,0,0,0,0,0,0,0,0,0,0,0,0,0,0,0,0,0,0,0,0,0,0,0,0,0,0,0,0,0,0,0,0,0,0,0,0,0,0,0,0,0,0,0],"id":7,"left_children":[1,3,5,7,-1,-1,9,11,13,15,-1,17,19,21,23,25,-1,27,29,31,33,35,37,39,41,43,-1,-1,-1,-1,-1,-1,-1,-1,-1,-1,-1,-1,-1,-1,-1,-1,-1,-1,-1],"loss_changes":[1.6284604E2,2.857715E2,1.9964868E2,1.4965492E2,0E0,0E0,1.1827112E2,1.637164E2,1.712169E2,1.2088862E2,0E0,5.843786E1,2.7185883E1,1.7194778E1,6.1351E1,4.557396E1,0E0,2.6675543E1,4.052025E0,1.161438E0,7.470503E0,2.8379974E0,5.0832243E0,7.189816E1,8.662204E1,6.3489952E1,0E0,0E0,0E0,0E0,0E0,0E0,0E0,0E0,0E0,0E0,0E0,0E0,0E0,0E0,0E0,0E0,0E0,0E0,0E0],"parents":[2147483647,0,0,1,1,2,2,3,3,6,6,7,7,8,8,9,9,11,11,12,12,13,13,14,14,15,15,17,17,18,18,19,19,20,20,21,21,22,22,23,23,24,24,25,25],"right_children":[2,4,6,8,-1,-1,10,12,14,16,-1,18,20,22,24,26,-1,28,30,32,34,36,38,40,42,44,-1,-1,-1,-1,-1,-1,-1,-1,-1,-1,-1,-1,-1,-1,-1,-1,-1,-1,-1],"split_conditions":[9E0,9E0,9E0,8E0,1.4237124E-1,-1.4427623E-1,1E1,8E0,8E0,1E0,1.3454786E-1,2E0,2E0,2E0,1E0,1E1,1.3800904E-1,2E0,7E0,2E0,1E0,3E0,2E0,1E0,2E0,1E0,-1.38151E-1,1.4118095E-1,-1.828653E-2,7.2531305E-2,1.4003058E-1,1.3760225E-1,5.7131168E-2,-3.6214482E-2,7.885893E-2,-1.3303445E-1,-1.3056598E-2,-5.754313E-2,5.4294135E-2,-1.936525E-3,1.152934E-1,-6.40611E-2,1.3994372E-1,-2.3749142E-3,-1.3834782E-1],"split_indices":[39,19,19,39,0,0,19,19,19,18,0,18,38,18,38,39,0,0,19,29,29,16,16,18,18,38,0,0,0,0,0,0,0,0,0,0,0,0,0,0,0,0,0,0,0],"split_type":[0,0,0,0,0,0,0,0,0,0,0,0,0,0,0,0,0,0,0,0,0,0,0,0,0,0,0,0,0,0,0,0,0,0,0,0,0,0,0,0,0,0,0,0,0],"sum_hessian":[1.814819E3,1.3311576E3,4.836614E2,1.1717295E3,1.5942805E2,1.5359502E2,3.300664E2,5.3632556E2,6.3540393E2,2.8066013E2,4.9406273E1,3.691347E2,1.6719087E2,1.6711806E2,4.682859E2,2.4507346E2,3.5586685E1,3.253895E2,4.374521E1,1.4610973E2,2.1081152E1,1.4650793E2,2.061012E1,2.582566E2,2.1002931E2,1.9206683E2,5.3006615E1,9.85652E0,3.1553296E2,2.1760744E1,2.1984465E1,1.423281E2,3.7816243E0,1.2169521E1,8.91163E0,1.4427632E2,2.231612E0,1.6148968E1,4.461154E0,1.8657002E2,7.168657E1,1.8758096E2,2.2448353E1,1.4837129E2,4.369555E1],"tree_param":{"num_deleted":"0","num_feature":"40","num_nodes":"45","size_leaf_vector":"1"}},{"base_weights":[-6.268111E-3,-1.562662E-1,4.1027308E-1,-7.154697E-1,-7.2860816E-3,-1.2906893E-1,5.118089E-1,1.4289491E-1,-8.307993E-1,1.1033906E0,-1.0598015E-1,4.0837473E-1,1.3130018E-1,-5.4253787E-1,-1.1132586E0,1.1507795E0,-6.0735203E-2,-3.2687968E-1,1.5403828E-1,2.8306523E-1,1.2983598E-1,-1.330543E-1,-3.681518E-1,-1.1317807E0,3.834523E-2,1.1810611E0,-3.7153136E-2,-8.443902E-1,-1.6553622E-1,-7.560421E-2,4.0939444E-1,-2.1244515E-2,5.025643E-1,2.719583E-3,-7.014931E-2,-1.1487722E-1,-2.1142652E-2,1.2038745E-1,5.8313858E-2,-9.173448E-2,3.535338E-2,-4.514895E-2,1.3545572E-2,-4.704612E-2,1.4697355E-2,3.170262E-2,1.682865E-1,3.1020308E-2,-7.192358E-2,1.7725755E-2,7.304602E-2],"categories":[],"categories_nodes":[],"categories_segments":[],"categories_sizes":[],"default_left":[0,0,0,0,0,0,0,0,0,0,0,0,0,0,0,0,0,0,0,0,0,0,0,0,0,0,0,0,0,0,0,0,0,0,0,0,0,0,0,0,0,0,0,0,0,0,0,0,0,0,0],"id":8,"left_children":[1,3,5,7,9,-1,11,-1,13,15,17,19,-1,21,23,25,-1,27,29,31,-1,-1,33,35,-1,37,-1,39,41,43,45,47,49,-1,-1,-1,-1,-1,-1,-1,-1,-1,-1,-1,-1,-1,-1,-1,-1,-1,-1],"loss_changes":[1.0984276E2,1.07676926E2,8.105043E1,6.843245E1,1.12106606E2,0E0,3.5923706E1,0E0,2.0456436E1,7.465172E0,5.3995018E1,4.325026E1,0E0,1.7369476E1,4.029358E0,4.198456E0,0E0,4.2285725E1,2.5367981E1,2.2996124E1,0E0,0E0,1.4225205E1,1.7644196E0,0E0,3.9203644E-1,0E0,1.0856918E1,3.3506966E1,2.013663E1,2.3549522E1,3.3805313E1,1.4694523E1,0E0,0E0,0E0,0E0,0E0,0E0,0E0,0E0,0E0,0E0,0E0,0E0,0E0,0E0,0E0,0E0,0E0,0E0],"parents":[2147483647,0,0,1,1,2,2,3,3,4,4,6,6,8,8,9,9,10,10,11,11,13,13,14,14,15,15,17,17,18,18,19,19,22,22,23,23,25,25,27,27,28,28,29,29,30,30,31,31,32,32],"right_children":[2,4,6,8,10,-1,12,-1,14,16,18,20,-1,22,24,26,-1,28,30,32,-1,-1,34,36,-1,38,-1,40,42,44,46,48,50,-1,-1,-1,-1,-1,-1,-1,-1,-1,-1,-1,-1,-1,-1,-1,-1,-1,-1],"split_conditions":[9E0,2E0,1E0,1E0,2E0,-1.2906893E-1,1E0,1.4289491E-1,2E0,2E0,3E0,1E1,1.3130018E-1,1E0,3E0,2E0,-6.0735203E-2,1E0,8E0,2E0,1.2983598E-1,-1.330543E-1,2E0,2E0,3.834523E-2,2E0,-3.7153136E-2,2E0,8E0,1E0,4E0,2E0,1E0,2.719583E-3,-7.014931E-2,-1.1487722E-1,-2.1142652E-2,1.2038745E-1,5.8313858E-2,-9.173448E-2,3.535338E-2,-4.514895E-2,1.3545572E-2,-4.704612E-2,1.4697355E-2,3.170262E-2,1.682865E-1,3.1020308E-2,-7.192358E-2,1.7725755E-2,7.304602E-2],"split_indices":[19,20,20,0,0,0,18,0,0,29,20,19,0,20,7,35,0,21,19,20,0,0,1,3,0,38,0,18,19,38,0,0,21,0,0,0,0,0,0,0,0,0,0,0,0,0,0,0,0,0,0],"split_type":[0,0,0,0,0,0,0,0,0,0,0,0,0,0,0,0,0,0,0,0,0,0,0,0,0,0,0,0,0,0,0,0,0,0,0,0,0,0,0,0,0,0,0,0,0,0,0,0,0,0,0],"sum_hessian":[1.75601E3,1.2915447E3,4.6446536E2,2.7090146E2,1.0206432E3,2.5503885E1,4.3896146E2,1.3244541E1,2.5765692E2,8.246167E1,9.381815E2,3.9010815E2,4.885331E1,1.2896431E2,1.2869261E2,8.055749E1,1.9041823E0,5.0710858E2,4.3107294E2,3.4311566E2,4.699248E1,2.2167097E1,1.067972E2,1.2736033E2,1.3322912E0,7.920609E1,1.3513966E0,1.1951849E2,3.875901E2,2.273344E2,2.0373853E2,1.4415913E2,1.9895654E2,4.927488E1,5.7522324E1,1.2480796E2,2.552363E0,7.5318924E1,3.8871677E0,1.1287833E2,6.6401644E0,1.9850403E2,1.8908604E2,8.154983E1,1.4578458E2,1.9112468E2,1.2613841E1,9.812103E1,4.60381E1,8.269399E1,1.1626255E2],"tree_param":{"num_deleted":"0","num_feature":"40","num_nodes":"51","size_leaf_vector":"1"}},{"base_weights":[1.2600401E-2,-1.2756696E-1,3.9457428E-1,-1.8872194E-1,7.4016315E-1,2.871776E-1,1.2756912E-1,-2.2075318E-1,8.197108E-1,5.3594494E-1,1.3147406E-1,1.6587922E-1,1.2587981E-1,-4.3291405E-1,-9.272965E-2,1.4297509E-1,1.0755105E-1,1.0112929E0,2.7153957E-1,1.025291E-1,1.3237624E-1,-6.0252094E-1,-2.0786394E-1,-1.21900134E-1,1.1170992E0,-6.865735E-1,8.7367606E-1,4.886379E-1,1.1451265E0,6.750066E-1,-6.0920835E-1,6.07995E-2,1.4289606E-1,-6.4780876E-2,9.9799E-2,1.7296959E-2,-4.9236562E-2,1.3729568E-1,-1.4063503E-2,3.8912233E-2,1.3279176E-1,-9.773359E-2,6.857317E-2,1.260603E-1,7.852371E-3,1.1214625E-1,-2.0732526E-2,5.4157477E-2,1.343528E-1,9.073292E-2,-5.5830632E-3,2.5648613E-2,-1.0307306E-1,1.3184023E-1,2.1603347E-3],"categories":[],"categories_nodes":[],"categories_segments":[],"categories_sizes":[],"default_left":[0,0,0,0,0,0,0,0,0,0,0,0,0,0,0,0,0,0,0,0,0,0,0,0,0,0,0,0,0,0,0,0,0,0,0,0,0,0,0,0,0,0,0,0,0,0,0,0,0,0,0,0,0,0,0],"id":9,"left_children":[1,3,5,7,9,11,-1,13,15,17,-1,19,-1,21,23,-1,25,27,29,31,-1,33,35,37,39,41,43,45,47,49,51,53,-1,-1,-1,-1,-1,-1,-1,-1,-1,-1,-1,-1,-1,-1,-1,-1,-1,-1,-1,-1,-1,-1,-1],"loss_changes":[9.390055E1,6.822802E1,4.4185257E1,3.89235E1,9.231388E0,4.940186E1,0E0,3.1556187E1,1.5980089E1,7.7894993E0,0E0,2.7398888E1,0E0,1.6574478E1,2.5784626E1,0E0,1.1682156E1,1.0188961E0,1.554772E1,1.967292E1,0E0,1.869197E1,2.0622417E1,2.0092892E1,2.1243591E0,4.4625406E0,2.8888354E0,3.0268295E0,1.3345337E0,5.091316E0,5.3395596E0,1.708336E1,0E0,0E0,0E0,0E0,0E0,0E0,0E0,0E0,0E0,0E0,0E0,0E0,0E0,0E0,0E0,0E0,0E0,0E0,0E0,0E0,0E0,0E0,0E0],"parents":[2147483647,0,0,1,1,2,2,3,3,4,4,5,5,7,7,8,8,9,9,11,11,13,13,14,14,16,16,17,17,18,18,19,19,21,21,22,22,23,23,24,24,25,25,26,26,27,27,28,28,29,29,30,30,31,31],"right_children":[2,4,6,8,10,12,-1,14,16,18,-1,20,-1,22,24,-1,26,28,30,32,-1,34,36,38,40,42,44,46,48,50,52,54,-1,-1,-1,-1,-1,-1,-1,-1,-1,-1,-1,-1,-1,-1,-1,-1,-1,-1,-1,-1,-1,-1,-1],"split_conditions":[9E0,2E0,1E0,4E0,8E0,1E1,1.2756912E-1,8E0,1E0,1E0,1.3147406E-1,3E0,1.2587981E-1,1E0,2E0,1.4297509E-1,1E0,1E0,1E0,2E0,1.3237624E-1,3E0,1E0,1E0,1E0,2E0,2E0,1E0,1E0,2E0,1E0,1E0,1.4289606E-1,-6.4780876E-2,9.9799E-2,1.7296959E-2,-4.9236562E-2,1.3729568E-1,-1.4063503E-2,3.8912233E-2,1.3279176E-1,-9.773359E-2,6.857317E-2,1.260603E-1,7.852371E-3,1.1214625E-1,-2.0732526E-2,5.4157477E-2,1.343528E-1,9.073292E-2,-5.5830632E-3,2.5648613E-2,-1.0307306E-1,1.3184023E-1,2.1603347E-3],"split_indices":[19,18,18,0,19,19,0,19,18,16,0,0,0,35,9,0,38,27,15,6,0,16,15,0,27,17,36,5,35,30,4,0,0,0,0,0,0,0,0,0,0,0,0,0,0,0,0,0,0,0,0,0,0,0,0],"split_type":[0,0,0,0,0,0,0,0,0,0,0,0,0,0,0,0,0,0,0,0,0,0,0,0,0,0,0,0,0,0,0,0,0,0,0,0,0,0,0,0,0,0,0,0,0,0,0,0,0,0,0,0,0,0,0],"sum_hessian":[1.7518901E3,1.2820874E3,4.698028E2,1.1984095E3,8.367775E1,4.199431E2,4.9859676E1,1.162273E3,3.6136635E1,6.3161457E1,2.0516293E1,3.7437622E2,4.55669E1,4.3650854E2,7.257644E2,1.8921093E1,1.7215542E1,2.1565758E1,4.15957E1,3.5598795E2,1.8388268E1,2.4795918E2,1.8854938E2,7.095554E2,1.620902E1,8.504287E0,8.711256E0,5.344638E0,1.622112E1,2.8687616E1,1.2908083E1,3.4614407E2,9.843872E0,2.417149E2,6.2442765E0,8.079257E1,1.077568E2,7.8880095E0,7.016674E2,4.278995E0,1.1930027E1,7.2549343E0,1.2493525E0,5.466067E0,3.2451887E0,2.4790804E0,2.8655574E0,4.935788E0,1.1285332E1,2.1584671E1,7.1029463E0,4.3551955E0,8.552887E0,9.47588E0,3.366682E2],"tree_param":{"num_deleted":"0","num_feature":"40","num_nodes":"55","size_leaf_vector":"1"}},{"base_weights":[7.2237104E-3,1.9080052E-1,-5.18363E-1,4.0162016E-2,1.3401817E-1,-1.3592859E-1,-1.3121448E-1,3.8163337E-1,-2.537753E-1,1.13923565E-1,-1.3270015E-1,4.2405736E-2,1.1595892E0,-1.083193E0,1.4383105E-2,-1.03081115E-1,1.2234706E-1,-5.118089E-2,8.722788E-1,1.3273671E0,8.428501E-1,-1.2102405E0,-2.5907817E-1,-2.7586222E-1,3.834567E-1,-3.2281002E-1,1.2391322E-1,-1.3227074E-1,2.1849158E-4,4.2343676E-2,1.3036323E-1,1.343052E-1,4.807363E-2,1.007231E-1,2.5256777E-2,-1.234985E-1,-3.412832E-3,-5.395111E-2,7.031572E-2,-2.2355339E-2,-1.62298E-1,-1.2811597E-1,4.848818E-2,-3.919387E-2,1.4089045E-1],"categories":[],"categories_nodes":[],"categories_segments":[],"categories_sizes":[],"default_left":[0,0,0,0,0,0,0,0,0,0,0,0,0,0,0,0,0,0,0,0,0,0,0,0,0,0,0,0,0,0,0,0,0,0,0,0,0,0,0,0,0,0,0,0,0],"id":10,"left_children":[1,3,5,7,-1,-1,9,11,13,15,-1,17,19,21,23,25,-1,27,29,31,33,35,37,39,41,43,-1,-1,-1,-1,-1,-1,-1,-1,-1,-1,-1,-1,-1,-1,-1,-1,-1,-1,-1],"loss_changes":[1.6624026E2,2.2103276E2,1.4502704E2,1.1351479E2,0E0,0E0,9.000101E1,1.3800584E2,1.3521288E2,6.159417E1,0E0,2.8417149E1,7.320511E0,1.5237213E1,4.9417732E1,6.3646538E1,0E0,2.2343866E1,6.6266727E0,7.098541E-1,5.347309E0,3.6949768E0,6.075984E0,1.7836323E1,3.490581E1,2.2707859E1,0E0,0E0,0E0,0E0,0E0,0E0,0E0,0E0,0E0,0E0,0E0,0E0,0E0,0E0,0E0,0E0,0E0,0E0,0E0],"parents":[2147483647,0,0,1,1,2,2,3,3,6,6,7,7,8,8,9,9,11,11,12,12,13,13,14,14,15,15,17,17,18,18,19,19,20,20,21,21,22,22,23,23,24,24,25,25],"right_children":[2,4,6,8,-1,-1,10,12,14,16,-1,18,20,22,24,26,-1,28,30,32,34,36,38,40,42,44,-1,-1,-1,-1,-1,-1,-1,-1,-1,-1,-1,-1,-1,-1,-1,-1,-1,-1,-1],"split_conditions":[9E0,9E0,9E0,8E0,1.3401817E-1,-1.3592859E-1,1E1,8E0,8E0,1E1,-1.3270015E-1,2E0,1E0,2E0,1E0,1E0,1.2234706E-1,2E0,7E0,2E0,2E0,3E0,2E0,4E0,1E0,2E0,1.2391322E-1,-1.3227074E-1,2.1849158E-4,4.2343676E-2,1.3036323E-1,1.343052E-1,4.807363E-2,1.007231E-1,2.5256777E-2,-1.234985E-1,-3.412832E-3,-5.395111E-2,7.031572E-2,-2.2355339E-2,-1.62298E-1,-1.2811597E-1,4.848818E-2,-3.919387E-2,1.4089045E-1],"split_indices":[39,19,19,39,0,0,39,19,19,19,0,18,18,18,18,18,0,20,19,29,30,16,16,20,20,6,0,0,0,0,0,0,0,0,0,0,0,0,0,0,0,0,0,0,0],"split_type":[0,0,0,0,0,0,0,0,0,0,0,0,0,0,0,0,0,0,0,0,0,0,0,0,0,0,0,0,0,0,0,0,0,0,0,0,0,0,0,0,0,0,0,0,0],"sum_hessian":[1.7209303E3,1.2759158E3,4.450146E2,1.1289852E3,1.4693045E2,1.394989E2,3.055157E2,5.2212573E2,6.0685956E2,2.542905E2,5.122519E1,3.6431897E2,1.5780678E2,1.4752458E2,4.5933496E2,2.1345096E2,4.083954E1,3.2824084E2,3.607812E1,1.01075806E2,5.673097E1,1.27413666E2,2.0110922E1,2.5726794E2,2.0206702E2,1.8407602E2,2.937493E1,1.2263259E1,3.1597757E2,1.865178E1,1.742634E1,9.866163E1,2.414177E0,4.382132E1,1.2909649E1,1.2473919E2,2.6744754E0,1.5912665E1,4.1982565E0,2.4877396E2,8.49399E0,1.0936853E1,1.9113017E2,1.7775389E2,6.3221245E0],"tree_param":{"num_deleted":"0","num_feature":"40","num_nodes":"45","size_leaf_vector":"1"}},{"base_weights":[-1.6066166E-2,1.4254063E-1,-4.783968E-1,6.709737E-1,7.1270047E-3,1.2010852E-1,-5.554186E-1,-1.2478316E-1,7.5856483E-1,-9.4117707E-1,8.846971E-2,-4.3772668E-1,-1.2934797E-1,4.6180108E-1,1.1049387E0,-1.002801E0,-1.1278687E-1,2.740304E-1,-9.384048E-2,-3.114717E-1,-1.2806575E-1,5.844839E-1,-7.129763E-1,1.140312E0,-3.829383E-1,-1.0730156E0,-2.9791883E-1,5.247083E-1,-9.5469296E-2,3.6045948E-1,-5.8431816E-1,2.0378913E-1,-2.859347E-1,3.5250086E-2,-5.484804E-1,9.878784E-2,2.4624351E-2,-3.380829E-5,-1.3107002E-1,1.15437865E-1,-1.23862E-2,-7.08238E-2,6.7417338E-3,-1.1084571E-1,2.4868496E-2,-6.229482E-2,4.6546746E-2,1.05757E-1,-3.5386045E-2,1.6902246E-2,6.1523557E-2,-8.631575E-2,2.4514852E-2,7.328868E-2,-1.4793356E-2,-1.4303856E-2,-6.624984E-2,1.2297807E-1,-1.3163291E-2,-5.8937173E-2,7.592067E-2],"categories":[],"categories_nodes":[],"categories_segments":[],"categories_sizes":[],"default_left":[0,0,0,0,0,0,0,0,0,0,0,0,0,0,0,0,0,0,0,0,0,0,0,0,0,0,0,0,0,0,0,0,0,0,0,0,0,0,0,0,0,0,0,0,0,0,0,0,0,0,0,0,0,0,0,0,0,0,0,0,0],"id":11,"left_children":[1,3,5,7,9,-1,11,-1,13,15,17,19,-1,21,23,25,27,29,31,33,-1,35,37,39,41,43,45,47,-1,49,51,53,55,57,59,-1,-1,-1,-1,-1,-1,-1,-1,-1,-1,-1,-1,-1,-1,-1,-1,-1,-1,-1,-1,-1,-1,-1,-1,-1,-1],"loss_changes":[1.2293415E2,8.932215E1,5.605986E1,4.3741974E1,7.681235E1,0E0,3.505873E1,0E0,2.4584564E1,3.9028015E0,3.1048676E1,3.7406265E1,0E0,1.9614326E1,6.32782E0,3.2979965E0,4.029086E0,3.394471E1,2.6547295E1,2.551665E1,0E0,1.6287727E1,5.5564117E0,2.0917053E0,5.3822076E-1,3.371437E0,2.2763994E0,2.4277005E0,0E0,2.0075676E1,9.921031E0,3.4037174E1,1.50792675E1,2.546286E1,1.0305607E1,0E0,0E0,0E0,0E0,0E0,0E0,0E0,0E0,0E0,0E0,0E0,0E0,0E0,0E0,0E0,0E0,0E0,0E0,0E0,0E0,0E0,0E0,0E0,0E0,0E0,0E0],"parents":[2147483647,0,0,1,1,2,2,3,3,4,4,6,6,8,8,9,9,10,10,11,11,13,13,14,14,15,15,16,16,17,17,18,18,19,19,21,21,22,22,23,23,24,24,25,25,26,26,27,27,29,29,30,30,31,31,32,32,33,33,34,34],"right_children":[2,4,6,8,10,-1,12,-1,14,16,18,20,-1,22,24,26,28,30,32,34,-1,36,38,40,42,44,46,48,-1,50,52,54,56,58,60,-1,-1,-1,-1,-1,-1,-1,-1,-1,-1,-1,-1,-1,-1,-1,-1,-1,-1,-1,-1,-1,-1,-1,-1,-1,-1],"split_conditions":[9E0,2E0,1E0,1E0,2E0,1.2010852E-1,1E0,-1.2478316E-1,2E0,2E0,8E0,1E1,-1.2934797E-1,2E0,2E0,2E0,1E0,2E0,1E0,2E0,-1.2806575E-1,2E0,8E0,2E0,1E0,2E0,1E0,1E0,-9.5469296E-2,1E0,2E0,3E0,1E0,1E0,2E0,9.878784E-2,2.4624351E-2,-3.380829E-5,-1.3107002E-1,1.15437865E-1,-1.23862E-2,-7.08238E-2,6.7417338E-3,-1.1084571E-1,2.4868496E-2,-6.229482E-2,4.6546746E-2,1.05757E-1,-3.5386045E-2,1.6902246E-2,6.1523557E-2,-8.631575E-2,2.4514852E-2,7.328868E-2,-1.4793356E-2,-1.4303856E-2,-6.624984E-2,1.2297807E-1,-1.3163291E-2,-5.8937173E-2,7.592067E-2],"split_indices":[39,0,0,20,20,0,38,0,20,11,39,39,0,38,29,17,10,38,1,0,0,1,39,35,22,12,35,5,0,35,16,0,38,1,15,0,0,0,0,0,0,0,0,0,0,0,0,0,0,0,0,0,0,0,0,0,0,0,0,0,0],"split_type":[0,0,0,0,0,0,0,0,0,0,0,0,0,0,0,0,0,0,0,0,0,0,0,0,0,0,0,0,0,0,0,0,0,0,0,0,0,0,0,0,0,0,0,0,0,0,0,0,0,0,0,0,0,0,0,0,0,0,0,0,0],"sum_hessian":[1.674549E3,1.2473319E3,4.2721704E2,2.5362807E2,9.937038E2,1.8093311E1,4.0912372E2,1.0494098E1,2.4313397E2,7.766811E1,9.160357E2,3.542308E2,5.4892914E1,1.32201E2,1.10932976E2,7.209446E1,5.57365E0,4.5372147E2,4.623142E2,3.0927658E2,4.4954224E1,1.2015554E2,1.2045458E1,1.08585045E2,2.3479278E0,6.50886E1,7.005859E0,3.3862941E0,2.1873558E0,4.1274164E2,4.0979836E1,1.8131891E2,2.8099533E2,1.25919395E2,1.8335718E2,5.392387E1,6.6231674E1,5.9509654E0,6.094492E0,1.0747599E2,1.1090522E0,1.0307673E0,1.3171606E0,6.3545956E1,1.5426465E0,5.042756E0,1.9631026E0,1.9810334E0,1.4052607E0,2.3661453E2,1.761271E2,3.0639297E1,1.0340539E1,7.197019E1,1.0934871E2,2.0469772E2,7.62976E1,1.4654554E1,1.1126484E2,1.7833011E2,5.0270815E0],"tree_param":{"num_deleted":"0","num_feature":"40","num_nodes":"61","size_leaf_vector":"1"}},{"base_weights":[6.8302103E-3,1.599225E-1,-4.472029E-1,1.99124E-2,1.2872483E-1,-1.2938921E-1,-7.1822956E-2,3.3417138E-1,-2.5099245E-1,-2.6612407E-1,1.1893183E-1,3.5035007E-2,1.0591935E0,-1.0230616E0,-4.408155E-3,-4.5011616E-1,1.204533E-1,-6.6958375E-2,8.9849675E-1,1.2037939E0,1.4231883E-1,-1.1345026E0,-3.2048568E-1,2.7643996E-1,-3.773647E-1,-2.5849545E-1,-1.2410263E-1,1.9950063E-3,-7.140148E-2,5.3167533E-2,1.2509559E-1,1.22057036E-1,-3.6507093E-3,-3.741136E-2,7.833874E-2,-1.1550062E-1,5.622786E-2,3.9846316E-2,-6.6910684E-2,1.994744E-3,9.734583E-2,-5.4400947E-2,1.231123E-1,-1.276018E-3,-1.266143E-1],"categories":[],"categories_nodes":[],"categories_segments":[],"categories_sizes":[],"default_left":[0,0,0,0,0,0,0,0,0,0,0,0,0,0,0,0,0,0,0,0,0,0,0,0,0,0,0,0,0,0,0,0,0,0,0,0,0,0,0,0,0,0,0,0,0],"id":12,"left_children":[1,3,5,7,-1,-1,9,11,13,15,-1,17,19,21,23,25,-1,27,29,31,33,35,37,39,41,43,-1,-1,-1,-1,-1,-1,-1,-1,-1,-1,-1,-1,-1,-1,-1,-1,-1,-1,-1],"loss_changes":[1.1522141E2,1.9563292E2,1.3275854E2,9.404582E1,0E0,0E0,7.154004E1,1.1087315E2,1.1294844E2,6.891296E1,0E0,3.20336E1,1.9627213E1,1.0880905E1,4.7311096E1,3.382526E1,0E0,1.83261E1,4.302677E0,2.725769E0,7.403435E0,4.948105E0,5.543876E0,4.604628E1,5.2675934E1,4.5205055E1,0E0,0E0,0E0,0E0,0E0,0E0,0E0,0E0,0E0,0E0,0E0,0E0,0E0,0E0,0E0,0E0,0E0,0E0,0E0],"parents":[2147483647,0,0,1,1,2,2,3,3,6,6,7,7,8,8,9,9,11,11,12,12,13,13,14,14,15,15,17,17,18,18,19,19,20,20,21,21,22,22,23,23,24,24,25,25],"right_children":[2,4,6,8,-1,-1,10,12,14,16,-1,18,20,22,24,26,-1,28,30,32,34,36,38,40,42,44,-1,-1,-1,-1,-1,-1,-1,-1,-1,-1,-1,-1,-1,-1,-1,-1,-1,-1,-1],"split_conditions":[9E0,9E0,9E0,8E0,1.2872483E-1,-1.2938921E-1,1E1,8E0,8E0,1E0,1.1893183E-1,2E0,2E0,2E0,1E0,1E1,1.204533E-1,2E0,7E0,3E0,1E0,3E0,1E0,1E0,2E0,1E0,-1.2410263E-1,1.9950063E-3,-7.140148E-2,5.3167533E-2,1.2509559E-1,1.22057036E-1,-3.6507093E-3,-3.741136E-2,7.833874E-2,-1.1550062E-1,5.622786E-2,3.9846316E-2,-6.6910684E-2,1.994744E-3,9.734583E-2,-5.4400947E-2,1.231123E-1,-1.276018E-3,-1.266143E-1],"split_indices":[39,19,19,39,0,0,19,19,19,18,0,18,38,18,38,39,0,38,19,36,29,17,7,18,18,38,0,0,0,0,0,0,0,0,0,0,0,0,0,0,0,0,0,0,0],"split_type":[0,0,0,0,0,0,0,0,0,0,0,0,0,0,0,0,0,0,0,0,0,0,0,0,0,0,0,0,0,0,0,0,0,0,0,0,0,0,0,0,0,0,0,0,0],"sum_hessian":[1.6556193E3,1.238624E3,4.1699527E2,1.102691E3,1.3593288E2,1.2733581E2,2.896595E2,5.1038885E2,5.9230225E2,2.5167368E2,3.7985798E1,3.6205652E2,1.4833232E2,1.4261568E2,4.4968655E2,2.2430508E2,2.7368597E1,3.2463287E2,3.742366E1,1.2785532E2,2.0477E1,1.225606E2,2.0055079E1,2.5666696E2,1.9301959E2,1.8162744E2,4.267763E1,2.8704764E2,3.758522E1,1.9567392E1,1.7856268E1,1.2616472E2,1.6906091E0,1.157158E1,8.905418E0,1.2141277E2,1.1478287E0,6.502415E0,1.3552664E1,1.8837598E2,6.8290985E1,1.7549907E2,1.752051E1,1.4683212E2,3.4795326E1],"tree_param":{"num_deleted":"0","num_feature":"40","num_nodes":"45","size_leaf_vector":"1"}},{"base_weights":[6.8928436E-3,1.4603223E-1,-4.1722336E-1,1.69819E-2,1.2487563E-1,-1.2575564E-1,-7.202868E-2,2.979548E-1,-2.227557E-1,1.3068005E-1,-1.21113144E-1,2.1629019E-2,1.0105383E0,-9.7523016E-1,7.7099428E-3,-4.18882E-2,1.1610254E-1,-7.123287E-2,7.8327715E-1,1.1908619E0,6.908694E-1,-1.1087847E0,-1.2930366E-1,-2.7599603E-1,3.887221E-1,-2.2794703E-1,1.1729441E-1,1.2606375E-1,-1.1447312E-2,4.1607216E-2,1.2101712E-1,1.2057852E-1,1.8114612E-2,8.748105E-2,4.8007127E-3,-1.1364048E-1,5.2676905E-2,-4.5281094E-2,8.952395E-2,-3.695864E-2,1.4961867E-1,-6.7219413E-3,6.815325E-2,-3.1190684E-2,1.1387016E-1],"categories":[],"categories_nodes":[],"categories_segments":[],"categories_sizes":[],"default_left":[0,0,0,0,0,0,0,0,0,0,0,0,0,0,0,0,0,0,0,0,0,0,0,0,0,0,0,0,0,0,0,0,0,0,0,0,0,0,0,0,0,0,0,0,0],"id":13,"left_children":[1,3,5,7,-1,-1,9,11,13,15,-1,17,19,21,23,25,-1,27,29,31,33,35,37,39,41,43,-1,-1,-1,-1,-1,-1,-1,-1,-1,-1,-1,-1,-1,-1,-1,-1,-1,-1,-1],"loss_changes":[9.407742E1,1.708003E2,1.1414864E2,7.252037E1,0E0,0E0,6.486089E1,9.757454E1,1.0076001E2,4.2505352E1,0E0,2.5388908E1,7.1595306E0,1.5247131E1,4.8290695E1,4.6714867E1,0E0,1.8582964E1,5.6111736E0,1.0948105E0,6.1451683E0,5.9074707E0,6.937146E0,4.3027054E1,2.5500248E1,2.089854E1,0E0,0E0,0E0,0E0,0E0,0E0,0E0,0E0,0E0,0E0,0E0,0E0,0E0,0E0,0E0,0E0,0E0,0E0,0E0],"parents":[2147483647,0,0,1,1,2,2,3,3,6,6,7,7,8,8,9,9,11,11,12,12,13,13,14,14,15,15,17,17,18,18,19,19,20,20,21,21,22,22,23,23,24,24,25,25],"right_children":[2,4,6,8,-1,-1,10,12,14,16,-1,18,20,22,24,26,-1,28,30,32,34,36,38,40,42,44,-1,-1,-1,-1,-1,-1,-1,-1,-1,-1,-1,-1,-1,-1,-1,-1,-1,-1,-1],"split_conditions":[9E0,9E0,9E0,8E0,1.2487563E-1,-1.2575564E-1,1E1,8E0,8E0,1E1,-1.21113144E-1,2E0,1E0,2E0,1E0,1E0,1.1610254E-1,2E0,7E0,3E0,2E0,3E0,1E0,4E0,2E0,3E0,1.1729441E-1,1.2606375E-1,-1.1447312E-2,4.1607216E-2,1.2101712E-1,1.2057852E-1,1.8114612E-2,8.748105E-2,4.8007127E-3,-1.1364048E-1,5.2676905E-2,-4.5281094E-2,8.952395E-2,-3.695864E-2,1.4961867E-1,-6.7219413E-3,6.815325E-2,-3.1190684E-2,1.1387016E-1],"split_indices":[39,19,19,39,0,0,39,19,19,19,0,18,18,18,18,18,0,0,19,36,30,17,17,0,20,0,0,0,0,0,0,0,0,0,0,0,0,0,0,0,0,0,0,0,0],"split_type":[0,0,0,0,0,0,0,0,0,0,0,0,0,0,0,0,0,0,0,0,0,0,0,0,0,0,0,0,0,0,0,0,0,0,0,0,0,0,0,0,0,0,0,0,0],"sum_hessian":[1.5921957E3,1.1993739E3,3.9282172E2,1.0746272E3,1.2474678E2,1.1360985E2,2.7921188E2,4.9465167E2,5.7997546E2,2.3778261E2,4.1429264E1,3.5717618E2,1.374755E2,1.3522661E2,4.4474887E2,2.0449237E2,3.329023E1,3.1916885E2,3.800732E1,8.61522E1,5.132329E1,1.1651978E2,1.870683E1,2.5508517E2,1.896637E2,1.7803726E2,2.645511E1,9.150933E0,3.100179E2,2.1493624E1,1.6513699E1,8.470609E1,1.4461064E0,3.962473E1,1.1698562E1,1.1488487E2,1.6349053E0,1.4641653E1,4.0651765E0,2.4304141E2,1.2043755E1,7.447205E1,1.1519165E2,1.6845975E2,9.577521E0],"tree_param":{"num_deleted":"0","num_feature":"40","num_nodes":"45","size_leaf_vector":"1"}},{"base_weights":[9.023791E-3,1.3343966E-1,-3.8150033E-1,1.42396055E-2,1.21967256E-1,-1.2259815E-1,-4.4878677E-2,-2.5131172E-1,2.4164295E-1,1.2890953E-1,-1.179354E-1,-1.0669673E-2,-9.235817E-1,9.820912E-1,1.2482328E-2,-3.3785075E-2,1.1397717E-1,-1.0272021E-1,7.863444E-1,-1.046727E0,-2.125429E-1,1.1776885E0,6.484903E-1,-2.2491775E-1,3.2679412E-1,-1.9172826E-1,1.1438835E-1,1.4416761E-2,-3.3925395E-2,4.1154023E-2,1.1829261E-1,-1.0676759E-1,4.835026E-2,-4.2848196E-2,1.242814E-1,1.19096294E-1,3.297548E-2,7.042975E-2,-6.574931E-2,-2.6723966E-2,1.4833264E-1,-1.15407206E-1,4.032622E-2,-2.4947867E-2,1.4611234E-1],"categories":[],"categories_nodes":[],"categories_segments":[],"categories_sizes":[],"default_left":[0,0,0,0,0,0,0,0,0,0,0,0,0,0,0,0,0,0,0,0,0,0,0,0,0,0,0,0,0,0,0,0,0,0,0,0,0,0,0,0,0,0,0,0,0],"id":14,"left_children":[1,3,5,7,-1,-1,9,11,13,15,-1,17,19,21,23,25,-1,27,29,31,33,35,37,39,41,43,-1,-1,-1,-1,-1,-1,-1,-1,-1,-1,-1,-1,-1,-1,-1,-1,-1,-1,-1],"loss_changes":[7.609283E1,1.5375952E2,1.07511765E2,6.474926E1,0E0,0E0,5.3697994E1,8.001366E1,9.799126E1,3.8919334E1,0E0,2.6879494E1,1.11936035E1,8.142624E0,3.3060505E1,3.8277546E1,0E0,1.9223167E1,5.151844E0,4.0705795E0,6.97557E0,5.619736E-1,4.302166E0,1.8647339E1,2.2052553E1,1.766719E1,0E0,0E0,0E0,0E0,0E0,0E0,0E0,0E0,0E0,0E0,0E0,0E0,0E0,0E0,0E0,0E0,0E0,0E0,0E0],"parents":[2147483647,0,0,1,1,2,2,3,3,6,6,7,7,8,8,9,9,11,11,12,12,13,13,14,14,15,15,17,17,18,18,19,19,20,20,21,21,22,22,23,23,24,24,25,25],"right_children":[2,4,6,8,-1,-1,10,12,14,16,-1,18,20,22,24,26,-1,28,30,32,34,36,38,40,42,44,-1,-1,-1,-1,-1,-1,-1,-1,-1,-1,-1,-1,-1,-1,-1,-1,-1,-1,-1],"split_conditions":[9E0,9E0,9E0,8E0,1.21967256E-1,-1.2259815E-1,1E1,8E0,8E0,1E1,-1.179354E-1,2E0,2E0,1E0,1E0,1E0,1.1397717E-1,1E0,7E0,3E0,2E0,3E0,2E0,2E0,1E0,2E0,1.1438835E-1,1.4416761E-2,-3.3925395E-2,4.1154023E-2,1.1829261E-1,-1.0676759E-1,4.835026E-2,-4.2848196E-2,1.242814E-1,1.19096294E-1,3.297548E-2,7.042975E-2,-6.574931E-2,-2.6723966E-2,1.4833264E-1,-1.15407206E-1,4.032622E-2,-2.4947867E-2,1.4611234E-1],"split_indices":[39,19,19,19,0,0,39,39,39,19,0,18,18,18,18,18,0,14,19,17,14,36,23,9,20,6,0,0,0,0,0,0,0,0,0,0,0,0,0,0,0,0,0,0,0],"split_type":[0,0,0,0,0,0,0,0,0,0,0,0,0,0,0,0,0,0,0,0,0,0,0,0,0,0,0,0,0,0,0,0,0,0,0,0,0,0,0,0,0,0,0,0,0],"sum_hessian":[1.5640544E3,1.1866588E3,3.7739566E2,1.0702281E3,1.1643064E2,1.0680712E2,2.7058853E2,4.9365503E2,5.765731E2,2.3541249E2,3.517604E1,3.6427652E2,1.2937854E2,1.354927E2,4.4108044E2,2.0360895E2,3.1803545E1,3.2734155E2,3.6934944E1,1.098768E2,1.9501738E1,8.381813E1,5.1674572E1,2.514468E2,1.8963365E2,1.802693E2,2.3339645E1,1.603563E2,1.6698528E2,2.0036463E1,1.6898483E1,1.08691086E2,1.1857095E0,1.7596443E1,1.9052949E0,8.212787E1,1.6902642E0,4.999874E1,1.6758279E0,2.4619095E2,5.2558465E0,8.619419E0,1.8101424E2,1.7500375E2,5.265546E0],"tree_param":{"num_deleted":"0","num_feature":"40","num_nodes":"45","size_leaf_vector":"1"}},{"base_weights":[8.461873E-3,1.2586801E-1,-3.7037235E-1,1.8528052E-2,1.1932667E-1,-1.19738616E-1,-5.701606E-2,-2.1560428E-1,2.1943134E-1,1.1384604E-1,-1.21396415E-1,1.0104699E-2,-8.799549E-1,9.142256E-1,1.7646885E-2,3.4907794E-1,-1.1568802E-1,8.778506E-2,-6.7923725E-1,-9.766173E-1,-3.27777E-1,1.085332E0,-1.4618258E-2,2.6880103E-1,-3.2078937E-1,2.0090555E-1,1.1184658E-1,2.2671238E-2,-3.1928986E-2,-1.7462224E-2,-1.3090566E-1,-1.0011816E-1,6.881401E-2,-6.346825E-2,7.020685E-2,1.1022651E-1,1.0317562E-2,-4.871426E-2,7.084279E-2,3.9844204E-2,-7.5248845E-2,-9.675831E-2,1.3373739E-3,5.0308313E-3,1.1232916E-1],"categories":[],"categories_nodes":[],"categories_segments":[],"categories_sizes":[],"default_left":[0,0,0,0,0,0,0,0,0,0,0,0,0,0,0,0,0,0,0,0,0,0,0,0,0,0,0,0,0,0,0,0,0,0,0,0,0,0,0,0,0,0,0,0,0],"id":15,"left_children":[1,3,5,7,-1,-1,9,11,13,15,-1,17,19,21,23,25,-1,27,29,31,33,35,37,39,41,43,-1,-1,-1,-1,-1,-1,-1,-1,-1,-1,-1,-1,-1,-1,-1,-1,-1,-1,-1],"loss_changes":[6.7417206E1,1.325511E2,9.2868484E1,4.9549107E1,0E0,0E0,5.175758E1,7.2959915E1,7.945929E1,6.868813E1,0E0,1.9557636E1,6.2654266E0,2.0289436E1,3.7512875E1,2.1837637E1,0E0,1.8629341E1,1.1527674E1,4.9622116E0,6.730996E0,1.6779633E0,7.4618325E0,3.383613E1,4.0650936E1,2.2654142E1,0E0,0E0,0E0,0E0,0E0,0E0,0E0,0E0,0E0,0E0,0E0,0E0,0E0,0E0,0E0,0E0,0E0,0E0,0E0],"parents":[2147483647,0,0,1,1,2,2,3,3,6,6,7,7,8,8,9,9,11,11,12,12,13,13,14,14,15,15,17,17,18,18,19,19,20,20,21,21,22,22,23,23,24,24,25,25],"right_children":[2,4,6,8,-1,-1,10,12,14,16,-1,18,20,22,24,26,-1,28,30,32,34,36,38,40,42,44,-1,-1,-1,-1,-1,-1,-1,-1,-1,-1,-1,-1,-1,-1,-1,-1,-1,-1,-1],"split_conditions":[9E0,9E0,9E0,8E0,1.1932667E-1,-1.19738616E-1,1E0,8E0,8E0,1E1,-1.21396415E-1,2E0,2E0,2E0,1E0,1E1,-1.1568802E-1,2E0,7E0,3E0,1E0,3E0,1E0,2E0,1E0,1E0,1.1184658E-1,2.2671238E-2,-3.1928986E-2,-1.7462224E-2,-1.3090566E-1,-1.0011816E-1,6.881401E-2,-6.346825E-2,7.020685E-2,1.1022651E-1,1.0317562E-2,-4.871426E-2,7.084279E-2,3.9844204E-2,-7.5248845E-2,-9.675831E-2,1.3373739E-3,5.0308313E-3,1.1232916E-1],"split_indices":[39,19,19,19,0,0,38,39,39,39,0,38,18,38,38,19,0,36,39,7,17,36,35,37,18,18,0,0,0,0,0,0,0,0,0,0,0,0,0,0,0,0,0,0,0],"split_type":[0,0,0,0,0,0,0,0,0,0,0,0,0,0,0,0,0,0,0,0,0,0,0,0,0,0,0,0,0,0,0,0,0,0,0,0,0,0,0,0,0,0,0,0,0],"sum_hessian":[1.5137131E3,1.1560916E3,3.5762152E2,1.0513799E3,1.047117E2,9.749372E1,2.601278E2,4.8550272E2,5.6587714E2,2.2744025E2,3.2687565E1,3.631198E2,1.22382904E2,1.2656198E2,4.393152E2,1.925259E2,3.491435E1,3.2712903E2,3.5990765E1,1.0349649E2,1.8886417E1,1.0673194E2,1.9830042E1,2.5229349E2,1.8702168E2,1.6249329E2,3.0032608E1,2.4422316E2,8.290588E1,2.0690594E1,1.5300173E1,1.0238435E2,1.112133E0,1.4845888E1,4.0405297E0,1.0480277E2,1.9291693E0,1.2189945E1,7.6400976E0,2.2441628E2,2.787721E1,6.306325E1,1.23958435E2,1.4059328E2,2.190001E1],"tree_param":{"num_deleted":"0","num_feature":"40","num_nodes":"45","size_leaf_vector":"1"}},{"base_weights":[7.2879456E-3,1.303595E-1,-3.8337737E-1,2.8860098E-2,1.1699785E-1,-1.1740934E-1,-9.3026884E-2,2.6993078E-1,-1.7597412E-1,-2.4276656E-1,1.1019237E-1,5.912334E-2,9.0518826E-1,-8.2732135E-1,-9.42192E-3,-3.729121E-1,1.09839655E-1,6.424589E-3,9.6202976E-1,1.098261E0,6.097619E-1,-9.404571E-1,-2.5975865E-1,-5.467068E-2,1.4085558E-1,-2.2927397E-1,-1.1337433E-1,1.1800086E-1,-3.487327E-3,1.3332717E-1,4.731566E-2,1.1223322E-1,1.606412E-2,7.680162E-2,9.428443E-3,-9.784242E-2,8.139433E-2,-5.256783E-2,6.6205844E-2,-2.9194897E-2,2.5076939E-2,-3.0438086E-2,1.0406139E-1],"categories":[],"categories_nodes":[],"categories_segments":[],"categories_sizes":[],"default_left":[0,0,0,0,0,0,0,0,0,0,0,0,0,0,0,0,0,0,0,0,0,0,0,0,0,0,0,0,0,0,0,0,0,0,0,0,0,0,0,0,0,0,0],"id":16,"left_children":[1,3,5,7,-1,-1,9,11,13,15,-1,17,19,21,23,25,-1,27,29,31,33,35,37,39,-1,41,-1,-1,-1,-1,-1,-1,-1,-1,-1,-1,-1,-1,-1,-1,-1,-1,-1],"loss_changes":[7.033106E1,1.173395E2,8.034532E1,5.013866E1,0E0,0E0,4.6324833E1,6.2403E1,5.9552715E1,4.047815E1,0E0,1.6706884E1,5.954521E0,6.933899E0,2.819522E1,2.268966E1,0E0,1.6174864E1,2.883442E0,1.3767014E0,3.8554192E0,6.9795914E0,5.241209E0,3.0921907E1,0E0,1.7284618E1,0E0,0E0,0E0,0E0,0E0,0E0,0E0,0E0,0E0,0E0,0E0,0E0,0E0,0E0,0E0,0E0,0E0],"parents":[2147483647,0,0,1,1,2,2,3,3,6,6,7,7,8,8,9,9,11,11,12,12,13,13,14,14,15,15,17,17,18,18,19,19,20,20,21,21,22,22,23,23,25,25],"right_children":[2,4,6,8,-1,-1,10,12,14,16,-1,18,20,22,24,26,-1,28,30,32,34,36,38,40,-1,42,-1,-1,-1,-1,-1,-1,-1,-1,-1,-1,-1,-1,-1,-1,-1,-1,-1],"split_conditions":[9E0,9E0,9E0,8E0,1.1699785E-1,-1.1740934E-1,1E1,8E0,8E0,1E0,1.1019237E-1,4E0,1E0,2E0,4E0,1E1,1.09839655E-1,2E0,1E0,2E0,2E0,3E0,2E0,1E0,1.4085558E-1,3E0,-1.1337433E-1,1.1800086E-1,-3.487327E-3,1.3332717E-1,4.731566E-2,1.1223322E-1,1.606412E-2,7.680162E-2,9.428443E-3,-9.784242E-2,8.139433E-2,-5.256783E-2,6.6205844E-2,-2.9194897E-2,2.5076939E-2,-3.0438086E-2,1.0406139E-1],"split_indices":[39,19,19,39,0,0,19,19,19,18,0,0,18,18,0,39,0,0,15,29,30,16,16,18,0,0,0,0,0,0,0,0,0,0,0,0,0,0,0,0,0,0,0],"split_type":[0,0,0,0,0,0,0,0,0,0,0,0,0,0,0,0,0,0,0,0,0,0,0,0,0,0,0,0,0,0,0,0,0,0,0,0,0,0,0,0,0,0,0],"sum_hessian":[1.4607595E3,1.1113245E3,3.49435E2,1.0134115E3,9.791297E1,9.303301E1,2.5640198E2,4.6538232E2,5.480292E2,2.2855812E2,2.7843859E1,3.502473E2,1.1513499E2,1.10789536E2,4.3723965E2,2.0899896E2,1.9559164E1,3.3188382E2,1.8363512E1,6.798596E1,4.714903E1,9.18279E1,1.896163E1,4.246502E2,1.258947E1,1.7690266E2,3.2096294E1,1.0344529E1,3.2153928E2,9.455746E0,8.907766E0,6.609219E1,1.8937666E0,3.5699257E1,1.1449771E1,9.031568E1,1.5122226E0,1.5049878E1,3.9117513E0,2.3901656E2,1.8563364E2,1.6774196E2,9.160704E0],"tree_param":{"num_deleted":"0","num_feature":"40","num_nodes":"43","size_leaf_vector":"1"}},{"base_weights":[1.5938122E-2,1.1963676E-1,-3.2055327E-1,1.4696737E-1,-7.8422123E-1,-2.4058247E-1,-1.114931E-1,1.6382152E-1,-1.2641047E-1,-1.0396335E0,-4.2378885E-1,-2.8081703E-1,9.4994026E-1,1.9019899E-1,-6.505941E-1,-2.6457208E-1,-1.2651088E0,7.96469E-2,-8.4441966E-1,-3.2066217E-1,9.424302E-1,1.2840292E0,-1.2020054E-1,2.1429951E-1,-7.2725654E-1,3.964784E-1,-8.4594905E-1,2.3275612E-1,-9.216181E-2,-6.1704683E-1,-1.3974845E-1,5.482089E-1,-5.3304845E-1,-1.0079151E-1,-3.6488443E-3,-2.8016734E-1,-1.2603687E-1,1.1983838E0,-8.686255E-3,1.3959469E-1,2.9591385E-2,-7.221352E-2,5.5835035E-2,2.2865592E-2,-1.1275106E-1,-1.0593071E-1,-3.384154E-2,8.5089095E-2,-4.563729E-2,-1.0584793E-1,-2.462385E-2,4.9354114E-2,-1.9867605E-2,-1.056435E-1,1.6477002E-2,8.887249E-2,-6.815491E-3,1.9046113E-2,-9.612592E-2,-3.1314213E-2,6.603443E-2,3.511184E-2,1.297091E-1],"categories":[],"categories_nodes":[],"categories_segments":[],"categories_sizes":[],"default_left":[0,0,0,0,0,0,0,0,0,0,0,0,0,0,0,0,0,0,0,0,0,0,0,0,0,0,0,0,0,0,0,0,0,0,0,0,0,0,0,0,0,0,0,0,0,0,0,0,0,0,0,0,0,0,0,0,0,0,0,0,0,0,0],"id":17,"left_children":[1,3,5,7,9,11,-1,13,-1,15,17,19,21,23,25,27,29,31,33,35,37,39,41,43,45,47,49,51,-1,53,-1,55,57,-1,-1,59,-1,61,-1,-1,-1,-1,-1,-1,-1,-1,-1,-1,-1,-1,-1,-1,-1,-1,-1,-1,-1,-1,-1,-1,-1,-1,-1],"loss_changes":[4.9934402E1,2.7135643E1,2.1148872E1,2.5477077E1,2.5293636E0,1.4999577E1,0E0,2.269926E1,0E0,2.8447075E0,3.258082E0,1.4841024E1,3.8307505E0,2.2680447E1,7.125456E0,1.9674176E0,3.2403946E-1,2.523662E0,1.058981E0,1.0668123E1,2.6499958E0,4.6300697E-1,1.7759407E0,1.939415E1,3.0375853E0,2.6749802E0,3.3456993E0,5.3140956E-1,0E0,1.5949658E0,0E0,1.0884485E0,1.3837122E0,0E0,0E0,8.857822E0,0E0,1.974554E-1,0E0,0E0,0E0,0E0,0E0,0E0,0E0,0E0,0E0,0E0,0E0,0E0,0E0,0E0,0E0,0E0,0E0,0E0,0E0,0E0,0E0,0E0,0E0,0E0,0E0],"parents":[2147483647,0,0,1,1,2,2,3,3,4,4,5,5,7,7,9,9,10,10,11,11,12,12,13,13,14,14,15,15,16,16,17,17,18,18,19,19,20,20,21,21,22,22,23,23,24,24,25,25,26,26,27,27,29,29,31,31,32,32,35,35,37,37],"right_children":[2,4,6,8,10,12,-1,14,-1,16,18,20,22,24,26,28,30,32,34,36,38,40,42,44,46,48,50,52,-1,54,-1,56,58,-1,-1,60,-1,62,-1,-1,-1,-1,-1,-1,-1,-1,-1,-1,-1,-1,-1,-1,-1,-1,-1,-1,-1,-1,-1,-1,-1,-1,-1],"split_conditions":[9E0,2E0,1E1,3E0,1E0,2E0,-1.114931E-1,2E0,-1.2641047E-1,1E0,8E0,2E0,2E0,2E0,7E0,2E0,1E0,1E0,2E0,2E0,1E0,1E0,1E0,3E0,1E0,1E0,1E0,8E0,-9.216181E-2,1E0,-1.3974845E-1,1E0,1E0,-1.0079151E-1,-3.6488443E-3,2E0,-1.2603687E-1,1E0,-8.686255E-3,1.3959469E-1,2.9591385E-2,-7.221352E-2,5.5835035E-2,2.2865592E-2,-1.1275106E-1,-1.0593071E-1,-3.384154E-2,8.5089095E-2,-4.563729E-2,-1.0584793E-1,-2.462385E-2,4.9354114E-2,-1.9867605E-2,-1.056435E-1,1.6477002E-2,8.887249E-2,-6.815491E-3,1.9046113E-2,-9.612592E-2,-3.1314213E-2,6.603443E-2,3.511184E-2,1.297091E-1],"split_indices":[39,29,39,36,35,15,0,32,0,27,39,6,33,35,39,16,1,26,16,35,18,18,26,33,32,9,34,39,0,5,0,34,14,0,0,9,0,27,0,0,0,0,0,0,0,0,0,0,0,0,0,0,0,0,0,0,0,0,0,0,0,0,0],"split_type":[0,0,0,0,0,0,0,0,0,0,0,0,0,0,0,0,0,0,0,0,0,0,0,0,0,0,0,0,0,0,0,0,0,0,0,0,0,0,0,0,0,0,0,0,0,0,0,0,0,0,0,0,0,0,0,0,0,0,0,0,0,0,0],"sum_hessian":[1.4289443E3,1.0928105E3,3.3613376E2,1.0615492E3,3.1261429E1,3.0657355E2,2.9560213E1,1.049893E3,1.1656246E1,1.7193346E1,1.4068084E1,2.9729053E2,9.28302E0,1.01769794E3,3.219496E1,4.36438E0,1.2828965E1,6.7727304E0,7.295354E0,2.8862686E2,8.663658E0,6.9221225E0,2.3608978E0,9.9239526E2,2.530269E1,4.9003434E0,2.7294617E1,2.8516648E0,1.5127151E0,3.1362731E0,9.692693E0,3.8974135E0,2.875317E0,5.8616476E0,1.4337062E0,2.7794742E2,1.0679459E1,6.8067493E0,1.8569089E0,5.8471193E0,1.0750033E0,1.2170421E0,1.1438557E0,9.827106E2,9.684706E0,1.2717945E1,1.2584745E1,3.198455E0,1.7018884E0,1.9587914E1,7.7067037E0,1.6876076E0,1.1640573E0,1.782971E0,1.3533021E0,2.2258422E0,1.6715713E0,1.2754756E0,1.5998414E0,2.69177E2,8.770416E0,1.1857635E0,5.620986E0],"tree_param":{"num_deleted":"0","num_feature":"40","num_nodes":"63","size_leaf_vector":"1"}},{"base_weights":[1.3442197E-2,-1.17942944E-1,4.0756445E-2,-7.07734E-2,4.1300163E-1,-1.15357E-1,5.83432E-1,4.484671E-1,-8.327051E-1,-4.7698995E-1,-3.6826175E-2,3.7783054E-1,1.1586892E-1,3.846337E-1,1.0868652E-1,-1.0622133E0,-2.5020486E-1,1.2672818E-1,-5.6748015E-1,7.241788E-1,-9.0158E-2,6.8367326E-1,-1.9204449E-2,3.0814722E-1,1.0897171E-1,-2.8019628E-2,-1.23851955E-1,-4.9835626E-2,1.2769366E-2,-2.6830435E-2,-8.67047E-2,8.077913E-2,-1.0485716E-1,-1.2702937E-2,7.205809E-2,-2.1232335E-2,8.529659E-2,-7.391556E-2,6.2480148E-2,6.1926846E-3,4.8064314E-2],"categories":[],"categories_nodes":[],"categories_segments":[],"categories_sizes":[],"default_left":[0,0,0,0,0,0,0,0,0,0,0,0,0,0,0,0,0,0,0,0,0,0,0,0,0,0,0,0,0,0,0,0,0,0,0,0,0,0,0,0,0],"id":18,"left_children":[1,-1,3,5,7,9,11,13,15,17,19,21,-1,23,-1,25,27,-1,29,31,33,35,37,39,-1,-1,-1,-1,-1,-1,-1,-1,-1,-1,-1,-1,-1,-1,-1,-1,-1],"loss_changes":[4.6305763E1,0E0,5.7691433E1,3.1262857E1,1.4526119E1,2.8442875E1,7.6526165E0,1.230146E1,9.665475E-1,2.8927128E1,3.3525784E1,6.3125668E0,0E0,1.5050335E1,0E0,5.221801E-1,4.306279E-1,0E0,1.5056145E1,8.866564E0,2.3149082E1,4.6302156E0,1.1378941E1,1.0960957E1,0E0,0E0,0E0,0E0,0E0,0E0,0E0,0E0,0E0,0E0,0E0,0E0,0E0,0E0,0E0,0E0,0E0],"parents":[2147483647,0,0,2,2,3,3,4,4,5,5,6,6,7,7,8,8,9,9,10,10,11,11,13,13,15,15,16,16,18,18,19,19,20,20,21,21,22,22,23,23],"right_children":[2,-1,4,6,8,10,12,14,16,18,20,22,-1,24,-1,26,28,-1,30,32,34,36,38,40,-1,-1,-1,-1,-1,-1,-1,-1,-1,-1,-1,-1,-1,-1,-1,-1,-1],"split_conditions":[1E0,-1.17942944E-1,9E0,2E0,2E0,2E0,8E0,1E1,1E0,1E0,2E0,1E0,1.1586892E-1,1E0,1.0868652E-1,1E0,1E0,1.2672818E-1,2E0,2E0,4E0,2E0,1E0,2E0,1.0897171E-1,-2.8019628E-2,-1.23851955E-1,-4.9835626E-2,1.2769366E-2,-2.6830435E-2,-8.67047E-2,8.077913E-2,-1.0485716E-1,-1.2702937E-2,7.205809E-2,-2.1232335E-2,8.529659E-2,-7.391556E-2,6.2480148E-2,6.1926846E-3,4.8064314E-2],"split_indices":[20,0,19,18,35,20,19,19,38,0,0,15,0,18,0,30,22,0,0,23,0,20,35,20,0,0,0,0,0,0,0,0,0,0,0,0,0,0,0,0,0],"split_type":[0,0,0,0,0,0,0,0,0,0,0,0,0,0,0,0,0,0,0,0,0,0,0,0,0,0,0,0,0,0,0,0,0,0,0,0,0,0,0,0,0],"sum_hessian":[1.4187144E3,3.0814161E1,1.3879003E3,1.0685559E3,3.1934436E2,1.0011518E3,6.740405E1,3.1112653E2,8.21783E0,1.7771298E2,8.2343884E2,5.0877003E1,1.6527046E1,2.843017E2,2.682482E1,5.304347E0,2.913483E0,8.123393E0,1.6958958E2,5.3104137E1,7.703347E2,2.833112E1,2.2545885E1,2.577756E2,2.65261E1,1.4522156E0,3.8521314E0,1.566238E0,1.347245E0,8.579862E1,8.379097E1,5.1232082E1,1.8720536E0,7.376315E2,3.2703224E1,4.461905E0,2.3869213E1,1.0575504E1,1.1970382E1,1.0675404E2,1.5102156E2],"tree_param":{"num_deleted":"0","num_feature":"40","num_nodes":"41","size_leaf_vector":"1"}},{"base_weights":[7.381633E-3,1.0522088E-1,-3.2682145E-1,1.570309E-2,1.1421374E-1,-1.1433132E-1,-4.562272E-2,2.1768238E-1,-1.556304E-1,-1.7196515E-1,1.06847964E-1,2.0492192E-2,8.3736193E-1,-8.4150815E-1,1.7907659E-2,-4.2720195E-2,-1.09175265E-1,-1.1877193E-1,5.9845384E-2,8.817026E-1,-2.537885E-1,-9.0716183E-1,-2.3971143E-1,-2.2121126E-2,1.2378329E0,-9.295305E-2,1.2848583E-1,-3.4785237E-2,1.4737199E-2,9.030755E-2,-4.898837E-2,5.40197E-2,-7.899546E-2,-9.2996426E-2,5.5033576E-2,5.6958027E-2,-1.00209095E-1,-6.105912E-3,1.2873976E-1,1.3378713E-1,1.53514845E-2,-1.4193176E-2,1.204283E-1],"categories":[],"categories_nodes":[],"categories_segments":[],"categories_sizes":[],"default_left":[0,0,0,0,0,0,0,0,0,0,0,0,0,0,0,0,0,0,0,0,0,0,0,0,0,0,0,0,0,0,0,0,0,0,0,0,0,0,0,0,0,0,0],"id":19,"left_children":[1,3,5,7,-1,-1,9,11,13,15,-1,17,19,21,23,25,-1,-1,27,29,31,33,35,37,39,41,-1,-1,-1,-1,-1,-1,-1,-1,-1,-1,-1,-1,-1,-1,-1,-1,-1],"loss_changes":[4.620373E1,1.01435814E2,7.3418274E1,3.4886818E1,0E0,0E0,3.3834133E1,5.651606E1,6.49428E1,2.5580688E1,0E0,1.6807213E1,5.6259995E0,4.1353683E0,2.1333952E1,1.2794006E1,0E0,0E0,1.2249633E1,3.5943222E0,2.6134548E0,3.8011322E0,8.095536E0,2.166999E1,1.3001747E0,1.1865599E1,0E0,0E0,0E0,0E0,0E0,0E0,0E0,0E0,0E0,0E0,0E0,0E0,0E0,0E0,0E0,0E0,0E0],"parents":[2147483647,0,0,1,1,2,2,3,3,6,6,7,7,8,8,9,9,11,11,12,12,13,13,14,14,15,15,18,18,19,19,20,20,21,21,22,22,23,23,24,24,25,25],"right_children":[2,4,6,8,-1,-1,10,12,14,16,-1,18,20,22,24,26,-1,-1,28,30,32,34,36,38,40,42,-1,-1,-1,-1,-1,-1,-1,-1,-1,-1,-1,-1,-1,-1,-1,-1,-1],"split_conditions":[9E0,9E0,9E0,8E0,1.1421374E-1,-1.1433132E-1,1E1,8E0,8E0,1E1,1.06847964E-1,2E0,2E0,2E0,2E0,2E0,-1.09175265E-1,-1.1877193E-1,7E0,3E0,1E0,3E0,1E0,2E0,2E0,2E0,1.2848583E-1,-3.4785237E-2,1.4737199E-2,9.030755E-2,-4.898837E-2,5.40197E-2,-7.899546E-2,-9.2996426E-2,5.5033576E-2,5.6958027E-2,-1.00209095E-1,-6.105912E-3,1.2873976E-1,1.3378713E-1,1.53514845E-2,-1.4193176E-2,1.204283E-1],"split_indices":[39,19,19,39,0,0,19,19,19,39,0,20,23,11,9,6,0,0,19,33,17,17,15,15,14,15,0,0,0,0,0,0,0,0,0,0,0,0,0,0,0,0,0],"split_type":[0,0,0,0,0,0,0,0,0,0,0,0,0,0,0,0,0,0,0,0,0,0,0,0,0,0,0,0,0,0,0,0,0,0,0,0,0,0,0,0,0,0,0],"sum_hessian":[1.4109851E3,1.0919869E3,3.1899823E2,1.0061411E3,8.584578E1,8.093337E1,2.3806485E2,4.616486E2,5.444925E2,2.1457686E2,2.3487991E1,3.5099155E2,1.1065705E2,1.0916974E2,4.3532278E2,1.8905766E2,2.5519201E1,1.0151194E1,3.4084033E2,1.0652038E2,4.136673E0,9.797376E1,1.1195979E1,4.2244324E2,1.2879547E1,1.8306099E2,5.996671E0,5.9714905E1,2.8112543E2,1.0522233E2,1.2980549E0,1.6644064E0,2.4722667E0,9.682095E1,1.1528075E0,5.553569E0,5.6424103E0,4.1117062E2,1.1272613E1,1.1577574E1,1.3019737E0,1.7725896E2,5.802036E0],"tree_param":{"num_deleted":"0","num_feature":"40","num_nodes":"43","size_leaf_vector":"1"}},{"base_weights":[-4.9387817E-3,8.826547E-2,-3.2089177E-1,3.80426E-3,1.12418614E-1,-1.1252129E-1,-6.573125E-2,5.613189E-2,-6.905411E-1,8.055035E-2,-1.1621942E-1,-1.6195394E-1,2.4152267E-1,-3.883467E-2,-9.347619E-1,2.4643242E-1,-1.08093195E-1,3.656993E-2,-7.6189554E-1,9.809727E-1,8.2923435E-2,-9.790231E-1,4.1553012E-1,-7.416966E-1,-1.2843573E-1,3.0685583E-1,-1.1561327E0,1.53551325E-2,-4.474519E-2,-8.910256E-2,-1.226184E-2,1.0024358E-1,-7.2932686E-3,-1.5541165E-2,4.4459056E-2,-1.2354652E-1,1.7839769E-2,7.920635E-2,-6.735463E-2,-1.2476281E-1,-3.3067394E-2,2.0291999E-2,1.0517146E-1,-1.474845E-1,-5.3002954E-2],"categories":[],"categories_nodes":[],"categories_segments":[],"categories_sizes":[],"default_left":[0,0,0,0,0,0,0,0,0,0,0,0,0,0,0,0,0,0,0,0,0,0,0,0,0,0,0,0,0,0,0,0,0,0,0,0,0,0,0,0,0,0,0,0,0],"id":20,"left_children":[1,3,5,7,-1,-1,9,11,13,15,-1,17,19,21,23,25,-1,27,29,31,33,35,37,39,-1,41,43,-1,-1,-1,-1,-1,-1,-1,-1,-1,-1,-1,-1,-1,-1,-1,-1,-1,-1],"loss_changes":[4.0354794E1,9.258699E1,6.3991024E1,3.5626335E1,0E0,0E0,3.8273922E1,3.6902332E1,1.0900803E1,4.0911587E1,0E0,4.9995544E1,5.7761578E1,8.854494E0,2.4182549E0,1.6067787E1,0E0,1.797125E1,8.505272E0,2.0413437E0,3.5169533E1,2.2211976E0,6.2885084E0,6.770212E0,0E0,1.3608858E1,7.8820324E-1,0E0,0E0,0E0,0E0,0E0,0E0,0E0,0E0,0E0,0E0,0E0,0E0,0E0,0E0,0E0,0E0,0E0,0E0],"parents":[2147483647,0,0,1,1,2,2,3,3,6,6,7,7,8,8,9,9,11,11,12,12,13,13,14,14,15,15,17,17,18,18,19,19,20,20,21,21,22,22,23,23,25,25,26,26],"right_children":[2,4,6,8,-1,-1,10,12,14,16,-1,18,20,22,24,26,-1,28,30,32,34,36,38,40,-1,42,44,-1,-1,-1,-1,-1,-1,-1,-1,-1,-1,-1,-1,-1,-1,-1,-1,-1,-1],"split_conditions":[9E0,9E0,9E0,2E0,1.12418614E-1,-1.1252129E-1,1E0,8E0,7E0,1E1,-1.1621942E-1,8E0,8E0,1E0,8E0,2E0,-1.08093195E-1,2E0,2E0,3E0,1E0,2E0,2E0,8E0,-1.2843573E-1,1E1,1E0,1.53551325E-2,-4.474519E-2,-8.910256E-2,-1.226184E-2,1.0024358E-1,-7.2932686E-3,-1.5541165E-2,4.4459056E-2,-1.2354652E-1,1.7839769E-2,7.920635E-2,-6.735463E-2,-1.2476281E-1,-3.3067394E-2,2.0291999E-2,1.0517146E-1,-1.474845E-1,-5.3002954E-2],"split_indices":[39,19,19,38,0,0,38,19,39,39,0,39,39,36,39,23,0,37,18,36,18,1,36,19,0,19,29,0,0,0,0,0,0,0,0,0,0,0,0,0,0,0,0,0,0],"split_type":[0,0,0,0,0,0,0,0,0,0,0,0,0,0,0,0,0,0,0,0,0,0,0,0,0,0,0,0,0,0,0,0,0,0,0,0,0,0,0,0,0,0,0,0,0],"sum_hessian":[1.3684054E3,1.057245E3,3.1116037E2,9.784715E2,7.877356E1,7.411717E1,2.370432E2,9.107539E2,6.771757E1,2.0995866E2,2.7084524E1,4.1853436E2,4.9221957E2,1.8775066E1,4.89425E1,1.844093E2,2.5549376E1,3.15179E2,1.0335537E2,8.601229E1,4.0620728E2,5.7409577E0,1.3034109E1,3.3540966E1,1.5401533E1,1.775419E2,6.8674006E0,2.543813E2,6.0797688E1,8.565897E1,1.769639E1,8.4343445E1,1.6688421E0,2.4519589E2,1.6101138E2,4.644481E0,1.0964764E0,9.88814E0,3.14597E0,1.4122288E1,1.941868E1,1.569183E2,2.0623585E1,3.6525226E0,3.214878E0],"tree_param":{"num_deleted":"0","num_feature":"40","num_nodes":"45","size_leaf_vector":"1"}},{"base_weights":[9.2594605E-3,1.1993622E-1,-1.4587607E-2,-3.4549016E-1,8.1958696E-2,-1.2511115E-1,-2.6509607E-1,6.4537317E-1,1.2907115E-2,-1.1424793E-1,-1.7045921E-1,7.109414E-1,-8.7384903E-1,4.0521923E-2,-8.7894434E-1,8.357911E-2,-5.755818E-1,7.548747E-1,-6.7749745E-1,-1.21123195E-1,-3.1706947E-1,-1.0316775E-1,2.5680405E-1,-1.3103303E0,-4.370129E-1,4.204585E-2,-2.1462642E-2,-8.0099866E-2,-2.9591411E-2,7.906203E-2,-1.0049119E-1,7.7280574E-3,-1.1964766E-1,4.572072E-3,-5.622756E-2,-1.4400301E-2,8.210828E-2,2.8911738E-2,-7.9057895E-2,-1.4040184E-1,-2.7072644E-2,3.5180982E-2,-9.8486915E-2],"categories":[],"categories_nodes":[],"categories_segments":[],"categories_sizes":[],"default_left":[0,0,0,0,0,0,0,0,0,0,0,0,0,0,0,0,0,0,0,0,0,0,0,0,0,0,0,0,0,0,0,0,0,0,0,0,0,0,0,0,0,0,0],"id":21,"left_children":[1,-1,3,5,7,-1,9,11,13,-1,15,17,19,21,23,25,27,29,31,-1,33,35,37,39,41,-1,-1,-1,-1,-1,-1,-1,-1,-1,-1,-1,-1,-1,-1,-1,-1,-1,-1],"loss_changes":[3.8001816E1,0E0,4.1978256E1,2.1275532E1,3.9570076E1,0E0,2.2543518E1,1.1683113E1,2.238012E1,0E0,2.56085E1,7.0386314E0,5.632849E-1,2.7405052E1,4.6305046E0,1.5512371E1,5.805149E0,7.3489456E0,1.5845251E0,0E0,3.1548378E-1,2.012268E1,1.21399555E1,9.1633415E-1,6.821087E0,0E0,0E0,0E0,0E0,0E0,0E0,0E0,0E0,0E0,0E0,0E0,0E0,0E0,0E0,0E0,0E0,0E0,0E0],"parents":[2147483647,0,0,2,2,3,3,4,4,6,6,7,7,8,8,10,10,11,11,12,12,13,13,14,14,15,15,16,16,17,17,18,18,20,20,21,21,22,22,23,23,24,24],"right_children":[2,-1,4,6,8,-1,10,12,14,-1,16,18,20,22,24,26,28,30,32,-1,34,36,38,40,42,-1,-1,-1,-1,-1,-1,-1,-1,-1,-1,-1,-1,-1,-1,-1,-1,-1,-1],"split_conditions":[1E0,1.1993622E-1,2E0,1E0,2E0,-1.2511115E-1,1E0,2E0,2E0,-1.1424793E-1,2E0,2E0,1E0,1E0,1E0,2E0,1E0,2E0,2E0,-1.21123195E-1,1E0,4E0,2E0,2E0,1E0,4.204585E-2,-2.1462642E-2,-8.0099866E-2,-2.9591411E-2,7.906203E-2,-1.0049119E-1,7.7280574E-3,-1.1964766E-1,4.572072E-3,-5.622756E-2,-1.4400301E-2,8.210828E-2,2.8911738E-2,-7.9057895E-2,-1.4040184E-1,-2.7072644E-2,3.5180982E-2,-9.8486915E-2],"split_indices":[0,0,20,21,0,0,20,23,35,0,0,29,36,35,32,1,22,35,7,0,5,0,34,31,12,0,0,0,0,0,0,0,0,0,0,0,0,0,0,0,0,0,0],"split_type":[0,0,0,0,0,0,0,0,0,0,0,0,0,0,0,0,0,0,0,0,0,0,0,0,0,0,0,0,0,0,0,0,0,0,0,0,0,0,0,0,0,0,0],"sum_hessian":[1.3373969E3,2.5303747E1,1.3120931E3,2.9577527E2,1.0163179E3,2.2928513E1,2.7284674E2,1.1004865E2,9.062692E2,2.5486633E1,2.473601E2,1.06005585E2,4.043067E0,8.799766E2,2.6292559E1,1.5251619E2,9.484392E1,1.03196526E2,2.809056E0,1.7856317E0,2.2574353E0,5.2903125E2,3.5094537E2,1.2310656E1,1.3981902E1,7.142182E1,8.1094376E1,5.148336E1,4.3360554E1,1.0168185E2,1.5146765E0,1.491289E0,1.317767E0,1.2385311E0,1.0189041E0,5.0745508E2,2.1576193E1,3.4114453E2,9.800848E0,1.0971392E1,1.339264E0,5.8773413E0,8.104562E0],"tree_param":{"num_deleted":"0","num_feature":"40","num_nodes":"43","size_leaf_vector":"1"}},{"base_weights":[-7.813356E-3,-3.5072498E-2,8.7918264E-1,1.1548201E-1,-5.5381976E-2,3.3640763E-1,1.1576725E0,2.6596505E-2,-3.5758466E-1,9.3732935E-1,-8.3299965E-2,1.2489074E0,-4.7391344E-2,-4.963009E-2,1.1071682E-1,-1.1065882E-1,-1.19451925E-1,-2.0856631E-1,1.4476709E-1,1.3267544E-1,1.1181659E-2,1.3681424E-1,-2.1283029E-1,1.8152293E-2,-1.1277105E-1,4.339153E-2,-6.1655976E-2,-3.5496668E-3,7.358483E-2,-7.228757E-2,-8.887105E-3,1.625953E-2,-1.0561513E-1],"categories":[],"categories_nodes":[],"categories_segments":[],"categories_sizes":[],"default_left":[0,0,0,0,0,0,0,0,0,0,0,0,0,0,0,0,0,0,0,0,0,0,0,0,0,0,0,0,0,0,0,0,0],"id":22,"left_children":[1,3,5,-1,7,9,11,13,15,17,-1,19,-1,21,-1,-1,23,25,-1,-1,-1,27,29,31,-1,-1,-1,-1,-1,-1,-1,-1,-1],"loss_changes":[3.1738548E1,3.0833422E1,5.5265903E0,0E0,3.1047415E1,1.1097715E1,4.3813324E0,8.130554E1,4.7562874E1,6.2484226E0,0E0,2.0100822E0,0E0,2.8095285E1,0E0,0E0,2.832616E1,1.3179631E0,0E0,0E0,0E0,4.452869E1,3.1057846E1,2.8181353E1,0E0,0E0,0E0,0E0,0E0,0E0,0E0,0E0,0E0],"parents":[2147483647,0,0,1,1,2,2,4,4,5,5,6,6,7,7,8,8,9,9,11,11,13,13,16,16,17,17,21,21,22,22,23,23],"right_children":[2,4,6,-1,8,10,12,14,16,18,-1,20,-1,22,-1,-1,24,26,-1,-1,-1,28,30,32,-1,-1,-1,-1,-1,-1,-1,-1,-1],"split_conditions":[2E0,1E0,8E0,1.1548201E-1,9E0,8E0,2E0,9E0,9E0,7E0,-8.3299965E-2,1E0,-4.7391344E-2,8E0,1.1071682E-1,-1.1065882E-1,1E0,1E0,1.4476709E-1,1.3267544E-1,1.1181659E-2,8E0,8E0,1E1,-1.1277105E-1,4.339153E-2,-6.1655976E-2,-3.5496668E-3,7.358483E-2,-7.228757E-2,-8.887105E-3,1.625953E-2,-1.0561513E-1],"split_indices":[15,0,19,0,39,39,37,19,19,19,0,16,0,39,0,0,38,12,0,0,0,19,19,39,0,0,0,0,0,0,0,0,0],"split_type":[0,0,0,0,0,0,0,0,0,0,0,0,0,0,0,0,0,0,0,0,0,0,0,0,0,0,0,0,0,0,0,0,0],"sum_hessian":[1.3103876E3,1.2722493E3,3.8138283E1,2.0413292E1,1.251836E3,1.3681363E1,2.4456917E1,9.854304E2,2.664056E2,9.168445E0,4.5129185E0,2.3383883E1,1.0730349E0,9.213872E2,6.40432E1,6.3386833E1,2.0301877E2,3.007307E0,6.161138E0,2.1729456E1,1.654427E0,4.301425E2,4.9124475E2,1.7950275E2,2.3516022E1,1.14333E0,1.863977E0,3.3478348E2,9.535902E1,9.510248E1,3.9614227E2,1.5897656E2,2.0526178E1],"tree_param":{"num_deleted":"0","num_feature":"40","num_nodes":"33","size_leaf_vector":"1"}},{"base_weights":[-2.2329403E-2,-5.1039632E-2,8.723203E-1,-7.8659706E-2,8.2727736E-1,1.1059668E0,5.7286865E-1,-5.0627355E-2,-9.0267277E-1,5.4529387E-1,9.9821115E-1,1.3940457E-1,7.2162634E-1,6.701709E-1,-2.4338141E-2,-1.1197139E-1,-2.9521732E-2,-1.0599674E0,-5.032648E-1,1.5395865E-1,9.5615584E-1,1.2328928E0,6.248942E-1,1.3454613E-1,1.0125247E0,7.817356E-1,7.3401086E-2,1.1233469E-1,-4.7643512E-2,-1.1139463E0,-1.9335488E-2,-9.18171E-1,-5.0868616E-2,-1.3497731E-1,1.1792042E-1,1.2604944E-1,1.5903321E-1,3.2910224E-2,1.343948E-1,1.7232312E-2,9.6182275E-1,-3.181956E-1,7.4812196E-2,5.392449E-1,1.2788735E-1,1.0074182E0,4.5814997E-1,4.9983963E-2,-5.1069897E-2,-1.2356729E-2,1.9101767E-2,-8.5610956E-2,-1.3579415E-1,-2.5142265E-2,-1.1548712E-1,7.504344E-2,-7.408138E-2,3.0095292E-2,-7.2441064E-2,8.599769E-2,-6.676211E-2,5.589329E-2,-8.704884E-2,1.08454265E-1,3.5045978E-2,2.0961864E-2,-7.891341E-2,9.413745E-2,6.5258592E-3,1.10806026E-1,3.182711E-2,1.3550733E-3,7.2829545E-2],"categories":[],"categories_nodes":[],"categories_segments":[],"categories_sizes":[],"default_left":[0,0,0,0,0,0,0,0,0,0,0,0,0,0,0,0,0,0,0,0,0,0,0,0,0,0,0,0,0,0,0,0,0,0,0,0,0,0,0,0,0,0,0,0,0,0,0,0,0,0,0,0,0,0,0,0,0,0,0,0,0,0,0,0,0,0,0,0,0,0,0,0,0],"id":23,"left_children":[1,3,5,7,9,11,13,15,17,19,21,-1,23,25,-1,-1,27,29,31,33,35,37,39,41,43,45,47,-1,49,51,-1,53,55,57,-1,-1,59,-1,-1,61,63,65,-1,67,-1,69,71,-1,-1,-1,-1,-1,-1,-1,-1,-1,-1,-1,-1,-1,-1,-1,-1,-1,-1,-1,-1,-1,-1,-1,-1,-1,-1],"loss_changes":[3.3322113E1,3.0540297E1,2.1887665E0,2.8108501E1,1.3059425E0,1.3838634E0,1.7320547E0,2.6587807E1,1.9821053E0,2.5365057E0,1.2179279E0,0E0,1.7970815E0,1.1354847E0,0E0,0E0,2.4246365E1,1.0861588E0,2.4342272E0,3.0446682E0,1.7283182E0,8.532276E-1,2.192143E0,1.600343E0,2.452693E-1,6.332197E-1,1.2330562E0,0E0,2.0699183E1,4.7200012E-1,0E0,7.8844976E-1,4.636936E0,2.4011872E0,0E0,0E0,2.5101407E0,0E0,0E0,2.8266165E0,1.3922548E-1,1.0412323E0,0E0,7.7718914E-1,0E0,2.0202065E-1,9.502206E-1,0E0,0E0,0E0,0E0,0E0,0E0,0E0,0E0,0E0,0E0,0E0,0E0,0E0,0E0,0E0,0E0,0E0,0E0,0E0,0E0,0E0,0E0,0E0,0E0,0E0,0E0],"parents":[2147483647,0,0,1,1,2,2,3,3,4,4,5,5,6,6,7,7,8,8,9,9,10,10,12,12,13,13,16,16,17,17,18,18,19,19,20,20,21,21,22,22,23,23,24,24,25,25,26,26,28,28,29,29,31,31,32,32,33,33,36,36,39,39,40,40,41,41,43,43,45,45,46,46],"right_children":[2,4,6,8,10,12,14,16,18,20,22,-1,24,26,-1,-1,28,30,32,34,36,38,40,42,44,46,48,-1,50,52,-1,54,56,58,-1,-1,60,-1,-1,62,64,66,-1,68,-1,70,72,-1,-1,-1,-1,-1,-1,-1,-1,-1,-1,-1,-1,-1,-1,-1,-1,-1,-1,-1,-1,-1,-1,-1,-1,-1,-1],"split_conditions":[2E0,2E0,1E0,2E0,8E0,1E0,2E0,1E0,3E0,1E0,1E0,1.3940457E-1,1E0,2E0,-2.4338141E-2,-1.1197139E-1,1E0,2E0,1E0,2E0,1E0,1E0,2E0,1E0,1E0,1E0,1E0,1.1233469E-1,2E0,1E0,-1.9335488E-2,1E0,1E0,1E0,1.1792042E-1,1.2604944E-1,1E0,3.2910224E-2,1.343948E-1,2E0,2E0,1E0,7.4812196E-2,1E0,1.2788735E-1,1E0,1E0,4.9983963E-2,-5.1069897E-2,-1.2356729E-2,1.9101767E-2,-8.5610956E-2,-1.3579415E-1,-2.5142265E-2,-1.1548712E-1,7.504344E-2,-7.408138E-2,3.0095292E-2,-7.2441064E-2,8.599769E-2,-6.676211E-2,5.589329E-2,-8.704884E-2,1.08454265E-1,3.5045978E-2,2.0961864E-2,-7.891341E-2,9.413745E-2,6.5258592E-3,1.10806026E-1,3.182711E-2,1.3550733E-3,7.2829545E-2],"split_indices":[3,9,6,32,19,15,9,20,20,5,12,0,1,27,0,0,0,5,35,37,3,13,20,32,37,12,15,0,16,9,0,37,15,12,0,0,22,0,0,0,24,17,0,9,0,2,32,0,0,0,0,0,0,0,0,0,0,0,0,0,0,0,0,0,0,0,0,0,0,0,0,0,0],"split_type":[0,0,0,0,0,0,0,0,0,0,0,0,0,0,0,0,0,0,0,0,0,0,0,0,0,0,0,0,0,0,0,0,0,0,0,0,0,0,0,0,0,0,0,0,0,0,0,0,0,0,0,0,0,0,0,0,0,0,0,0,0,0,0,0,0,0,0,0,0,0,0,0,0],"sum_hessian":[1.2945736E3,1.2552349E3,3.933883E1,1.2178481E3,3.7386723E1,2.0584507E1,1.8754324E1,1.1788074E3,3.9040768E1,1.5691345E1,2.1695377E1,1.0264066E1,1.0320441E1,1.6916706E1,1.8376167E0,2.181345E1,1.1569939E3,2.682336E1,1.2217408E1,8.74074E0,6.950605E0,1.1907391E1,9.787987E0,3.9040177E0,6.416423E0,1.399115E1,2.9255571E0,1.6961338E1,1.1400326E3,2.4981903E1,1.841458E0,5.8357205E0,6.381688E0,7.4964323E0,1.2443074E0,4.6094337E0,2.3411713E0,1.7367507E0,1.017064E1,3.8662398E0,5.921747E0,2.5234425E0,1.3805753E0,3.3998146E0,3.0166082E0,6.9974966E0,6.993653E0,1.7743789E0,1.1511781E0,8.652563E2,2.7477628E2,1.4338602E1,1.0643301E1,2.0692263E0,3.7664943E0,2.9120073E0,3.4696808E0,4.590691E0,2.9057412E0,1.2451028E0,1.0960685E0,2.6310852E0,1.2351549E0,4.2871966E0,1.6345507E0,1.4515164E0,1.0719261E0,1.3058518E0,2.093963E0,5.5754004E0,1.4220964E0,3.040246E0,3.9534068E0],"tree_param":{"num_deleted":"0","num_feature":"40","num_nodes":"73","size_leaf_vector":"1"}},{"base_weights":[-1.0381503E-3,3.6065873E-2,-6.4368963E-1,6.266109E-2,-8.458119E-1,-9.8534954E-1,-4.603007E-1,-1.0916328E-1,8.088887E-2,-8.8976616E-1,1.6481549E-2,-4.8579133E-1,-1.2286569E-1,-6.635269E-1,2.8323838E-2,5.498412E-2,8.5203254E-1,-1.0887666E0,-6.212256E-1,-8.9344405E-2,-1.39607275E-2,-8.0631727E-1,-2.5468415E-1,-1.1514381E-1,3.5421062E-1,2.9009473E-2,8.0106986E-1,1.1900098E0,4.1355887E-1,-1.2612456E-1,-7.139714E-1,-8.527869E-1,-1.2058984E-1,-6.104818E-1,9.4837055E-2,-1.4741577E-1,-9.43459E-1,-5.4609793E-1,2.7479208E-1,7.4182147E-1,-4.3149474E-1,5.0510108E-3,-8.1815235E-2,9.413519E-2,2.6700184E-2,1.2331146E-1,4.193225E-2,9.786181E-2,1.3533115E-2,-9.2216134E-2,1.5507571E-2,-1.0264536E-1,-1.8559009E-2,8.162662E-2,-6.999761E-2,-8.979835E-2,3.5122302E-3,3.391238E-2,-6.704023E-2,-1.0840299E-1,-5.493016E-2,-9.497658E-2,2.5358215E-2,-4.9411964E-2,8.501898E-2,-1.2156592E-2,1.028718E-1,-7.931523E-2,8.529356E-4],"categories":[],"categories_nodes":[],"categories_segments":[],"categories_sizes":[],"default_left":[0,0,0,0,0,0,0,0,0,0,0,0,0,0,0,0,0,0,0,0,0,0,0,0,0,0,0,0,0,0,0,0,0,0,0,0,0,0,0,0,0,0,0,0,0,0,0,0,0,0,0,0,0,0,0,0,0,0,0,0,0,0,0,0,0,0,0,0,0],"id":24,"left_children":[1,3,5,7,9,11,13,-1,15,17,-1,19,-1,21,23,25,27,29,31,-1,33,35,37,-1,39,41,43,45,47,-1,49,51,53,55,-1,57,59,61,63,65,67,-1,-1,-1,-1,-1,-1,-1,-1,-1,-1,-1,-1,-1,-1,-1,-1,-1,-1,-1,-1,-1,-1,-1,-1,-1,-1,-1,-1],"loss_changes":[3.0877728E1,2.876695E1,3.9752216E0,2.5112926E1,1.7417889E0,2.2973309E0,4.772518E0,0E0,2.3361614E1,1.1709862E0,0E0,1.8057122E0,0E0,1.7708054E0,6.1829705E0,2.1968344E1,5.1415997E0,2.9714203E-1,1.8728476E0,0E0,3.6773398E0,2.0862617E0,1.7275848E0,0E0,4.1374736E0,2.00346E1,2.606163E0,1.7841339E-1,2.710072E0,0E0,1.6163716E0,1.1406059E0,4.129125E0,7.6291966E-1,0E0,1.6084883E0,5.237007E-1,2.4776332E0,2.3202114E0,2.2952995E0,7.663478E-1,0E0,0E0,0E0,0E0,0E0,0E0,0E0,0E0,0E0,0E0,0E0,0E0,0E0,0E0,0E0,0E0,0E0,0E0,0E0,0E0,0E0,0E0,0E0,0E0,0E0,0E0,0E0,0E0],"parents":[2147483647,0,0,1,1,2,2,3,3,4,4,5,5,6,6,8,8,9,9,11,11,13,13,14,14,15,15,16,16,17,17,18,18,20,20,21,21,22,22,24,24,25,25,26,26,27,27,28,28,30,30,31,31,32,32,33,33,35,35,36,36,37,37,38,38,39,39,40,40],"right_children":[2,4,6,8,10,12,14,-1,16,18,-1,20,-1,22,24,26,28,30,32,-1,34,36,38,-1,40,42,44,46,48,-1,50,52,54,56,-1,58,60,62,64,66,68,-1,-1,-1,-1,-1,-1,-1,-1,-1,-1,-1,-1,-1,-1,-1,-1,-1,-1,-1,-1,-1,-1,-1,-1,-1,-1,-1,-1],"split_conditions":[2E0,2E0,1E0,1E0,4E0,1E0,3E0,-1.0916328E-1,2E0,1E0,1.6481549E-2,1E0,-1.2286569E-1,2E0,1E0,2E0,1E0,1E0,1E0,-8.9344405E-2,1E0,1E0,2E0,-1.1514381E-1,1E0,2E0,2E0,2E0,1E0,-1.2612456E-1,3E0,2E0,1E0,2E0,9.4837055E-2,1E0,2E0,1E0,1E0,1E0,1E0,5.0510108E-3,-8.1815235E-2,9.413519E-2,2.6700184E-2,1.2331146E-1,4.193225E-2,9.786181E-2,1.3533115E-2,-9.2216134E-2,1.5507571E-2,-1.0264536E-1,-1.8559009E-2,8.162662E-2,-6.999761E-2,-8.979835E-2,3.5122302E-3,3.391238E-2,-6.704023E-2,-1.0840299E-1,-5.493016E-2,-9.497658E-2,2.5358215E-2,-4.9411964E-2,8.501898E-2,-1.2156592E-2,1.028718E-1,-7.931523E-2,8.529356E-4],"split_indices":[38,32,36,20,20,11,20,0,12,29,0,32,0,4,13,3,9,35,30,0,29,1,21,0,15,29,36,15,30,0,20,16,27,4,0,24,21,15,29,7,23,0,0,0,0,0,0,0,0,0,0,0,0,0,0,0,0,0,0,0,0,0,0,0,0,0,0,0,0],"split_type":[0,0,0,0,0,0,0,0,0,0,0,0,0,0,0,0,0,0,0,0,0,0,0,0,0,0,0,0,0,0,0,0,0,0,0,0,0,0,0,0,0,0,0,0,0,0,0,0,0,0,0,0,0,0,0,0,0,0,0,0,0,0,0,0,0,0,0,0,0],"sum_hessian":[1.2929641E3,1.2232808E3,6.9683266E1,1.1883715E3,3.490935E1,2.2811546E1,4.687172E1,1.7558706E1,1.1708127E3,3.356896E1,1.340392E0,8.452828E0,1.4358718E1,3.2850685E1,1.4021032E1,1.1337969E3,3.701592E1,1.752659E1,1.6042368E1,4.0554376E0,4.3973904E0,2.3626736E1,9.223951E0,2.4864483E0,1.1534584E1,1.0966561E3,3.7140713E1,1.993554E1,1.708038E1,1.0383154E1,7.143437E0,1.048793E1,5.5544376E0,2.9403656E0,1.4570249E0,4.427861E0,1.9198874E1,5.929224E0,3.2947268E0,7.7614784E0,3.7731056E0,1.0704294E3,2.62267E1,2.8810534E1,8.330179E0,1.8311361E1,1.6241777E0,4.804823E0,1.2275556E1,5.713569E0,1.4298677E0,7.894572E0,2.5933585E0,1.9662324E0,3.588205E0,1.7639292E0,1.1764363E0,2.4759881E0,1.9518732E0,1.2861683E1,6.337191E0,3.8155189E0,2.1137052E0,1.4706855E0,1.8240415E0,2.0795488E0,5.6819296E0,1.6304842E0,2.1426213E0],"tree_param":{"num_deleted":"0","num_feature":"40","num_nodes":"69","size_leaf_vector":"1"}},{"base_weights":[-5.720333E-3,2.0986041E-2,-8.1365573E-1,1.1162472E-1,2.7535765E-3,-1.0581735E0,-4.947911E-1,-2.9901922E-1,8.6816266E-2,-1.2113329E-1,-5.0837725E-1,-1.216109E-1,-2.8990486E-1,-4.8334193E-1,-3.0228218E-2,6.777846E-1,2.077132E-2,-7.459173E-1,1.7817108E-2,1.1943603E-1,-6.217579E-1,-2.7523425E-1,-7.358124E-1,-1.0336294E-1,7.634238E-2,2.9132158E-1,8.377883E-1,-7.888044E-3,7.6072043E-1,4.681527E-3,-9.6061036E-2,7.4136895E-1,-6.1707807E-1,-1.2131899E-1,-2.3139016E-1,1.0236924E-1,-3.2941096E-2,-5.6628283E-2,-9.8133646E-2,2.8504552E-3,1.2092044E-1,1.5320823E-3,7.289029E-2,8.856388E-2,-5.6700587E-2,-1.4606565E-2,1.8380573E-2,4.360127E-2,1.270545E-1,-9.518035E-3,1.0543694E-1,1.9677332E-2,-9.2752606E-2,-6.581547E-2,4.0788725E-2],"categories":[],"categories_nodes":[],"categories_segments":[],"categories_sizes":[],"default_left":[0,0,0,0,0,0,0,0,0,0,0,0,0,0,0,0,0,0,0,0,0,0,0,0,0,0,0,0,0,0,0,0,0,0,0,0,0,0,0,0,0,0,0,0,0,0,0,0,0,0,0,0,0,0,0],"id":25,"left_children":[1,3,5,-1,7,9,11,13,15,-1,17,-1,19,21,23,25,27,29,-1,31,33,35,37,-1,39,41,43,45,47,-1,-1,49,51,-1,53,-1,-1,-1,-1,-1,-1,-1,-1,-1,-1,-1,-1,-1,-1,-1,-1,-1,-1,-1,-1],"loss_changes":[2.7673155E1,2.4792818E1,2.676035E0,0E0,3.1034859E1,1.2660484E0,2.5572758E0,1.3191181E1,3.733128E1,0E0,1.2080085E0,0E0,2.3355718E0,8.101601E0,1.1787542E1,5.701496E0,1.8279072E1,9.113641E-1,0E0,4.2557683E0,1.8790507E0,6.546405E0,2.391899E0,0E0,5.3802032E0,3.5740807E0,5.0372047E0,2.2025864E1,4.766575E0,0E0,0E0,1.3964636E0,1.2795746E0,0E0,2.1429782E0,0E0,0E0,0E0,0E0,0E0,0E0,0E0,0E0,0E0,0E0,0E0,0E0,0E0,0E0,0E0,0E0,0E0,0E0,0E0,0E0],"parents":[2147483647,0,0,1,1,2,2,4,4,5,5,6,6,7,7,8,8,10,10,12,12,13,13,14,14,15,15,16,16,17,17,19,19,20,20,21,21,22,22,24,24,25,25,26,26,27,27,28,28,31,31,32,32,34,34],"right_children":[2,4,6,-1,8,10,12,14,16,-1,18,-1,20,22,24,26,28,30,-1,32,34,36,38,-1,40,42,44,46,48,-1,-1,50,52,-1,54,-1,-1,-1,-1,-1,-1,-1,-1,-1,-1,-1,-1,-1,-1,-1,-1,-1,-1,-1,-1],"split_conditions":[2E0,1E0,1E0,1.1162472E-1,2E0,2E0,1E0,9E0,2E0,-1.2113329E-1,3E0,-1.216109E-1,1E0,2E0,1E0,1E0,4E0,1E0,1.7817108E-2,1E0,1E0,1E0,1E0,-1.0336294E-1,2E0,1E0,2E0,1E0,8E0,4.681527E-3,-9.6061036E-2,1E0,1E0,-1.2131899E-1,3E0,1.0236924E-1,-3.2941096E-2,-5.6628283E-2,-9.8133646E-2,2.8504552E-3,1.2092044E-1,1.5320823E-3,7.289029E-2,8.856388E-2,-5.6700587E-2,-1.4606565E-2,1.8380573E-2,4.360127E-2,1.270545E-1,-9.518035E-3,1.0543694E-1,1.9677332E-2,-9.2752606E-2,-6.581547E-2,4.0788725E-2],"split_indices":[23,0,29,0,20,16,4,19,0,0,20,0,9,0,20,36,0,13,0,2,33,1,6,0,15,29,29,35,19,0,0,16,36,0,20,0,0,0,0,0,0,0,0,0,0,0,0,0,0,0,0,0,0,0,0],"split_type":[0,0,0,0,0,0,0,0,0,0,0,0,0,0,0,0,0,0,0,0,0,0,0,0,0,0,0,0,0,0,0,0,0,0,0,0,0,0,0,0,0,0,0,0,0,0,0,0,0,0,0,0,0,0,0],"sum_hessian":[1.2807374E3,1.2407E3,4.0037422E1,1.9329258E1,1.2213707E3,2.1348211E1,1.868921E1,2.655452E2,9.5582556E2,1.5755804E1,5.5924077E0,3.04246E0,1.564675E1,1.5705022E2,1.0849498E2,9.515136E1,8.606742E2,4.090615E0,1.5017931E0,7.292071E0,8.35468E0,8.723438E1,6.9815834E1,9.58161E0,9.891337E1,2.8685904E1,6.646546E1,8.2953436E2,3.1139801E1,1.0383935E0,3.052221E0,3.9499943E0,3.3420763E0,2.4837809E0,5.8708987E0,2.776251E0,8.445813E1,4.32553E1,2.6560532E1,9.588937E1,3.023998E0,1.8225399E1,1.04605055E1,6.463345E1,1.832004E0,4.821946E2,3.4733978E2,2.0157005E1,1.0982796E1,1.2649912E0,2.6850033E0,1.0239403E0,2.3181362E0,3.502916E0,2.3679826E0],"tree_param":{"num_deleted":"0","num_feature":"40","num_nodes":"55","size_leaf_vector":"1"}},{"base_weights":[-1.0492529E-2,6.999242E-2,-3.0736884E-1,1.1674078E-1,-6.0356873E-1,-2.1315481E-1,-1.1011239E-1,5.067822E-1,3.8230475E-2,-4.0603474E-1,-1.2078805E-1,-1.4285897E-1,-1.0361004E-1,-9.7630575E-2,5.596189E-1,-5.6527007E-1,8.0132335E-2,-2.4103312E-1,-8.4376186E-1,-8.814525E-2,-1.072513E0,6.5800273E-1,-5.8915388E-2,-7.442566E-1,-5.7572373E-3,3.499337E-2,5.7307595E-1,-2.676095E-2,-9.05955E-1,-9.920743E-1,4.0203147E-2,1.6277726E-1,-3.2462758E-1,-1.1879838E0,6.635487E-3,6.844519E-2,-9.9873476E-2,8.242322E-2,-3.477228E-2,-8.1623875E-2,4.2431294E-3,3.4152348E-2,-9.267004E-2,3.723901E-4,7.653147E-2,8.963638E-2,2.1005882E-2,-6.96884E-2,1.535474E-2,-1.1612152E-1,8.098336E-3,-1.21680215E-1,-5.2498866E-2,2.0245185E-2,-1.0979743E-1,8.7856874E-2,-3.6991816E-2,-1.3036598E-1,-5.4624617E-2],"categories":[],"categories_nodes":[],"categories_segments":[],"categories_sizes":[],"default_left":[0,0,0,0,0,0,0,0,0,0,0,0,0,0,0,0,0,0,0,0,0,0,0,0,0,0,0,0,0,0,0,0,0,0,0,0,0,0,0,0,0,0,0,0,0,0,0,0,0,0,0,0,0,0,0,0,0,0,0],"id":26,"left_children":[1,3,5,7,9,11,-1,13,15,17,-1,19,-1,-1,21,23,25,27,29,31,33,35,37,39,41,43,45,47,49,51,-1,53,55,57,-1,-1,-1,-1,-1,-1,-1,-1,-1,-1,-1,-1,-1,-1,-1,-1,-1,-1,-1,-1,-1,-1,-1,-1,-1],"loss_changes":[3.0363873E1,3.1553358E1,2.0033525E1,2.863663E1,7.274975E0,1.3939047E1,0E0,1.282708E1,1.9771566E1,3.4464064E0,0E0,1.1375879E1,0E0,0E0,9.286312E0,5.0800076E0,1.6229862E1,5.403899E0,2.8809824E0,1.2755074E1,1.7153873E0,6.4323006E0,5.8397617E0,2.2123375E0,4.5741634E0,1.5300124E1,6.9939556E0,3.7130492E0,2.425578E0,6.515627E-1,0E0,5.4506826E0,6.3485155E0,1.3058472E-1,0E0,0E0,0E0,0E0,0E0,0E0,0E0,0E0,0E0,0E0,0E0,0E0,0E0,0E0,0E0,0E0,0E0,0E0,0E0,0E0,0E0,0E0,0E0,0E0,0E0],"parents":[2147483647,0,0,1,1,2,2,3,3,4,4,5,5,7,7,8,8,9,9,11,11,14,14,15,15,16,16,17,17,18,18,19,19,20,20,21,21,22,22,23,23,24,24,25,25,26,26,27,27,28,28,29,29,31,31,32,32,33,33],"right_children":[2,4,6,8,10,12,-1,14,16,18,-1,20,-1,-1,22,24,26,28,30,32,34,36,38,40,42,44,46,48,50,52,-1,54,56,58,-1,-1,-1,-1,-1,-1,-1,-1,-1,-1,-1,-1,-1,-1,-1,-1,-1,-1,-1,-1,-1,-1,-1,-1,-1],"split_conditions":[9E0,2E0,1E0,2E0,8E0,1E1,-1.1011239E-1,1E0,2E0,1E0,-1.2078805E-1,3E0,-1.0361004E-1,-9.7630575E-2,2E0,2E0,2E0,2E0,2E0,1E0,2E0,3E0,8E0,2E0,1E0,2E0,1E0,1E0,2E0,1E0,4.0203147E-2,2E0,1E0,1E0,6.635487E-3,6.844519E-2,-9.9873476E-2,8.242322E-2,-3.477228E-2,-8.1623875E-2,4.2431294E-3,3.4152348E-2,-9.267004E-2,3.723901E-4,7.653147E-2,8.963638E-2,2.1005882E-2,-6.96884E-2,1.535474E-2,-1.1612152E-1,8.098336E-3,-1.21680215E-1,-5.2498866E-2,2.0245185E-2,-1.0979743E-1,8.7856874E-2,-3.6991816E-2,-1.3036598E-1,-5.4624617E-2],"split_indices":[39,38,38,0,39,39,0,20,20,37,0,20,0,0,37,7,5,36,14,2,8,36,39,17,5,3,8,36,13,29,0,32,0,2,0,0,0,0,0,0,0,0,0,0,0,0,0,0,0,0,0,0,0,0,0,0,0,0,0],"split_type":[0,0,0,0,0,0,0,0,0,0,0,0,0,0,0,0,0,0,0,0,0,0,0,0,0,0,0,0,0,0,0,0,0,0,0,0,0,0,0,0,0,0,0,0,0,0,0,0,0,0,0,0,0,0,0,0,0,0,0],"sum_hessian":[1.2688696E3,9.9884186E2,2.700278E2,9.347897E2,6.405218E1,2.4251163E2,2.7516157E1,1.5571889E2,7.790708E2,4.953301E1,1.4519171E1,2.2450781E2,1.8003817E1,4.755574E0,1.5096332E2,4.9769176E1,7.293016E2,3.7099113E1,1.2433895E1,2.1306305E2,1.1444765E1,1.3019131E2,2.0772001E1,3.74567E1,1.2312478E1,6.6910266E2,6.0198906E1,2.8844252E1,8.25486E0,1.1293104E1,1.1407907E0,1.03526566E2,1.09536476E2,1.0352036E1,1.0927293E0,1.2872316E2,1.4681447E0,4.662025E0,1.6109978E1,3.42823E1,3.1744025E0,9.397799E0,2.91468E0,6.425944E2,2.6508251E1,3.1064743E1,2.9134163E1,5.508127E0,2.3336124E1,6.4182673E0,1.836593E0,6.54097E0,4.7521343E0,1.011819E2,2.344672E0,3.306157E0,1.0623032E2,7.897097E0,2.4549387E0],"tree_param":{"num_deleted":"0","num_feature":"40","num_nodes":"59","size_leaf_vector":"1"}},{"base_weights":[1.0709934E-2,3.540303E-2,-8.464341E-1,-3.8163908E-2,3.0719885E-1,-9.272952E-1,2.5166735E-1,2.580969E-2,-1.08800255E-1,1.0881429E-1,7.053782E-2,-1.2282153E-1,-7.397685E-1,6.756018E-2,-3.1071514E-2,2.0972885E-1,-1.344722E-1,1.8591793E-1,-1.0815429E-1,7.365915E-2,-9.4920903E-1,5.8772173E-2,7.387538E-1,-6.707974E-1,-8.007363E-3,3.0220994E-1,-1.0207248E-1,-1.015057E0,1.45902885E-2,1.1962072E-2,-5.6313407E-2,9.473489E-2,-6.784887E-3,-8.95332E-2,-3.4234993E-2,2.1616524E-2,-3.2819536E-2,3.5678383E-2,-8.832324E-2,-1.20213225E-1,-4.770694E-2],"categories":[],"categories_nodes":[],"categories_segments":[],"categories_sizes":[],"default_left":[0,0,0,0,0,0,0,0,0,0,0,0,0,0,0,0,0,0,0,0,0,0,0,0,0,0,0,0,0,0,0,0,0,0,0,0,0,0,0,0,0],"id":27,"left_children":[1,3,5,7,9,11,13,15,-1,-1,17,-1,19,-1,-1,21,23,25,-1,-1,27,29,31,33,35,37,-1,39,-1,-1,-1,-1,-1,-1,-1,-1,-1,-1,-1,-1,-1],"loss_changes":[2.6705563E1,2.4525818E1,3.3706074E0,6.488871E1,4.820999E1,9.605007E-1,9.751845E-1,2.6890657E1,0E0,0E0,2.6995584E1,0E0,7.786316E0,0E0,0E0,3.3874928E1,3.3061275E1,2.6138615E1,0E0,0E0,1.627058E0,1.2612799E1,1.5914181E1,6.552765E0,2.8459589E1,1.1226886E1,0E0,1.38624E0,0E0,0E0,0E0,0E0,0E0,0E0,0E0,0E0,0E0,0E0,0E0,0E0,0E0],"parents":[2147483647,0,0,1,1,2,2,3,3,4,4,5,5,6,6,7,7,10,10,12,12,15,15,16,16,17,17,20,20,21,21,22,22,23,23,24,24,25,25,27,27],"right_children":[2,4,6,8,10,12,14,16,-1,-1,18,-1,20,-1,-1,22,24,26,-1,-1,28,30,32,34,36,38,-1,40,-1,-1,-1,-1,-1,-1,-1,-1,-1,-1,-1,-1,-1],"split_conditions":[2E0,9E0,2E0,9E0,9E0,8E0,1E0,8E0,-1.08800255E-1,1.0881429E-1,1E0,-1.2282153E-1,8E0,6.756018E-2,-3.1071514E-2,8E0,8E0,1E1,-1.0815429E-1,7.365915E-2,2E0,2E0,2E0,1E0,1E0,3E0,-1.0207248E-1,2E0,1.45902885E-2,1.1962072E-2,-5.6313407E-2,9.473489E-2,-6.784887E-3,-8.95332E-2,-3.4234993E-2,2.1616524E-2,-3.2819536E-2,3.5678383E-2,-8.832324E-2,-1.20213225E-1,-4.770694E-2],"split_indices":[35,19,5,39,39,19,11,39,0,0,38,0,39,0,0,19,19,39,0,0,8,38,38,38,38,20,0,7,0,0,0,0,0,0,0,0,0,0,0,0,0],"split_type":[0,0,0,0,0,0,0,0,0,0,0,0,0,0,0,0,0,0,0,0,0,0,0,0,0,0,0,0,0,0,0,0,0,0,0,0,0,0,0,0,0],"sum_hessian":[1.2593315E3,1.2249998E3,3.43318E1,9.647347E2,2.60265E2,3.2121975E1,2.2098243E0,9.10243E2,5.44917E1,5.9692223E1,2.005728E2,1.0201803E1,2.192017E1,1.1452173E0,1.064607E0,4.2372336E2,4.8651965E2,1.8307643E2,1.749636E1,2.410618E0,1.9509552E1,3.3052072E2,9.320264E1,9.200999E1,3.9450967E2,1.6766684E2,1.54096E1,1.8471956E1,1.0375962E0,3.0179968E2,2.872103E1,7.391343E1,1.928921E1,5.3624817E1,3.8385166E1,2.3223813E2,1.6227155E2,1.6095598E2,6.7108536E0,1.2789977E1,5.6819787E0],"tree_param":{"num_deleted":"0","num_feature":"40","num_nodes":"41","size_leaf_vector":"1"}},{"base_weights":[6.567025E-3,3.0780125E-2,-7.545041E-1,5.3560197E-2,-7.537653E-1,-5.608544E-1,-1.2389522E0,1.9215234E-1,-7.953719E-2,2.0685817E-1,-8.642929E-1,-2.882695E-1,-8.07555E-1,-4.9369097E-1,-1.4241803E-1,9.46849E-1,1.0219419E-1,-1.0766632E-1,8.147193E-1,-5.0634563E-2,6.897321E-2,-1.0494525E0,-2.9727182E-1,9.143345E-3,-6.2985253E-1,-8.781365E-1,-7.6716156E-3,-7.0207536E-2,-3.4558985E-4,1.3867509E0,6.266844E-1,-4.6722103E-2,4.3354347E-1,-1.5511827E-1,3.8054416E-1,1.1229448E0,4.6463445E-1,-1.1588909E-1,-6.461811E-1,-7.475616E-1,2.7079365E-1,4.8978296E-1,-5.264141E-1,-1.1902148E-3,-8.436609E-1,-1.0125587E0,-4.287707E-1,1.5125774E-1,5.0214645E-2,1.1878587E-2,8.0038264E-2,-7.238348E-2,1.4688361E-3,9.282434E-2,1.1005232E-2,-8.16214E-3,-8.055483E-2,5.6218173E-2,-1.12748556E-1,1.2274616E-1,2.8606117E-2,9.583124E-4,8.149546E-2,2.5736842E-2,-9.0645544E-2,-3.5727736E-2,-1.0012122E-1,6.719581E-2,-3.836963E-2,9.090874E-2,-4.3099146E-2,-9.210526E-2,1.5961248E-2,-1.1731329E-1,-1.5051266E-4,-1.3798577E-2,-1.12491205E-1,-9.5786996E-2,1.3583221E-2],"categories":[],"categories_nodes":[],"categories_segments":[],"categories_sizes":[],"default_left":[0,0,0,0,0,0,0,0,0,0,0,0,0,0,0,0,0,0,0,0,0,0,0,0,0,0,0,0,0,0,0,0,0,0,0,0,0,0,0,0,0,0,0,0,0,0,0,0,0,0,0,0,0,0,0,0,0,0,0,0,0,0,0,0,0,0,0,0,0,0,0,0,0,0,0,0,0,0,0],"id":28,"left_children":[1,3,5,7,9,11,13,15,17,19,21,23,25,27,-1,29,31,33,35,-1,-1,37,39,41,43,45,-1,-1,-1,47,49,51,53,55,57,59,61,-1,63,65,67,69,71,-1,73,75,77,-1,-1,-1,-1,-1,-1,-1,-1,-1,-1,-1,-1,-1,-1,-1,-1,-1,-1,-1,-1,-1,-1,-1,-1,-1,-1,-1,-1,-1,-1,-1,-1],"loss_changes":[2.272129E1,2.1392159E1,2.8716831E0,2.1448517E1,3.7650738E0,1.7165394E0,6.814556E-1,3.8567734E1,1.5015027E1,1.8274204E0,2.8886127E0,1.5627989E0,6.889105E-1,3.5790032E-1,0E0,7.656502E0,2.5184078E1,1.3407764E1,1.4435968E0,0E0,0E0,2.4791336E-1,2.4788675E0,2.620512E0,9.343538E-1,3.6767197E-1,0E0,0E0,0E0,1.9868507E0,3.1566782E0,1.467857E1,2.5218817E1,2.5073444E1,1.4694788E1,4.343481E-1,1.6235652E0,0E0,1.8985806E0,1.6006517E-1,1.4837642E0,2.4594398E0,1.4528339E0,0E0,1.4677391E0,7.766161E-1,1.5613213E0,0E0,0E0,0E0,0E0,0E0,0E0,0E0,0E0,0E0,0E0,0E0,0E0,0E0,0E0,0E0,0E0,0E0,0E0,0E0,0E0,0E0,0E0,0E0,0E0,0E0,0E0,0E0,0E0,0E0,0E0,0E0,0E0],"parents":[2147483647,0,0,1,1,2,2,3,3,4,4,5,5,6,6,7,7,8,8,9,9,10,10,11,11,12,12,13,13,15,15,16,16,17,17,18,18,21,21,22,22,23,23,24,24,25,25,29,29,30,30,31,31,32,32,33,33,34,34,35,35,36,36,38,38,39,39,40,40,41,41,42,42,44,44,45,45,46,46],"right_children":[2,4,6,8,10,12,14,16,18,20,22,24,26,28,-1,30,32,34,36,-1,-1,38,40,42,44,46,-1,-1,-1,48,50,52,54,56,58,60,62,-1,64,66,68,70,72,-1,74,76,78,-1,-1,-1,-1,-1,-1,-1,-1,-1,-1,-1,-1,-1,-1,-1,-1,-1,-1,-1,-1,-1,-1,-1,-1,-1,-1,-1,-1,-1,-1,-1,-1],"split_conditions":[2E0,2E0,2E0,1E0,7E0,1E0,2E0,1E0,2E0,1E0,1E0,1E0,2E0,1E0,-1.4241803E-1,1E0,1E0,2E0,1E0,-5.0634563E-2,6.897321E-2,3E0,1E0,1E0,8E0,1E0,-7.6716156E-3,-7.0207536E-2,-3.4558985E-4,2E0,1E0,1E0,1E0,2E0,3E0,2E0,1E0,-1.1588909E-1,1E0,1E0,1E0,2E0,1E0,-1.1902148E-3,1E0,7E0,1E0,1.5125774E-1,5.0214645E-2,1.1878587E-2,8.0038264E-2,-7.238348E-2,1.4688361E-3,9.282434E-2,1.1005232E-2,-8.16214E-3,-8.055483E-2,5.6218173E-2,-1.12748556E-1,1.2274616E-1,2.8606117E-2,9.583124E-4,8.149546E-2,2.5736842E-2,-9.0645544E-2,-3.5727736E-2,-1.0012122E-1,6.719581E-2,-3.836963E-2,9.090874E-2,-4.3099146E-2,-9.210526E-2,1.5961248E-2,-1.1731329E-1,-1.5051266E-4,-1.3798577E-2,-1.12491205E-1,-9.5786996E-2,1.3583221E-2],"split_indices":[23,32,30,14,39,9,20,13,6,29,34,12,31,14,0,15,34,13,9,0,0,20,3,2,39,2,0,0,0,1,21,33,15,33,33,4,29,0,10,18,22,21,37,0,26,39,30,0,0,0,0,0,0,0,0,0,0,0,0,0,0,0,0,0,0,0,0,0,0,0,0,0,0,0,0,0,0,0,0],"split_type":[0,0,0,0,0,0,0,0,0,0,0,0,0,0,0,0,0,0,0,0,0,0,0,0,0,0,0,0,0,0,0,0,0,0,0,0,0,0,0,0,0,0,0,0,0,0,0,0,0,0,0,0,0,0,0,0,0,0,0,0,0,0,0,0,0,0,0,0,0,0,0,0,0,0,0,0,0,0,0],"sum_hessian":[1.2307235E3,1.1937059E3,3.7017605E1,1.1609288E3,3.2777016E1,2.7987719E1,9.029886E0,5.6850757E2,5.924213E2,3.2921915E0,2.9484825E1,1.4326527E1,1.3661193E1,2.5271738E0,6.5027122E0,5.953319E1,5.0897437E2,5.752076E2,1.721374E1,1.3094817E0,1.9827096E0,2.1585352E1,7.899474E0,8.178673E0,6.147854E0,1.2274249E1,1.3869443E0,1.4701408E0,1.057033E0,2.3674023E1,3.585917E1,3.5174896E2,1.5722539E2,5.248743E2,5.0333244E1,7.9801407E0,9.233599E0,1.5504168E1,6.0811834E0,4.2302747E0,3.6691997E0,4.355379E0,3.8232934E0,1.8517066E0,4.2961473E0,8.483276E0,3.790972E0,2.0104465E1,3.569557E0,9.5674715E0,2.6291698E1,2.8352047E1,3.233969E2,6.142364E1,9.580176E1,4.7259753E2,5.2276787E1,4.5482254E1,4.8509903E0,6.6792746E0,1.3008661E0,4.463305E0,4.7702937E0,1.3624762E0,4.718707E0,2.6150777E0,1.6151967E0,2.2583017E0,1.4108981E0,3.0013223E0,1.3540568E0,2.209616E0,1.6136776E0,2.8055394E0,1.4906077E0,1.2194052E0,7.2638717E0,1.5974429E0,2.1935291E0],"tree_param":{"num_deleted":"0","num_feature":"40","num_nodes":"79","size_leaf_vector":"1"}},{"base_weights":[-5.355643E-4,-2.512456E-2,8.253459E-1,-3.8133357E-2,1.389846E0,1.14320315E-1,3.7282598E-1,1.0811546E-1,-5.3588986E-2,1.5050845E0,4.4993978E-2,-5.0079244E-1,8.81015E-1,-8.1863075E-2,5.033126E-1,1.6380909E-1,6.0655195E-2,-8.8136286E-1,3.4902737E-2,-1.8006772E-2,1.1390642E-1,-7.8246564E-1,-5.6084126E-2,4.968589E-2,7.1328247E-1,-1.9320128E-2,-1.1136389E-1,-1.24701075E-1,2.3768991E-2,1.5655717E-2,-1.5501673E-2,-4.006767E-2,1.1680783E-1,1.1032196E-1,4.9808517E-2],"categories":[],"categories_nodes":[],"categories_segments":[],"categories_sizes":[],"default_left":[0,0,0,0,0,0,0,0,0,0,0,0,0,0,0,0,0,0,0,0,0,0,0,0,0,0,0,0,0,0,0,0,0,0,0],"id":29,"left_children":[1,3,5,7,9,-1,11,-1,13,15,-1,17,19,21,23,-1,-1,25,-1,-1,-1,27,29,31,33,-1,-1,-1,-1,-1,-1,-1,-1,-1,-1],"loss_changes":[2.511405E1,2.2158165E1,4.7167053E0,2.0660357E1,5.106602E-1,0E0,7.649642E0,0E0,1.8553183E1,1.2296295E-1,0E0,2.4450526E0,3.1150808E0,2.017926E1,5.388463E0,0E0,0E0,5.598278E-1,0E0,0E0,0E0,1.9092245E1,2.2766796E1,1.0084818E1,2.71072E0,0E0,0E0,0E0,0E0,0E0,0E0,0E0,0E0,0E0,0E0],"parents":[2147483647,0,0,1,1,2,2,3,3,4,4,6,6,8,8,9,9,11,11,12,12,13,13,14,14,17,17,21,21,22,22,23,23,24,24],"right_children":[2,4,6,8,10,-1,12,-1,14,16,-1,18,20,22,24,-1,-1,26,-1,-1,-1,28,30,32,34,-1,-1,-1,-1,-1,-1,-1,-1,-1,-1],"split_conditions":[2E0,3E0,1E0,1E0,2E0,1.14320315E-1,8E0,1.0811546E-1,2E0,2E0,4.4993978E-2,2E0,1E0,7E0,7E0,1.6380909E-1,6.0655195E-2,1E0,3.4902737E-2,-1.8006772E-2,1.1390642E-1,2E0,8E0,2E0,8E0,-1.9320128E-2,-1.1136389E-1,-1.24701075E-1,2.3768991E-2,1.5655717E-2,-1.5501673E-2,-4.006767E-2,1.1680783E-1,1.1032196E-1,4.9808517E-2],"split_indices":[6,16,15,0,4,0,19,0,18,24,0,13,30,19,19,0,0,31,0,0,0,17,39,16,39,0,0,0,0,0,0,0,0,0,0],"split_type":[0,0,0,0,0,0,0,0,0,0,0,0,0,0,0,0,0,0,0,0,0,0,0,0,0,0,0,0,0,0,0,0,0,0,0],"sum_hessian":[1.2346616E3,1.1999064E3,3.4755272E1,1.1899395E3,9.966883E0,1.9518711E1,1.5236561E1,1.5268264E1,1.1746711E3,8.342701E0,1.6241825E0,5.608921E0,9.627639E0,1.1187261E3,5.5945107E1,6.5500493E0,1.7926512E0,3.8483965E0,1.7605246E0,1.9424793E0,7.68516E0,3.8661354E1,1.0800647E3,1.8092987E1,3.785212E1,1.4334133E0,2.4149833E0,2.6411884E1,1.2249471E1,3.4276297E2,7.3730176E2,1.3356308E1,4.736679E0,1.1993453E1,2.5858665E1],"tree_param":{"num_deleted":"0","num_feature":"40","num_nodes":"35","size_leaf_vector":"1"}},{"base_weights":[1.3051884E-2,-1.2081587E-2,8.371868E-1,-8.1283666E-2,2.4637428E-1,4.7154582E-1,9.799461E-1,-2.2592138E-2,-1.07472636E-1,1.078428E-1,1.0563654E-2,2.6236168E-1,1.0270115E-1,1.0990542E0,3.3785686E-1,-6.1218087E-2,5.0666183E-1,9.952154E-2,-1.0080542E-1,5.735946E-1,-3.0712253E-1,1.1997246E-1,5.5765074E-1,-6.569283E-2,8.344993E-1,-2.4065723E-1,8.2387894E-2,3.5987905E-1,1.0669368E-1,9.36379E-3,1.01473525E-1,9.6155785E-2,4.6204895E-2,3.279149E-2,-8.174587E-2,8.964726E-2,-3.3592436E-2,9.861756E-2,2.4956772E-2,-1.10448385E-2,-8.148878E-2,7.263226E-2,-6.2028393E-3,1.7505242E-2,9.9330746E-2,-8.787885E-3,1.0333631E-1,6.9844455E-2,-8.409698E-2],"categories":[],"categories_nodes":[],"categories_segments":[],"categories_sizes":[],"default_left":[0,0,0,0,0,0,0,0,0,0,0,0,0,0,0,0,0,0,0,0,0,0,0,0,0,0,0,0,0,0,0,0,0,0,0,0,0,0,0,0,0,0,0,0,0,0,0,0,0],"id":30,"left_children":[1,3,5,7,9,11,13,15,-1,-1,17,19,-1,21,23,25,27,29,-1,31,33,-1,35,-1,37,39,41,43,-1,45,-1,-1,47,-1,-1,-1,-1,-1,-1,-1,-1,-1,-1,-1,-1,-1,-1,-1,-1],"loss_changes":[2.534474E1,2.1266317E1,1.4280834E0,5.4653374E1,4.9262863E1,1.1359975E0,1.5494556E0,1.8153069E1,0E0,0E0,1.7922958E1,1.9715846E0,0E0,4.6146393E-1,3.2031388E0,2.1332117E1,4.583543E0,1.49914665E1,0E0,1.3671119E0,1.6392479E0,0E0,1.8514725E0,0E0,1.10963345E-1,2.7419182E1,4.2836414E1,