{"learner":{"attributes":{"scikit_learn":"{\"_estimator_type\": \"classifier\"}"},"feature_names":[],"feature_types":[],"gradient_booster":{"model":{"gbtree_model_param":{"num_parallel_tree":"1","num_trees":"100"},"iteration_indptr":[0,1,2,3,4,5,6,7,8,9,10,11,12,13,14,15,16,17,18,19,20,21,22,23,24,25,26,27,28,29,30,31,32,33,34,35,36,37,38,39,40,41,42,43,44,45,46,47,48,49,50,51,52,53,54,55,56,57,58,59,60,61,62,63,64,65,66,67,68,69,70,71,72,73,74,75,76,77,78,79,80,81,82,83,84,85,86,87,88,89,90,91,92,93,94,95,96,97,98,99,100],"tree_info":[0,0,0,0,0,0,0,0,0,0,0,0,0,0,0,0,0,0,0,0,0,0,0,0,0,0,0,0,0,0,0,0,0,0,0,0,0,0,0,0,0,0,0,0,0,0,0,0,0,0,0,0,0,0,0,0,0,0,0,0,0,0,0,0,0,0,0,0,0,0,0,0,0,0,0,0,0,0,0,0,0,0,0,0,0,0,0,0,0,0,0,0,0,0,0,0,0,0,0,0],"trees":[{"base_weights":[1.3185308E-3,-6.6807777E-1,2.946498E-1,1.9941606E-1,-9.6351725E-1,1.6745737E0,1.4966884E-2,-4.305006E-1,-1.663915E0,1.7110153E0,-3.737569E-1,1.6557024E-1,-9.502997E-1,1.9921693E-1,-7.6571834E-1,-1.690735E0,9.175437E-1,1.9949386E-1,1.559352E0,-8.539452E-1,3.4044382E-1,1.3672776E-2,1.8040496E0,-1.8305169E0,1.0165101E-2,-1.9993308E-1,-4.044486E-1,-1.7212508E0,3.3429377E-2,-2.8778714E-1,1.178288E0,1.589406E0,3.3307958E-1,-1.149935E0,-3.659643E-1,9.2452025E-1,-4.2649284E-1,-3.300522E-1,3.9430854E-1,1.9011253E0,1.0713584E0,-1.938179E0,-1.0449303E0,1.210749E-1,-1.9524992E-1,1.5746167E-2,-9.528742E-2,-1.7400935E-1,-4.0248495E-2,-3.250587E-2,9.7638264E-2,-9.1072105E-2,2.8388595E-2,1.4395407E-1,8.158556E-2,1.664889E-1,1.2773818E-1,6.403895E-2,-5.388965E-2,-1.4688875E-1,-7.451258E-2,-1.00219585E-1,5.9795268E-2,1.3312016E-1,2.8364217E-2,3.5098385E-2,-1.00204945E-1,-5.0464144E-4,-1.1283689E-1,1.128872E-1,2.831617E-3,1.9074531E-1,2.480802E-2,1.1702434E-1,-4.3076646E-2,-1.9501887E-1,-7.8005455E-2,-6.471469E-2,-1.6098619E-1,2.8577878E-3,1.9391236E-1],"categories":[],"categories_nodes":[],"categories_segments":[],"categories_sizes":[],"default_left":[0,0,0,0,0,0,0,0,0,0,0,0,0,0,0,0,0,0,0,0,0,0,0,0,0,0,0,0,0,0,0,0,0,0,0,0,0,0,0,0,0,0,0,0,0,0,0,0,0,0,0,0,0,0,0,0,0,0,0,0,0,0,0,0,0,0,0,0,0,0,0,0,0,0,0,0,0,0,0,0,0],"id":0,"left_children":[1,3,5,-1,7,9,11,13,15,17,19,21,23,-1,25,27,29,-1,31,33,35,37,39,41,43,-1,45,47,49,51,53,55,57,59,61,63,65,67,69,71,73,75,77,79,-1,-1,-1,-1,-1,-1,-1,-1,-1,-1,-1,-1,-1,-1,-1,-1,-1,-1,-1,-1,-1,-1,-1,-1,-1,-1,-1,-1,-1,-1,-1,-1,-1,-1,-1,-1,-1],"loss_changes":[3.923704E3,4.790704E3,5.3623286E3,0E0,2.0454678E3,1.7541992E2,1.6797509E3,2.530266E3,1.6551514E2,9.596094E1,1.4608894E1,2.4875977E3,1.3184452E3,0E0,1.2185338E3,1.2339844E2,8.196163E0,0E0,5.4908447E1,3.226204E0,8.233408E0,1.1970305E3,5.8278564E1,6.680005E1,1.627877E2,0E0,6.526904E2,5.654004E1,1.4430425E1,2.1281397E0,7.902813E-1,3.2448486E1,1.0326853E1,8.7449455E-1,7.345273E0,2.2939014E0,4.0434227E0,1.2473994E3,1.167155E3,7.345703E0,1.5580635E1,8.416504E0,2.1486359E1,1.1896251E2,0E0,0E0,0E0,0E0,0E0,0E0,0E0,0E0,0E0,0E0,0E0,0E0,0E0,0E0,0E0,0E0,0E0,0E0,0E0,0E0,0E0,0E0,0E0,0E0,0E0,0E0,0E0,0E0,0E0,0E0,0E0,0E0,0E0,0E0,0E0,0E0,0E0],"parents":[2147483647,0,0,1,1,2,2,4,4,5,5,6,6,7,7,8,8,9,9,10,10,11,11,12,12,14,14,15,15,16,16,18,18,19,19,20,20,21,21,22,22,23,23,24,24,26,26,27,27,28,28,29,29,30,30,31,31,32,32,33,33,34,34,35,35,36,36,37,37,38,38,39,39,40,40,41,41,42,42,43,43],"right_children":[2,4,6,-1,8,10,12,14,16,18,20,22,24,-1,26,28,30,-1,32,34,36,38,40,42,44,-1,46,48,50,52,54,56,58,60,62,64,66,68,70,72,74,76,78,80,-1,-1,-1,-1,-1,-1,-1,-1,-1,-1,-1,-1,-1,-1,-1,-1,-1,-1,-1,-1,-1,-1,-1,-1,-1,-1,-1,-1,-1,-1,-1,-1,-1,-1,-1,-1,-1],"split_conditions":[2E0,1E0,2E0,1.9941606E-1,2E0,3E0,9E0,1E0,3E0,1E0,1E0,9E0,9E0,1.9921693E-1,1E0,3E0,1E0,1.9949386E-1,2E0,1E0,1E0,8E0,2E0,2E0,1E1,-1.9993308E-1,9E0,2E0,1E0,1E0,1E0,9E0,9E0,1E0,1E0,1E0,1E0,8E0,8E0,3E0,2E0,3E0,1E0,1E1,-1.9524992E-1,1.5746167E-2,-9.528742E-2,-1.7400935E-1,-4.0248495E-2,-3.250587E-2,9.7638264E-2,-9.1072105E-2,2.8388595E-2,1.4395407E-1,8.158556E-2,1.664889E-1,1.2773818E-1,6.403895E-2,-5.388965E-2,-1.4688875E-1,-7.451258E-2,-1.00219585E-1,5.9795268E-2,1.3312016E-1,2.8364217E-2,3.5098385E-2,-1.00204945E-1,-5.0464144E-4,-1.1283689E-1,1.128872E-1,2.831617E-3,1.9074531E-1,2.480802E-2,1.1702434E-1,-4.3076646E-2,-1.9501887E-1,-7.8005455E-2,-6.471469E-2,-1.6098619E-1,2.8577878E-3,1.9391236E-1],"split_indices":[20,0,0,0,0,38,39,1,17,1,36,19,19,0,20,18,38,0,22,31,16,19,38,18,39,0,39,2,17,8,5,39,39,27,33,22,10,39,39,26,33,17,16,19,0,0,0,0,0,0,0,0,0,0,0,0,0,0,0,0,0,0,0,0,0,0,0,0,0,0,0,0,0,0,0,0,0,0,0,0,0],"split_type":[0,0,0,0,0,0,0,0,0,0,0,0,0,0,0,0,0,0,0,0,0,0,0,0,0,0,0,0,0,0,0,0,0,0,0,0,0,0,0,0,0,0,0,0,0,0,0,0,0,0,0,0,0,0,0,0,0,0,0,0,0,0,0,0,0,0,0,0,0,0,0,0,0,0,0,0,0,0,0,0,0],"sum_hessian":[1.9980719E4,6.08749E3,1.3893228E4,6.07499E2,5.479991E3,2.3404963E3,1.1552731E4,3.1127449E3,2.367246E3,2.2997463E3,4.0749935E1,9.994234E3,1.5584974E3,3.777494E2,2.7349956E3,2.3432463E3,2.3999962E1,7.964987E2,1.5032476E3,2.4249962E1,1.6499973E1,9.147235E3,8.4699866E2,8.127487E2,7.457488E2,6.18499E2,2.1164966E3,2.3024963E3,4.0749935E1,4.2499933E0,1.9749968E1,1.4669977E3,3.6249943E1,1.4249977E1,9.999984E0,9.249985E0,7.2499886E0,4.806742E3,4.340493E3,7.464988E2,1.0049984E2,7.1349884E2,9.924984E1,7.0674884E2,3.899994E1,1.0457483E3,1.0707483E3,2.2697463E3,3.2749947E1,2.9999952E1,1.0749983E1,1.7499971E0,2.499996E0,9.749985E0,9.999984E0,1.177748E3,2.8924954E2,2.6999956E1,9.249985E0,6.4999895E0,7.7499876E0,5.9999905E0,3.9999936E0,4.999992E0,4.2499933E0,3.2499948E0,3.9999936E0,3.4167444E3,1.3899978E3,1.4427477E3,2.8977454E3,7.434988E2,2.9999952E0,9.449985E1,5.9999905E0,7.0549884E2,7.999987E0,5.9499905E1,3.9749935E1,6.734989E2,3.3249947E1],"tree_param":{"num_deleted":"0","num_feature":"40","num_nodes":"81","size_leaf_vector":"1"}},{"base_weights":[-4.8231385E-3,-6.044773E-1,2.5839937E-1,1.814121E-1,-8.728981E-1,1.5162733E0,5.6837397E-3,-3.8776276E-1,-1.5087246E0,1.540232E0,-1.0100566E0,1.4406027E-1,-8.7863874E-1,1.812594E-1,-7.020446E-1,-1.8401027E-1,-1.3426361E0,1.5709128E0,-1.8797472E-1,-5.593596E-1,-1.6854937E-1,4.7696623E-1,-2.9735345E-1,-6.4145744E-1,-1.5790732E0,-1.8179591E-1,-3.7003323E-1,-1.3741156E0,7.8381544E-1,1.8147242E-1,1.4406185E0,2.4838375E-1,-1.2031428E0,-8.244043E-1,3.7551677E-1,1.1170354E0,-2.3511317E-2,-8.976166E-1,3.200572E-2,-3.2429013E-1,-1.2439071E0,-1.5905466E0,1.1248889E-1,-1.9333856E-1,-1.1272262E-3,-1.1149713E-1,-1.544774E-1,-3.1461198E-2,1.09426536E-1,1.1910037E-1,1.5955281E-1,-3.818303E-2,1.05035976E-1,-1.5934579E-1,-1.5466682E-2,-1.239767E-1,2.2519976E-2,1.10351935E-1,-5.0333608E-2,7.635767E-2,1.8143037E-1,-2.4050687E-2,4.4578042E-2,-1.853798E-1,-2.574334E-2,2.6722042E-2,-2.9570458E-2,-5.047639E-2,1.13863446E-1,-1.3054837E-1,1.0298385E-2,-1.3541141E-1,-1.6829185E-1],"categories":[],"categories_nodes":[],"categories_segments":[],"categories_sizes":[],"default_left":[0,0,0,0,0,0,0,0,0,0,0,0,0,0,0,0,0,0,0,0,0,0,0,0,0,0,0,0,0,0,0,0,0,0,0,0,0,0,0,0,0,0,0,0,0,0,0,0,0,0,0,0,0,0,0,0,0,0,0,0,0,0,0,0,0,0,0,0,0,0,0,0,0],"id":1,"left_children":[1,3,5,-1,7,9,11,13,15,17,19,21,23,-1,25,-1,27,29,31,33,-1,35,37,39,41,-1,43,45,47,-1,49,51,53,55,57,59,61,63,65,67,69,71,-1,-1,-1,-1,-1,-1,-1,-1,-1,-1,-1,-1,-1,-1,-1,-1,-1,-1,-1,-1,-1,-1,-1,-1,-1,-1,-1,-1,-1,-1,-1],"loss_changes":[3.142642E3,3.9445693E3,4.398372E3,0E0,1.6859419E3,1.4166309E2,1.4101465E3,2.1468315E3,1.27745605E2,1.21898926E2,5.8609715E0,1.4644071E3,2.580194E2,0E0,1.00543567E3,0E0,1.06822266E2,6.897412E1,1.8415737E1,4.0020447E0,0E0,1.8198055E3,8.4711475E2,2.224838E2,1.4004456E1,0E0,1.1745187E3,6.7137695E1,8.419765E0,0E0,5.507715E1,1.5276546E1,4.8550434E0,5.4773455E0,3.1010215E0,6.1297217E2,3.2485648E2,9.287755E2,2.1341164E2,2.0268758E2,3.3471375E1,6.2929688E0,0E0,0E0,0E0,0E0,0E0,0E0,0E0,0E0,0E0,0E0,0E0,0E0,0E0,0E0,0E0,0E0,0E0,0E0,0E0,0E0,0E0,0E0,0E0,0E0,0E0,0E0,0E0,0E0,0E0,0E0,0E0],"parents":[2147483647,0,0,1,1,2,2,4,4,5,5,6,6,7,7,8,8,9,9,10,10,11,11,12,12,14,14,16,16,17,17,18,18,19,19,21,21,22,22,23,23,24,24,26,26,27,27,28,28,30,30,31,31,32,32,33,33,34,34,35,35,36,36,37,37,38,38,39,39,40,40,41,41],"right_children":[2,4,6,-1,8,10,12,14,16,18,20,22,24,-1,26,-1,28,30,32,34,-1,36,38,40,42,-1,44,46,48,-1,50,52,54,56,58,60,62,64,66,68,70,72,-1,-1,-1,-1,-1,-1,-1,-1,-1,-1,-1,-1,-1,-1,-1,-1,-1,-1,-1,-1,-1,-1,-1,-1,-1,-1,-1,-1,-1,-1,-1],"split_conditions":[2E0,1E0,2E0,1.814121E-1,2E0,3E0,9E0,1E0,1E0,3E0,1E0,3E0,3E0,1.812594E-1,1E0,-1.8401027E-1,3E0,1E0,1E0,2E0,-1.6854937E-1,1E0,3E0,1E0,3E0,-1.8179591E-1,1E0,1E0,1E0,1.8147242E-1,1E0,1E0,2E0,2E0,2E0,3E0,3E0,1E0,1E0,1E0,3E0,1E0,1.1248889E-1,-1.9333856E-1,-1.1272262E-3,-1.1149713E-1,-1.544774E-1,-3.1461198E-2,1.09426536E-1,1.1910037E-1,1.5955281E-1,-3.818303E-2,1.05035976E-1,-1.5934579E-1,-1.5466682E-2,-1.239767E-1,2.2519976E-2,1.10351935E-1,-5.0333608E-2,7.635767E-2,1.8143037E-1,-2.4050687E-2,4.4578042E-2,-1.853798E-1,-2.574334E-2,2.6722042E-2,-2.9570458E-2,-5.047639E-2,1.13863446E-1,-1.3054837E-1,1.0298385E-2,-1.3541141E-1,-1.6829185E-1],"split_indices":[20,0,0,0,0,37,39,1,21,38,38,0,0,0,20,0,17,1,37,14,0,1,20,1,9,0,21,1,38,0,21,17,14,6,34,20,20,21,16,21,20,3,0,0,0,0,0,0,0,0,0,0,0,0,0,0,0,0,0,0,0,0,0,0,0,0,0,0,0,0,0,0,0],"split_type":[0,0,0,0,0,0,0,0,0,0,0,0,0,0,0,0,0,0,0,0,0,0,0,0,0,0,0,0,0,0,0,0,0,0,0,0,0,0,0,0,0,0,0,0,0,0,0,0,0,0,0,0,0,0,0,0,0,0,0,0,0,0,0,0,0,0,0,0,0,0,0,0,0],"sum_hessian":[1.9908004E4,6.0725864E3,1.3835417E4,6.0604816E2,5.466538E3,2.3137737E3,1.1521643E4,3.1016162E3,2.364922E3,2.2924236E3,2.1350124E1,9.963428E3,1.5582147E3,3.8704706E2,2.7145693E3,7.8620825E2,1.5787137E3,2.2525256E3,3.9898037E1,1.3901953E1,7.4481716E0,5.679771E3,4.283657E3,1.1654766E3,3.9273825E2,6.214282E2,2.093141E3,1.5560325E3,2.2681343E1,7.800117E2,1.4725138E3,2.8432135E1,1.1465902E1,1.0923285E1,2.9786685E0,2.4917712E3,3.1879998E3,1.5170608E3,2.7665967E3,7.645223E2,4.0095425E2,3.9148883E2,1.2493978E0,3.8986395E2,1.7032771E3,6.208328E2,9.351996E2,4.9949403E0,1.7686401E1,5.6721515E2,9.0529865E2,1.6214352E1,1.2217782E1,7.976656E0,3.4892464E0,7.696394E0,3.2268908E0,1.4893342E0,1.4893342E0,1.6549437E3,8.368275E2,2.1803271E3,1.0076726E3,6.076201E2,9.094406E2,1.610699E3,1.1558977E3,6.811474E2,8.337483E1,3.8345438E2,1.7499872E1,1.1438118E2,2.7710767E2],"tree_param":{"num_deleted":"0","num_feature":"40","num_nodes":"73","size_leaf_vector":"1"}},{"base_weights":[7.36204E-4,-5.403183E-1,2.3588783E-1,-1.7233555E-1,-2.5668845E-1,7.620688E-3,1.1211334E0,-7.3576546E-1,3.7232924E-1,-4.933956E-2,1.293076E0,1.0479743E0,1.7110044E-1,-8.410234E-1,9.642498E-1,-1.6787352E-1,7.1145815E-1,-3.5889384E-1,1.8883976E-1,1.126926E0,1.5063388E0,9.288493E-1,1.3361328E0,-1.678804E-1,-7.3047507E-1,2.0204158E-1,1.7121913E-1,5.0474423E-1,1.7612186E-1,-4.262098E-1,1.6940762E0,2.1609742E-2,8.813141E-1,7.482372E-1,1.4921149E0,1.2423869E0,1.7132364E-1,8.065952E-1,1.4461621E0,1.3626069E0,8.400289E-3,-1.001E-1,-3.2255497E-2,-1.562791E-2,8.1134714E-2,-1.794466E-3,9.06832E-2,-5.9791554E-2,2.82442E-3,1.7960833E-1,1.36507E-1,-2.4679646E-2,4.535976E-2,7.378902E-2,1.546008E-1,-1.6165366E-2,1.6860507E-1,1.1096934E-1,1.8462543E-1,1.0186838E-1,1.846337E-1,3.8522203E-2,1.1236715E-1,1.4737016E-1,-7.033676E-2,1.16596065E-1,1.4837585E-1,-5.6017585E-2,7.3215775E-2],"categories":[],"categories_nodes":[],"categories_segments":[],"categories_sizes":[],"default_left":[0,0,0,0,0,0,0,0,0,0,0,0,0,0,0,0,0,0,0,0,0,0,0,0,0,0,0,0,0,0,0,0,0,0,0,0,0,0,0,0,0,0,0,0,0,0,0,0,0,0,0,0,0,0,0,0,0,0,0,0,0,0,0,0,0,0,0,0,0],"id":2,"left_children":[1,3,5,-1,7,9,11,13,15,17,19,21,-1,23,25,-1,27,29,31,33,35,37,39,-1,41,43,-1,45,-1,47,49,51,53,55,57,59,-1,61,63,65,67,-1,-1,-1,-1,-1,-1,-1,-1,-1,-1,-1,-1,-1,-1,-1,-1,-1,-1,-1,-1,-1,-1,-1,-1,-1,-1,-1,-1],"loss_changes":[2.506538E3,2.0022151E3,2.774949E3,0E0,1.4513738E3,7.995053E2,1.1969165E2,4.899994E2,1.4497666E3,7.7098676E2,1.4719482E1,8.4819336E1,0E0,2.3725305E2,9.078984E1,0E0,3.870586E2,6.291217E2,6.843674E2,3.5447296E1,8.789429E0,1.1122168E2,2.5683838E1,0E0,2.5090051E2,1.7660645E1,0E0,3.1422705E2,0E0,3.4363593E2,2.3999634E0,5.5218384E2,1.0845203E2,1.127416E2,1.6043396E1,1.0479584E1,0E0,1.9191394E2,2.1070435E1,1.5344849E1,6.705044E0,0E0,0E0,0E0,0E0,0E0,0E0,0E0,0E0,0E0,0E0,0E0,0E0,0E0,0E0,0E0,0E0,0E0,0E0,0E0,0E0,0E0,0E0,0E0,0E0,0E0,0E0,0E0,0E0],"parents":[2147483647,0,0,1,1,2,2,4,4,5,5,6,6,7,7,8,8,9,9,10,10,11,11,13,13,14,14,16,16,17,17,18,18,19,19,20,20,21,21,22,22,24,24,25,25,27,27,29,29,30,30,31,31,32,32,33,33,34,34,35,35,37,37,38,38,39,39,40,40],"right_children":[2,4,6,-1,8,10,12,14,16,18,20,22,-1,24,26,-1,28,30,32,34,36,38,40,-1,42,44,-1,46,-1,48,50,52,54,56,58,60,-1,62,64,66,68,-1,-1,-1,-1,-1,-1,-1,-1,-1,-1,-1,-1,-1,-1,-1,-1,-1,-1,-1,-1,-1,-1,-1,-1,-1,-1,-1,-1],"split_conditions":[2E0,1E0,9E0,-1.7233555E-1,9E0,3E0,1E1,3E0,1E0,8E0,1E0,1E0,1.7110044E-1,1E0,8E0,-1.6787352E-1,1E1,3E0,2E0,3E0,7E0,3E0,2E0,-1.678804E-1,2E0,1E0,1.7121913E-1,1E0,1.7612186E-1,2E0,2E0,3E0,3E0,8E0,7E0,1E0,1.7132364E-1,1E0,2E0,1E0,1E0,-1.001E-1,-3.2255497E-2,-1.562791E-2,8.1134714E-2,-1.794466E-3,9.06832E-2,-5.9791554E-2,2.82442E-3,1.7960833E-1,1.36507E-1,-2.4679646E-2,4.535976E-2,7.378902E-2,1.546008E-1,-1.6165366E-2,1.6860507E-1,1.1096934E-1,1.8462543E-1,1.0186838E-1,1.846337E-1,3.8522203E-2,1.1236715E-1,1.4737016E-1,-7.033676E-2,1.16596065E-1,1.4837585E-1,-5.6017585E-2,7.3215775E-2],"split_indices":[20,21,19,0,19,18,19,18,20,19,21,21,0,20,19,0,19,17,18,20,19,20,33,0,18,36,0,18,0,17,34,20,20,19,19,17,0,18,28,23,36,0,0,0,0,0,0,0,0,0,0,0,0,0,0,0,0,0,0,0,0,0,0,0,0,0,0,0,0],"split_type":[0,0,0,0,0,0,0,0,0,0,0,0,0,0,0,0,0,0,0,0,0,0,0,0,0,0,0,0,0,0,0,0,0,0,0,0,0,0,0,0,0,0,0,0,0,0,0,0,0,0,0,0,0,0,0,0,0,0,0,0,0,0,0,0,0,0,0,0,0],"sum_hessian":[1.9698865E4,5.967377E3,1.3731487E4,1.1530133E3,4.814364E3,1.0917371E4,2.8141165E3,2.7328108E3,2.081553E3,1.0455055E4,4.6231586E2,2.506076E3,3.0804053E2,2.5739478E3,1.5886292E2,2.947775E2,1.7867755E3,4.54611E3,5.9089453E3,2.6339365E2,1.989222E2,1.7760693E3,7.300066E2,2.9839587E2,2.275552E3,7.931012E1,7.95528E1,1.4940541E3,2.9272134E2,4.402545E3,1.4356503E2,4.760365E3,1.1485797E3,1.308036E2,1.3259006E2,9.0487114E1,1.0843508E2,1.4386414E3,3.3742798E2,7.1570953E2,1.4297047E1,1.3673182E3,9.0823376E2,5.0409054E1,2.8901064E1,6.500218E2,8.440323E2,3.1950483E3,1.2074966E3,1.0618396E2,3.7381077E1,2.9363545E3,1.824011E3,9.464666E2,2.0211307E2,6.681023E1,6.3993374E1,6.573685E1,6.685321E1,6.799022E1,2.2496891E1,6.186765E2,8.1996484E2,3.3347E2,3.9579823E0,2.7689456E2,4.38815E2,8.133486E0,6.163562E0],"tree_param":{"num_deleted":"0","num_feature":"40","num_nodes":"69","size_leaf_vector":"1"}},{"base_weights":[2.8434685E-3,5.237369E-1,-2.1958187E-1,1.6173124E-1,2.6626933E-1,-4.520596E-4,-1.0708299E0,7.508087E-1,-3.7272957E-1,-1.1736187E-1,1.4765944E0,-1.534142E0,-6.2175876E-1,4.634605E-1,1.4912628E0,1.5974608E-1,-6.9610685E-1,2.4466752E-1,-4.683628E-1,1.5740173E0,7.4309456E-1,-1.5454687E0,-4.4503704E-1,-3.543091E-1,-1.6602479E-1,1.1710082E0,1.377269E-1,1.5159839E0,9.549175E-2,-9.038782E-1,1.7619863E-1,-4.70539E-2,9.627338E-1,-9.632531E-1,-2.3078032E-1,1.5950042E0,9.6365556E-2,4.2653865E-1,1.158814E0,-1.6347558E0,-1.427868E0,-8.2095045E-1,8.5999316E-1,1.7490979E-1,-8.1915665E-1,1.3586819E-1,-1.5825225E-2,6.5063246E-2,-5.0906867E-2,1.6321056E-1,1.2422569E-1,5.9123863E-2,-1.32061E-1,-1.5232746E-1,-6.612704E-2,9.4621265E-3,-1.5226494E-1,1.02273025E-1,-1.1113647E-1,-1.0235794E-1,1.1072216E-1,1.6717681E-3,-1.15842044E-1,1.6579631E-1,1.4269023E-1,-1.1000047E-1,7.229721E-2,1.8409802E-2,1.1270472E-1,1.6398914E-1,7.6962486E-2,-1.6371189E-1,-5.5244025E-2,-1.3148578E-1,-1.593321E-1,-1.0622748E-1,7.781973E-2,-1.3156611E-2,1.356846E-1,6.1732758E-2,-4.904864E-2,-8.7275654E-2,1.5551807E-1],"categories":[],"categories_nodes":[],"categories_segments":[],"categories_sizes":[],"default_left":[0,0,0,0,0,0,0,0,0,0,0,0,0,0,0,0,0,0,0,0,0,0,0,0,0,0,0,0,0,0,0,0,0,0,0,0,0,0,0,0,0,0,0,0,0,0,0,0,0,0,0,0,0,0,0,0,0,0,0,0,0,0,0,0,0,0,0,0,0,0,0,0,0,0,0,0,0,0,0,0,0,0,0],"id":3,"left_children":[1,3,5,-1,7,9,11,13,15,17,19,21,23,25,27,-1,29,31,33,35,37,39,41,43,-1,45,47,49,51,53,-1,55,57,59,61,63,65,67,69,71,73,75,77,79,81,-1,-1,-1,-1,-1,-1,-1,-1,-1,-1,-1,-1,-1,-1,-1,-1,-1,-1,-1,-1,-1,-1,-1,-1,-1,-1,-1,-1,-1,-1,-1,-1,-1,-1,-1,-1,-1,-1],"loss_changes":[2.2686484E3,1.649305E3,2.5595618E3,0E0,1.4690757E3,1.8847424E3,5.8351465E2,5.734314E2,1.304978E3,1.2853318E3,5.6036377E1,1.6359863E1,3.9607727E2,4.482007E2,2.5869873E1,0E0,8.997823E2,1.0431185E3,6.03605E2,2.173352E1,1.2106865E1,1.2022949E1,8.37314E0,2.7984247E2,0E0,1.5317346E2,4.4263577E2,2.1517822E1,1.0741287E1,2.4277063E2,0E0,7.405918E2,1.8015161E2,2.0915417E2,7.969535E2,4.998535E0,9.002531E0,9.293443E0,6.378998E0,1.065918E0,9.086426E0,5.7066355E0,2.1410131E0,1.5705945E2,7.8411804E1,0E0,0E0,0E0,0E0,0E0,0E0,0E0,0E0,0E0,0E0,0E0,0E0,0E0,0E0,0E0,0E0,0E0,0E0,0E0,0E0,0E0,0E0,0E0,0E0,0E0,0E0,0E0,0E0,0E0,0E0,0E0,0E0,0E0,0E0,0E0,0E0,0E0,0E0],"parents":[2147483647,0,0,1,1,2,2,4,4,5,5,6,6,7,7,8,8,9,9,10,10,11,11,12,12,13,13,14,14,16,16,17,17,18,18,19,19,20,20,21,21,22,22,23,23,25,25,26,26,27,27,28,28,29,29,31,31,32,32,33,33,34,34,35,35,36,36,37,37,38,38,39,39,40,40,41,41,42,42,43,43,44,44],"right_children":[2,4,6,-1,8,10,12,14,16,18,20,22,24,26,28,-1,30,32,34,36,38,40,42,44,-1,46,48,50,52,54,-1,56,58,60,62,64,66,68,70,72,74,76,78,80,82,-1,-1,-1,-1,-1,-1,-1,-1,-1,-1,-1,-1,-1,-1,-1,-1,-1,-1,-1,-1,-1,-1,-1,-1,-1,-1,-1,-1,-1,-1,-1,-1,-1,-1,-1,-1,-1,-1],"split_conditions":[2E0,1E0,9E0,1.6173124E-1,9E0,9E0,9E0,9E0,1E0,8E0,2E0,3E0,1E1,8E0,3E0,1.5974608E-1,1E1,8E0,8E0,3E0,1E0,1E0,2E0,1E0,-1.6602479E-1,3E0,2E0,2E0,2E0,9E0,1.7619863E-1,3E0,3E0,3E0,2E0,2E0,1E0,2E0,1E0,3E0,1E0,3E0,1E0,2E0,1E1,1.3586819E-1,-1.5825225E-2,6.5063246E-2,-5.0906867E-2,1.6321056E-1,1.2422569E-1,5.9123863E-2,-1.32061E-1,-1.5232746E-1,-6.612704E-2,9.4621265E-3,-1.5226494E-1,1.02273025E-1,-1.1113647E-1,-1.0235794E-1,1.1072216E-1,1.6717681E-3,-1.15842044E-1,1.6579631E-1,1.4269023E-1,-1.1000047E-1,7.229721E-2,1.8409802E-2,1.1270472E-1,1.6398914E-1,7.6962486E-2,-1.6371189E-1,-5.5244025E-2,-1.3148578E-1,-1.593321E-1,-1.0622748E-1,7.781973E-2,-1.3156611E-2,1.356846E-1,6.1732758E-2,-4.904864E-2,-8.7275654E-2,1.5551807E-1],"split_indices":[0,1,39,0,39,19,19,19,0,39,38,17,39,39,37,0,19,19,19,37,36,38,14,38,0,38,38,38,34,19,0,38,37,17,38,37,26,9,16,3,16,0,8,37,19,0,0,0,0,0,0,0,0,0,0,0,0,0,0,0,0,0,0,0,0,0,0,0,0,0,0,0,0,0,0,0,0,0,0,0,0,0,0],"split_type":[0,0,0,0,0,0,0,0,0,0,0,0,0,0,0,0,0,0,0,0,0,0,0,0,0,0,0,0,0,0,0,0,0,0,0,0,0,0,0,0,0,0,0,0,0,0,0,0,0,0,0,0,0,0,0,0,0,0,0,0,0,0,0,0,0,0,0,0,0,0,0,0,0,0,0,0,0,0,0,0,0,0,0],"sum_hessian":[1.9578969E4,5.858264E3,1.3720705E4,1.1153997E3,4.7428643E3,1.0912571E4,2.8081335E3,2.6973477E3,2.0455166E3,1.0113035E4,7.99537E2,1.3809619E3,1.4271715E3,1.9444071E3,7.529405E2,2.878483E2,1.7576683E3,4.978457E3,5.1345776E3,7.047825E2,9.475452E1,1.3663333E3,1.4628753E1,1.1359604E3,2.91211E2,6.121406E2,1.3322665E3,7.397523E2,1.3188167E1,1.6212627E3,1.3640565E2,3.5408762E3,1.437581E3,1.6644442E3,3.4701333E3,6.948344E2,9.948071E0,5.49432E1,3.9811317E1,7.6932776E2,5.970055E2,1.1645271E1,2.983482E0,5.31492E2,6.044685E2,5.3638776E2,7.575287E1,7.430365E2,5.8923004E2,5.159227E2,2.2382959E2,1.0199892E1,2.9882748E0,4.5481265E2,1.1664501E3,3.2315444E3,3.0933182E2,1.3976586E3,3.9922516E1,1.6178125E3,4.6631706E1,2.7400574E3,7.30076E2,4.9905978E2,1.9577463E2,3.159737E0,6.7883334E0,4.1754944E1,1.3188257E1,1.6366745E1,2.3444574E1,7.671402E2,2.1875541E0,3.600355E2,2.3696999E2,1.0410037E1,1.2352344E0,1.2413484E0,1.7421334E0,3.1927817E2,2.1221384E2,5.917425E2,1.272597E1],"tree_param":{"num_deleted":"0","num_feature":"40","num_nodes":"83","size_leaf_vector":"1"}},{"base_weights":[-1.8439094E-3,4.7825554E-1,-2.0511714E-1,-1.534456E-1,6.9848853E-1,-1.249062E0,-2.0790943E-3,2.9102615E-1,1.2559227E0,-1.275965E0,2.1320212E-1,1.1587289E-1,-7.64187E-1,1.5651464E-1,-8.309581E-3,1.2781541E0,-1.0070018E0,-1.2943115E0,-8.588274E-2,-1.931128E-1,1.4174743E-1,3.902715E-1,-2.4898492E-1,-5.68967E-1,-1.3581809E0,1.5353212E-1,-2.7773085E-1,1.3070968E0,-1.9124688E-1,7.18382E-2,-1.346048E0,-1.31045E0,2.3583738E-2,4.8844093E-1,-7.462624E-1,2.0653853E-1,-7.300961E-1,9.521881E-1,-3.627406E-2,-7.6864153E-1,2.998056E-2,-3.2628816E-1,-1.0452056E0,-1.4082631E0,4.3648222E-1,1.4699644E-2,-7.044848E-2,1.3267104E-1,9.777772E-3,1.5205492E-2,-1.065472E-1,4.0650886E-2,-6.9334574E-2,-1.4742664E-1,1.3911903E-2,-1.3283473E-1,-2.0271586E-2,4.545007E-2,-4.082886E-2,1.23641744E-1,-3.8776055E-2,-1.4069317E-1,-2.2777257E-2,-1.1304118E-1,5.7890236E-2,-1.3993363E-1,-7.280865E-3,6.6167936E-2,1.5471636E-1,2.0607274E-3,-1.3401991E-1,-9.693748E-2,6.515549E-3,-2.1712333E-2,3.7065554E-2,1.5027662E-2,-7.5923234E-2,-1.1032235E-1,1.1365158E-2,-1.4246044E-1,3.708026E-2,1.24651216E-1,-3.4976374E-2],"categories":[],"categories_nodes":[],"categories_segments":[],"categories_sizes":[],"default_left":[0,0,0,0,0,0,0,0,0,0,0,0,0,0,0,0,0,0,0,0,0,0,0,0,0,0,0,0,0,0,0,0,0,0,0,0,0,0,0,0,0,0,0,0,0,0,0,0,0,0,0,0,0,0,0,0,0,0,0,0,0,0,0,0,0,0,0,0,0,0,0,0,0,0,0,0,0,0,0,0,0,0,0],"id":4,"left_children":[1,3,5,-1,7,9,11,13,15,17,19,21,23,-1,25,27,29,31,33,35,-1,37,39,41,43,-1,45,47,49,51,53,55,57,59,61,63,65,67,69,71,73,75,77,79,81,-1,-1,-1,-1,-1,-1,-1,-1,-1,-1,-1,-1,-1,-1,-1,-1,-1,-1,-1,-1,-1,-1,-1,-1,-1,-1,-1,-1,-1,-1,-1,-1,-1,-1,-1,-1,-1,-1],"loss_changes":[1.886004E3,2.5491794E3,2.87779E3,0E0,1.176688E3,8.723828E1,1.0219256E3,1.1423275E3,1.11364746E2,4.7286865E1,2.0234959E1,9.857138E2,1.7591107E2,0E0,1.0095071E3,9.2418945E1,8.087582E0,4.55E1,1.32708435E1,6.8857617E0,0E0,1.3468821E3,6.1271045E2,1.3239401E2,3.4425476E1,0E0,3.7468768E2,5.0285156E1,1.2987927E1,1.8627261E0,3.380083E0,4.1602295E1,5.1814013E0,1.2803766E1,5.237195E0,9.99954E0,5.8854747E0,4.181089E2,2.370265E2,2.4716266E2,2.3167004E2,1.5738834E2,2.6160797E1,1.1174377E1,7.426395E0,0E0,0E0,0E0,0E0,0E0,0E0,0E0,0E0,0E0,0E0,0E0,0E0,0E0,0E0,0E0,0E0,0E0,0E0,0E0,0E0,0E0,0E0,0E0,0E0,0E0,0E0,0E0,0E0,0E0,0E0,0E0,0E0,0E0,0E0,0E0,0E0,0E0,0E0],"parents":[2147483647,0,0,1,1,2,2,4,4,5,5,6,6,7,7,8,8,9,9,10,10,11,11,12,12,14,14,15,15,16,16,17,17,18,18,19,19,21,21,22,22,23,23,24,24,26,26,27,27,28,28,29,29,30,30,31,31,32,32,33,33,34,34,35,35,36,36,37,37,38,38,39,39,40,40,41,41,42,42,43,43,44,44],"right_children":[2,4,6,-1,8,10,12,14,16,18,20,22,24,-1,26,28,30,32,34,36,-1,38,40,42,44,-1,46,48,50,52,54,56,58,60,62,64,66,68,70,72,74,76,78,80,82,-1,-1,-1,-1,-1,-1,-1,-1,-1,-1,-1,-1,-1,-1,-1,-1,-1,-1,-1,-1,-1,-1,-1,-1,-1,-1,-1,-1,-1,-1,-1,-1,-1,-1,-1,-1,-1,-1],"split_conditions":[2E0,1E0,2E0,-1.534456E-1,2E0,3E0,9E0,1E0,3E0,2E0,2E0,3E0,3E0,1.5651464E-1,1E0,3E0,1E0,2E0,1E0,1E0,1.4174743E-1,1E0,3E0,1E0,2E0,1.5353212E-1,9E0,2E0,1E0,2E0,2E0,2E0,1E0,1E0,1E0,1E0,1E0,3E0,3E0,1E0,1E0,1E0,3E0,2E0,1E0,1.4699644E-2,-7.044848E-2,1.3267104E-1,9.777772E-3,1.5205492E-2,-1.065472E-1,4.0650886E-2,-6.9334574E-2,-1.4742664E-1,1.3911903E-2,-1.3283473E-1,-2.0271586E-2,4.545007E-2,-4.082886E-2,1.23641744E-1,-3.8776055E-2,-1.4069317E-1,-2.2777257E-2,-1.1304118E-1,5.7890236E-2,-1.3993363E-1,-7.280865E-3,6.6167936E-2,1.5471636E-1,2.0607274E-3,-1.3401991E-1,-9.693748E-2,6.515549E-3,-2.1712333E-2,3.7065554E-2,1.5027662E-2,-7.5923234E-2,-1.1032235E-1,1.1365158E-2,-1.4246044E-1,3.708026E-2,1.24651216E-1,-3.4976374E-2],"split_indices":[0,20,20,0,20,18,39,0,37,13,14,0,0,0,1,38,18,8,16,2,0,1,20,1,18,0,39,22,37,34,30,5,13,8,36,3,22,20,38,1,36,2,20,8,11,0,0,0,0,0,0,0,0,0,0,0,0,0,0,0,0,0,0,0,0,0,0,0,0,0,0,0,0,0,0,0,0,0,0,0,0,0,0],"split_type":[0,0,0,0,0,0,0,0,0,0,0,0,0,0,0,0,0,0,0,0,0,0,0,0,0,0,0,0,0,0,0,0,0,0,0,0,0,0,0,0,0,0,0,0,0,0,0,0,0,0,0,0,0,0,0,0,0,0,0,0,0,0,0,0,0,0,0,0,0,0,0,0,0,0,0,0,0,0,0,0,0,0,0],"sum_hessian":[1.9323516E4,5.747491E3,1.3576025E4,5.6628046E2,5.181211E3,2.2096565E3,1.1366369E4,2.994137E3,2.1870737E3,2.169862E3,3.9794327E1,9.8437E3,1.5226686E3,5.688029E2,2.425334E3,2.1662275E3,2.0846346E1,2.1368328E3,3.302927E1,3.0382933E1,9.411394E0,5.618286E3,4.225414E3,1.1474949E3,3.751738E2,3.5970874E2,2.0656252E3,2.124492E3,4.1735523E1,5.173252E0,1.5673093E1,2.110988E3,2.584473E1,1.7804922E1,1.5224348E1,1.777168E1,1.2611251E1,2.423896E3,3.1943901E3,1.4753599E3,2.7500542E3,7.612611E2,3.8623376E2,3.651978E2,9.975975E0,1.0355994E3,1.0300259E3,2.0904897E3,3.4002106E1,3.056065E1,1.1174874E1,3.9252138E0,1.2480383E0,1.4434284E1,1.2388092E0,2.0772275E3,3.3760468E1,1.2910447E1,1.2934283E1,9.383506E0,8.421416E0,5.940866E0,9.283482E0,3.4279733E0,1.4343708E1,5.6894174E0,6.921834E0,1.6300858E3,7.938101E2,3.0618086E3,1.3258156E2,1.18896E3,2.8639987E2,1.5941339E3,1.1559203E3,3.6268607E2,3.98575E2,3.6786475E2,1.8369034E1,3.6207132E2,3.1265032E0,4.6253304E0,5.3506446E0],"tree_param":{"num_deleted":"0","num_feature":"40","num_nodes":"83","size_leaf_vector":"1"}},{"base_weights":[-5.2465545E-3,4.4462904E-1,-1.914957E-1,-1.4581898E-1,6.435035E-1,-1.160773E0,-7.258436E-3,2.5577843E-1,1.1798744E0,-1.1867936E0,9.772058E-1,-1.1338976E-1,6.8388736E-1,-1.5753298E-1,5.182063E-1,1.2093273E0,-2.9356235E-1,-1.2148054E0,3.435274E-1,-1.1425763E-1,1.1998719E0,-3.7067106E-1,2.237612E-1,5.1878655E-1,1.2322553E0,1.4830178E-1,2.636496E-1,1.2305925E0,-8.3760554E-1,4.3227237E-2,-1.1367627E0,-1.4559935E-1,-1.0976745E0,-3.1905398E-2,1.3296621E0,8.409731E-2,-9.062304E-2,1.461958E-1,8.469226E-1,-1.031788E0,1.22753344E-1,6.775647E-1,-2.309865E-2,2.3084848E-1,1.1040788E0,1.2492837E0,-1.0230129E-1,1.4581509E-1,2.4253407E-3,1.4537041E-1,1.1182948E-1,8.807324E-3,-1.183257E-1,-4.3975007E-2,7.873039E-2,-1.5099525E-1,-5.719298E-2,-1.21639825E-1,-6.773736E-2,5.2438714E-2,-1.0993349E-1,1.7056555E-1,7.8604035E-2,1.1377505E-1,7.9189624E-5,-7.8836896E-2,-1.5300488E-1,2.8715266E-2,-2.403959E-2,1.4883934E-1,1.6252661E-2,1.8279145E-2,-3.132552E-2,-2.6316954E-2,6.913962E-2,1.15734436E-1,3.058865E-4,1.2680209E-1,-6.0955133E-2],"categories":[],"categories_nodes":[],"categories_segments":[],"categories_sizes":[],"default_left":[0,0,0,0,0,0,0,0,0,0,0,0,0,0,0,0,0,0,0,0,0,0,0,0,0,0,0,0,0,0,0,0,0,0,0,0,0,0,0,0,0,0,0,0,0,0,0,0,0,0,0,0,0,0,0,0,0,0,0,0,0,0,0,0,0,0,0,0,0,0,0,0,0,0,0,0,0,0,0],"id":5,"left_children":[1,3,5,-1,7,9,11,13,15,17,19,21,23,-1,25,27,29,31,33,35,37,39,41,43,45,-1,47,49,51,53,55,-1,57,59,61,-1,-1,-1,63,65,67,69,71,73,75,77,-1,-1,-1,-1,-1,-1,-1,-1,-1,-1,-1,-1,-1,-1,-1,-1,-1,-1,-1,-1,-1,-1,-1,-1,-1,-1,-1,-1,-1,-1,-1,-1,-1],"loss_changes":[1.5878064E3,2.1005527E3,2.3932295E3,0E0,1.0445154E3,1.2023828E2,8.261867E2,1.4027046E3,9.182129E1,9.108984E1,6.5255203E0,8.470281E2,1.3510486E2,0E0,6.2647974E2,9.098413E1,1.2007492E1,5.70896E1,1.4407759E1,4.822352E0,7.8944016E-1,1.8067731E3,4.735057E2,1.9424484E2,1.457428E1,0E0,5.778266E2,4.9629395E1,7.0932074E0,1.1506236E1,1.6775837E0,0E0,6.915454E1,1.7843693E1,8.509197E-1,0E0,0E0,0E0,2.8825378E0,2.8588232E2,1.8945616E2,6.2164526E2,1.6365309E2,1.7646793E2,2.2299164E1,1.2757202E1,0E0,0E0,0E0,0E0,0E0,0E0,0E0,0E0,0E0,0E0,0E0,0E0,0E0,0E0,0E0,0E0,0E0,0E0,0E0,0E0,0E0,0E0,0E0,0E0,0E0,0E0,0E0,0E0,0E0,0E0,0E0,0E0,0E0],"parents":[2147483647,0,0,1,1,2,2,4,4,5,5,6,6,7,7,8,8,9,9,10,10,11,11,12,12,14,14,15,15,16,16,17,17,18,18,19,19,20,20,21,21,22,22,23,23,24,24,26,26,27,27,28,28,29,29,30,30,32,32,33,33,34,34,38,38,39,39,40,40,41,41,42,42,43,43,44,44,45,45],"right_children":[2,4,6,-1,8,10,12,14,16,18,20,22,24,-1,26,28,30,32,34,36,38,40,42,44,46,-1,48,50,52,54,56,-1,58,60,62,-1,-1,-1,64,66,68,70,72,74,76,78,-1,-1,-1,-1,-1,-1,-1,-1,-1,-1,-1,-1,-1,-1,-1,-1,-1,-1,-1,-1,-1,-1,-1,-1,-1,-1,-1,-1,-1,-1,-1,-1,-1],"split_conditions":[2E0,1E0,2E0,-1.4581898E-1,2E0,3E0,9E0,1E0,3E0,3E0,1E0,3E0,3E0,-1.5753298E-1,1E0,3E0,1E0,1E0,1E0,1E0,1E0,1E0,3E0,1E0,3E0,1.4830178E-1,1E0,1E0,1E0,1E0,1E0,-1.4559935E-1,9E0,1E0,1E0,8.409731E-2,-9.062304E-2,1.461958E-1,2E0,3E0,3E0,1E0,1E0,1E0,3E0,2E0,-1.0230129E-1,1.4581509E-1,2.4253407E-3,1.4537041E-1,1.1182948E-1,8.807324E-3,-1.183257E-1,-4.3975007E-2,7.873039E-2,-1.5099525E-1,-5.719298E-2,-1.21639825E-1,-6.773736E-2,5.2438714E-2,-1.0993349E-1,1.7056555E-1,7.8604035E-2,1.1377505E-1,7.9189624E-5,-7.8836896E-2,-1.5300488E-1,2.8715266E-2,-2.403959E-2,1.4883934E-1,1.6252661E-2,1.8279145E-2,-3.132552E-2,-2.6316954E-2,6.913962E-2,1.15734436E-1,3.058865E-4,1.2680209E-1,-6.0955133E-2],"split_indices":[0,20,20,0,20,17,19,21,38,18,38,20,20,0,0,37,37,21,17,35,5,21,0,21,34,0,1,1,18,17,28,0,19,37,5,0,0,0,34,0,0,1,16,22,0,33,0,0,0,0,0,0,0,0,0,0,0,0,0,0,0,0,0,0,0,0,0,0,0,0,0,0,0,0,0,0,0,0,0],"split_type":[0,0,0,0,0,0,0,0,0,0,0,0,0,0,0,0,0,0,0,0,0,0,0,0,0,0,0,0,0,0,0,0,0,0,0,0,0,0,0,0,0,0,0,0,0,0,0,0,0,0,0,0,0,0,0,0,0,0,0,0,0,0,0,0,0,0,0,0,0,0,0,0,0,0,0,0,0,0,0],"sum_hessian":[1.8948055E4,5.547341E3,1.3400714E4,5.2432245E2,5.023018E3,2.1394912E3,1.1261223E4,2.9163562E3,2.1066619E3,2.1142048E3,2.5286364E1,9.762885E3,1.4983381E3,3.6494247E2,2.5514138E3,2.0655522E3,4.110968E1,2.0764036E3,3.7801395E1,4.367016E0,2.0919348E1,5.537271E3,4.225614E3,1.1531097E3,3.4522842E2,5.316285E2,2.0197853E3,2.044709E3,2.0843185E1,3.0054213E1,1.1055467E1,6.7501904E2,1.4013845E3,2.8079031E1,9.722363E0,1.9514368E0,2.4155788E0,1.020179E1,1.0717559E1,2.366036E3,3.171235E3,1.4881665E3,2.7374473E3,7.738191E2,3.7929065E2,3.4308405E2,2.144376E0,3.363631E2,1.6834222E3,6.805851E2,1.3641239E3,5.869487E0,1.49737E1,1.8472672E1,1.1581541E1,5.649513E0,5.4059534E0,1.0912435E3,3.1014093E2,1.8793505E1,9.285526E0,4.483674E0,5.2386894E0,7.7195725E0,2.997986E0,1.5912386E3,7.747973E2,2.183131E3,9.88104E2,5.7735E2,9.108166E2,1.6014535E3,1.1359938E3,3.7355E2,4.002691E2,3.6173914E2,1.7551523E1,3.399749E2,3.1091437E0],"tree_param":{"num_deleted":"0","num_feature":"40","num_nodes":"79","size_leaf_vector":"1"}},{"base_weights":[-1.3433241E-3,1.6307577E-1,-4.5398125E-1,6.1098738E-3,1.3005005E0,-6.6773856E-1,1.4395134E-1,6.274398E-2,-1.0931844E0,1.3192579E0,-1.209753E-1,-1.3213791E0,-2.8253788E-1,3.9221248E-1,-1.928687E-1,-1.303122E0,-7.307679E-1,1.4086308E0,1.0451131E0,-3.9079604E-1,6.99586E-1,-1.4069653E0,-1.0615692E0,8.903413E-3,-1.4871977E-1,1.3224518E-1,9.1250974E-1,-8.122582E-1,4.631662E-2,-1.163825E0,-1.4882044E-1,-2.3465863E-1,-1.1974486E0,1.4901166E0,1.2437012E0,8.46676E-1,1.4517443E-1,-1.256798E-1,-1.270629E-1,1.2043118E-1,-2.3932287E-2,-1.411706E0,-5.54247E-1,-8.794887E-1,-1.4418225E-1,4.364381E-1,-3.77895E-1,-2.6269987E-2,5.2813094E-2,1.1502681E-1,3.4230743E-2,-5.156677E-2,-1.1962203E-1,-1.805813E-2,7.205561E-2,-1.0475667E-1,-1.5140656E-1,6.5825335E-3,-1.4453185E-1,-1.4769115E-1,-8.9074336E-2,1.6408734E-1,1.4549114E-1,1.458581E-1,1.0762304E-1,8.766797E-2,-1.73146E-1,5.538342E-2,-8.296167E-2,-1.4154842E-1,-6.3506626E-2,-9.423229E-2,2.5026513E-2,-6.417474E-2,-1.2575561E-1,1.9234123E-3,1.2806003E-1,-6.208203E-2,1.5317126E-1],"categories":[],"categories_nodes":[],"categories_segments":[],"categories_sizes":[],"default_left":[0,0,0,0,0,0,0,0,0,0,0,0,0,0,0,0,0,0,0,0,0,0,0,0,0,0,0,0,0,0,0,0,0,0,0,0,0,0,0,0,0,0,0,0,0,0,0,0,0,0,0,0,0,0,0,0,0,0,0,0,0,0,0,0,0,0,0,0,0,0,0,0,0,0,0,0,0,0,0],"id":6,"left_children":[1,3,5,7,9,11,-1,13,15,17,19,21,23,25,27,29,31,33,35,37,39,41,43,45,-1,47,49,51,53,55,-1,57,59,61,63,65,-1,67,-1,-1,-1,69,71,73,-1,75,77,-1,-1,-1,-1,-1,-1,-1,-1,-1,-1,-1,-1,-1,-1,-1,-1,-1,-1,-1,-1,-1,-1,-1,-1,-1,-1,-1,-1,-1,-1,-1,-1],"loss_changes":[1.3873353E3,2.4413535E3,2.0113967E3,7.4822034E2,4.4373047E1,1.123572E3,0E0,9.626028E2,4.3848328E1,3.862915E1,5.2577305E0,3.5306396E1,9.8656805E2,6.753117E2,9.5361957E2,7.847534E0,5.0250465E1,1.4696777E1,3.155304E1,3.9417183E0,3.098018E0,4.2373047E0,2.7406738E1,3.7449606E2,0E0,5.2095E2,2.2513855E2,2.0359216E2,7.1065375E2,7.233307E0,0E0,3.903302E1,8.303085E0,1.9602051E0,1.3302063E1,2.282341E1,0E0,7.4534397E0,0E0,0E0,0E0,2.7231445E0,2.8933876E0,2.4595459E1,0E0,3.7880524E2,5.524971E2,0E0,0E0,0E0,0E0,0E0,0E0,0E0,0E0,0E0,0E0,0E0,0E0,0E0,0E0,0E0,0E0,0E0,0E0,0E0,0E0,0E0,0E0,0E0,0E0,0E0,0E0,0E0,0E0,0E0,0E0,0E0,0E0],"parents":[2147483647,0,0,1,1,2,2,3,3,4,4,5,5,7,7,8,8,9,9,10,10,11,11,12,12,13,13,14,14,15,15,16,16,17,17,18,18,19,19,20,20,21,21,22,22,23,23,25,25,26,26,27,27,28,28,29,29,31,31,32,32,33,33,34,34,35,35,37,37,41,41,42,42,43,43,45,45,46,46],"right_children":[2,4,6,8,10,12,-1,14,16,18,20,22,24,26,28,30,32,34,36,38,40,42,44,46,-1,48,50,52,54,56,-1,58,60,62,64,66,-1,68,-1,-1,-1,70,72,74,-1,76,78,-1,-1,-1,-1,-1,-1,-1,-1,-1,-1,-1,-1,-1,-1,-1,-1,-1,-1,-1,-1,-1,-1,-1,-1,-1,-1,-1,-1,-1,-1,-1,-1],"split_conditions":[9E0,9E0,1E1,3E0,3E0,9E0,1.4395134E-1,8E0,1E0,2E0,2E0,2E0,1E1,8E0,8E0,1E0,1E0,2E0,2E0,2E0,2E0,3E0,2E0,1E0,-1.4871977E-1,2E0,2E0,1E0,2E0,8E0,-1.4882044E-1,8E0,8E0,2E0,1E0,3E0,1.4517443E-1,1E0,-1.270629E-1,1.2043118E-1,-2.3932287E-2,3E0,2E0,1E0,-1.4418225E-1,1E0,2E0,-2.6269987E-2,5.2813094E-2,1.1502681E-1,3.4230743E-2,-5.156677E-2,-1.1962203E-1,-1.805813E-2,7.205561E-2,-1.0475667E-1,-1.5140656E-1,6.5825335E-3,-1.4453185E-1,-1.4769115E-1,-8.9074336E-2,1.6408734E-1,1.4549114E-1,1.458581E-1,1.0762304E-1,8.766797E-2,-1.73146E-1,5.538342E-2,-8.296167E-2,-1.4154842E-1,-6.3506626E-2,-9.423229E-2,2.5026513E-2,-6.417474E-2,-1.2575561E-1,1.9234123E-3,1.2806003E-1,-6.208203E-2,1.5317126E-1],"split_indices":[39,19,19,38,37,19,0,39,36,38,6,18,39,19,19,37,16,37,18,34,26,6,38,38,0,18,37,16,18,39,0,39,19,20,38,26,0,13,0,0,0,3,37,16,0,18,18,0,0,0,0,0,0,0,0,0,0,0,0,0,0,0,0,0,0,0,0,0,0,0,0,0,0,0,0,0,0,0,0],"split_type":[0,0,0,0,0,0,0,0,0,0,0,0,0,0,0,0,0,0,0,0,0,0,0,0,0,0,0,0,0,0,0,0,0,0,0,0,0,0,0,0,0,0,0,0,0,0,0,0,0,0,0,0,0,0,0,0,0,0,0,0,0,0,0,0,0,0,0,0,0,0,0,0,0,0,0,0,0,0,0],"sum_hessian":[1.8639395E4,1.3673269E4,4.966126E3,1.2016046E4,1.6572225E3,4.462949E3,5.031766E2,1.1428223E4,5.878231E2,1.6357101E3,2.1512354E1,1.6539534E3,2.8089958E3,4.9925757E3,6.435647E3,3.7056793E2,2.172552E2,1.2304401E3,4.0527002E2,1.658315E1,4.9292026E0,1.2407963E3,4.13157E2,2.2626013E3,5.4639465E2,3.3299934E3,1.662582E3,1.7922018E3,4.6434453E3,2.1559474E2,1.5497319E2,1.0603575E2,1.1121945E2,8.1817487E2,4.1226523E2,2.7442978E2,1.3084024E2,1.3621491E1,2.9616594E0,3.022004E0,1.9071989E0,1.2332843E3,7.512035E0,2.8161935E2,1.3153767E2,1.0746473E3,1.1879539E3,1.6671458E3,1.6628478E3,1.1726166E3,4.8996548E2,1.0124672E3,7.7973456E2,3.4748174E3,1.1686282E3,1.6486174E2,5.073299E1,8.5708626E1,2.0327124E1,5.619786E1,5.502159E1,1.4625777E2,6.719171E2,1.7719682E2,2.350684E2,2.7192514E2,2.5046408E0,7.0394783E0,6.582013E0,1.226495E3,6.7892666E0,4.9520144E0,2.5600207E0,1.7455243E2,1.0706691E2,7.1988617E2,3.5476117E2,1.0544855E3,1.3346848E2],"tree_param":{"num_deleted":"0","num_feature":"40","num_nodes":"79","size_leaf_vector":"1"}},{"base_weights":[2.3288124E-3,4.0253907E-1,-1.5851402E-1,-1.3652883E-1,5.836253E-1,-1.0514289E0,2.282947E-3,2.4091883E-1,1.0685649E0,-1.0806403E0,3.7701178E-1,9.627705E-2,-6.215345E-1,1.3838814E-1,-2.6512467E-3,1.0891867E0,-8.997948E-1,-1.100338E0,6.560551E-2,5.1220886E-2,1.3447136E-1,1.0537065E-2,1.2001615E0,-1.2652783E0,-8.775337E-3,1.36119E-1,-2.0755236E-1,1.116663E0,-2.1541883E-1,1.0969848E-1,-1.2084479E0,-1.1202785E0,2.1597225E-2,-9.463339E-1,2.995529E-1,-5.193877E-1,6.284779E-1,4.737572E-2,-1.5383488E0,1.3100612E0,4.320471E-1,-1.3663794E0,-5.6934834E-1,6.60522E-2,-1.5059833E-1,-1.030728E-2,-1.530698E-1,1.3579431E-1,1.00052215E-1,-5.131502E-2,4.5024473E-2,-7.066622E-2,4.7958698E-2,-1.3507737E-1,-4.8844114E-2,-1.13003336E-1,8.179541E-2,4.6156008E-2,-5.1208526E-2,-1.16903596E-1,-1.3442935E-2,3.0348669E-3,1.540137E-1,1.4044595E-2,-9.7954325E-2,1.304244E-2,1.4152981E-1,2.8624807E-2,-2.172255E-2,-1.8126771E-1,-1.0730747E-1,1.3317746E-1,-3.5177388E-3,1.0735E-2,8.874189E-2,-1.4135796E-1,-1.2114354E-1,-7.6001875E-2,6.567891E-2,-1.9788606E-2,4.3752927E-2],"categories":[],"categories_nodes":[],"categories_segments":[],"categories_sizes":[],"default_left":[0,0,0,0,0,0,0,0,0,0,0,0,0,0,0,0,0,0,0,0,0,0,0,0,0,0,0,0,0,0,0,0,0,0,0,0,0,0,0,0,0,0,0,0,0,0,0,0,0,0,0,0,0,0,0,0,0,0,0,0,0,0,0,0,0,0,0,0,0,0,0,0,0,0,0,0,0,0,0,0,0],"id":7,"left_children":[1,3,5,-1,7,9,11,13,15,17,19,21,23,-1,25,27,29,31,33,35,-1,37,39,41,43,-1,45,47,49,51,53,55,57,59,61,63,65,67,69,71,73,75,77,79,-1,-1,-1,-1,-1,-1,-1,-1,-1,-1,-1,-1,-1,-1,-1,-1,-1,-1,-1,-1,-1,-1,-1,-1,-1,-1,-1,-1,-1,-1,-1,-1,-1,-1,-1,-1,-1],"loss_changes":[1.179188E3,1.6819836E3,1.8761437E3,0E0,7.9153577E2,8.361279E1,6.493864E2,7.775057E2,8.1045654E1,4.4197754E1,1.2763209E1,9.1094495E2,5.7204443E2,0E0,6.439237E2,7.0229004E1,6.6753407E0,4.3009277E1,8.323343E0,1.0698877E1,0E0,5.0972888E2,5.7991516E1,4.898169E1,8.345159E1,0E0,2.7677545E2,5.22312E1,8.378893E0,2.1004689E0,9.9671555E-1,3.6618164E1,8.344966E0,1.0393615E0,9.419063E0,5.11211E0,6.1271367E0,5.5156995E2,2.454425E1,1.7758423E1,1.296339E1,2.798584E0,2.1872942E1,6.965529E1,0E0,0E0,0E0,0E0,0E0,0E0,0E0,0E0,0E0,0E0,0E0,0E0,0E0,0E0,0E0,0E0,0E0,0E0,0E0,0E0,0E0,0E0,0E0,0E0,0E0,0E0,0E0,0E0,0E0,0E0,0E0,0E0,0E0,0E0,0E0,0E0,0E0],"parents":[2147483647,0,0,1,1,2,2,4,4,5,5,6,6,7,7,8,8,9,9,10,10,11,11,12,12,14,14,15,15,16,16,17,17,18,18,19,19,21,21,22,22,23,23,24,24,26,26,27,27,28,28,29,29,30,30,31,31,32,32,33,33,34,34,35,35,36,36,37,37,38,38,39,39,40,40,41,41,42,42,43,43],"right_children":[2,4,6,-1,8,10,12,14,16,18,20,22,24,-1,26,28,30,32,34,36,-1,38,40,42,44,-1,46,48,50,52,54,56,58,60,62,64,66,68,70,72,74,76,78,80,-1,-1,-1,-1,-1,-1,-1,-1,-1,-1,-1,-1,-1,-1,-1,-1,-1,-1,-1,-1,-1,-1,-1,-1,-1,-1,-1,-1,-1,-1,-1,-1,-1,-1,-1,-1,-1],"split_conditions":[2E0,1E0,2E0,-1.3652883E-1,2E0,3E0,9E0,1E0,3E0,2E0,2E0,9E0,9E0,1.3838814E-1,1E0,3E0,1E0,2E0,1E0,1E0,1.3447136E-1,3E0,2E0,2E0,1E1,1.36119E-1,1E1,1E0,2E0,1E0,2E0,3E0,1E0,1E0,2E0,1E0,1E0,8E0,8E0,3E0,1E0,2E0,3E0,1E0,-1.5059833E-1,-1.030728E-2,-1.530698E-1,1.3579431E-1,1.00052215E-1,-5.131502E-2,4.5024473E-2,-7.066622E-2,4.7958698E-2,-1.3507737E-1,-4.8844114E-2,-1.13003336E-1,8.179541E-2,4.6156008E-2,-5.1208526E-2,-1.16903596E-1,-1.3442935E-2,3.0348669E-3,1.540137E-1,1.4044595E-2,-9.7954325E-2,1.304244E-2,1.4152981E-1,2.8624807E-2,-2.172255E-2,-1.8126771E-1,-1.0730747E-1,1.3317746E-1,-3.5177388E-3,1.0735E-2,8.874189E-2,-1.4135796E-1,-1.2114354E-1,-7.6001875E-2,6.567891E-2,-1.9788606E-2,4.3752927E-2],"split_indices":[0,20,20,0,20,18,39,0,37,16,14,19,19,0,1,38,18,2,37,33,0,37,38,18,39,0,39,1,14,32,9,9,8,15,14,8,28,39,19,37,36,37,0,18,0,0,0,0,0,0,0,0,0,0,0,0,0,0,0,0,0,0,0,0,0,0,0,0,0,0,0,0,0,0,0,0,0,0,0,0,0],"split_type":[0,0,0,0,0,0,0,0,0,0,0,0,0,0,0,0,0,0,0,0,0,0,0,0,0,0,0,0,0,0,0,0,0,0,0,0,0,0,0,0,0,0,0,0,0,0,0,0,0,0,0,0,0,0,0,0,0,0,0,0,0,0,0,0,0,0,0,0,0,0,0,0,0,0,0,0,0,0,0,0,0],"sum_hessian":[1.8316643E4,5.2505884E3,1.3066054E4,4.8725873E2,4.7633296E3,1.9930414E3,1.1073013E4,2.7918372E3,1.9714927E3,1.9533392E3,3.9702103E1,9.623788E3,1.4492249E3,4.8961536E2,2.3022217E3,1.9514943E3,1.9998476E1,1.9203787E3,3.296066E1,3.0490097E1,9.212005E0,8.931107E3,6.9268E2,7.062246E2,7.430002E2,2.9996738E2,2.0022544E3,1.9113827E3,4.011153E1,4.833717E0,1.516476E1,1.8868446E3,3.353404E1,5.6174226E0,2.7343235E1,1.5383762E1,1.5106335E1,8.724572E3,2.0653555E2,6.05361E2,8.731896E1,6.1580096E2,9.0423676E1,7.0854443E2,3.4455784E1,1.8567201E3,1.455343E2,6.17613E2,1.2937697E3,2.7873611E1,1.2237917E1,1.2233204E0,3.6103964E0,1.1930389E1,3.2343705E0,1.8778108E3,9.033764E0,1.8455029E1,1.5079012E1,4.063071E0,1.5543519E0,2.330957E1,4.0336657E0,6.6059856E0,8.777777E0,9.96457E0,5.141765E0,4.585168E3,4.1394043E3,1.2810701E2,7.842853E1,5.95755E2,9.606036E0,5.1694553E1,3.562441E1,4.6578635E2,1.5001459E2,7.858368E1,1.1839999E1,4.1450305E2,2.9404135E2],"tree_param":{"num_deleted":"0","num_feature":"40","num_nodes":"81","size_leaf_vector":"1"}},{"base_weights":[6.8279277E-3,-3.7300408E-1,1.5791197E-1,1.3340844E-1,-5.422836E-1,1.0183896E0,1.0368046E-2,-1.3666319E0,-3.3962604E-1,1.3123718E-1,8.8925093E-1,1.9033094E-1,-2.5071603E-1,-1.4374839E-1,-1.3246922E-1,-5.906348E-2,-8.504349E-1,9.1505796E-1,-7.662581E-1,5.7067674E-1,-1.3805051E-1,-6.464558E-1,-1.2781719E-3,-1.3182333E-1,2.2910832E-1,-8.8162E-1,8.0526173E-1,9.514289E-1,-1.2106879E-1,2.8442657E-1,-1.0279933E0,3.4791762E-1,1.2813823E0,-2.9719514E-1,2.5323528E-1,-1.3250787E0,-1.3858181E-1,-2.2426766E-1,3.1003073E-1,1.3155739E-1,4.8024314E-3,-9.197431E-2,3.0327369E-2,-2.0398958E-2,9.9870525E-2,7.203225E-2,1.09794475E-1,1.7006192E-2,-8.532971E-2,-4.7909584E-2,7.510988E-2,-1.23187E-1,-3.410061E-2,-1.2806448E-3,1.2514625E-1,1.2971614E-1,-1.0896667E-1,-1.225188E-1,3.5331969E-3,3.1271048E-2,-1.8107669E-1,-1.3485673E-1,1.7779341E-1,-1.9356152E-2,1.8039626E-1,-2.8062416E-2,1.5956387E-1,1.5266733E-2,1.20808974E-1],"categories":[],"categories_nodes":[],"categories_segments":[],"categories_sizes":[],"default_left":[0,0,0,0,0,0,0,0,0,0,0,0,0,0,0,0,0,0,0,0,0,0,0,0,0,0,0,0,0,0,0,0,0,0,0,0,0,0,0,0,0,0,0,0,0,0,0,0,0,0,0,0,0,0,0,0,0,0,0,0,0,0,0,0,0,0,0,0,0],"id":8,"left_children":[1,3,5,-1,7,9,11,13,15,-1,17,19,21,-1,-1,23,25,27,29,31,33,35,37,-1,39,41,43,45,47,49,51,53,55,57,59,61,63,65,67,-1,-1,-1,-1,-1,-1,-1,-1,-1,-1,-1,-1,-1,-1,-1,-1,-1,-1,-1,-1,-1,-1,-1,-1,-1,-1,-1,-1,-1,-1],"loss_changes":[1.0307448E3,1.4777717E3,1.6314122E3,0E0,7.765199E2,7.02384E1,5.1548846E2,8.218994E-1,5.351537E2,0E0,5.6665283E1,8.1123804E2,4.4190265E2,0E0,0E0,8.7536365E2,6.906702E1,4.8738525E1,5.971278E0,4.759873E2,2.1716277E2,5.963327E2,1.907561E2,0E0,3.8620203E2,5.899817E1,5.0840416E0,4.142041E1,9.661805E0,2.1063545E0,1.9257793E0,7.472444E2,2.8267578E1,7.6492224E2,1.2436511E2,5.6385864E1,1.06192345E2,1.6465872E2,1.6188913E2,0E0,0E0,0E0,0E0,0E0,0E0,0E0,0E0,0E0,0E0,0E0,0E0,0E0,0E0,0E0,0E0,0E0,0E0,0E0,0E0,0E0,0E0,0E0,0E0,0E0,0E0,0E0,0E0,0E0,0E0],"parents":[2147483647,0,0,1,1,2,2,4,4,5,5,6,6,7,7,8,8,10,10,11,11,12,12,15,15,16,16,17,17,18,18,19,19,20,20,21,21,22,22,24,24,25,25,26,26,27,27,28,28,29,29,30,30,31,31,32,32,33,33,34,34,35,35,36,36,37,37,38,38],"right_children":[2,4,6,-1,8,10,12,14,16,-1,18,20,22,-1,-1,24,26,28,30,32,34,36,38,-1,40,42,44,46,48,50,52,54,56,58,60,62,64,66,68,-1,-1,-1,-1,-1,-1,-1,-1,-1,-1,-1,-1,-1,-1,-1,-1,-1,-1,-1,-1,-1,-1,-1,-1,-1,-1,-1,-1,-1,-1],"split_conditions":[2E0,1E0,2E0,1.3340844E-1,1E0,1E0,3E0,2E0,2E0,1.3123718E-1,3E0,1E0,3E0,-1.4374839E-1,-1.3246922E-1,1E0,3E0,3E0,1E0,3E0,3E0,1E0,1E0,-1.3182333E-1,1E0,3E0,1E0,1E0,1E0,1E0,2E0,1E0,3E0,1E0,3E0,3E0,3E0,3E0,2E0,1.3155739E-1,4.8024314E-3,-9.197431E-2,3.0327369E-2,-2.0398958E-2,9.9870525E-2,7.203225E-2,1.09794475E-1,1.7006192E-2,-8.532971E-2,-4.7909584E-2,7.510988E-2,-1.23187E-1,-3.410061E-2,-1.2806448E-3,1.2514625E-1,1.2971614E-1,-1.0896667E-1,-1.225188E-1,3.5331969E-3,3.1271048E-2,-1.8107669E-1,-1.3485673E-1,1.7779341E-1,-1.9356152E-2,1.8039626E-1,-2.8062416E-2,1.5956387E-1,1.5266733E-2,1.20808974E-1],"split_indices":[20,0,0,0,21,1,0,0,0,0,37,1,20,0,0,20,17,38,18,20,20,21,36,0,1,18,38,21,37,10,9,21,38,21,37,18,17,17,17,0,0,0,0,0,0,0,0,0,0,0,0,0,0,0,0,0,0,0,0,0,0,0,0,0,0,0,0,0,0],"split_type":[0,0,0,0,0,0,0,0,0,0,0,0,0,0,0,0,0,0,0,0,0,0,0,0,0,0,0,0,0,0,0,0,0,0,0,0,0,0,0,0,0,0,0,0,0,0,0,0,0,0,0,0,0,0,0,0,0,0,0,0,0,0,0,0,0,0,0,0,0],"sum_hessian":[1.7959406E4,5.110333E3,1.2849073E4,4.6041605E2,4.649917E3,1.8798525E3,1.0969221E4,9.16428E2,3.7334893E3,5.7094446E2,1.3089081E3,6.493548E3,4.4756724E3,3.283847E2,5.880433E2,2.4105864E3,1.3229027E3,1.2892577E3,1.9650427E1,3.0083765E3,3.4851714E3,1.7297643E3,2.7459082E3,4.48274E2,1.9623125E3,1.2989054E3,2.399739E1,1.2456149E3,4.3642803E1,3.901584E0,1.5748843E1,2.2916008E3,7.167756E2,2.477683E3,1.00748834E3,7.397281E2,9.900362E2,1.600066E3,1.1458422E3,2.7944382E2,1.6828687E3,1.2586334E3,4.0271904E1,3.851013E0,2.0146378E1,4.8558878E2,7.600261E2,3.1776398E1,1.18664055E1,1.4699601E0,2.431624E0,1.1533044E1,4.2158E0,1.6384607E3,6.531401E2,7.1248694E2,4.2886434E0,6.5290845E2,1.8247747E3,9.80095E2,2.739339E1,7.347319E2,4.996213E0,9.636621E2,2.6374104E1,1.5528259E3,4.724008E1,9.759928E2,1.6984943E2],"tree_param":{"num_deleted":"0","num_feature":"40","num_nodes":"69","size_leaf_vector":"1"}},{"base_weights":[-2.513684E-3,-1.3002779E-1,3.7331784E-1,-1.8085441E-1,1.0062242E0,2.7168047E-1,1.3320376E-1,-2.175408E-1,1.3368611E0,1.1616435E0,7.360694E-1,2.062239E-1,1.3698696E-1,-1.8023013E-1,-9.92636E-1,1.242808E0,1.6893509E-1,1.3780392E0,1.0403081E0,2.0515834E-1,1.3122084E0,1.2762623E-1,1.5965159E-1,-3.2664245E-1,1.3456513E-1,-1.190537E0,-6.5939033E-1,1.3596935E0,5.879438E-1,1.2887726E0,1.59683E-1,8.6545485E-1,1.3014317E0,-7.8614786E-2,1.3190573E-1,1.427059E0,8.615053E-1,1.8817285E-1,-6.408548E-1,-6.33651E-2,-1.9910086E-2,3.8642772E-3,1.3185488E-1,-1.3564864E-1,-1.0064709E-1,-1.8587826E-2,-1.1048814E-1,9.048499E-2,1.434732E-1,9.586069E-2,9.775642E-3,1.3844705E-1,9.871283E-2,1.0903882E-1,5.81877E-2,1.6548075E-1,1.1444961E-1,2.0635363E-2,-4.6436653E-2,1.54449E-1,1.033796E-1,1.8201441E-3,1.5011378E-1,1.0298162E-2,4.3954637E-2,-8.782099E-2,-3.151346E-2],"categories":[],"categories_nodes":[],"categories_segments":[],"categories_sizes":[],"default_left":[0,0,0,0,0,0,0,0,0,0,0,0,0,0,0,0,0,0,0,0,0,0,0,0,0,0,0,0,0,0,0,0,0,0,0,0,0,0,0,0,0,0,0,0,0,0,0,0,0,0,0,0,0,0,0,0,0,0,0,0,0,0,0,0,0,0,0],"id":9,"left_children":[1,3,5,7,9,11,-1,13,15,17,19,21,-1,23,25,27,-1,29,31,33,35,-1,37,39,41,43,45,47,49,51,-1,53,55,57,-1,59,61,63,65,-1,-1,-1,-1,-1,-1,-1,-1,-1,-1,-1,-1,-1,-1,-1,-1,-1,-1,-1,-1,-1,-1,-1,-1,-1,-1,-1,-1],"loss_changes":[8.413569E2,7.5722595E2,4.3301526E2,6.9896533E2,2.2717285E1,2.8886963E2,0E0,3.5416534E2,7.723572E0,7.8784485E0,6.327961E1,1.8903679E2,0E0,5.388972E2,3.631195E1,1.7393005E1,0E0,3.7043762E-1,9.43541E0,3.46555E1,3.9184723E0,0E0,8.323078E1,3.1234845E2,4.2154297E2,9.377014E0,4.447837E1,5.559143E0,6.7668066E0,1.3321075E0,0E0,8.393349E0,3.140976E0,9.77589E0,0E0,1.9930115E0,1.2227537E1,7.524292E1,9.422768E0,0E0,0E0,0E0,0E0,0E0,0E0,0E0,0E0,0E0,0E0,0E0,0E0,0E0,0E0,0E0,0E0,0E0,0E0,0E0,0E0,0E0,0E0,0E0,0E0,0E0,0E0,0E0,0E0],"parents":[2147483647,0,0,1,1,2,2,3,3,4,4,5,5,7,7,8,8,9,9,10,10,11,11,13,13,14,14,15,15,17,17,18,18,19,19,20,20,22,22,23,23,24,24,25,25,26,26,27,27,28,28,29,29,31,31,32,32,33,33,35,35,36,36,37,37,38,38],"right_children":[2,4,6,8,10,12,-1,14,16,18,20,22,-1,24,26,28,-1,30,32,34,36,-1,38,40,42,44,46,48,50,52,-1,54,56,58,-1,60,62,64,66,-1,-1,-1,-1,-1,-1,-1,-1,-1,-1,-1,-1,-1,-1,-1,-1,-1,-1,-1,-1,-1,-1,-1,-1,-1,-1,-1,-1],"split_conditions":[9E0,3E0,1E1,3E0,1E0,2E0,1.3320376E-1,3E0,2E0,1E0,1E0,1E0,1.3698696E-1,2E0,1E0,2E0,1.6893509E-1,3E0,1E0,8E0,2E0,1.2762623E-1,2E0,8E0,2E0,8E0,1E0,1E0,1E0,2E0,1.59683E-1,1E0,7E0,1E0,1.3190573E-1,2E0,2E0,2E0,1E0,-6.33651E-2,-1.9910086E-2,3.8642772E-3,1.3185488E-1,-1.3564864E-1,-1.0064709E-1,-1.8587826E-2,-1.1048814E-1,9.048499E-2,1.434732E-1,9.586069E-2,9.775642E-3,1.3844705E-1,9.871283E-2,1.0903882E-1,5.81877E-2,1.6548075E-1,1.1444961E-1,2.0635363E-2,-4.6436653E-2,1.54449E-1,1.033796E-1,1.8201441E-3,1.5011378E-1,1.0298162E-2,4.3954637E-2,-8.782099E-2,-3.151346E-2],"split_indices":[19,18,19,17,16,18,0,38,14,6,36,0,0,18,36,34,0,0,17,19,34,0,33,19,17,19,16,38,5,23,0,13,19,2,0,26,14,17,36,0,0,0,0,0,0,0,0,0,0,0,0,0,0,0,0,0,0,0,0,0,0,0,0,0,0,0,0],"split_type":[0,0,0,0,0,0,0,0,0,0,0,0,0,0,0,0,0,0,0,0,0,0,0,0,0,0,0,0,0,0,0,0,0,0,0,0,0,0,0,0,0,0,0,0,0,0,0,0,0,0,0,0,0,0,0,0,0,0,0,0,0,0,0,0,0,0,0],"sum_hessian":[1.7554117E4,1.3107567E4,4.446551E3,1.254715E4,5.6041614E2,4.0215E3,4.250505E2,1.22518545E4,2.9529648E2,3.536578E2,2.0675833E2,3.7964065E3,2.2509355E2,1.169035E4,5.615045E2,2.3667216E2,5.86243E1,1.23336266E2,2.3032155E2,1.08308426E2,9.844991E1,1.572417E2,3.6391648E3,7.9791724E3,3.7111772E3,3.5067844E2,2.1082608E2,1.9991362E2,3.675855E1,9.249056E1,3.0845707E1,1.4053261E2,8.978893E1,8.705899E1,2.124943E1,7.6730675E1,2.1719238E1,3.5147043E3,1.24460495E2,2.340743E3,5.6384297E3,3.433999E3,2.7717838E2,1.8106505E2,1.6961339E2,1.0288594E2,1.0794014E2,3.0159708E1,1.697539E2,2.0386995E1,1.6371553E1,6.7489494E1,2.5001066E1,7.6783226E1,6.3749382E1,2.467751E1,6.511142E1,5.033777E1,3.6721222E1,5.6832695E1,1.9897978E1,9.811725E0,1.1907514E1,2.6261157E3,8.885887E2,7.101502E1,5.344547E1],"tree_param":{"num_deleted":"0","num_feature":"40","num_nodes":"67","size_leaf_vector":"1"}},{"base_weights":[4.4416855E-3,1.4411275E-1,-4.0885797E-1,1.971869E-2,1.1483407E0,-5.759384E-1,1.2901114E-1,-2.1741202E-1,2.1830529E-1,1.1691506E0,-1.10261016E-1,-1.1593218E0,-2.4911997E-1,9.8648E-3,-6.9260746E-1,7.048908E-1,3.1462736E-2,1.2770014E0,1.0572163E0,6.4418375E-2,-1.5489528E-1,-1.2439711E0,-9.102195E-1,-1.6251804E-2,-1.3459094E-1,-8.902109E-2,1.1562427E0,-4.2707455E-1,-1.0462233E0,7.567009E-1,-9.1024137E-1,-3.3847934E-1,1.749973E-1,1.3595302E0,1.1337887E0,1.0872136E0,-7.908523E-2,3.4767553E-1,-1.0287088E0,-1.3524489E-1,-1.0245137E0,-1.0547289E0,-4.5568478E-1,-3.4872702E-1,3.0675918E-1,-2.9731572E-2,4.0420722E-2,8.7613665E-2,1.4654249E-1,-3.669217E-3,-7.2427705E-2,-7.237344E-2,-1.3078868E-1,8.736765E-2,4.0194537E-2,-4.8284225E-2,-1.6091509E-1,-1.3691907E-1,-1.2127111E-2,3.5626793E-3,7.603321E-2,1.550438E-1,1.3154596E-1,1.3269514E-1,1.0477743E-1,1.15894854E-1,8.635102E-2,-6.9189854E-2,6.423263E-2,6.601177E-2,-1.0107495E-1,-1.3303094E-1,-1.7585913E-2,-1.0433783E-1,1.351699E-1,-1.0769726E-1,4.8741896E-2,-7.460132E-2,2.5684992E-2,-6.569193E-2,1.2847021E-2,-1.2664562E-1,3.889541E-2],"categories":[],"categories_nodes":[],"categories_segments":[],"categories_sizes":[],"default_left":[0,0,0,0,0,0,0,0,0,0,0,0,0,0,0,0,0,0,0,0,0,0,0,0,0,0,0,0,0,0,0,0,0,0,0,0,0,0,0,0,0,0,0,0,0,0,0,0,0,0,0,0,0,0,0,0,0,0,0,0,0,0,0,0,0,0,0,0,0,0,0,0,0,0,0,0,0,0,0,0,0,0,0],"id":10,"left_children":[1,3,5,7,9,11,-1,13,15,17,19,21,23,25,27,29,31,33,35,37,-1,39,41,43,-1,45,47,49,51,53,55,57,59,61,63,65,67,69,71,-1,73,75,77,79,81,-1,-1,-1,-1,-1,-1,-1,-1,-1,-1,-1,-1,-1,-1,-1,-1,-1,-1,-1,-1,-1,-1,-1,-1,-1,-1,-1,-1,-1,-1,-1,-1,-1,-1,-1,-1,-1,-1],"loss_changes":[1.005729E3,1.6266626E3,1.2499237E3,5.45719E2,3.7719482E1,7.637438E2,0E0,5.7044324E2,5.733622E2,1.56953125E1,6.196044E0,2.9202515E1,6.5629926E2,4.0524274E2,1.600105E2,1.4711072E2,2.4208904E2,6.900757E0,2.3901001E1,7.3528395E0,0E0,2.411084E1,2.3730469E1,2.2785278E2,0E0,3.3823004E2,2.3300629E1,1.1340657E2,6.0838196E1,7.002655E1,1.5604088E1,2.8516162E2,2.679231E2,1.730835E0,3.048462E0,9.923767E0,8.800874E0,8.599674E0,1.0269227E0,0E0,1.7475952E1,1.0092682E1,1.8950197E1,1.5384381E2,1.3965352E2,0E0,0E0,0E0,0E0,0E0,0E0,0E0,0E0,0E0,0E0,0E0,0E0,0E0,0E0,0E0,0E0,0E0,0E0,0E0,0E0,0E0,0E0,0E0,0E0,0E0,0E0,0E0,0E0,0E0,0E0,0E0,0E0,0E0,0E0,0E0,0E0,0E0,0E0],"parents":[2147483647,0,0,1,1,2,2,3,3,4,4,5,5,7,7,8,8,9,9,10,10,11,11,12,12,13,13,14,14,15,15,16,16,17,17,18,18,19,19,21,21,22,22,23,23,25,25,26,26,27,27,28,28,29,29,30,30,31,31,32,32,33,33,34,34,35,35,36,36,37,37,38,38,40,40,41,41,42,42,43,43,44,44],"right_children":[2,4,6,8,10,12,-1,14,16,18,20,22,24,26,28,30,32,34,36,38,-1,40,42,44,-1,46,48,50,52,54,56,58,60,62,64,66,68,70,72,-1,74,76,78,80,82,-1,-1,-1,-1,-1,-1,-1,-1,-1,-1,-1,-1,-1,-1,-1,-1,-1,-1,-1,-1,-1,-1,-1,-1,-1,-1,-1,-1,-1,-1,-1,-1,-1,-1,-1,-1,-1,-1],"split_conditions":[9E0,9E0,1E1,8E0,3E0,9E0,1.2901114E-1,8E0,8E0,1E0,2E0,2E0,1E1,3E0,1E0,3E0,2E0,2E0,2E0,2E0,-1.5489528E-1,2E0,2E0,1E0,-1.3459094E-1,2E0,7E0,1E0,1E0,2E0,1E0,1E0,2E0,2E0,2E0,2E0,1E0,2E0,2E0,-1.3524489E-1,3E0,2E0,1E0,2E0,1E0,-2.9731572E-2,4.0420722E-2,8.7613665E-2,1.4654249E-1,-3.669217E-3,-7.2427705E-2,-7.237344E-2,-1.3078868E-1,8.736765E-2,4.0194537E-2,-4.8284225E-2,-1.6091509E-1,-1.3691907E-1,-1.2127111E-2,3.5626793E-3,7.603321E-2,1.550438E-1,1.3154596E-1,1.3269514E-1,1.0477743E-1,1.15894854E-1,8.635102E-2,-6.9189854E-2,6.423263E-2,6.601177E-2,-1.0107495E-1,-1.3303094E-1,-1.7585913E-2,-1.0433783E-1,1.351699E-1,-1.0769726E-1,4.8741896E-2,-7.460132E-2,2.5684992E-2,-6.569193E-2,1.2847021E-2,-1.2664562E-1,3.889541E-2],"split_indices":[39,19,19,19,37,19,0,39,39,18,32,18,39,18,16,37,20,37,33,34,0,17,20,18,0,17,19,15,17,37,13,21,18,20,17,34,25,27,6,0,6,2,17,17,20,0,0,0,0,0,0,0,0,0,0,0,0,0,0,0,0,0,0,0,0,0,0,0,0,0,0,0,0,0,0,0,0,0,0,0,0,0,0],"split_type":[0,0,0,0,0,0,0,0,0,0,0,0,0,0,0,0,0,0,0,0,0,0,0,0,0,0,0,0,0,0,0,0,0,0,0,0,0,0,0,0,0,0,0,0,0,0,0,0,0,0,0,0,0,0,0,0,0,0,0,0,0,0,0,0,0,0,0,0,0,0,0,0,0,0,0,0,0,0,0,0,0,0,0],"sum_hessian":[1.742044E4,1.3020818E4,4.3996226E3,1.1586602E4,1.4342168E3,4.0062954E3,3.933271E2,5.2807744E3,6.3058267E3,1.4109587E3,2.325796E1,1.4375918E3,2.5687036E3,3.572903E3,1.7078715E3,1.7487817E3,4.557045E3,7.1328613E2,6.9767267E2,2.1591627E1,1.6663325E0,1.0699951E3,3.6759668E2,2.1196733E3,4.490301E2,3.2900295E3,2.8287366E2,9.7668146E2,7.3119E2,1.694943E3,5.3838722E1,1.2734727E3,3.2835723E3,4.471276E2,2.6615857E2,6.797705E2,1.7902119E1,1.7689714E1,3.9019127E0,7.1259644E2,3.5739868E2,2.7791818E2,8.9678505E1,1.044495E3,1.0751783E3,2.3134407E3,9.765889E2,1.504269E2,1.3244676E2,4.226475E2,5.54034E2,3.2921402E2,4.0197598E2,1.2735463E3,4.2139676E2,3.4457825E1,1.9380898E1,2.207328E2,1.0527399E3,2.6529543E3,6.306179E2,7.744907E1,3.696785E2,7.7558395E1,1.8860016E2,5.1155078E2,1.6821974E2,9.701744E0,8.200375E0,1.4799774E1,2.8899393E0,2.468954E0,1.4329584E0,3.5514017E2,2.2585166E0,2.742639E2,3.654293E0,6.368323E1,2.5995272E1,6.343991E2,4.1009592E2,5.2669674E1,1.0225087E3],"tree_param":{"num_deleted":"0","num_feature":"40","num_nodes":"83","size_leaf_vector":"1"}},{"base_weights":[2.7695447E-3,1.3021502E-1,-3.8254666E-1,5.891179E-1,1.0362386E-2,1.2094343E-1,-4.5345077E-1,-1.2928562E-1,6.734079E-1,-8.8158274E-1,8.815387E-2,-3.5289714E-1,-1.3029101E-1,7.347386E-1,-6.091903E-1,-9.281572E-1,1.0158768E0,2.4907352E-1,-2.4017331E-1,5.827232E-3,-6.341373E-1,5.06708E-1,9.813231E-1,-1.1911702E-1,-1.4760955E-1,-1.353003E-1,-8.4431046E-1,1.2244675E0,3.7524772E-1,3.0133903E-1,-1.2656434E0,-1.7031513E-1,-1.4237739E0,1.2266382E-1,-3.3752722E-1,-5.8841014E-1,-1.3662653E-1,-1.4282139E-1,5.9871465E-2,1.01098694E-1,-6.535485E-2,1.7393166E-2,-9.4630085E-2,-1.2592047E-1,-7.405131E-2,1.4263885E-1,4.306279E-2,8.1116155E-2,-2.377736E-2,5.1099014E-2,4.528698E-3,-1.431196E-1,-8.069978E-2,1.9668746E-3,-7.509322E-2,-1.171807E-1,-1.7192088E-1,-5.2626994E-2,4.5773294E-2,-4.38315E-2,-8.047214E-2],"categories":[],"categories_nodes":[],"categories_segments":[],"categories_sizes":[],"default_left":[0,0,0,0,0,0,0,0,0,0,0,0,0,0,0,0,0,0,0,0,0,0,0,0,0,0,0,0,0,0,0,0,0,0,0,0,0,0,0,0,0,0,0,0,0,0,0,0,0,0,0,0,0,0,0,0,0,0,0,0,0],"id":11,"left_children":[1,3,5,7,9,-1,11,-1,13,15,17,19,-1,21,23,25,27,29,31,33,35,37,39,41,-1,-1,43,45,47,49,51,53,55,-1,57,59,-1,-1,-1,-1,-1,-1,-1,-1,-1,-1,-1,-1,-1,-1,-1,-1,-1,-1,-1,-1,-1,-1,-1,-1,-1],"loss_changes":[8.375433E2,7.049061E2,4.7905066E2,4.2189404E2,7.052676E2,0E0,3.4625177E2,0E0,2.0032727E2,7.30011E1,4.9400458E2,3.6630917E2,0E0,1.3588403E2,4.9320988E1,2.7225952E1,2.2147274E0,4.971129E2,2.5405254E2,6.6966235E2,6.733148E1,2.2556119E2,5.712317E1,1.8470291E1,0E0,0E0,2.782486E1,1.7348099E0,1.8917198E0,3.256079E2,1.4750214E1,3.2048444E2,1.0734619E1,0E0,1.8740155E2,6.189801E1,0E0,0E0,0E0,0E0,0E0,0E0,0E0,0E0,0E0,0E0,0E0,0E0,0E0,0E0,0E0,0E0,0E0,0E0,0E0,0E0,0E0,0E0,0E0,0E0,0E0],"parents":[2147483647,0,0,1,1,2,2,3,3,4,4,6,6,8,8,9,9,10,10,11,11,13,13,14,14,15,15,16,16,17,17,18,18,19,19,20,20,21,21,22,22,23,23,26,26,27,27,28,28,29,29,30,30,31,31,32,32,34,34,35,35],"right_children":[2,4,6,8,10,-1,12,-1,14,16,18,20,-1,22,24,26,28,30,32,34,36,38,40,42,-1,-1,44,46,48,50,52,54,56,-1,58,60,-1,-1,-1,-1,-1,-1,-1,-1,-1,-1,-1,-1,-1,-1,-1,-1,-1,-1,-1,-1,-1,-1,-1,-1,-1],"split_conditions":[9E0,2E0,1E0,1E0,2E0,1.2094343E-1,1E1,-1.2928562E-1,3E0,3E0,2E0,2E0,-1.3029101E-1,2E0,8E0,8E0,2E0,3E0,2E0,1E0,2E0,1E0,3E0,1E0,-1.4760955E-1,-1.353003E-1,1E0,2E0,1E0,3E0,2E0,8E0,1E0,1.2266382E-1,2E0,1E0,-1.3662653E-1,-1.4282139E-1,5.9871465E-2,1.01098694E-1,-6.535485E-2,1.7393166E-2,-9.4630085E-2,-1.2592047E-1,-7.405131E-2,1.4263885E-1,4.306279E-2,8.1116155E-2,-2.377736E-2,5.1099014E-2,4.528698E-3,-1.431196E-1,-8.069978E-2,1.9668746E-3,-7.509322E-2,-1.171807E-1,-1.7192088E-1,-5.2626994E-2,4.5773294E-2,-4.38315E-2,-8.047214E-2],"split_indices":[39,0,0,20,20,0,39,0,38,17,38,0,0,20,39,39,26,37,37,1,38,21,37,37,0,0,21,29,2,0,14,39,1,0,20,16,0,0,0,0,0,0,0,0,0,0,0,0,0,0,0,0,0,0,0,0,0,0,0,0,0],"split_type":[0,0,0,0,0,0,0,0,0,0,0,0,0,0,0,0,0,0,0,0,0,0,0,0,0,0,0,0,0,0,0,0,0,0,0,0,0,0,0,0,0,0,0,0,0,0,0,0,0,0,0,0,0,0,0,0,0,0,0,0,0],"sum_hessian":[1.705353E4,1.281542E4,4.2381094E3,2.6530938E3,1.0162326E4,1.8002501E2,4.0580842E3,1.1311846E2,2.539975E3,8.143847E2,9.347941E3,3.629824E3,4.2826028E2,2.4244702E3,1.1550501E2,7.9537256E2,1.9012133E1,6.273444E3,3.0744978E3,1.5956003E3,2.0342236E3,1.2612117E3,1.1632585E3,7.451696E1,4.098805E1,1.286047E2,6.667678E2,1.3654754E1,5.357379E0,6.064972E3,2.0847154E2,2.904229E3,1.7026877E2,3.4969012E2,1.2459102E3,1.916337E3,1.17886635E2,5.658988E1,1.2046218E3,1.1429028E3,2.0355682E1,5.560674E1,1.8910221E1,1.3120187E2,5.35566E2,1.0250591E1,3.404163E0,2.9420764E0,2.4153025E0,3.3340845E3,2.730888E3,1.5162169E2,5.6849857E1,2.1889485E3,7.152804E2,9.457508E1,7.569369E1,1.0072041E3,2.3870613E2,1.1331133E3,7.8322375E2],"tree_param":{"num_deleted":"0","num_feature":"40","num_nodes":"61","size_leaf_vector":"1"}},{"base_weights":[-2.7080136E-3,1.15284346E-1,-3.6451837E-1,5.4029864E-3,1.0665193E0,-1.0892361E0,-2.1638324E-2,5.002864E-2,-9.0789217E-1,1.1627852E0,7.711607E-1,-1.18515E0,-8.1493247E-1,1.8582398E-1,-1.2668079E-1,2.9354432E-1,-1.435469E-1,-1.1091074E0,-5.84809E-1,1.1967105E0,-4.9611624E-2,5.7821596E-1,1.2432327E-1,-1.2052138E0,-3.0903151E-2,-6.2609345E-1,-1.2657891E-1,5.562721E-3,1.2569912E-1,8.786026E-2,7.2777486E-1,-6.3063294E-1,4.13228E-2,-1.0095764E0,-1.4266884E0,-1.3186693E-1,-1.0245534E0,1.2943268E0,9.96559E-1,-9.127824E-1,2.3572761E-1,1.2007524E-1,8.331668E-1,-1.2882653E-1,-1.0321201E0,6.556906E-1,-7.0142233E-1,-4.093505E-1,-1.0090967E0,3.6975893E-1,-3.3923417E-1,-2.3600785E-2,4.159468E-2,9.4089374E-2,2.287335E-2,-6.848149E-2,8.979938E-2,-1.2572554E-2,5.7839718E-2,-7.58088E-2,-1.2886754E-1,-1.4388207E-1,-4.4398777E-2,9.318605E-3,-1.2501995E-1,-1.282473E-1,-7.5537615E-2,1.4271572E-1,1.2609771E-1,1.2698717E-1,7.897956E-2,-1.4914809E-1,-3.461628E-2,5.596441E-2,-7.994627E-2,3.889258E-2,-6.98988E-2,1.2342973E-1,4.8349265E-2,-1.2824886E-1,-8.159287E-2,1.610793E-1,1.6988276E-2,-2.7681122E-2,-1.1292168E-1,-2.1427374E-2,-1.2815922E-1,-4.3217596E-2,-1.308267E-1,5.9425174E-3,1.0815971E-1,-5.1367342E-2,1.3434075E-1],"categories":[],"categories_nodes":[],"categories_segments":[],"categories_sizes":[],"default_left":[0,0,0,0,0,0,0,0,0,0,0,0,0,0,0,0,0,0,0,0,0,0,0,0,0,0,0,0,0,0,0,0,0,0,0,0,0,0,0,0,0,0,0,0,0,0,0,0,0,0,0,0,0,0,0,0,0,0,0,0,0,0,0,0,0,0,0,0,0,0,0,0,0,0,0,0,0,0,0,0,0,0,0,0,0,0,0,0,0,0,0,0,0],"id":12,"left_children":[1,3,5,7,9,11,13,15,17,19,21,23,25,27,-1,29,31,33,35,37,39,41,-1,43,45,47,-1,49,-1,51,53,55,57,59,61,63,65,67,69,71,73,75,77,-1,79,81,83,85,87,89,91,-1,-1,-1,-1,-1,-1,-1,-1,-1,-1,-1,-1,-1,-1,-1,-1,-1,-1,-1,-1,-1,-1,-1,-1,-1,-1,-1,-1,-1,-1,-1,-1,-1,-1,-1,-1,-1,-1,-1,-1,-1,-1],"loss_changes":[7.1892847E2,1.3273324E3,1.0290654E3,4.6405673E2,3.6492798E1,3.4027344E1,7.267231E2,5.1175894E2,3.3834442E1,4.0770752E1,2.8993942E1,2.2733765E1,2.8817673E1,4.6563293E2,0E0,4.2935522E2,5.446877E2,8.856262E0,4.0832977E1,1.7523071E1,7.0875344E0,2.7166199E1,0E0,1.2563843E1,8.666558E0,2.0099266E1,0E0,2.594549E2,0E0,3.4688828E2,1.6413068E2,1.384477E2,3.93523E2,1.667157E1,2.5904846E-1,2.5906511E1,6.26651E0,1.0526123E0,1.7081146E1,1.8241062E0,7.745657E0,1.8907616E1,2.0416084E1,0E0,1.6186981E1,4.052788E0,1.4133749E0,2.6861713E1,1.4729507E1,2.2190434E2,3.1221722E2,0E0,0E0,0E0,0E0,0E0,0E0,0E0,0E0,0E0,0E0,0E0,0E0,0E0,0E0,0E0,0E0,0E0,0E0,0E0,0E0,0E0,0E0,0E0,0E0,0E0,0E0,0E0,0E0,0E0,0E0,0E0,0E0,0E0,0E0,0E0,0E0,0E0,0E0,0E0,0E0,0E0,0E0],"parents":[2147483647,0,0,1,1,2,2,3,3,4,4,5,5,6,6,7,7,8,8,9,9,10,10,11,11,12,12,13,13,15,15,16,16,17,17,18,18,19,19,20,20,21,21,23,23,24,24,25,25,27,27,29,29,30,30,31,31,32,32,33,33,34,34,35,35,36,36,37,37,38,38,39,39,40,40,41,41,42,42,44,44,45,45,46,46,47,47,48,48,49,49,50,50],"right_children":[2,4,6,8,10,12,14,16,18,20,22,24,26,28,-1,30,32,34,36,38,40,42,-1,44,46,48,-1,50,-1,52,54,56,58,60,62,64,66,68,70,72,74,76,78,-1,80,82,84,86,88,90,92,-1,-1,-1,-1,-1,-1,-1,-1,-1,-1,-1,-1,-1,-1,-1,-1,-1,-1,-1,-1,-1,-1,-1,-1,-1,-1,-1,-1,-1,-1,-1,-1,-1,-1,-1,-1,-1,-1,-1,-1,-1,-1],"split_conditions":[9E0,9E0,9E0,3E0,2E0,2E0,1E1,8E0,1E0,3E0,2E0,3E0,2E0,1E1,-1.2668079E-1,8E0,8E0,2E0,1E0,2E0,1E0,1E0,1.2432327E-1,2E0,1E0,1E0,-1.2657891E-1,1E0,1.2569912E-1,2E0,2E0,3E0,2E0,1E0,2E0,8E0,8E0,2E0,1E0,1E0,2E0,2E0,1E0,-1.2882653E-1,1E0,1E0,1E0,2E0,1E0,1E0,2E0,-2.3600785E-2,4.159468E-2,9.4089374E-2,2.287335E-2,-6.848149E-2,8.979938E-2,-1.2572554E-2,5.7839718E-2,-7.58088E-2,-1.2886754E-1,-1.4388207E-1,-4.4398777E-2,9.318605E-3,-1.2501995E-1,-1.282473E-1,-7.5537615E-2,1.4271572E-1,1.2609771E-1,1.2698717E-1,7.897956E-2,-1.4914809E-1,-3.461628E-2,5.596441E-2,-7.994627E-2,3.889258E-2,-6.98988E-2,1.2342973E-1,4.8349265E-2,-1.2824886E-1,-8.159287E-2,1.610793E-1,1.6988276E-2,-2.7681122E-2,-1.1292168E-1,-2.1427374E-2,-1.2815922E-1,-4.3217596E-2,-1.308267E-1,5.9425174E-3,1.0815971E-1,-5.1367342E-2,1.3434075E-1],"split_indices":[39,19,19,38,38,18,39,39,36,37,18,17,38,19,0,19,19,34,16,37,6,17,0,17,13,16,0,38,0,18,37,17,18,13,32,39,19,20,38,29,34,34,37,0,18,26,7,37,37,18,18,0,0,0,0,0,0,0,0,0,0,0,0,0,0,0,0,0,0,0,0,0,0,0,0,0,0,0,0,0,0,0,0,0,0,0,0,0,0,0,0,0,0],"split_type":[0,0,0,0,0,0,0,0,0,0,0,0,0,0,0,0,0,0,0,0,0,0,0,0,0,0,0,0,0,0,0,0,0,0,0,0,0,0,0,0,0,0,0,0,0,0,0,0,0,0,0,0,0,0,0,0,0,0,0,0,0,0,0,0,0,0,0,0,0,0,0,0,0,0,0,0,0,0,0,0,0,0,0,0,0,0,0,0,0,0,0,0,0],"sum_hessian":[1.6838354E4,1.2698005E4,4.1403486E3,1.1383995E4,1.3140099E3,1.3290554E3,2.8112932E3,1.0854562E4,5.294331E2,9.887961E2,3.2521384E2,9.822706E2,3.467848E2,2.4105186E3,4.0077463E2,4.806955E3,6.047607E3,3.2474808E2,2.0468501E2,9.6189325E2,2.690282E1,2.3243721E2,9.2776634E1,9.654446E2,1.6826023E1,2.4609697E2,1.0068782E2,2.0641572E3,3.4636127E2,3.262699E3,1.5442559E3,1.6631653E3,4.3844414E3,2.5043877E2,7.430931E1,1.0146977E2,1.0321524E2,6.428843E2,3.19009E2,6.137506E0,2.0765314E1,8.362893E1,1.4880827E2,6.48059E2,3.1738556E2,8.324288E0,8.501734E0,1.5848087E2,8.76161E1,1.0038039E3,1.0603534E3,1.6420464E3,1.6206526E3,1.0815062E3,4.627496E2,1.6067657E3,5.6399513E1,3.344847E3,1.0395948E3,1.3369028E2,1.167485E2,7.29446E1,1.364709E0,8.5233986E1,1.6235792E1,5.078744E1,5.24278E1,1.2062932E2,5.2225494E2,1.3517917E2,1.8382982E2,2.2288742E0,3.908632E0,1.6166204E1,4.59911E0,6.335752E1,2.027141E1,6.812662E1,8.068165E1,1.4478256E2,1.72603E2,2.0258162E0,6.2984724E0,5.0933504E0,3.4083834E0,1.3053287E2,2.7948006E1,3.0754185E1,5.686191E1,6.998013E2,3.0400266E2,9.613817E2,9.897162E1],"tree_param":{"num_deleted":"0","num_feature":"40","num_nodes":"93","size_leaf_vector":"1"}},{"base_weights":[7.195728E-5,-3.1188673E-1,1.1470157E-1,1.22478954E-1,-4.4228545E-1,8.434342E-1,7.6617184E-3,-1.2508172E-1,-2.6831603E-1,1.2022082E-1,7.0521677E-1,-9.828288E-2,3.1124607E-1,-1.2229987E-1,-1.5250038E-1,4.145999E-1,9.056865E-1,2.7657552E-3,-7.8131765E-1,4.3052357E-1,-1.1491436E0,1.7788583E-1,-6.762483E-1,2.0491162E-2,6.256657E-1,9.857512E-1,2.727468E-1,-4.2918757E-2,8.8608253E-1,-1.1748674E0,-4.667715E-1,7.8240937E-1,1.9708645E-1,-1.4584923E-1,-7.405071E-1,1.214594E-1,3.9497367E-3,-3.6836486E-2,-8.999382E-2,-3.6928058E-2,5.262636E-2,7.5393364E-2,-4.2679463E-2,1.0063537E-1,-7.080072E-2,-1.0722602E-2,6.903481E-2,-3.136173E-2,1.3396761E-2,1.0417682E-1,4.1471705E-2,-1.3666295E-1,-9.570009E-2,-2.3968998E-2,-1.01634994E-1,1.1937431E-1,4.5126896E-2,3.609777E-3,1.224991E-1,-4.6675254E-2,-1.2472737E-1],"categories":[],"categories_nodes":[],"categories_segments":[],"categories_sizes":[],"default_left":[0,0,0,0,0,0,0,0,0,0,0,0,0,0,0,0,0,0,0,0,0,0,0,0,0,0,0,0,0,0,0,0,0,0,0,0,0,0,0,0,0,0,0,0,0,0,0,0,0,0,0,0,0,0,0,0,0,0,0,0,0],"id":13,"left_children":[1,3,5,-1,7,9,11,-1,13,-1,15,17,19,-1,21,23,25,27,29,31,33,35,37,39,41,43,45,47,49,51,53,55,57,-1,59,-1,-1,-1,-1,-1,-1,-1,-1,-1,-1,-1,-1,-1,-1,-1,-1,-1,-1,-1,-1,-1,-1,-1,-1,-1,-1],"loss_changes":[5.885653E2,8.8676733E2,9.3885736E2,0E0,5.732048E2,7.5593506E1,3.3760458E2,0E0,3.7096332E2,0E0,6.45968E1,5.370602E2,4.735051E2,0E0,5.1833044E2,3.8009552E1,3.3132874E1,2.7361392E2,1.23588745E2,2.0611954E2,2.4873627E1,2.635254E2,7.94621E1,3.1825516E1,4.050226E1,2.1116882E1,1.2037741E1,3.087423E2,2.4036713E1,1.727533E1,6.951981E1,1.358277E2,2.499967E2,0E0,1.1971645E1,0E0,0E0,0E0,0E0,0E0,0E0,0E0,0E0,0E0,0E0,0E0,0E0,0E0,0E0,0E0,0E0,0E0,0E0,0E0,0E0,0E0,0E0,0E0,0E0,0E0,0E0],"parents":[2147483647,0,0,1,1,2,2,4,4,5,5,6,6,8,8,10,10,11,11,12,12,14,14,15,15,16,16,17,17,18,18,19,19,20,20,21,21,22,22,23,23,24,24,25,25,26,26,27,27,28,28,29,29,30,30,31,31,32,32,34,34],"right_children":[2,4,6,-1,8,10,12,-1,14,-1,16,18,20,-1,22,24,26,28,30,32,34,36,38,40,42,44,46,48,50,52,54,56,58,-1,60,-1,-1,-1,-1,-1,-1,-1,-1,-1,-1,-1,-1,-1,-1,-1,-1,-1,-1,-1,-1,-1,-1,-1,-1,-1,-1],"split_conditions":[2E0,1E0,2E0,1.22478954E-1,1E0,1E0,2E0,-1.2508172E-1,1E0,1.2022082E-1,1E0,2E0,3E0,-1.2229987E-1,2E0,1E0,9E0,3E0,8E0,2E0,8E0,1E0,1E0,1E0,2E0,3E0,1E0,8E0,8E0,3E0,3E0,8E0,3E0,-1.4584923E-1,1E0,1.214594E-1,3.9497367E-3,-3.6836486E-2,-8.999382E-2,-3.6928058E-2,5.262636E-2,7.5393364E-2,-4.2679463E-2,1.0063537E-1,-7.080072E-2,-1.0722602E-2,6.903481E-2,-3.136173E-2,1.3396761E-2,1.0417682E-1,4.1471705E-2,-1.3666295E-1,-9.570009E-2,-2.3968998E-2,-1.01634994E-1,1.1937431E-1,4.5126896E-2,3.609777E-3,1.224991E-1,-4.6675254E-2,-1.2472737E-1],"split_indices":[20,0,0,0,21,1,17,0,20,0,21,37,37,0,0,22,39,18,19,37,19,1,1,36,22,37,36,19,39,20,0,39,17,0,2,0,0,0,0,0,0,0,0,0,0,0,0,0,0,0,0,0,0,0,0,0,0,0,0,0,0],"split_type":[0,0,0,0,0,0,0,0,0,0,0,0,0,0,0,0,0,0,0,0,0,0,0,0,0,0,0,0,0,0,0,0,0,0,0,0,0,0,0,0,0,0,0,0,0,0,0,0,0,0,0,0,0,0,0,0,0,0,0,0,0],"sum_hessian":[1.6456896E4,4.4217114E3,1.2035186E4,3.452101E2,4.0765015E3,1.5405006E3,1.0494685E4,7.207215E2,3.35578E3,4.2628525E2,1.1142153E3,7.7802246E3,2.7144597E3,3.620227E2,2.9937573E3,4.5609372E2,6.581216E2,6.778417E3,1.0018078E3,2.5101482E3,2.0431148E2,1.836152E3,1.1576053E3,1.5945375E2,2.9663995E2,5.83725E2,7.439663E1,6.445987E3,3.324304E2,4.438021E2,5.580057E2,1.00015356E3,1.5099948E3,1.14820274E2,8.94912E1,2.1532362E2,1.6208284E3,4.882423E2,6.69363E2,9.020638E1,6.924736E1,2.6466742E2,3.197253E1,5.7711096E2,6.6140156E0,3.934243E1,3.5054203E1,2.5471602E3,3.8988264E3,2.4898419E2,8.3446205E1,2.3323781E2,2.1056429E2,3.95871E2,1.6213467E2,4.4490253E2,5.5525104E2,1.3064204E3,2.0357428E2,5.935095E1,3.014026E1],"tree_param":{"num_deleted":"0","num_feature":"40","num_nodes":"61","size_leaf_vector":"1"}},{"base_weights":[-4.9942953E-4,1.04065776E-1,-3.3411542E-1,6.068506E-3,1.0166537E0,-1.051893E0,-2.7362944E-3,-3.4907695E-2,8.775147E-1,1.0282598E0,-6.4661956E-1,-1.1351941E0,-8.0940384E-1,1.8270539E-1,-1.223043E-1,-6.51661E-2,1.1824002E0,1.1004825E0,6.488077E-1,9.242865E-1,1.1816927E0,-1.3684895E0,3.880498E-1,-1.2466752E-1,-9.2182153E-1,-8.37143E-1,7.914499E-1,2.2324173E-2,1.22334085E-1,-2.9489654E-1,1.133445E-1,1.399371E-1,9.7307426E-1,1.2648664E0,8.9410764E-1,5.1334247E-2,1.2578928E0,9.5160556E-1,-1.4168421E-2,1.0697193E0,1.2490767E0,-1.6868447E-1,-4.435136E-2,-2.351495E-2,8.6835675E-2,-9.4204026E-1,1.1671277E0,-8.5055697E-1,1.484363E-1,1.480959E-1,1.4277825E-1,-2.5204173E-1,3.024346E-1,-1.1488933E-2,-6.94524E-2,5.6281675E-2,-5.845433E-3,1.2231057E-1,6.430135E-2,1.4530739E-1,1.138181E-1,3.8674857E-2,1.2635326E-1,-2.1297228E-2,1.24978974E-1,1.4200042E-1,1.0576526E-1,9.707385E-2,-3.7900347E-3,-7.625561E-2,8.028954E-2,1.08877696E-1,2.6905683E-3,1.2522592E-1,1.8554099E-2,-9.711018E-2,2.3439778E-2,1.493278E-1,3.766508E-2,-8.654741E-2,9.584029E-2,-5.895902E-2,1.1129051E-1,-5.2872278E-2,1.7165877E-2,-1.1766537E-1,3.7066035E-2],"categories":[],"categories_nodes":[],"categories_segments":[],"categories_sizes":[],"default_left":[0,0,0,0,0,0,0,0,0,0,0,0,0,0,0,0,0,0,0,0,0,0,0,0,0,0,0,0,0,0,0,0,0,0,0,0,0,0,0,0,0,0,0,0,0,0,0,0,0,0,0,0,0,0,0,0,0,0,0,0,0,0,0,0,0,0,0,0,0,0,0,0,0,0,0,0,0,0,0,0,0,0,0,0,0,0,0],"id":14,"left_children":[1,3,5,7,9,11,13,15,17,19,21,23,25,27,-1,29,31,33,35,37,39,41,43,-1,45,47,49,51,-1,53,55,-1,57,59,61,63,65,67,69,71,73,-1,-1,-1,-1,75,77,79,-1,81,-1,83,85,-1,-1,-1,-1,-1,-1,-1,-1,-1,-1,-1,-1,-1,-1,-1,-1,-1,-1,-1,-1,-1,-1,-1,-1,-1,-1,-1,-1,-1,-1,-1,-1,-1,-1],"loss_changes":[5.661065E2,1.1049524E3,9.211095E2,3.984776E2,2.3793457E1,2.378833E1,5.999976E2,3.9265747E2,2.4841736E1,1.7894897E1,7.190605E0,2.044751E1,1.47052765E1,3.841124E2,0E0,4.2655502E2,1.0381256E1,7.4290466E0,9.085054E1,1.8319641E1,2.2640991E0,8.634901E-1,1.5342054E0,0E0,1.4421204E1,1.0957581E1,2.204049E0,1.5342056E2,0E0,3.2709326E2,4.520314E2,0E0,1.0344421E1,1.6373901E0,2.1119133E1,4.0544765E1,2.5125885E0,1.3172791E1,1.356544E1,3.6717987E0,7.5567627E-1,0E0,0E0,0E0,0E0,1.092688E1,3.322301E-1,9.199448E0,0E0,3.5384219E0,0E0,1.1832082E2,1.0011378E2,0E0,0E0,0E0,0E0,0E0,0E0,0E0,0E0,0E0,0E0,0E0,0E0,0E0,0E0,0E0,0E0,0E0,0E0,0E0,0E0,0E0,0E0,0E0,0E0,0E0,0E0,0E0,0E0,0E0,0E0,0E0,0E0,0E0,0E0],"parents":[2147483647,0,0,1,1,2,2,3,3,4,4,5,5,6,6,7,7,8,8,9,9,10,10,11,11,12,12,13,13,15,15,16,16,17,17,18,18,19,19,20,20,21,21,22,22,24,24,25,25,26,26,27,27,29,29,30,30,32,32,33,33,34,34,35,35,36,36,37,37,38,38,39,39,40,40,45,45,46,46,47,47,49,49,51,51,52,52],"right_children":[2,4,6,8,10,12,14,16,18,20,22,24,26,28,-1,30,32,34,36,38,40,42,44,-1,46,48,50,52,-1,54,56,-1,58,60,62,64,66,68,70,72,74,-1,-1,-1,-1,76,78,80,-1,82,-1,84,86,-1,-1,-1,-1,-1,-1,-1,-1,-1,-1,-1,-1,-1,-1,-1,-1,-1,-1,-1,-1,-1,-1,-1,-1,-1,-1,-1,-1,-1,-1,-1,-1,-1,-1],"split_conditions":[9E0,9E0,9E0,3E0,3E0,2E0,1E1,3E0,1E0,1E0,1E0,2E0,2E0,1E1,-1.223043E-1,8E0,8E0,1E0,1E0,2E0,1E0,1E0,1E0,-1.2466752E-1,3E0,3E0,1E0,1E0,1.22334085E-1,8E0,8E0,1.399371E-1,1E0,1E0,1E0,8E0,8E0,2E0,1E0,2E0,3E0,-1.6868447E-1,-4.435136E-2,-2.351495E-2,8.6835675E-2,2E0,1E0,3E0,1.484363E-1,1E0,1.4277825E-1,2E0,1E0,-1.1488933E-2,-6.94524E-2,5.6281675E-2,-5.845433E-3,1.2231057E-1,6.430135E-2,1.4530739E-1,1.138181E-1,3.8674857E-2,1.2635326E-1,-2.1297228E-2,1.24978974E-1,1.4200042E-1,1.0576526E-1,9.707385E-2,-3.7900347E-3,-7.625561E-2,8.028954E-2,1.08877696E-1,2.6905683E-3,1.2522592E-1,1.8554099E-2,-9.711018E-2,2.3439778E-2,1.493278E-1,3.766508E-2,-8.654741E-2,9.584029E-2,-5.895902E-2,1.1129051E-1,-5.2872278E-2,1.7165877E-2,-1.1766537E-1,3.7066035E-2],"split_indices":[39,19,19,18,23,18,39,17,37,36,36,17,13,19,0,19,39,13,17,25,17,33,12,0,6,14,17,18,0,39,39,0,13,12,33,19,39,28,35,33,34,0,0,0,0,8,13,9,0,35,0,17,20,0,0,0,0,0,0,0,0,0,0,0,0,0,0,0,0,0,0,0,0,0,0,0,0,0,0,0,0,0,0,0,0,0,0],"split_type":[0,0,0,0,0,0,0,0,0,0,0,0,0,0,0,0,0,0,0,0,0,0,0,0,0,0,0,0,0,0,0,0,0,0,0,0,0,0,0,0,0,0,0,0,0,0,0,0,0,0,0,0,0,0,0,0,0,0,0,0,0,0,0,0,0,0,0,0,0,0,0,0,0,0,0,0,0,0,0,0,0,0,0,0,0,0,0],"sum_hessian":[1.6225969E4,1.2354415E4,3.8715544E3,1.1157306E4,1.1971088E3,1.2221545E3,2.6494E3,1.0657156E4,5.001493E2,1.1891925E3,7.91631E0,9.069227E2,3.1523187E2,2.300638E3,3.4876196E2,1.0399602E4,2.575546E2,2.5132217E2,2.4882713E2,7.130322E2,4.7616022E2,4.472967E0,3.4433422E0,5.925104E2,3.1441235E2,3.1033157E2,4.900279E0,1.9943007E3,3.0633722E2,4.5471245E3,5.8524775E3,1.2367634E2,1.3387825E2,1.3703818E2,1.1428399E2,1.2615826E2,1.2266888E2,6.9284894E2,2.0183317E1,1.8523193E2,2.9092828E2,2.7148993E0,1.7580681E0,1.720895E0,1.7224472E0,3.1194214E2,2.4702258E0,3.091787E2,1.1528571E0,3.049681E0,1.850598E0,1.0075317E3,9.86769E2,3.1358894E3,1.411235E3,1.6177444E3,4.2347334E3,7.463455E1,5.9243702E1,5.091999E1,8.6118195E1,4.9014965E1,6.526903E1,1.0403643E2,2.2121826E1,6.44222E1,5.8246674E1,6.797248E2,1.3124146E1,1.0569198E1,9.61412E0,1.8186424E2,3.3676922E0,2.8988345E2,1.0448389E0,3.0459232E2,7.349808E0,1.119313E0,1.3509128E0,3.0716733E2,2.0114098E0,1.9486568E0,1.1010242E0,6.093631E2,3.9816858E2,4.2793262E1,9.439757E2],"tree_param":{"num_deleted":"0","num_feature":"40","num_nodes":"87","size_leaf_vector":"1"}},{"base_weights":[7.9655746E-4,9.803422E-2,-3.1753194E-1,7.986754E-3,9.795301E-1,-9.9609345E-1,-1.4843767E-2,1.720859E-1,-2.6583734E-1,1.0966148E0,6.3540727E-1,-1.1013325E0,-7.031371E-1,1.5550604E-1,-1.1979073E-1,4.6671625E-2,7.4781525E-1,-4.0896708E-1,7.79165E-1,1.2213769E-1,8.6798984E-1,4.3225676E-1,1.18246235E-1,-1.1244935E0,2.9090008E-2,-5.1301664E-1,-1.1979431E-1,6.8672467E-3,1.19994536E-1,1.04749225E-1,-1.1524249E0,4.952968E-1,1.3308184E0,-1.8444933E-1,-8.461995E-1,6.696986E-1,1.2603493E-1,8.893143E-1,-1.069294E0,-5.0593663E-2,7.124227E-1,-1.21686615E-1,-9.3706936E-1,6.6327226E-1,-6.390866E-1,-6.2228095E-2,-7.320266E-1,8.552698E-2,-1.3803379E-1,-1.0452351E-2,4.4125628E-2,-1.284755E-1,-7.869243E-2,9.423141E-2,-2.0127381E-4,1.4859357E-1,7.851081E-2,-4.1733515E-2,2.8621918E-2,-1.3794866E-1,-6.0752362E-2,9.435707E-2,2.1463072E-2,9.15722E-2,-2.8861111E-2,-1.6109662E-1,-2.4752637E-2,2.049804E-2,-7.8452416E-2,1.18809186E-1,3.272342E-2,-1.2161962E-1,-7.077478E-2,1.0610425E-1,-4.462103E-2,3.2649294E-2,-8.665287E-2,-3.354396E-2,8.512633E-2,-1.253749E-1,-2.9914154E-2,-2.5270326E-2,4.6579093E-2],"categories":[],"categories_nodes":[],"categories_segments":[],"categories_sizes":[],"default_left":[0,0,0,0,0,0,0,0,0,0,0,0,0,0,0,0,0,0,0,0,0,0,0,0,0,0,0,0,0,0,0,0,0,0,0,0,0,0,0,0,0,0,0,0,0,0,0,0,0,0,0,0,0,0,0,0,0,0,0,0,0,0,0,0,0,0,0,0,0,0,0,0,0,0,0,0,0,0,0,0,0,0,0],"id":15,"left_children":[1,3,5,7,9,11,13,15,17,19,21,23,25,27,-1,29,31,33,35,-1,37,39,-1,41,43,45,-1,47,-1,49,51,53,55,57,59,61,-1,63,65,67,69,-1,71,73,75,77,79,81,-1,-1,-1,-1,-1,-1,-1,-1,-1,-1,-1,-1,-1,-1,-1,-1,-1,-1,-1,-1,-1,-1,-1,-1,-1,-1,-1,-1,-1,-1,-1,-1,-1,-1,-1],"loss_changes":[4.9114658E2,9.647715E2,7.6255615E2,4.9562375E2,4.469275E1,3.4534424E1,5.178248E2,4.979444E2,6.1852106E2,2.2875916E1,3.1536148E1,2.2046814E1,2.8119736E1,3.4868295E2,0E0,3.9457974E2,1.8094525E2,3.567694E2,2.5400665E1,0E0,1.3332825E1,2.8695248E1,0E0,1.3124756E1,7.990373E0,2.1912476E1,0E0,2.1478008E2,0E0,3.8056683E2,1.1649078E1,1.9170522E2,3.0342041E1,2.6358392E2,1.561413E2,5.0652115E1,0E0,9.502945E0,1.2559075E0,1.492709E1,2.4187027E1,0E0,1.6829819E1,4.732995E0,2.3043122E0,1.870844E1,3.3410248E1,2.3968416E2,0E0,0E0,0E0,0E0,0E0,0E0,0E0,0E0,0E0,0E0,0E0,0E0,0E0,0E0,0E0,0E0,0E0,0E0,0E0,0E0,0E0,0E0,0E0,0E0,0E0,0E0,0E0,0E0,0E0,0E0,0E0,0E0,0E0,0E0,0E0],"parents":[2147483647,0,0,1,1,2,2,3,3,4,4,5,5,6,6,7,7,8,8,9,9,10,10,11,11,12,12,13,13,15,15,16,16,17,17,18,18,20,20,21,21,23,23,24,24,25,25,27,27,29,29,30,30,31,31,32,32,33,33,34,34,35,35,37,37,38,38,39,39,40,40,42,42,43,43,44,44,45,45,46,46,47,47],"right_children":[2,4,6,8,10,12,14,16,18,20,22,24,26,28,-1,30,32,34,36,-1,38,40,-1,42,44,46,-1,48,-1,50,52,54,56,58,60,62,-1,64,66,68,70,-1,72,74,76,78,80,82,-1,-1,-1,-1,-1,-1,-1,-1,-1,-1,-1,-1,-1,-1,-1,-1,-1,-1,-1,-1,-1,-1,-1,-1,-1,-1,-1,-1,-1,-1,-1,-1,-1,-1,-1],"split_conditions":[9E0,9E0,9E0,2E0,2E0,2E0,1E1,2E0,3E0,2E0,2E0,3E0,2E0,1E1,-1.1979073E-1,3E0,8E0,8E0,8E0,1.2213769E-1,3E0,1E0,1.18246235E-1,2E0,1E0,1E0,-1.1979431E-1,2E0,1.19994536E-1,2E0,2E0,8E0,2E0,8E0,2E0,8E0,1.2603493E-1,2E0,1E0,2E0,1E0,-1.21686615E-1,1E0,2E0,1E0,2E0,1E0,1E0,-1.3803379E-1,-1.0452351E-2,4.4125628E-2,-1.284755E-1,-7.869243E-2,9.423141E-2,-2.0127381E-4,1.4859357E-1,7.851081E-2,-4.1733515E-2,2.8621918E-2,-1.3794866E-1,-6.0752362E-2,9.435707E-2,2.1463072E-2,9.15722E-2,-2.8861111E-2,-1.6109662E-1,-2.4752637E-2,2.049804E-2,-7.8452416E-2,1.18809186E-1,3.272342E-2,-1.2161962E-1,-7.077478E-2,1.0610425E-1,-4.462103E-2,3.2649294E-2,-8.665287E-2,-3.354396E-2,8.512633E-2,-1.253749E-1,-2.9914154E-2,-2.5270326E-2,4.6579093E-2],"split_indices":[39,19,19,38,38,18,39,18,18,37,18,17,38,19,0,37,19,39,19,0,29,17,0,17,13,37,0,38,0,17,14,39,37,19,18,39,0,28,14,34,37,0,18,29,29,9,17,18,0,0,0,0,0,0,0,0,0,0,0,0,0,0,0,0,0,0,0,0,0,0,0,0,0,0,0,0,0,0,0,0,0,0,0],"split_type":[0,0,0,0,0,0,0,0,0,0,0,0,0,0,0,0,0,0,0,0,0,0,0,0,0,0,0,0,0,0,0,0,0,0,0,0,0,0,0,0,0,0,0,0,0,0,0,0,0,0,0,0,0,0,0,0,0,0,0,0,0,0,0,0,0,0,0,0,0,0,0,0,0,0,0,0,0,0,0,0,0,0,0],"sum_hessian":[1.5865224E4,1.2153476E4,3.711748E3,1.1027946E4,1.1255289E3,1.1442642E3,2.567484E3,6.8957725E3,4.1321733E3,8.381643E2,2.873647E2,8.3981647E2,3.0444772E2,2.245082E3,3.2240176E2,5.6632065E3,1.2325662E3,3.6349216E3,4.972518E2,5.394441E2,2.9872018E2,2.1085368E2,7.651098E1,8.2296027E2,1.6856192E1,2.2141118E2,8.303654E1,1.9662614E3,2.7882083E2,5.402454E3,2.6075232E2,8.613401E2,3.7122607E2,2.4026096E3,1.232312E3,4.0704364E2,9.0208145E1,2.960029E2,2.7172713E0,7.772258E1,1.331311E2,5.4758734E2,2.7537292E2,8.651853E0,8.204339E0,7.2816666E1,1.4859451E2,1.8616378E3,1.046235E2,3.3313728E3,2.0710813E3,1.8959433E2,7.1158005E1,4.5313513E2,4.08205E2,2.877194E2,8.350667E1,1.6073899E3,7.9521985E2,3.7952905E2,8.5278296E2,2.5344196E2,1.536017E2,2.897301E2,6.2728114E0,1.0589151E0,1.6583562E0,5.8182575E1,1.9540007E1,5.86365E1,7.4494606E1,1.2225839E2,1.5311453E2,6.400731E0,2.2511215E0,1.4810805E0,6.723258E0,5.6539387E1,1.6277283E1,6.652314E1,8.2071365E1,9.8545166E2,8.7618616E2],"tree_param":{"num_deleted":"0","num_feature":"40","num_nodes":"83","size_leaf_vector":"1"}},{"base_weights":[4.0885145E-3,2.684186E-2,-1.17696084E-1,-7.50477E-2,4.0395942E-1,1.1013682E-2,-9.611162E-1,9.267595E-1,1.5234026E-1,3.648903E-2,-1.0677798E0,-1.073232E0,-6.569887E-1,9.500269E-1,-8.062739E-2,1.7405732E-2,1.17886364E-1,-7.9768926E-2,3.827999E-1,-1.3120688E-1,-8.4977525E-1,-1.1908547E-1,-8.57865E-1,-7.026269E-1,7.5189525E-1,8.352652E-1,1.1161181E0,-3.699169E-1,8.2384723E-1,-3.86223E-2,1.275891E-1,1.684602E-3,-7.196606E-2,7.154249E-2,1.7036883E-2,-5.82284E-2,-1.3008775E-1,-8.968304E-2,6.02591E-2,-5.0862033E-2,-1.0475297E-1,1.4021689E-1,-1.4049249E-2,3.8720574E-2,9.0806045E-2,9.938202E-2,1.1893582E-1,-1.5113554E-2,-1.18340135E-1,1.1612326E-1,7.279195E-3,1.16342045E-1,-8.054684E-3],"categories":[],"categories_nodes":[],"categories_segments":[],"categories_sizes":[],"default_left":[0,0,0,0,0,0,0,0,0,0,0,0,0,0,0,0,0,0,0,0,0,0,0,0,0,0,0,0,0,0,0,0,0,0,0,0,0,0,0,0,0,0,0,0,0,0,0,0,0,0,0,0,0],"id":16,"left_children":[1,3,-1,5,7,9,11,13,15,17,19,21,23,25,27,29,-1,31,33,-1,35,-1,37,39,41,43,45,47,49,51,-1,-1,-1,-1,-1,-1,-1,-1,-1,-1,-1,-1,-1,-1,-1,-1,-1,-1,-1,-1,-1,-1,-1],"loss_changes":[4.1843945E2,5.870241E2,0E0,9.172187E2,4.2733795E2,3.0136237E2,3.560309E1,2.4820496E1,3.0401477E2,4.3131717E2,1.2357452E1,1.8647217E1,1.9135918E1,1.8736755E1,6.7816706E0,1.3690979E2,0E0,4.9587604E2,1.9012778E2,0E0,1.5715462E1,0E0,1.6351486E1,1.8258453E1,5.7465196E0,1.968219E1,2.5681763E0,3.281897E0,1.51402E0,9.379008E1,0E0,0E0,0E0,0E0,0E0,0E0,0E0,0E0,0E0,0E0,0E0,0E0,0E0,0E0,0E0,0E0,0E0,0E0,0E0,0E0,0E0,0E0,0E0],"parents":[2147483647,0,0,1,1,3,3,4,4,5,5,6,6,7,7,8,8,9,9,10,10,11,11,12,12,13,13,14,14,15,15,17,17,18,18,20,20,22,22,23,23,24,24,25,25,26,26,27,27,28,28,29,29],"right_children":[2,4,-1,6,8,10,12,14,16,18,20,22,24,26,28,30,-1,32,34,-1,36,-1,38,40,42,44,46,48,50,52,-1,-1,-1,-1,-1,-1,-1,-1,-1,-1,-1,-1,-1,-1,-1,-1,-1,-1,-1,-1,-1,-1,-1],"split_conditions":[1E1,9E0,-1.17696084E-1,9E0,9E0,3E0,2E0,3E0,1E1,2E0,8E0,2E0,3E0,1E0,2E0,2E0,1.17886364E-1,2E0,2E0,-1.3120688E-1,1E0,-1.1908547E-1,2E0,1E0,1E0,1E0,1E0,2E0,1E0,1E0,1.275891E-1,1.684602E-3,-7.196606E-2,7.154249E-2,1.7036883E-2,-5.82284E-2,-1.3008775E-1,-8.968304E-2,6.02591E-2,-5.0862033E-2,-1.0475297E-1,1.4021689E-1,-1.4049249E-2,3.8720574E-2,9.0806045E-2,9.938202E-2,1.1893582E-1,-1.5113554E-2,-1.18340135E-1,1.1612326E-1,7.279195E-3,1.16342045E-1,-8.054684E-3],"split_indices":[39,19,0,39,39,37,18,37,19,17,19,17,0,36,6,18,0,37,37,0,13,0,8,16,11,37,17,34,4,0,0,0,0,0,0,0,0,0,0,0,0,0,0,0,0,0,0,0,0,0,0,0,0],"split_type":[0,0,0,0,0,0,0,0,0,0,0,0,0,0,0,0,0,0,0,0,0,0,0,0,0,0,0,0,0,0,0,0,0,0,0,0,0,0,0,0,0,0,0,0,0,0,0,0,0,0,0,0,0],"sum_hessian":[1.5568925E4,1.5275611E4,2.9331296E2,1.2026969E4,3.2486433E3,1.0963137E4,1.0638317E3,1.0546559E3,2.1939875E3,1.0711162E4,2.5197433E2,7.754389E2,2.883927E2,1.0309022E3,2.3753647E1,1.9399958E3,2.5399178E2,8.01969E3,2.6914724E3,1.16457344E2,1.3551698E2,4.985996E2,2.768393E2,2.7982944E2,8.563262E0,6.132217E2,4.1768054E2,1.8445126E1,5.3085213E0,1.8582361E3,8.175975E1,6.9685127E3,1.051177E3,1.0480564E3,1.6434161E3,8.650983E1,4.900716E1,2.70021E2,6.818319E0,1.8067508E2,9.9154366E1,4.623159E0,3.940103E0,8.658769E1,5.26634E2,1.6190222E2,2.5577832E2,1.5470282E1,2.974843E0,3.2861836E0,2.022338E0,6.1725254E1,1.7965109E3],"tree_param":{"num_deleted":"0","num_feature":"40","num_nodes":"53","size_leaf_vector":"1"}},{"base_weights":[-7.976086E-3,1.2605449E-2,-1.15670554E-1,-7.3667746E-3,1.019737E0,8.916613E-2,-2.9997903E-1,1.310453E-1,8.228676E-1,1.31356735E-2,6.048714E-1,-5.694486E-1,-1.23588555E-1,6.8323725E-1,1.3178593E-1,-2.4896596E-2,7.436825E-1,9.9430937E-1,4.107035E-1,-7.6960605E-1,-3.6935154E-1,-2.163112E-1,1.356133E0,1.034592E0,4.239798E-1,-5.9747766E-3,6.6327356E-2,9.657101E-2,5.2312274E-2,1.7348312E-1,9.2782326E-2,6.3341364E-2,1.6043883E-2,-9.080285E-2,-5.918745E-2,-2.9314226E-2,-7.373561E-2,-8.942916E-3,-9.66331E-2,1.5526131E-1,1.0914462E-1,6.47628E-2,1.288909E-1,7.214016E-2,1.1351726E-2],"categories":[],"categories_nodes":[],"categories_segments":[],"categories_sizes":[],"default_left":[0,0,0,0,0,0,0,0,0,0,0,0,0,0,0,0,0,0,0,0,0,0,0,0,0,0,0,0,0,0,0,0,0,0,0,0,0,0,0,0,0,0,0,0,0],"id":17,"left_children":[1,3,-1,5,7,9,11,-1,13,15,17,19,21,23,-1,25,27,29,31,33,35,37,39,41,43,-1,-1,-1,-1,-1,-1,-1,-1,-1,-1,-1,-1,-1,-1,-1,-1,-1,-1,-1,-1],"loss_changes":[3.6333148E2,3.0368945E2,0E0,4.1821826E2,1.5724243E1,4.3651532E2,1.74505E2,0E0,1.1383675E1,2.6962985E2,1.07756714E2,5.789981E1,3.0503015E2,1.2378235E1,0E0,2.2127576E2,2.3010803E1,2.178711E1,5.3195526E1,1.7307556E1,2.0212341E1,1.9889653E2,5.1237183E0,4.97612E0,7.5505295E0,0E0,0E0,0E0,0E0,0E0,0E0,0E0,0E0,0E0,0E0,0E0,0E0,0E0,0E0,0E0,0E0,0E0,0E0,0E0,0E0],"parents":[2147483647,0,0,1,1,3,3,4,4,5,5,6,6,8,8,9,9,10,10,11,11,12,12,13,13,15,15,16,16,17,17,18,18,19,19,20,20,21,21,22,22,23,23,24,24],"right_children":[2,4,-1,6,8,10,12,-1,14,16,18,20,22,24,-1,26,28,30,32,34,36,38,40,42,44,-1,-1,-1,-1,-1,-1,-1,-1,-1,-1,-1,-1,-1,-1,-1,-1,-1,-1,-1,-1],"split_conditions":[1E1,3E0,-1.15670554E-1,2E0,8E0,2E0,2E0,1.310453E-1,2E0,3E0,8E0,1E0,2E0,1E0,1.3178593E-1,2E0,1E0,7E0,1E0,1E0,1E0,3E0,1E0,1E0,1E0,-5.9747766E-3,6.6327356E-2,9.657101E-2,5.2312274E-2,1.7348312E-1,9.2782326E-2,6.3341364E-2,1.6043883E-2,-9.080285E-2,-5.918745E-2,-2.9314226E-2,-7.373561E-2,-8.942916E-3,-9.66331E-2,1.5526131E-1,1.0914462E-1,6.47628E-2,1.288909E-1,7.214016E-2,1.1351726E-2],"split_indices":[39,17,0,37,39,17,17,0,14,18,39,16,18,14,0,16,37,39,36,33,36,37,2,33,13,0,0,0,0,0,0,0,0,0,0,0,0,0,0,0,0,0,0,0,0],"split_type":[0,0,0,0,0,0,0,0,0,0,0,0,0,0,0,0,0,0,0,0,0,0,0,0,0,0,0,0,0,0,0,0,0,0,0,0,0,0,0,0,0,0,0,0,0],"sum_hessian":[1.5366037E4,1.5096545E4,2.694925E2,1.4803963E4,2.9258176E2,1.1132156E4,3.6718071E3,1.15850075E2,1.7673167E2,9.70271E3,1.4294456E3,1.4517533E3,2.220054E3,1.3970355E2,3.702813E1,9.223501E3,4.7920953E2,4.7421088E2,9.552347E2,7.243443E2,7.27409E2,2.089947E3,1.3010692E2,5.8046425E1,8.165713E1,8.779777E3,4.4372318E2,2.3712654E2,2.4208301E2,3.7001015E1,4.3720987E2,5.0463232E2,4.5060236E2,4.0489297E2,3.1945132E2,6.041031E2,1.2330589E2,1.7885024E3,3.0144458E2,7.188214E1,5.8224777E1,2.442632E1,3.3620102E1,4.102843E1,4.0628696E1],"tree_param":{"num_deleted":"0","num_feature":"40","num_nodes":"45","size_leaf_vector":"1"}},{"base_weights":[-1.4979016E-3,1.03388205E-1,-2.5459653E-1,2.750561E-2,5.8051574E-1,-3.6306813E-1,6.6699374E-1,-2.1140722E-3,1.16095975E-1,7.5046104E-1,8.4973626E-2,-6.733192E-1,-1.8142653E-1,5.594158E-1,1.2065029E-1,-3.4748685E-2,1.0138239E0,5.5245906E-1,1.239871E0,-4.5819393E-1,1.2154412E0,-5.959307E-1,-1.5151346E0,-2.2373857E-2,-8.297606E-1,8.339286E-1,2.971518E-1,-3.5566208E-1,6.857626E-2,1.1759329E0,8.244152E-1,1.1338981E-1,7.658838E-1,5.9740293E-1,1.3260856E0,-1.6921142E-1,-2.1850833E-1,1.4646035E0,9.4503903E-1,-8.083642E-1,3.4819713E-1,-1.2031684E0,-1.6191046E-1,-1.1548994E0,6.407869E-2,-6.92126E-1,-1.2140111E0,9.9093795E-1,3.2357532E-1,-3.4843436E-1,9.768599E-1,-1.19175635E-1,-1.9304397E-2,-3.3744123E-2,2.0365765E-2,1.0443796E-1,1.2580144E-1,4.7179837E-2,1.1325747E-1,-7.857268E-2,4.5729756E-2,3.8375173E-2,1.0658218E-1,9.863188E-2,-1.998379E-3,1.17990725E-1,1.6436349E-1,-4.7155544E-2,1.9091312E-2,1.1462065E-1,1.5596937E-1,5.62043E-2,1.2753977E-1,-9.666986E-2,-3.2285076E-2,4.6901847E-3,1.163217E-1,-1.2336407E-1,-3.3020873E-2,-1.6821687E-1,8.091625E-2,1.4416068E-2,-9.580524E-2,-9.8991334E-2,-9.803722E-3,-1.0907974E-1,-1.3833772E-1,1.10104896E-1,4.57236E-2,8.9680575E-2,-4.5677204E-2,-1.152355E-1,-1.6442677E-2,3.7667688E-2,1.07200205E-1],"categories":[],"categories_nodes":[],"categories_segments":[],"categories_sizes":[],"default_left":[0,0,0,0,0,0,0,0,0,0,0,0,0,0,0,0,0,0,0,0,0,0,0,0,0,0,0,0,0,0,0,0,0,0,0,0,0,0,0,0,0,0,0,0,0,0,0,0,0,0,0,0,0,0,0,0,0,0,0,0,0,0,0,0,0,0,0,0,0,0,0,0,0,0,0,0,0,0,0,0,0,0,0,0,0,0,0,0,0,0,0,0,0,0,0],"id":18,"left_children":[1,3,5,7,9,11,13,15,-1,17,19,21,23,25,-1,27,29,31,33,35,37,39,41,43,45,47,49,51,53,55,57,59,61,63,65,-1,67,69,71,73,75,77,-1,79,81,83,85,87,89,91,93,-1,-1,-1,-1,-1,-1,-1,-1,-1,-1,-1,-1,-1,-1,-1,-1,-1,-1,-1,-1,-1,-1,-1,-1,-1,-1,-1,-1,-1,-1,-1,-1,-1,-1,-1,-1,-1,-1,-1,-1,-1,-1,-1,-1],"loss_changes":[4.056169E2,3.9110455E2,4.4776532E2,3.1294794E2,1.2476614E2,2.2563165E2,2.6706818E1,3.012487E2,0E0,1.0626019E2,2.3367807E2,9.5443665E1,2.6067142E2,2.8205315E1,0E0,2.9192706E2,7.7134705E0,7.371178E1,1.6771027E1,7.568813E1,6.935837E0,2.722572E2,2.0694275E0,1.9893398E2,2.549649E1,1.5107834E1,8.971202E1,2.9130942E2,3.6534204E2,3.0619812E-1,1.4000076E1,8.037429E1,6.031067E1,9.464646E0,1.0999725E1,0E0,2.2518658E1,1.02996826E-1,7.132725E0,8.480817E1,6.1280396E1,5.197983E-1,0E0,1.5058893E2,1.5467535E2,6.518045E1,1.20401E0,8.121033E0,2.1337017E1,1.5371465E1,5.276497E0,0E0,0E0,0E0,0E0,0E0,0E0,0E0,0E0,0E0,0E0,0E0,0E0,0E0,0E0,0E0,0E0,0E0,0E0,0E0,0E0,0E0,0E0,0E0,0E0,0E0,0E0,0E0,0E0,0E0,0E0,0E0,0E0,0E0,0E0,0E0,0E0,0E0,0E0,0E0,0E0,0E0,0E0,0E0,0E0],"parents":[2147483647,0,0,1,1,2,2,3,3,4,4,5,5,6,6,7,7,9,9,10,10,11,11,12,12,13,13,15,15,16,16,17,17,18,18,19,19,20,20,21,21,22,22,23,23,24,24,25,25,26,26,27,27,28,28,29,29,30,30,31,31,32,32,33,33,34,34,36,36,37,37,38,38,39,39,40,40,41,41,43,43,44,44,45,45,46,46,47,47,48,48,49,49,50,50],"right_children":[2,4,6,8,10,12,14,16,-1,18,20,22,24,26,-1,28,30,32,34,36,38,40,42,44,46,48,50,52,54,56,58,60,62,64,66,-1,68,70,72,74,76,78,-1,80,82,84,86,88,90,92,94,-1,-1,-1,-1,-1,-1,-1,-1,-1,-1,-1,-1,-1,-1,-1,-1,-1,-1,-1,-1,-1,-1,-1,-1,-1,-1,-1,-1,-1,-1,-1,-1,-1,-1,-1,-1,-1,-1,-1,-1,-1,-1,-1,-1],"split_conditions":[2E0,2E0,3E0,1E1,2E0,2E0,8E0,3E0,1.16095975E-1,3E0,2E0,2E0,3E0,1E0,1.2065029E-1,2E0,1E0,1E0,7E0,7E0,1E0,2E0,2E0,7E0,1E0,2E0,1E0,1E0,8E0,1E0,1E0,8E0,2E0,1E0,1E0,-1.6921142E-1,8E0,2E0,1E0,9E0,3E0,2E0,-1.6191046E-1,2E0,2E0,1E0,1E0,2E0,1E0,2E0,2E0,-1.19175635E-1,-1.9304397E-2,-3.3744123E-2,2.0365765E-2,1.0443796E-1,1.2580144E-1,4.7179837E-2,1.1325747E-1,-7.857268E-2,4.5729756E-2,3.8375173E-2,1.0658218E-1,9.863188E-2,-1.998379E-3,1.17990725E-1,1.6436349E-1,-4.7155544E-2,1.9091312E-2,1.1462065E-1,1.5596937E-1,5.62043E-2,1.2753977E-1,-9.666986E-2,-3.2285076E-2,4.6901847E-3,1.163217E-1,-1.2336407E-1,-3.3020873E-2,-1.6821687E-1,8.091625E-2,1.4416068E-2,-9.580524E-2,-9.8991334E-2,-9.803722E-3,-1.0907974E-1,-1.3833772E-1,1.10104896E-1,4.57236E-2,8.9680575E-2,-4.5677204E-2,-1.152355E-1,-1.6442677E-2,3.7667688E-2,1.07200205E-1],"split_indices":[38,18,18,19,37,18,19,17,0,20,17,37,38,37,0,20,13,21,19,19,13,17,20,19,37,34,17,21,19,21,33,19,20,13,17,0,19,0,33,19,20,28,0,17,37,17,13,35,13,20,0,0,0,0,0,0,0,0,0,0,0,0,0,0,0,0,0,0,0,0,0,0,0,0,0,0,0,0,0,0,0,0,0,0,0,0,0,0,0,0,0,0,0,0,0],"split_type":[0,0,0,0,0,0,0,0,0,0,0,0,0,0,0,0,0,0,0,0,0,0,0,0,0,0,0,0,0,0,0,0,0,0,0,0,0,0,0,0,0,0,0,0,0,0,0,0,0,0,0,0,0,0,0,0,0,0,0,0,0,0,0,0,0,0,0,0,0,0,0,0,0,0,0,0,0,0,0,0,0,0,0,0,0,0,0,0,0,0,0,0,0,0,0],"sum_hessian":[1.52774795E4,1.0801742E4,4.4757373E3,9.320468E3,1.4812742E3,4.004958E3,4.7077933E2,9.084079E3,2.363891E2,1.1026185E3,3.7865558E2,1.4779143E3,2.5270437E3,3.9421072E2,7.656859E1,8.802292E3,2.8178708E2,7.865362E2,3.1608237E2,2.5616702E2,1.22488556E2,1.3550516E3,1.228627E2,2.0300547E3,4.9698898E2,1.9154259E2,2.0266815E2,2.1432388E3,6.659053E3,1.490292E2,1.3275786E2,2.5776962E2,5.287666E2,3.8335632E1,2.7774673E2,4.0680565E1,2.1548647E2,6.144948E1,6.1039074E1,1.1062775E3,2.4877419E2,3.3854168E1,8.900854E1,1.4309932E2,1.8869553E3,3.6798257E2,1.2900641E2,1.4575854E2,4.5784042E1,1.0419305E2,9.84751E1,3.479483E2,1.7952905E3,1.6620101E3,4.997043E3,6.2532024E1,8.6497185E1,6.309329E1,6.966457E1,7.0961716E1,1.8680789E2,2.3352565E2,2.9524094E2,2.3153053E1,1.5182579E1,1.9342331E2,8.432343E1,1.33082E2,8.240446E1,1.7133612E1,4.431587E1,2.9518541E1,3.1520535E1,8.3347546E2,2.72802E2,1.8240173E2,6.637245E1,3.2313053E1,1.5411154E0,1.129267E2,3.017262E1,1.7506539E3,1.3630139E2,2.4467354E2,1.2330904E2,7.898522E1,5.002119E1,1.199483E2,2.5810244E1,2.6308794E1,1.947525E1,1.8426407E1,8.576665E1,1.4153023E1,8.4322075E1],"tree_param":{"num_deleted":"0","num_feature":"40","num_nodes":"95","size_leaf_vector":"1"}},{"base_weights":[3.6151132E-3,-1.1634352E-1,2.575469E-2,3.5741988E-1,-7.633519E-2,1.1591419E-1,2.2311848E-1,-7.1383893E-1,1.0468144E-2,1.1721244E-1,1.3026087E-1,-1.1580658E-1,-5.6328547E-1,-1.254271E-1,2.0352195E-1,-1.1354368E-1,5.686105E-1,-6.9535035E-1,-1.195962E-1,-5.058914E-1,1.8769285E-1,5.0144076E-1,3.268366E-2,-1.21607244E-1,3.697805E-3,2.9823784E-2,7.671913E-2,-3.3828676E-2,-8.8487916E-2,5.0543747E-3,-1.1177104E-1,-7.170817E-2,1.1052489E-2,4.3049745E-2,4.400898E-3,1.13098815E-1,1.0373912E-2,-1.4844869E-2,2.8513191E-2],"categories":[],"categories_nodes":[],"categories_segments":[],"categories_sizes":[],"default_left":[0,0,0,0,0,0,0,0,0,0,0,0,0,0,0,0,0,0,0,0,0,0,0,0,0,0,0,0,0,0,0,0,0,0,0,0,0,0,0],"id":19,"left_children":[1,-1,3,5,7,-1,9,11,13,-1,15,-1,17,19,21,23,25,27,29,31,33,35,37,-1,-1,-1,-1,-1,-1,-1,-1,-1,-1,-1,-1,-1,-1,-1,-1],"loss_changes":[3.9100006E2,0E0,5.0287238E2,3.7611215E2,6.2843835E2,0E0,2.637931E2,9.037097E1,2.6228058E2,0E0,2.9175882E2,0E0,5.95932E1,6.9906964E2,2.1018726E2,2.9125012E2,5.215518E1,5.2799347E1,3.993256E1,3.4493768E2,1.1229011E2,3.767253E2,1.2011726E2,0E0,0E0,0E0,0E0,0E0,0E0,0E0,0E0,0E0,0E0,0E0,0E0,0E0,0E0,0E0,0E0],"parents":[2147483647,0,0,2,2,3,3,4,4,6,6,7,7,8,8,10,10,12,12,13,13,14,14,15,15,16,16,17,17,18,18,19,19,20,20,21,21,22,22],"right_children":[2,-1,4,6,8,-1,10,12,14,-1,16,-1,18,20,22,24,26,28,30,32,34,36,38,-1,-1,-1,-1,-1,-1,-1,-1,-1,-1,-1,-1,-1,-1,-1,-1],"split_conditions":[1E0,-1.1634352E-1,2E0,1E0,2E0,1.1591419E-1,1E0,1E0,3E0,1.1721244E-1,2E0,-1.1580658E-1,9E0,1E0,3E0,1E0,1E0,1E0,1E1,9E0,1E0,1E0,1E0,-1.21607244E-1,3.697805E-3,2.9823784E-2,7.671913E-2,-3.3828676E-2,-8.8487916E-2,5.0543747E-3,-1.1177104E-1,-7.170817E-2,1.1052489E-2,4.3049745E-2,4.400898E-3,1.13098815E-1,1.0373912E-2,-1.4844869E-2,2.8513191E-2],"split_indices":[20,0,0,1,20,0,0,21,20,0,20,0,19,21,0,21,21,1,39,19,1,1,36,0,0,0,0,0,0,0,0,0,0,0,0,0,0,0,0],"split_type":[0,0,0,0,0,0,0,0,0,0,0,0,0,0,0,0,0,0,0,0,0,0,0,0,0,0,0,0,0,0,0,0,0,0,0,0,0,0,0],"sum_hessian":[1.5130592E4,2.8073193E2,1.4849859E4,3.4945183E3,1.1355341E4,5.0030145E2,2.994217E3,1.3599957E3,9.995346E3,2.6582812E2,2.728389E3,3.4255432E2,1.0174414E3,5.86628E3,4.129066E3,1.7537283E3,9.746605E2,7.836264E2,2.33815E2,2.6480654E3,3.218214E3,1.5041306E3,2.6249353E3,2.098149E2,1.5439133E3,4.1378442E2,5.6087616E2,2.7268506E2,5.109413E2,2.005742E2,3.32408E1,1.9722051E3,6.758604E2,1.1956855E3,2.0225286E3,5.816135E2,9.225171E2,1.5285839E3,1.0963514E3],"tree_param":{"num_deleted":"0","num_feature":"40","num_nodes":"39","size_leaf_vector":"1"}},{"base_weights":[-2.2282093E-3,-1.1439687E-1,1.7644202E-2,3.3068702E-1,-7.653095E-2,1.1411502E-1,2.0401293E-1,-6.762141E-1,1.9156887E-3,1.1527666E-1,1.1664114E-1,-1.1411752E-1,-5.2337265E-1,-1.2769623E-1,1.8652505E-1,-1.1420208E-1,5.3713673E-1,-6.596438E-1,-7.43361E-2,-4.6365535E-1,1.4969555E-1,4.603437E-1,3.1533413E-2,-1.18952885E-1,1.753969E-3,2.6497487E-2,7.444825E-2,-2.8621828E-2,-8.60802E-2,9.982061E-3,-1.10123955E-1,-2.7596459E-2,-1.13325946E-1,-2.8431977E-3,3.2571502E-2,1.0899669E-1,9.865482E-3,1.47473235E-2,-3.5004843E-2],"categories":[],"categories_nodes":[],"categories_segments":[],"categories_sizes":[],"default_left":[0,0,0,0,0,0,0,0,0,0,0,0,0,0,0,0,0,0,0,0,0,0,0,0,0,0,0,0,0,0,0,0,0,0,0,0,0,0,0],"id":20,"left_children":[1,-1,3,5,7,-1,9,11,13,-1,15,-1,17,19,21,23,25,27,29,31,33,35,37,-1,-1,-1,-1,-1,-1,-1,-1,-1,-1,-1,-1,-1,-1,-1,-1],"loss_changes":[3.3751773E2,0E0,4.3107565E2,3.4693747E2,5.2880237E2,0E0,2.4239082E2,9.1812195E1,2.3789803E2,0E0,2.6021643E2,0E0,5.994806E1,5.4443536E2,1.7403482E2,2.4525403E2,5.3415344E1,5.6248627E1,4.113722E1,3.3173212E2,1.00351265E2,3.3744278E2,1.159553E2,0E0,0E0,0E0,0E0,0E0,0E0,0E0,0E0,0E0,0E0,0E0,0E0,0E0,0E0,0E0,0E0],"parents":[2147483647,0,0,2,2,3,3,4,4,6,6,7,7,8,8,10,10,12,12,13,13,14,14,15,15,16,16,17,17,18,18,19,19,20,20,21,21,22,22],"right_children":[2,-1,4,6,8,-1,10,12,14,-1,16,-1,18,20,22,24,26,28,30,32,34,36,38,-1,-1,-1,-1,-1,-1,-1,-1,-1,-1,-1,-1,-1,-1,-1,-1],"split_conditions":[1E0,-1.1439687E-1,2E0,1E0,2E0,1.1411502E-1,1E0,1E0,3E0,1.1527666E-1,2E0,-1.1411752E-1,9E0,1E0,3E0,1E0,1E0,1E0,1E1,3E0,8E0,1E0,2E0,-1.18952885E-1,1.753969E-3,2.6497487E-2,7.444825E-2,-2.8621828E-2,-8.60802E-2,9.982061E-3,-1.10123955E-1,-2.7596459E-2,-1.13325946E-1,-2.8431977E-3,3.2571502E-2,1.0899669E-1,9.865482E-3,1.47473235E-2,-3.5004843E-2],"split_indices":[20,0,0,1,20,0,0,21,20,0,20,0,19,21,0,21,21,1,39,0,19,1,34,0,0,0,0,0,0,0,0,0,0,0,0,0,0,0,0],"split_type":[0,0,0,0,0,0,0,0,0,0,0,0,0,0,0,0,0,0,0,0,0,0,0,0,0,0,0,0,0,0,0,0,0,0,0,0,0,0,0],"sum_hessian":[1.4873854E4,2.5348828E2,1.4620365E4,3.3805938E3,1.1239771E4,4.5587683E2,2.924717E3,1.2993448E3,9.940427E3,2.4559996E2,2.679117E3,3.1985214E2,9.7949274E2,5.84032E3,4.100107E3,1.7300723E3,9.490448E2,7.5108765E2,2.2840508E2,2.6410176E3,3.1993025E3,1.481254E3,2.6188528E3,1.8794707E2,1.5421252E3,4.1136517E2,5.376796E2,2.637993E2,4.8728836E2,1.9605766E2,3.2347412E1,2.0639126E3,5.771048E2,1.590546E3,1.6087563E3,5.397138E2,9.4154016E2,2.0090398E3,6.098131E2],"tree_param":{"num_deleted":"0","num_feature":"40","num_nodes":"39","size_leaf_vector":"1"}},{"base_weights":[-2.2374546E-4,-1.12817936E-1,1.8151844E-2,3.1791925E-1,-7.047494E-2,1.1258955E-1,1.9942524E-1,-6.392949E-1,2.0972984E-3,1.134839E-1,1.20413974E-1,-1.1259701E-1,-4.8984465E-1,-1.2160156E-1,1.723884E-1,-8.146008E-2,4.966612E-1,-2.43819E-1,-6.887605E-1,-3.5332796E-1,4.0865365E-2,2.2678733E-1,-5.252734E-1,-1.1697705E-1,4.409837E-3,6.3352525E-2,7.407255E-3,2.1132568E-2,-4.992906E-2,-8.06757E-2,1.6118458E-2,-1.535681E-1,-2.5012583E-2,-5.790894E-3,4.8702374E-2,6.5196953E-3,4.562163E-2,-3.3032306E-2,-1.2661295E-1],"categories":[],"categories_nodes":[],"categories_segments":[],"categories_sizes":[],"default_left":[0,0,0,0,0,0,0,0,0,0,0,0,0,0,0,0,0,0,0,0,0,0,0,0,0,0,0,0,0,0,0,0,0,0,0,0,0,0,0],"id":21,"left_children":[1,-1,3,5,7,-1,9,11,13,-1,15,-1,17,19,21,23,25,27,29,31,33,35,37,-1,-1,-1,-1,-1,-1,-1,-1,-1,-1,-1,-1,-1,-1,-1,-1],"loss_changes":[3.0324957E2,0E0,3.824935E2,3.143043E2,4.5871136E2,0E0,2.1170413E2,9.089703E1,2.0762971E2,0E0,2.0087491E2,0E0,4.6993362E1,2.14962E2,1.575173E2,2.3531488E2,5.3362686E1,5.038051E1,5.3515854E1,2.867619E2,1.4797562E2,1.4262923E2,4.295244E1,0E0,0E0,0E0,0E0,0E0,0E0,0E0,0E0,0E0,0E0,0E0,0E0,0E0,0E0,0E0,0E0],"parents":[2147483647,0,0,2,2,3,3,4,4,6,6,7,7,8,8,10,10,12,12,13,13,14,14,15,15,16,16,17,17,18,18,19,19,20,20,21,21,22,22],"right_children":[2,-1,4,6,8,-1,10,12,14,-1,16,-1,18,20,22,24,26,28,30,32,34,36,38,-1,-1,-1,-1,-1,-1,-1,-1,-1,-1,-1,-1,-1,-1,-1,-1],"split_conditions":[1E0,-1.12817936E-1,2E0,1E0,2E0,1.1258955E-1,1E0,1E0,1E0,1.134839E-1,2E0,-1.1259701E-1,1E0,1E0,2E0,1E0,2E0,1E0,9E0,1E0,2E0,3E0,2E0,-1.1697705E-1,4.409837E-3,6.3352525E-2,7.407255E-3,2.1132568E-2,-4.992906E-2,-8.06757E-2,1.6118458E-2,-1.535681E-1,-2.5012583E-2,-5.790894E-3,4.8702374E-2,6.5196953E-3,4.562163E-2,-3.3032306E-2,-1.2661295E-1],"split_indices":[20,0,0,1,20,0,0,21,36,0,20,0,1,35,36,21,34,2,19,34,14,20,34,0,0,0,0,0,0,0,0,0,0,0,0,0,0,0,0],"split_type":[0,0,0,0,0,0,0,0,0,0,0,0,0,0,0,0,0,0,0,0,0,0,0,0,0,0,0,0,0,0,0,0,0,0,0,0,0,0,0],"sum_hessian":[1.4628775E4,2.3352988E2,1.4395245E4,3.284228E3,1.1111018E4,4.1895996E2,2.865268E3,1.2563058E3,9.854712E3,2.2212842E2,2.6431396E3,2.9361923E2,9.626865E2,5.708421E3,4.146291E3,1.7206921E3,9.2244745E2,4.3137433E2,5.313122E2,2.3522437E3,3.3561775E3,3.8470027E3,2.992882E2,1.7712228E2,1.5435698E3,6.964036E2,2.2604385E2,1.5514426E2,2.7623007E2,4.6658746E2,6.472473E1,1.8771973E2,2.164524E3,2.7485503E3,6.07627E2,2.257966E3,1.5890364E3,2.3808414E2,6.120406E1],"tree_param":{"num_deleted":"0","num_feature":"40","num_nodes":"39","size_leaf_vector":"1"}},{"base_weights":[4.4850833E-3,9.988875E-2,-2.2385515E-1,2.189339E-1,-1.9648236E-1,-3.193618E-1,6.1387837E-1,1.3864744E-1,9.970268E-1,-8.523339E-1,7.14974E-2,-1.3738498E-1,-5.997443E-1,5.2231914E-1,1.167187E-1,2.9892903E-2,6.518333E-1,1.1678159E-1,7.108656E-1,-1.0062649E0,-3.305224E-1,1.9312875E-1,-1.1221027E-1,-3.7470523E-1,3.3248514E-1,-7.604352E-1,5.0429767E-3,7.7307546E-1,1.4896272E-1,3.3335307E-1,-1.3215196E-1,4.12797E-1,1.2456158E0,7.8764576E-1,-9.578597E-2,-1.1562034E-1,-7.447468E-1,-8.1929676E-2,-8.513948E-1,9.042181E-2,1.1408754E-1,1.3385503E-1,-5.735228E-1,-3.1879116E-2,6.9448215E-1,-1.2453502E0,-5.7002264E-1,4.6456483E-1,-1.3059829E-1,4.5436382E-1,1.2428863E-1,-1.8203914E-1,6.420884E-1,4.2932864E-2,-9.406106E-2,-7.165105E-2,2.1906372E-3,7.744596E-2,3.313838E-3,1.3820052E-1,7.638159E-2,1.144797E-1,5.072112E-2,2.8395122E-2,-8.113691E-2,-9.90515E-2,-4.9541075E-2,8.29537E-3,-1.1252695E-1,-2.7872203E-2,-1.17160454E-1,-1.9730346E-2,4.342467E-2,4.988601E-2,-6.864855E-2,-1.1748089E-1,-3.750427E-2,-8.855032E-2,2.2411518E-2,1.176332E-1,-1.3097562E-2,-1.424037E-1,-6.326423E-2,-1.14576355E-1,-3.5917614E-2,2.5743132E-2,1.1310647E-1,2.0016748E-2,1.2636347E-1,2.290325E-2,-1.122629E-1,1.12631954E-1,5.3413985E-3],"categories":[],"categories_nodes":[],"categories_segments":[],"categories_sizes":[],"default_left":[0,0,0,0,0,0,0,0,0,0,0,0,0,0,0,0,0,0,0,0,0,0,0,0,0,0,0,0,0,0,0,0,0,0,0,0,0,0,0,0,0,0,0,0,0,0,0,0,0,0,0,0,0,0,0,0,0,0,0,0,0,0,0,0,0,0,0,0,0,0,0,0,0,0,0,0,0,0,0,0,0,0,0,0,0,0,0,0,0,0,0,0,0],"id":22,"left_children":[1,3,5,7,9,11,13,15,17,19,21,23,25,27,-1,29,31,-1,33,35,37,39,-1,41,43,45,47,49,51,53,55,57,59,61,63,-1,65,67,69,71,-1,73,75,77,79,81,83,85,-1,87,-1,89,91,-1,-1,-1,-1,-1,-1,-1,-1,-1,-1,-1,-1,-1,-1,-1,-1,-1,-1,-1,-1,-1,-1,-1,-1,-1,-1,-1,-1,-1,-1,-1,-1,-1,-1,-1,-1,-1,-1,-1,-1],"loss_changes":[3.1339307E2,3.580314E2,3.39388E2,4.5210886E2,5.1119617E2,1.9412259E2,2.13871E1,3.662943E2,3.2255005E1,6.7434265E1,3.0009116E2,2.5765076E2,1.4556244E2,3.493302E1,0E0,2.664096E2,1.62379E2,0E0,1.5904404E1,2.4665833E1,2.5008318E1,1.8244666E2,0E0,1.5527274E2,1.0231488E2,1.085542E2,1.9062259E2,3.293248E1,2.486995E1,2.3099104E2,3.1797464E2,1.1253285E2,2.0557526E1,2.2803177E1,6.5084844E0,0E0,1.42187805E1,2.2837479E1,1.1127926E1,1.6757951E2,0E0,1.2976059E2,1.3127795E2,8.486782E1,1.5490836E2,3.5536194E1,1.02960266E2,3.205299E1,0E0,2.749082E1,0E0,3.5643394E1,1.7365E1,0E0,0E0,0E0,0E0,0E0,0E0,0E0,0E0,0E0,0E0,0E0,0E0,0E0,0E0,0E0,0E0,0E0,0E0,0E0,0E0,0E0,0E0,0E0,0E0,0E0,0E0,0E0,0E0,0E0,0E0,0E0,0E0,0E0,0E0,0E0,0E0,0E0,0E0,0E0,0E0],"parents":[2147483647,0,0,1,1,2,2,3,3,4,4,5,5,6,6,7,7,8,8,9,9,10,10,11,11,12,12,13,13,15,15,16,16,18,18,19,19,20,20,21,21,23,23,24,24,25,25,26,26,27,27,28,28,29,29,30,30,31,31,32,32,33,33,34,34,36,36,37,37,38,38,39,39,41,41,42,42,43,43,44,44,45,45,46,46,47,47,49,49,51,51,52,52],"right_children":[2,4,6,8,10,12,14,16,18,20,22,24,26,28,-1,30,32,-1,34,36,38,40,-1,42,44,46,48,50,52,54,56,58,60,62,64,-1,66,68,70,72,-1,74,76,78,80,82,84,86,-1,88,-1,90,92,-1,-1,-1,-1,-1,-1,-1,-1,-1,-1,-1,-1,-1,-1,-1,-1,-1,-1,-1,-1,-1,-1,-1,-1,-1,-1,-1,-1,-1,-1,-1,-1,-1,-1,-1,-1,-1,-1,-1,-1],"split_conditions":[2E0,9E0,3E0,9E0,9E0,8E0,8E0,2E0,2E0,2E0,1E1,8E0,9E0,8E0,1.167187E-1,8E0,8E0,1.1678159E-1,3E0,2E0,1E0,1E1,-1.1221027E-1,7E0,2E0,2E0,9E0,7E0,1E0,3E0,8E0,8E0,2E0,1E0,1E0,-1.1562034E-1,1E0,2E0,1E0,1E0,1.1408754E-1,3E0,2E0,1E0,3E0,2E0,8E0,2E0,-1.3059829E-1,1E0,1.2428863E-1,1E0,1E0,4.2932864E-2,-9.406106E-2,-7.165105E-2,2.1906372E-3,7.744596E-2,3.313838E-3,1.3820052E-1,7.638159E-2,1.144797E-1,5.072112E-2,2.8395122E-2,-8.113691E-2,-9.90515E-2,-4.9541075E-2,8.29537E-3,-1.1252695E-1,-2.7872203E-2,-1.17160454E-1,-1.9730346E-2,4.342467E-2,4.988601E-2,-6.864855E-2,-1.1748089E-1,-3.750427E-2,-8.855032E-2,2.2411518E-2,1.176332E-1,-1.3097562E-2,-1.424037E-1,-6.326423E-2,-1.14576355E-1,-3.5917614E-2,2.5743132E-2,1.1310647E-1,2.0016748E-2,1.2636347E-1,2.290325E-2,-1.122629E-1,1.12631954E-1,5.3413985E-3],"split_indices":[38,39,18,19,19,39,19,18,37,18,39,19,19,39,0,39,19,0,37,17,16,19,0,39,18,18,39,19,36,37,19,39,37,38,5,0,18,37,37,18,0,38,18,17,38,17,19,18,0,17,0,16,13,0,0,0,0,0,0,0,0,0,0,0,0,0,0,0,0,0,0,0,0,0,0,0,0,0,0,0,0,0,0,0,0,0,0,0,0,0,0,0,0],"split_type":[0,0,0,0,0,0,0,0,0,0,0,0,0,0,0,0,0,0,0,0,0,0,0,0,0,0,0,0,0,0,0,0,0,0,0,0,0,0,0,0,0,0,0,0,0,0,0,0,0,0,0,0,0,0,0,0,0,0,0,0,0,0,0,0,0,0,0,0,0,0,0,0,0,0,0,0,0,0,0,0,0,0,0,0,0,0,0,0,0,0,0,0,0],"sum_hessian":[1.4384034E4,1.0145619E4,4.2384155E3,7.238392E3,2.9072266E3,3.8052166E3,4.3319876E2,6.5624346E3,6.7595764E2,8.426794E2,2.0645474E3,2.3084512E3,1.4967655E3,3.733606E2,5.983819E1,5.4157793E3,1.1466555E3,4.213832E2,2.5457443E2,6.5000397E2,1.9267538E2,1.8743806E3,1.9016667E2,1.5339114E3,7.7453973E2,