{"learner":{"attributes":{"scikit_learn":"{\"_estimator_type\": \"classifier\"}"},"feature_names":[],"feature_types":[],"gradient_booster":{"model":{"gbtree_model_param":{"num_parallel_tree":"1","num_trees":"100"},"iteration_indptr":[0,1,2,3,4,5,6,7,8,9,10,11,12,13,14,15,16,17,18,19,20,21,22,23,24,25,26,27,28,29,30,31,32,33,34,35,36,37,38,39,40,41,42,43,44,45,46,47,48,49,50,51,52,53,54,55,56,57,58,59,60,61,62,63,64,65,66,67,68,69,70,71,72,73,74,75,76,77,78,79,80,81,82,83,84,85,86,87,88,89,90,91,92,93,94,95,96,97,98,99,100],"tree_info":[0,0,0,0,0,0,0,0,0,0,0,0,0,0,0,0,0,0,0,0,0,0,0,0,0,0,0,0,0,0,0,0,0,0,0,0,0,0,0,0,0,0,0,0,0,0,0,0,0,0,0,0,0,0,0,0,0,0,0,0,0,0,0,0,0,0,0,0,0,0,0,0,0,0,0,0,0,0,0,0,0,0,0,0,0,0,0,0,0,0,0,0,0,0,0,0,0,0,0,0],"trees":[{"base_weights":[1.5468176E-3,1.996774E-1,-6.364403E-2,1.8651308E-1,-7.246939E-1,-2.0788565E-2,1.6803603E0,-9.884499E-1,1.9974622E-1,8.479451E-2,-1.9931446E-1,1.9867681E-1,6.4511347E-1,-1.7082595E0,-5.3536093E-1,-2.583444E-1,7.194544E-1,1.03203185E-1,1.9929448E-1,-1.9896728E-1,-8.790143E-1,-1.5173665E-1,-2.0000406E-1,-2.025033E-3,-1.3303517E-1,5.0867856E-2,1.9891946E-1,-7.88513E-2,1.9193186E-1,-3.0726308E-2,-1.996969E-1,-1.5462555E-3,-1.9970074E-1],"categories":[],"categories_nodes":[],"categories_segments":[],"categories_sizes":[],"default_left":[0,0,0,0,0,0,0,0,0,0,0,0,0,0,0,0,0,0,0,0,0,0,0,0,0,0,0,0,0,0,0,0,0],"id":0,"left_children":[1,-1,3,5,7,9,11,13,-1,15,-1,-1,17,19,21,23,25,27,-1,-1,29,31,-1,-1,-1,-1,-1,-1,-1,-1,-1,-1,-1],"loss_changes":[7.803707E3,0E0,9.607544E3,1.3052528E4,1.145383E4,7.708132E3,1.6279756E3,4.741699E3,0E0,7.6514893E3,0E0,0E0,8.576532E2,1.3090371E3,5.0149546E3,5.8206885E3,3.2988057E3,1.3598345E3,0E0,0E0,9.1023486E2,1.7788779E3,0E0,0E0,0E0,0E0,0E0,0E0,0E0,0E0,0E0,0E0,0E0],"parents":[2147483647,0,0,2,2,3,3,4,4,5,5,6,6,7,7,9,9,12,12,13,13,14,14,15,15,16,16,17,17,20,20,21,21],"right_children":[2,-1,4,6,8,10,12,14,-1,16,-1,-1,18,20,22,24,26,28,-1,-1,30,32,-1,-1,-1,-1,-1,-1,-1,-1,-1,-1,-1],"split_conditions":[1E0,1.996774E-1,6E0,6E0,7E0,3E0,2E0,6E0,1.9974622E-1,2E0,-1.9931446E-1,1.9867681E-1,2E0,2E0,7E0,2E0,3E0,1E0,1.9929448E-1,-1.9896728E-1,2E0,2E0,-2.0000406E-1,-2.025033E-3,-1.3303517E-1,5.0867856E-2,1.9891946E-1,-7.88513E-2,1.9193186E-1,-3.0726308E-2,-1.996969E-1,-1.5462555E-3,-1.9970074E-1],"split_indices":[0,0,39,19,19,38,38,19,0,18,0,0,18,18,39,38,18,17,0,0,38,38,0,0,0,0,0,0,0,0,0,0,0],"split_type":[0,0,0,0,0,0,0,0,0,0,0,0,0,0,0,0,0,0,0,0,0,0,0,0,0,0,0,0,0,0,0,0,0],"sum_hessian":[5.999398E4,1.8972494E3,5.8096734E4,4.214774E4,1.5948995E4,3.701249E4,5.1352485E3,1.4540746E4,1.4082496E3,3.513274E4,1.8797494E3,3.9617488E3,1.1734996E3,5.6159985E3,8.924747E3,2.2803994E4,1.2328746E4,8.3774976E2,3.357499E2,4.1919985E3,1.4239996E3,7.073248E3,1.8514994E3,1.8660494E4,4.1434985E3,1.0574747E4,1.7539995E3,5.622498E2,2.754999E2,9.429997E2,4.8099985E2,6.587748E3,4.8549985E2],"tree_param":{"num_deleted":"0","num_feature":"40","num_nodes":"33","size_leaf_vector":"1"}},{"base_weights":[5.830211E-5,-1.8931536E-1,6.05389E-2,6.852121E-1,-1.7126791E-1,7.6019967E-1,-1.815663E-1,-1.134479E0,-3.5157867E-3,1.8160588E-1,6.104947E-1,-1.8851624E-1,-1.0054312E0,5.5872656E-2,-1.812504E-1,1.283672E-1,1.1430578E0,-9.397549E-1,-1.815102E-1,2.0403786E-1,-7.0854527E-1,-1.9091755E-1,2.3743702E-2,1.1960643E-1,-1.7777017E-1,-1.6793162E-1,-8.634838E-2,3.8152058E-2,-2.043966E-2,-5.7869244E-2,-1.8339011E-1],"categories":[],"categories_nodes":[],"categories_segments":[],"categories_sizes":[],"default_left":[0,0,0,0,0,0,0,0,0,0,0,0,0,0,0,0,0,0,0,0,0,0,0,0,0,0,0,0,0,0,0],"id":1,"left_children":[1,-1,3,5,7,9,-1,11,13,-1,15,-1,17,19,-1,21,23,25,-1,27,29,-1,-1,-1,-1,-1,-1,-1,-1,-1,-1],"loss_changes":[6.8486367E3,0E0,8.392995E3,2.9432783E3,6.830696E3,2.406456E3,0E0,6.055425E2,3.868208E3,0E0,3.4254277E3,0E0,2.8293213E2,3.9485454E3,0E0,1.5568455E3,9.835215E2,2.7794678E2,0E0,2.11694E3,8.260735E2,0E0,0E0,0E0,0E0,0E0,0E0,0E0,0E0,0E0,0E0],"parents":[2147483647,0,0,2,2,3,3,4,4,5,5,7,7,8,8,10,10,12,12,13,13,15,15,16,16,17,17,19,19,20,20],"right_children":[2,-1,4,6,8,10,-1,12,14,-1,16,-1,18,20,-1,22,24,26,-1,28,30,-1,-1,-1,-1,-1,-1,-1,-1,-1,-1],"split_conditions":[1E0,-1.8931536E-1,2E0,7E0,2E0,1E0,-1.815663E-1,1E0,3E0,1.8160588E-1,2E0,-1.8851624E-1,7E0,6E0,-1.812504E-1,1E0,3E0,5E0,-1.815102E-1,2E0,3E0,-1.9091755E-1,2.3743702E-2,1.1960643E-1,-1.7777017E-1,-1.6793162E-1,-8.634838E-2,3.8152058E-2,-2.043966E-2,-5.7869244E-2,-1.8339011E-1],"split_indices":[20,0,0,39,20,0,0,21,38,0,20,0,39,39,0,21,38,39,0,38,20,0,0,0,0,0,0,0,0,0,0],"split_type":[0,0,0,0,0,0,0,0,0,0,0,0,0,0,0,0,0,0,0,0,0,0,0,0,0,0,0,0,0,0,0],"sum_hessian":[5.9810066E4,1.8506063E3,5.795946E4,1.5686232E4,4.2273227E4,1.5230257E4,4.559761E2,6.2693965E3,3.6003832E4,1.889886E3,1.334037E4,9.176619E2,5.351735E3,3.4860348E4,1.1434838E3,7.002381E3,6.3379893E3,4.9521987E3,3.9953607E2,2.9201104E4,5.659243E3,3.549538E2,6.6474272E3,6.2255967E3,1.1239265E2,4.6101013E2,4.4911885E3,2.0355717E4,8.845387E3,5.0751455E3,5.8409784E2],"tree_param":{"num_deleted":"0","num_feature":"40","num_nodes":"31","size_leaf_vector":"1"}},{"base_weights":[2.547288E-4,-5.726943E-2,1.799822E-1,-2.8857273E-1,5.104622E-1,-8.8460946E-1,-1.1801603E-1,-1.7329006E-1,6.427526E-1,-9.4748235E-1,9.332204E-1,-3.1531283E-1,3.0567607E-1,4.953876E-1,1.7541032E-1,-1.27011E0,-5.402629E-1,4.786595E-1,1.2691967E0,-4.0732217E-1,1.2928104E0,2.8743077E-2,8.182662E-1,4.0136707E-1,1.819484E-1,-1.72748E-1,-1.22418284E-1,-1.7550643E-1,-3.7673954E-2,6.995961E-2,2.0815521E-2,6.5587334E-2,1.8083811E-1,-9.846994E-2,-1.3755753E-2,1.09790616E-1,1.5439714E-1,-2.6001243E-2,3.903817E-2,5.2544344E-2,1.2087985E-1,2.0182184E-4,6.8812504E-2],"categories":[],"categories_nodes":[],"categories_segments":[],"categories_sizes":[],"default_left":[0,0,0,0,0,0,0,0,0,0,0,0,0,0,0,0,0,0,0,0,0,0,0,0,0,0,0,0,0,0,0,0,0,0,0,0,0,0,0,0,0,0,0],"id":2,"left_children":[1,3,-1,5,7,9,11,-1,13,15,17,19,21,23,-1,25,27,29,31,33,35,37,39,41,-1,-1,-1,-1,-1,-1,-1,-1,-1,-1,-1,-1,-1,-1,-1,-1,-1,-1,-1],"loss_changes":[6.1613926E3,7.5740596E3,0E0,4.165914E3,4.9561694E3,1.0429434E3,2.6637246E3,0E0,2.5814062E3,1.1571934E3,4.601941E1,3.2173752E3,1.4371394E3,1.7325417E3,0E0,1.0116162E2,7.7359033E2,7.705015E0,5.6667755E1,3.2030105E3,5.591394E1,6.866007E2,4.0546094E2,1.4888201E3,0E0,0E0,0E0,0E0,0E0,0E0,0E0,0E0,0E0,0E0,0E0,0E0,0E0,0E0,0E0,0E0,0E0,0E0,0E0],"parents":[2147483647,0,0,1,1,3,3,4,4,5,5,6,6,8,8,9,9,10,10,11,11,12,12,13,13,15,15,16,16,17,17,18,18,19,19,20,20,21,21,22,22,23,23],"right_children":[2,4,-1,6,8,10,12,-1,14,16,18,20,22,24,-1,26,28,30,32,34,36,38,40,42,-1,-1,-1,-1,-1,-1,-1,-1,-1,-1,-1,-1,-1,-1,-1,-1,-1,-1,-1],"split_conditions":[3E0,6E0,1.799822E-1,2E0,1E0,2E0,2E0,-1.7329006E-1,7E0,2E0,1E0,2E0,5E0,2E0,1.7541032E-1,1E0,1E0,1E0,5E0,5E0,1E0,1E0,1E0,2E0,1.819484E-1,-1.72748E-1,-1.22418284E-1,-1.7550643E-1,-3.7673954E-2,6.995961E-2,2.0815521E-2,6.5587334E-2,1.8083811E-1,-9.846994E-2,-1.3755753E-2,1.09790616E-1,1.5439714E-1,-2.6001243E-2,3.903817E-2,5.2544344E-2,1.2087985E-1,2.0182184E-4,6.8812504E-2],"split_indices":[18,19,0,20,20,17,18,0,19,18,18,17,19,18,0,20,20,11,19,19,18,36,36,20,0,0,0,0,0,0,0,0,0,0,0,0,0,0,0,0,0,0,0],"split_type":[0,0,0,0,0,0,0,0,0,0,0,0,0,0,0,0,0,0,0,0,0,0,0,0,0,0,0,0,0,0,0,0,0,0,0,0,0,0,0,0,0,0,0],"sum_hessian":[5.9517676E4,5.767503E4,1.8426459E3,4.0979707E4,1.669532E4,9.1165E3,3.1863209E4,9.2902014E2,1.5766301E4,8.812193E3,3.0430655E2,2.1739998E4,1.012321E4,1.3921728E4,1.8445736E3,4.915596E3,3.8965977E3,1.3036002E2,1.7394653E2,2.056416E4,1.1758387E3,6.57308E3,3.5501296E3,1.2999939E4,9.21788E2,4.4521982E2,4.4703765E3,4.6113452E2,3.4354631E3,7.088106E1,5.9478954E1,8.241533E1,9.1531204E1,6.5476265E3,1.4016533E4,6.650907E2,5.1074805E2,3.6549856E3,2.9180945E3,2.030213E3,1.5199167E3,5.4337383E3,7.566201E3],"tree_param":{"num_deleted":"0","num_feature":"40","num_nodes":"43","size_leaf_vector":"1"}},{"base_weights":[1.305221E-3,1.9148278E-1,-4.9002677E-1,8.026908E-3,1.4413477E0,-7.479721E-1,1.6326497E-1,9.489145E-2,-1.6904616E-1,1.7134503E-1,6.4186853E-1,-1.4486821E0,-3.367303E-1,4.7891527E-1,-1.9954643E-1,2.948625E-1,1.6732275E-1,-1.7031907E0,-1.1980674E0,-1.744411E-2,-1.6795757E0,1.7838717E-1,1.0704277E0,-8.1122005E-1,3.700192E-2,1.5817289E-1,9.448728E-2,-1.703894E-1,-7.860882E-1,-1.0381098E0,-1.6962408E-1,9.527966E-2,-1.7218901E-1,-1.6268747E-1,-1.7288135E-1,2.7512958E-2,-1.6927904E-1,1.4502096E-1,6.1332323E-2,-1.5947336E-1,-5.4615576E-2,2.2142988E-2,-5.0317794E-2,-2.422359E-2,6.8771906E-2,-6.2835203E-3,-1.0892878E-1,-6.576271E-2,-1.4270271E-1,1.6517793E-1,-1.5898263E-3],"categories":[],"categories_nodes":[],"categories_segments":[],"categories_sizes":[],"default_left":[0,0,0,0,0,0,0,0,0,0,0,0,0,0,0,0,0,0,0,0,0,0,0,0,0,0,0,0,0,0,0,0,0,0,0,0,0,0,0,0,0,0,0,0,0,0,0,0,0,0,0],"id":3,"left_children":[1,3,5,7,9,11,-1,13,-1,-1,15,17,19,21,23,25,-1,27,29,31,33,35,37,39,41,-1,43,-1,45,47,-1,49,-1,-1,-1,-1,-1,-1,-1,-1,-1,-1,-1,-1,-1,-1,-1,-1,-1,-1,-1],"loss_changes":[5.5266885E3,9.777502E3,9.038329E3,5.4863433E3,1.1862012E3,4.2405E3,0E0,4.0001611E3,0E0,0E0,4.9607208E2,3.4511816E2,3.97693E3,2.7290435E3,2.897394E3,2.6786615E2,0E0,4.008789E-1,2.1703662E2,1.4401653E3,1.8110352E0,1.8435889E3,8.970049E2,1.1589065E3,1.4388025E3,0E0,1.80031E2,0E0,7.920003E-1,3.0699463E2,0E0,1.2167107E3,0E0,0E0,0E0,0E0,0E0,0E0,0E0,0E0,0E0,0E0,0E0,0E0,0E0,0E0,0E0,0E0,0E0,0E0,0E0],"parents":[2147483647,0,0,1,1,2,2,3,3,4,4,5,5,7,7,10,10,11,11,12,12,13,13,14,14,15,15,17,17,18,18,19,19,20,20,21,21,22,22,23,23,24,24,26,26,28,28,29,29,31,31],"right_children":[2,4,6,8,10,12,-1,14,-1,-1,16,18,20,22,24,26,-1,28,30,32,34,36,38,40,42,-1,44,-1,46,48,-1,50,-1,-1,-1,-1,-1,-1,-1,-1,-1,-1,-1,-1,-1,-1,-1,-1,-1,-1,-1],"split_conditions":[6E0,6E0,7E0,3E0,2E0,6E0,1.6326497E-1,5E0,-1.6904616E-1,1.7134503E-1,1E0,1E0,7E0,5E0,5E0,1E0,1.6732275E-1,3E0,1E0,2E0,2E0,2E0,2E0,1E0,2E0,1.5817289E-1,1E0,-1.703894E-1,1E0,1E0,-1.6962408E-1,1E0,-1.7218901E-1,-1.6268747E-1,-1.7288135E-1,2.7512958E-2,-1.6927904E-1,1.4502096E-1,6.1332323E-2,-1.5947336E-1,-5.4615576E-2,2.2142988E-2,-5.0317794E-2,-2.422359E-2,6.8771906E-2,-6.2835203E-3,-1.0892878E-1,-6.576271E-2,-1.4270271E-1,1.6517793E-1,-1.5898263E-3],"split_indices":[39,19,19,38,38,19,0,39,0,0,17,38,39,19,19,0,0,10,17,38,0,37,38,38,38,0,36,0,5,16,0,0,0,0,0,0,0,0,0,0,0,0,0,0,0,0,0,0,0,0,0],"split_type":[0,0,0,0,0,0,0,0,0,0,0,0,0,0,0,0,0,0,0,0,0,0,0,0,0,0,0,0,0,0,0,0,0,0,0,0,0,0,0,0,0,0,0,0,0,0,0,0,0,0,0],"sum_hessian":[5.9144715E4,4.264062E4,1.6504094E4,3.7183773E4,5.456848E3,1.4716418E4,1.7876753E3,3.537553E4,1.8082405E3,4.0703594E3,1.3864889E3,5.4417544E3,9.274663E3,1.5351953E4,2.0023578E4,1.0383998E3,3.4808908E2,2.6970264E3,2.7447283E3,7.4938706E3,1.7807927E3,1.0180749E4,5.171204E3,5.583408E3,1.444017E4,1.3897421E2,8.994256E2,2.6941025E3,2.92378E0,2.079961E3,6.647674E2,7.029892E3,4.6397876E2,8.765872E2,9.0420544E2,9.681077E3,4.996719E2,2.823307E3,2.3478972E3,1.4101315E3,4.173277E3,1.0765282E4,3.6748877E3,5.741341E2,3.2529153E2,1.2202448E0,1.7035353E0,1.0527417E3,1.0272192E3,4.6773325E2,6.5621587E3],"tree_param":{"num_deleted":"0","num_feature":"40","num_nodes":"51","size_leaf_vector":"1"}},{"base_weights":[-3.4632408E-3,-5.6192625E-2,1.6756596E-1,1.2479065E-1,-5.7504004E-1,4.1476142E-1,-3.8485584E-1,-4.3882087E-1,-1.5833424E-1,5.0685185E-1,-1.1605569E0,1.5186219E-1,-4.9998042E-1,-9.660603E-1,-4.6060115E-2,-8.385333E-2,7.049815E-1,2.4865262E-1,-1.4753834E0,-3.540886E-1,-1.5747924E0,-3.8371477E-1,-1.1870112E0,3.9997318E-1,-5.0795215E-1,4.1644193E-2,-7.54897E-2,5.5066165E-2,1.2436062E-1,1.4993481E-1,-8.118299E-4,-1.6304219E-1,-1.2967019E-1,-1.6110912E-1,-2.851159E-2,-1.5496E-1,-1.6913472E-1,1.5631454E-1,-5.2534766E-2,-9.878958E-2,-1.4874639E-1,1.6235732E-1,2.2371529E-2,1.613507E-1,-6.39201E-2],"categories":[],"categories_nodes":[],"categories_segments":[],"categories_sizes":[],"default_left":[0,0,0,0,0,0,0,0,0,0,0,0,0,0,0,0,0,0,0,0,0,0,0,0,0,0,0,0,0,0,0,0,0,0,0,0,0,0,0,0,0,0,0,0,0],"id":4,"left_children":[1,3,-1,5,7,9,11,13,-1,15,17,-1,19,21,23,25,27,29,31,33,35,37,39,41,43,-1,-1,-1,-1,-1,-1,-1,-1,-1,-1,-1,-1,-1,-1,-1,-1,-1,-1,-1,-1],"loss_changes":[5.185448E3,5.3321978E3,0E0,6.2217397E3,2.0162876E3,3.8933232E3,3.3464062E3,2.6792612E3,0E0,2.9671475E3,6.5799475E2,0E0,2.257045E3,7.102656E2,1.5280348E3,2.1383347E3,1.5773096E3,8.721423E1,3.145459E1,1.0987081E3,2.4301758E0,4.2015857E2,2.380581E2,8.134235E2,1.01556757E3,0E0,0E0,0E0,0E0,0E0,0E0,0E0,0E0,0E0,0E0,0E0,0E0,0E0,0E0,0E0,0E0,0E0,0E0,0E0,0E0],"parents":[2147483647,0,0,1,1,3,3,4,4,5,5,6,6,7,7,9,9,10,10,12,12,13,13,14,14,15,15,16,16,17,17,18,18,19,19,20,20,21,21,22,22,23,23,24,24],"right_children":[2,4,-1,6,8,10,12,14,-1,16,18,-1,20,22,24,26,28,30,32,34,36,38,40,42,44,-1,-1,-1,-1,-1,-1,-1,-1,-1,-1,-1,-1,-1,-1,-1,-1,-1,-1,-1,-1],"split_conditions":[3E0,2E0,1.6756596E-1,6E0,3E0,2E0,1E0,2E0,-1.5833424E-1,1E0,1E0,1.5186219E-1,7E0,2E0,5E0,1E0,2E0,2E0,1E0,1E0,2E0,1E0,5E0,2E0,1E0,4.1644193E-2,-7.54897E-2,5.5066165E-2,1.2436062E-1,1.4993481E-1,-8.118299E-4,-1.6304219E-1,-1.2967019E-1,-1.6110912E-1,-2.851159E-2,-1.5496E-1,-1.6913472E-1,1.5631454E-1,-5.2534766E-2,-9.878958E-2,-1.4874639E-1,1.6235732E-1,2.2371529E-2,1.613507E-1,-6.39201E-2],"split_indices":[18,38,0,39,38,37,0,18,0,38,18,0,39,0,39,18,18,0,31,20,20,0,39,0,0,0,0,0,0,0,0,0,0,0,0,0,0,0,0,0,0,0,0,0,0],"split_type":[0,0,0,0,0,0,0,0,0,0,0,0,0,0,0,0,0,0,0,0,0,0,0,0,0,0,0,0,0,0,0,0,0,0,0,0,0,0,0,0,0,0,0,0,0],"sum_hessian":[5.856469E4,5.678252E4,1.7821713E3,4.209855E4,1.468397E4,2.6832178E4,1.5266371E4,1.293757E4,1.7463992E3,2.5350887E4,1.481291E3,8.699738E2,1.4396397E4,5.522604E3,7.4149663E3,6.367464E3,1.8983424E4,2.7053717E2,1.2107538E3,1.2676989E4,1.719408E3,1.5197742E3,4.0028296E3,3.77231E3,3.6426565E3,3.6480483E3,2.7194155E3,1.4757356E4,4.2260674E3,4.525706E1,2.2528012E2,6.439157E2,5.668381E2,6.5825073E2,1.2018738E4,1.4255759E3,2.938321E2,1.0238409E2,1.4173901E3,2.4099797E3,1.59285E3,4.7394247E2,3.2983674E3,2.1157301E2,3.4310835E3],"tree_param":{"num_deleted":"0","num_feature":"40","num_nodes":"45","size_leaf_vector":"1"}},{"base_weights":[1.4597945E-3,-1.6844162E-1,4.4656694E-1,-2.4258572E-1,1.5688355E-1,-1.4881057E-1,5.513263E-1,-8.0157155E-1,-9.102142E-2,4.2825088E-1,1.5348746E0,-1.4247555E0,-6.3376087E-1,2.567827E-1,-6.1212134E-1,3.415539E-1,1.6706399E0,1.4141588E-1,1.5709274E-1,-1.4756938E0,-8.5690904E-1,-1.4575794E0,-4.4652852E-1,9.8113E-3,9.28498E-1,-4.785016E-1,-1.4949915E-1,2.763242E-1,1.7353557E0,1.4066316E-1,1.7457563E0,-1.4901483E-1,-6.948549E-2,-1.08412914E-1,-1.35910055E-2,-1.3817227E-1,-1.5077426E-1,-5.1032968E-2,1.9032708E-1,8.517151E-2,-2.4887426E-2,3.088151E-2,1.144851E-1,-1.0573321E-1,-1.4305892E-2,1.5095997E-1,2.0700712E-2,1.8671533E-1,1.5846291E-1,1.815122E-1,1.6682033E-1],"categories":[],"categories_nodes":[],"categories_segments":[],"categories_sizes":[],"default_left":[0,0,0,0,0,0,0,0,0,0,0,0,0,0,0,0,0,0,0,0,0,0,0,0,0,0,0,0,0,0,0,0,0,0,0,0,0,0,0,0,0,0,0,0,0,0,0,0,0,0,0],"id":5,"left_children":[1,3,5,7,-1,-1,9,11,13,15,17,19,21,23,25,27,29,-1,-1,31,33,35,37,39,41,43,-1,45,47,-1,49,-1,-1,-1,-1,-1,-1,-1,-1,-1,-1,-1,-1,-1,-1,-1,-1,-1,-1,-1,-1],"loss_changes":[4.3775435E3,5.396704E3,3.241864E3,3.4040796E3,0E0,0E0,1.8357573E3,8.953755E2,5.7292876E3,1.4518953E3,5.119629E0,5.130542E1,1.0411343E3,3.1450605E3,1.4919883E3,1.1456624E3,1.4983643E1,0E0,0E0,1.7773193E1,2.4753586E1,2.6745605E0,8.262435E2,3.0193462E3,6.829424E2,2.134011E3,0E0,1.0292954E3,8.233643E0,0E0,6.323242E-1,0E0,0E0,0E0,0E0,0E0,0E0,0E0,0E0,0E0,0E0,0E0,0E0,0E0,0E0,0E0,0E0,0E0,0E0,0E0,0E0],"parents":[2147483647,0,0,1,1,2,2,3,3,6,6,7,7,8,8,9,9,10,10,11,11,12,12,13,13,14,14,15,15,16,16,19,19,20,20,21,21,22,22,23,23,24,24,25,25,27,27,28,28,30,30],"right_children":[2,4,6,8,-1,-1,10,12,14,16,18,20,22,24,26,28,30,-1,-1,32,34,36,38,40,42,44,-1,46,48,-1,50,-1,-1,-1,-1,-1,-1,-1,-1,-1,-1,-1,-1,-1,-1,-1,-1,-1,-1,-1,-1],"split_conditions":[6E0,3E0,1E0,1E0,1.5688355E-1,-1.4881057E-1,7E0,5E0,2E0,2E0,1E0,4E0,2E0,2E0,3E0,3E0,1E0,1.4141588E-1,1.5709274E-1,3E0,1E0,2E0,4E0,1E0,2E0,2E0,-1.4949915E-1,1E0,3E0,1.4066316E-1,2E0,-1.4901483E-1,-6.948549E-2,-1.08412914E-1,-1.35910055E-2,-1.3817227E-1,-1.5077426E-1,-5.1032968E-2,1.9032708E-1,8.517151E-2,-2.4887426E-2,3.088151E-2,1.144851E-1,-1.0573321E-1,-1.4305892E-2,1.5095997E-1,2.0700712E-2,1.8671533E-1,1.5846291E-1,1.815122E-1,1.6682033E-1],"split_indices":[19,18,20,38,0,0,19,19,38,18,0,0,20,18,38,0,0,0,0,13,1,0,0,18,20,18,0,0,20,0,38,0,0,0,0,0,0,0,0,0,0,0,0,0,0,0,0,0,0,0,0],"split_type":[0,0,0,0,0,0,0,0,0,0,0,0,0,0,0,0,0,0,0,0,0,0,0,0,0,0,0,0,0,0,0,0,0,0,0,0,0,0,0,0,0,0,0,0,0,0,0,0,0,0,0],"sum_hessian":[5.7883387E4,4.189305E4,1.5990335E4,4.0179133E4,1.7139178E3,8.2069586E2,1.516964E4,8.569519E3,3.1609615E4,1.3483793E4,1.6858462E3,1.8164465E3,6.753072E3,1.8957252E4,1.2652364E4,1.260543E4,8.7836334E2,3.9695224E2,1.2888939E3,1.6654498E3,1.5099672E2,1.2493173E3,5.5037544E3,1.3861697E4,5.0955537E3,1.0990522E4,1.6618412E3,1.2043017E4,5.624128E2,1.9892769E2,6.7943567E2,1.6342882E3,3.1161572E1,1.14430695E2,3.6566032E1,5.0866324E2,7.4065405E2,5.3590303E3,1.4472421E2,3.2575527E3,1.0604145E4,1.3192771E3,3.7762766E3,4.0315835E3,6.9589395E3,6.397602E2,1.1403257E4,2.9397183E2,2.6844095E2,3.4682233E2,3.3261334E2],"tree_param":{"num_deleted":"0","num_feature":"40","num_nodes":"51","size_leaf_vector":"1"}},{"base_weights":[-2.132142E-3,1.6498563E-1,-4.4117716E-1,3.154003E-3,1.295806E0,-6.5732294E-1,1.4577164E-1,-6.681309E-2,1.485772E-1,1.5481274E-1,5.635529E-1,-1.2912141E0,-2.9159158E-1,1.76444E-1,-5.2161086E-1,1.3832177E-1,1.5187715E-1,-1.5428841E0,-5.866234E-1,-2.8753761E-2,-1.4874027E0,-1.9270249E-2,1.0580264E0,-3.8510436E-1,-1.4265132E-1,2.8895938E-1,-1.5645348E-1,-1.4900116E0,-1.5853958E-1,-1.1747706E-1,-1.5858355E-1,-1.3061117E-1,1.6083286E0,-1.3540153E-1,-1.5248565E-1,5.656417E-2,-3.338897E-2,7.736174E-2,1.6400953E-1,-9.634983E-2,-3.1074276E-3,-2.943646E-3,8.148145E-2,-1.374305E-1,-1.5027027E-1,8.115767E-2,-1.706904E-1,-3.4576857E-3,-1.5466827E-1,1.6601121E-1,1.4372137E-1],"categories":[],"categories_nodes":[],"categories_segments":[],"categories_sizes":[],"default_left":[0,0,0,0,0,0,0,0,0,0,0,0,0,0,0,0,0,0,0,0,0,0,0,0,0,0,0,0,0,0,0,0,0,0,0,0,0,0,0,0,0,0,0,0,0,0,0,0,0,0,0],"id":6,"left_children":[1,3,5,7,9,11,-1,13,-1,-1,15,17,19,21,23,25,-1,27,29,31,33,35,37,39,-1,41,-1,43,-1,45,-1,47,49,-1,-1,-1,-1,-1,-1,-1,-1,-1,-1,-1,-1,-1,-1,-1,-1,-1,-1],"loss_changes":[4.206466E3,7.5991035E3,6.488295E3,3.7684612E3,9.596387E2,3.2896484E3,0E0,3.8380413E3,0E0,0E0,5.4158185E2,9.1973926E2,2.8288318E3,3.899834E3,1.4927798E3,2.3748886E2,0E0,6.2353516E0,6.411082E2,1.2307572E3,6.0375977E0,3.4041545E3,6.7850635E2,2.1512717E3,0E0,1.4230801E2,0E0,4.621582E-1,0E0,1.3776504E3,0E0,9.448567E2,1.4448242E0,0E0,0E0,0E0,0E0,0E0,0E0,0E0,0E0,0E0,0E0,0E0,0E0,0E0,0E0,0E0,0E0,0E0,0E0],"parents":[2147483647,0,0,1,1,2,2,3,3,4,4,5,5,7,7,10,10,11,11,12,12,13,13,14,14,15,15,17,17,18,18,19,19,20,20,21,21,22,22,23,23,25,25,27,27,29,29,31,31,32,32],"right_children":[2,4,6,8,10,12,-1,14,-1,-1,16,18,20,22,24,26,-1,28,30,32,34,36,38,40,-1,42,-1,44,-1,46,-1,48,50,-1,-1,-1,-1,-1,-1,-1,-1,-1,-1,-1,-1,-1,-1,-1,-1,-1,-1],"split_conditions":[6E0,6E0,7E0,3E0,2E0,6E0,1.4577164E-1,2E0,1.485772E-1,1.5481274E-1,2E0,2E0,7E0,2E0,3E0,3E0,1.5187715E-1,2E0,2E0,2E0,1E0,5E0,5E0,2E0,-1.4265132E-1,1E0,-1.5645348E-1,1E0,-1.5853958E-1,1E0,-1.5858355E-1,2E0,2E0,-1.3540153E-1,-1.5248565E-1,5.656417E-2,-3.338897E-2,7.736174E-2,1.6400953E-1,-9.634983E-2,-3.1074276E-3,-2.943646E-3,8.148145E-2,-1.374305E-1,-1.5027027E-1,8.115767E-2,-1.706904E-1,-3.4576857E-3,-1.5466827E-1,1.6601121E-1,1.4372137E-1],"split_indices":[39,19,19,18,38,19,0,38,0,0,18,18,39,18,38,20,0,20,38,18,20,39,19,18,0,36,0,20,0,37,0,38,1,0,0,0,0,0,0,0,0,0,0,0,0,0,0,0,0,0,0],"split_type":[0,0,0,0,0,0,0,0,0,0,0,0,0,0,0,0,0,0,0,0,0,0,0,0,0,0,0,0,0,0,0,0,0,0,0,0,0,0,0,0,0,0,0,0,0,0,0,0,0,0,0],"sum_hessian":[5.73285E4,4.152361E4,1.5804893E4,3.6326E4,5.1976084E3,1.4190303E4,1.6145891E3,3.4689887E4,1.6361158E3,3.8647654E3,1.332843E3,5.1908726E3,8.999431E3,2.2601605E4,1.2088279E4,9.2306866E2,4.0977435E2,3.8238555E3,1.3670172E3,7.3786387E3,1.6207919E3,1.8496336E4,4.1052705E3,1.0505002E4,1.5832772E3,8.4881165E2,7.4257034E1,1.7203171E3,2.1035383E3,9.310103E2,4.3600693E2,6.9473057E3,4.3133322E2,3.6347314E2,1.2573187E3,6.4689854E3,1.2027351E4,2.7593381E3,1.3459321E3,3.9879683E3,6.517033E3,5.292838E2,3.1952783E2,1.8084178E2,1.5394753E3,5.878746E2,3.4313574E2,6.5070396E3,4.4026614E2,3.244461E2,1.0688713E2],"tree_param":{"num_deleted":"0","num_feature":"40","num_nodes":"51","size_leaf_vector":"1"}},{"base_weights":[1.5763564E-3,1.5457566E-1,-4.0633222E-1,6.541627E-3,1.2237537E0,-6.04569E-1,1.3967228E0,-5.749251E-2,1.4161208E-1,1.4676327E-1,5.313204E-1,-1.2175467E0,-2.5980303E-1,1.3096975E-1,1.4215302E-1,1.6406508E-1,-4.7566548E-1,1.3710922E-1,1.4475943E0,-1.4631747E0,-5.4754937E-1,-1.6587226E-2,-1.4204322E0,-1.1423307E-2,9.674072E-1,-3.4909177E-1,-1.3702293E-1,2.7257603E-1,-1.4433745E0,1.292848E-1,1.4852737E-1,-1.4203331E-1,-1.4969061E-1,-1.2062194E-1,-1.499532E-1,-1.0986942E-1,1.5196415E0,-1.3085596E-1,-1.4508481E-1,5.1933922E-2,-2.9591141E-2,6.995001E-2,1.5382868E-1,-8.902567E-2,-2.4569028E-3,1.3941924E-1,1.4160948E-2,-1.5331715E-1,-1.1025857E-1,7.4573256E-2,-1.590207E-1,-1.9036565E-2,1.6937436E-1,1.2955378E-1,1.5758212E-1],"categories":[],"categories_nodes":[],"categories_segments":[],"categories_sizes":[],"default_left":[0,0,0,0,0,0,0,0,0,0,0,0,0,0,0,0,0,0,0,0,0,0,0,0,0,0,0,0,0,0,0,0,0,0,0,0,0,0,0,0,0,0,0,0,0,0,0,0,0,0,0,0,0,0,0],"id":7,"left_children":[1,3,5,7,9,11,13,15,-1,-1,17,19,21,-1,-1,23,25,27,29,31,33,35,37,39,41,43,-1,45,47,-1,-1,-1,-1,49,-1,51,53,-1,-1,-1,-1,-1,-1,-1,-1,-1,-1,-1,-1,-1,-1,-1,-1,-1,-1],"loss_changes":[3.5155479E3,6.483702E3,5.4928623E3,3.2480283E3,8.4053564E2,2.925373E3,1.4248047E0,3.189181E3,0E0,0E0,4.6908896E2,8.192886E2,2.5014854E3,0E0,0E0,3.1721199E3,1.349353E3,1.9512157E2,3.579712E-1,3.1430664E0,5.4378613E2,1.0502067E3,3.3251953E0,2.7887126E3,6.1590234E2,1.8343293E3,0E0,1.2298015E2,5.116577E-1,0E0,0E0,0E0,0E0,1.1790189E3,0E0,1.003383E3,3.2404175E0,0E0,0E0,0E0,0E0,0E0,0E0,0E0,0E0,0E0,0E0,0E0,0E0,0E0,0E0,0E0,0E0,0E0,0E0],"parents":[2147483647,0,0,1,1,2,2,3,3,4,4,5,5,6,6,7,7,10,10,11,11,12,12,15,15,16,16,17,17,18,18,19,19,20,20,21,21,22,22,23,23,24,24,25,25,27,27,28,28,33,33,35,35,36,36],"right_children":[2,4,6,8,10,12,14,16,-1,-1,18,20,22,-1,-1,24,26,28,30,32,34,36,38,40,42,44,-1,46,48,-1,-1,-1,-1,50,-1,52,54,-1,-1,-1,-1,-1,-1,-1,-1,-1,-1,-1,-1,-1,-1,-1,-1,-1,-1],"split_conditions":[6E0,6E0,7E0,3E0,2E0,6E0,1E0,2E0,1.4161208E-1,1.4676327E-1,2E0,2E0,7E0,1.3096975E-1,1.4215302E-1,2E0,3E0,3E0,1E0,2E0,2E0,2E0,1E0,5E0,5E0,2E0,-1.3702293E-1,1E0,2E0,1.292848E-1,1.4852737E-1,-1.4203331E-1,-1.4969061E-1,1E0,-1.499532E-1,3E0,1E0,-1.3085596E-1,-1.4508481E-1,5.1933922E-2,-2.9591141E-2,6.995001E-2,1.5382868E-1,-8.902567E-2,-2.4569028E-3,1.3941924E-1,1.4160948E-2,-1.5331715E-1,-1.1025857E-1,7.4573256E-2,-1.590207E-1,-1.9036565E-2,1.6937436E-1,1.2955378E-1,1.5758212E-1],"split_indices":[39,19,19,18,38,19,0,38,0,0,18,18,39,0,0,18,38,20,0,20,38,18,20,39,19,18,0,0,6,0,0,0,0,37,0,0,0,0,0,0,0,0,0,0,0,0,0,0,0,0,0,0,0,0,0],"split_type":[0,0,0,0,0,0,0,0,0,0,0,0,0,0,0,0,0,0,0,0,0,0,0,0,0,0,0,0,0,0,0,0,0,0,0,0,0,0,0,0,0,0,0,0,0,0,0,0,0,0,0,0,0,0,0],"sum_hessian":[5.632812E4,4.0963906E4,1.5364216E4,3.598287E4,4.981035E3,1.3842921E4,1.5212948E3,3.4420195E4,1.5626758E3,3.6828093E3,1.2982261E3,4.9822266E3,8.860694E3,3.4939566E2,1.171899E3,2.2499861E4,1.1920332E4,9.0850635E2,3.897197E2,3.6448154E3,1.3374109E3,7.32642E3,1.5342745E3,1.8466812E4,4.0330498E3,1.0443981E4,1.4763507E3,8.375459E2,7.096041E1,8.322656E1,3.0649313E2,1.6245763E3,2.0202393E3,9.2411E2,4.1330093E2,6.9078906E3,4.1852936E2,3.3737994E2,1.1968947E3,6.4438506E3,1.2022961E4,2.7464143E3,1.2866354E3,3.9145112E3,6.52947E3,8.6562965E1,7.50983E2,5.3392673E1,1.756774E1,5.816855E2,3.424245E2,6.6136157E3,2.9427478E2,8.871215E1,3.298172E2],"tree_param":{"num_deleted":"0","num_feature":"40","num_nodes":"55","size_leaf_vector":"1"}},{"base_weights":[2.6450926E-4,-1.4084449E0,3.9047737E-2,-1.3031913E-1,-1.4416004E0,4.995675E-1,-1.2457652E-1,-1.3842312E-1,-1.5185261E-1,1.5973364E0,3.9552307E-1,-8.069507E-1,-1.1416791E-2,1.6628666E0,1.3475528E-1,1.394261E0,2.6760653E-1,-8.468622E-1,1.3918895E-1,-4.83655E-2,1.3628271E-1,1.8701096E-1,1.6139657E0,1.5333076E0,1.3383237E0,-5.261588E-2,6.9234806E-1,-1.5259117E0,-7.337494E-1,-3.8628584E-1,1.6612706E-1,1.512148E-1,1.7090654E-1,1.5888809E-1,1.3089685E-1,1.3666712E-1,1.271051E-1,-1.5277804E-1,4.686553E-3,7.287827E-2,-1.2966031E-1,-1.4082891E-1,-1.5630516E-1,-9.1246836E-2,-1.9199109E-2,-1.2762375E-1,-2.5330827E-2,-1.3547729E-2,3.372786E-2],"categories":[],"categories_nodes":[],"categories_segments":[],"categories_sizes":[],"default_left":[0,0,0,0,0,0,0,0,0,0,0,0,0,0,0,0,0,0,0,0,0,0,0,0,0,0,0,0,0,0,0,0,0,0,0,0,0,0,0,0,0,0,0,0,0,0,0,0,0],"id":8,"left_children":[1,3,5,-1,7,9,11,-1,-1,13,15,17,19,21,-1,23,25,27,-1,29,-1,-1,31,33,35,37,39,41,43,45,47,-1,-1,-1,-1,-1,-1,-1,-1,-1,-1,-1,-1,-1,-1,-1,-1,-1,-1],"loss_changes":[3.0163425E3,3.2836914E0,4.0487683E3,0E0,2.8208008E0,1.608231E3,3.0612988E3,0E0,0E0,1.7714355E1,1.6435688E3,4.960769E2,1.7268279E3,6.726074E0,0E0,9.309326E0,1.5516819E3,4.2435547E2,0E0,2.4004783E3,0E0,0E0,5.018799E0,3.059143E0,2.644043E-1,9.547343E2,3.563125E2,1.25E0,4.597644E2,1.5214958E3,1.0458333E3,0E0,0E0,0E0,0E0,0E0,0E0,0E0,0E0,0E0,0E0,0E0,0E0,0E0,0E0,0E0,0E0,0E0,0E0],"parents":[2147483647,0,0,1,1,2,2,4,4,5,5,6,6,9,9,10,10,11,11,12,12,13,13,15,15,16,16,17,17,19,19,22,22,23,23,24,24,25,25,26,26,27,27,28,28,29,29,30,30],"right_children":[2,4,6,-1,8,10,12,-1,-1,14,16,18,20,22,-1,24,26,28,-1,30,-1,-1,32,34,36,38,40,42,44,46,48,-1,-1,-1,-1,-1,-1,-1,-1,-1,-1,-1,-1,-1,-1,-1,-1,-1,-1],"split_conditions":[1E0,1E0,2E0,-1.3031913E-1,1E0,1E0,2E0,-1.3842312E-1,-1.5185261E-1,7E0,1E0,3E0,3E0,1E0,1.3475528E-1,6E0,2E0,1E0,1.3918895E-1,5E0,1.3628271E-1,1.8701096E-1,1E0,3E0,7E0,1E0,3E0,1E0,6E0,1E0,1E0,1.512148E-1,1.7090654E-1,1.5888809E-1,1.3089685E-1,1.3666712E-1,1.271051E-1,-1.5277804E-1,4.686553E-3,7.287827E-2,-1.2966031E-1,-1.4082891E-1,-1.5630516E-1,-9.1246836E-2,-1.9199109E-2,-1.2762375E-1,-2.5330827E-2,-1.3547729E-2,3.372786E-2],"split_indices":[20,38,0,0,37,1,20,0,0,19,0,18,18,38,0,19,20,21,0,19,0,0,17,18,19,21,38,38,19,38,38,0,0,0,0,0,0,0,0,0,0,0,0,0,0,0,0,0,0],"split_type":[0,0,0,0,0,0,0,0,0,0,0,0,0,0,0,0,0,0,0,0,0,0,0,0,0,0,0,0,0,0,0,0,0,0,0,0,0,0,0,0,0,0,0,0,0,0,0,0,0],"sum_hessian":[5.5207688E4,1.4782545E3,5.372943E4,3.6376633E2,1.1144882E3,1.4085054E4,3.964438E4,6.492712E2,4.6521698E2,1.218141E3,1.2866913E4,5.6382925E3,3.4006086E4,9.6049866E2,2.5764233E2,1.4597418E3,1.1407171E4,5.5383794E3,9.991309E1,3.3116656E4,8.8942865E2,1.7626038E2,7.842382E2,4.1119678E2,1.048545E3,6.504303E3,4.9028677E3,7.890411E2,4.7493384E3,1.2858325E4,2.0258332E4,3.8690314E2,3.973351E2,3.2468356E2,8.651322E1,7.2410626E2,3.2443875E2,4.1001532E2,6.094288E3,4.815292E3,8.757551E1,1.9869344E2,5.9034766E2,3.5707205E3,1.1786179E3,1.6704242E3,1.11879E4,7.3341865E3,1.29241455E4],"tree_param":{"num_deleted":"0","num_feature":"40","num_nodes":"49","size_leaf_vector":"1"}},{"base_weights":[-2.416238E-3,1.3426701E0,-3.7361324E-2,1.4587946E0,1.2956661E-1,-7.150715E-2,1.3225122E-1,1.5028426E-1,1.2682003E-1,5.8125243E-2,-4.4426998E-1,-4.6070356E-2,7.5623673E-1,-3.4658605E-1,-1.3090794E-1,-1.0216903E-1,1.1002032E0,7.100525E-1,1.463479E-1,-7.533246E-1,-5.9117924E-2,-3.157076E-2,2.68015E-2,1.6294349E-2,1.344656E-1,6.386049E-2,1.1735805E-1,-1.0751398E-1,-4.1289937E-2,-4.8213337E-2,4.183754E-2],"categories":[],"categories_nodes":[],"categories_segments":[],"categories_sizes":[],"default_left":[0,0,0,0,0,0,0,0,0,0,0,0,0,0,0,0,0,0,0,0,0,0,0,0,0,0,0,0,0,0,0],"id":9,"left_children":[1,3,5,7,-1,9,-1,-1,-1,11,13,15,17,19,-1,21,23,25,-1,27,29,-1,-1,-1,-1,-1,-1,-1,-1,-1,-1],"loss_changes":[2.5631333E3,5.6469727E0,2.468018E3,1.3676147E0,0E0,2.505439E3,0E0,0E0,0E0,2.7984006E3,1.1297285E3,2.152733E3,1.6215552E2,1.4056207E3,0E0,2.5228823E3,3.576455E2,1.546377E2,0E0,5.449353E2,1.4231652E3,0E0,0E0,0E0,0E0,0E0,0E0,0E0,0E0,0E0,0E0],"parents":[2147483647,0,0,1,1,2,2,3,3,5,5,9,9,10,10,11,11,12,12,13,13,15,15,16,16,17,17,19,19,20,20],"right_children":[2,4,6,8,-1,10,-1,-1,-1,12,14,16,18,20,-1,22,24,26,-1,28,30,-1,-1,-1,-1,-1,-1,-1,-1,-1,-1],"split_conditions":[1E0,6E0,3E0,3E0,1.2956661E-1,2E0,1.3225122E-1,1.5028426E-1,1.2682003E-1,2E0,3E0,2E0,6E0,2E0,-1.3090794E-1,6E0,1E0,1E0,1.463479E-1,1E0,5E0,-3.157076E-2,2.68015E-2,1.6294349E-2,1.344656E-1,6.386049E-2,1.1735805E-1,-1.0751398E-1,-4.1289937E-2,-4.8213337E-2,4.183754E-2],"split_indices":[0,19,18,18,0,38,0,0,0,18,38,17,19,18,0,19,38,17,0,17,19,0,0,0,0,0,0,0,0,0,0],"split_type":[0,0,0,0,0,0,0,0,0,0,0,0,0,0,0,0,0,0,0,0,0,0,0,0,0,0,0,0,0,0,0],"sum_hessian":[5.452786E4,1.379804E3,5.3148055E4,3.8892407E2,9.908799E2,5.184714E4,1.3009115E3,3.1032123E2,7.8602844E1,3.846972E4,1.3377425E4,3.347447E4,4.995248E3,1.2021002E4,1.3564231E3,3.1913531E4,1.5609386E3,4.690926E3,3.043225E2,4.977176E3,7.043826E3,2.0238953E4,1.1674578E4,3.2324548E2,1.2376931E3,4.0664985E3,6.244272E2,2.557412E3,2.4197637E3,3.7349722E3,3.3088538E3],"tree_param":{"num_deleted":"0","num_feature":"40","num_nodes":"31","size_leaf_vector":"1"}},{"base_weights":[1.6744788E-4,1.5035447E-1,-4.0778136E-1,1.984502E-2,1.1408873E0,-5.819847E-1,1.3118139E-1,2.9839858E-1,-2.0400688E-1,1.3697159E0,9.1604036E-1,-1.1472428E0,-2.781691E-1,1.361047E-2,8.494644E-1,-7.911429E-1,1.5209776E-2,1.3737065E-1,1.0431538E0,7.854975E-1,1.4586662E-1,-1.3757768E0,-5.545473E-1,-6.360264E-2,-1.3581653E0,-6.9286205E-2,1.2763222E-1,1.3216438E0,6.852372E-1,-9.3142647E-1,1.260346E-1,5.6336008E-2,-1.911025E-1,1.1499903E0,-1.04962744E-1,6.111831E-1,1.3810271E-1,-1.3264157E0,-1.4127207E0,-2.3476766E-1,-1.5049917E0,7.814466E-3,-1.7461673E0,-1.2424357E-1,-1.3871883E-1,1.411633E-1,-1.4564236E-2,1.376307E-1,8.577233E-2,7.496263E-2,-6.6621095E-2,-1.14171125E-1,-6.866942E-2,1.035924E-2,-1.3842027E-1,1.2121451E-1,-2.8031124E-2,7.685303E-2,-8.726469E-2,3.886166E-2,1.3431527E-1,-1.330108E-1,-1.0368021E-1,-1.4147666E-1,-9.712206E-2,-1.363639E-1,-7.582997E-3,-1.3327223E-1,-1.5478545E-1,-1.3998595E-1,9.0901805E-3,-1.8397155E-1,-1.5684457E-1],"categories":[],"categories_nodes":[],"categories_segments":[],"categories_sizes":[],"default_left":[0,0,0,0,0,0,0,0,0,0,0,0,0,0,0,0,0,0,0,0,0,0,0,0,0,0,0,0,0,0,0,0,0,0,0,0,0,0,0,0,0,0,0,0,0,0,0,0,0,0,0,0,0,0,0,0,0,0,0,0,0,0,0,0,0,0,0,0,0,0,0,0,0],"id":10,"left_children":[1,3,5,7,9,11,-1,13,15,17,19,21,23,25,27,29,31,-1,33,35,-1,37,39,41,43,45,-1,47,49,51,-1,53,-1,55,57,59,-1,61,63,65,67,69,71,-1,-1,-1,-1,-1,-1,-1,-1,-1,-1,-1,-1,-1,-1,-1,-1,-1,-1,-1,-1,-1,-1,-1,-1,-1,-1,-1,-1,-1,-1],"loss_changes":[3.3061938E3,5.098763E3,4.350525E3,2.173188E3,2.349956E2,2.2640898E3,0E0,2.437006E3,2.487125E3,1.5297852E0,1.6312415E2,6.2355273E2,1.9875598E3,1.0718319E3,4.0936987E2,1.5130259E3,1.1148009E3,0E0,3.997322E0,1.9343298E2,0E0,4.1904297E0,3.8999472E2,8.600005E2,3.0512695E0,1.0867645E3,0E0,3.3416016E1,3.4227185E2,2.522959E2,0E0,9.3806903E2,0E0,2.9176598E0,3.0893238E0,2.3562146E2,0E0,1.6113281E-1,3.3007812E-1,1.72531E2,3.2318115E-1,8.032175E2,1.9593506E0,0E0,0E0,0E0,0E0,0E0,0E0,0E0,0E0,0E0,0E0,0E0,0E0,0E0,0E0,0E0,0E0,0E0,0E0,0E0,0E0,0E0,0E0,0E0,0E0,0E0,0E0,0E0,0E0,0E0,0E0],"parents":[2147483647,0,0,1,1,2,2,3,3,4,4,5,5,7,7,8,8,9,9,10,10,11,11,12,12,13,13,14,14,15,15,16,16,18,18,19,19,21,21,22,22,23,23,24,24,25,25,27,27,28,28,29,29,31,31,33,33,34,34,35,35,37,37,38,38,39,39,40,40,41,41,42,42],"right_children":[2,4,6,8,10,12,-1,14,16,18,20,22,24,26,28,30,32,-1,34,36,-1,38,40,42,44,46,-1,48,50,52,-1,54,-1,56,58,60,-1,62,64,66,68,70,72,-1,-1,-1,-1,-1,-1,-1,-1,-1,-1,-1,-1,-1,-1,-1,-1,-1,-1,-1,-1,-1,-1,-1,-1,-1,-1,-1,-1,-1,-1],"split_conditions":[6E0,6E0,7E0,5E0,1E0,6E0,1.3118139E-1,5E0,5E0,3E0,1E0,2E0,7E0,3E0,1E0,3E0,4E0,1.3737065E-1,2E0,1E0,1.4586662E-1,2E0,1E0,3E0,1E0,1E0,1.2763222E-1,4E0,2E0,2E0,1.260346E-1,2E0,-1.911025E-1,3E0,1E0,2E0,1.3810271E-1,3E0,3E0,1E0,1E0,1E0,1E0,-1.2424357E-1,-1.3871883E-1,1.411633E-1,-1.4564236E-2,1.376307E-1,8.577233E-2,7.496263E-2,-6.6621095E-2,-1.14171125E-1,-6.866942E-2,1.035924E-2,-1.3842027E-1,1.2121451E-1,-2.8031124E-2,7.685303E-2,-8.726469E-2,3.886166E-2,1.3431527E-1,-1.330108E-1,-1.0368021E-1,-1.4147666E-1,-9.712206E-2,-1.363639E-1,-7.582997E-3,-1.3327223E-1,-1.5478545E-1,-1.3998595E-1,9.0901805E-3,-1.8397155E-1,-1.5684457E-1],"split_indices":[39,19,19,39,18,19,0,19,19,34,17,18,39,18,18,18,20,0,25,37,0,20,37,20,20,18,0,20,37,18,0,37,0,23,27,18,0,6,15,20,20,20,37,0,0,0,0,0,0,0,0,0,0,0,0,0,0,0,0,0,0,0,0,0,0,0,0,0,0,0,0,0,0],"split_type":[0,0,0,0,0,0,0,0,0,0,0,0,0,0,0,0,0,0,0,0,0,0,0,0,0,0,0,0,0,0,0,0,0,0,0,0,0,0,0,0,0,0,0,0,0,0,0,0,0,0,0,0,0,0,0,0,0,0,0,0,0,0,0,0,0,0,0,0,0,0,0,0,0],"sum_hessian":[5.396027E4,3.9440734E4,1.4519539E4,3.4850023E4,4.5907085E3,1.3184542E4,1.3349965E3,1.5527637E4,1.9322387E4,2.272685E3,2.3180232E3,4.6081553E3,8.576387E3,1.0237811E4,5.2898257E3,5.252314E3,1.4070073E4,2.2420808E3,3.0604383E1,1.8704781E3,4.4754504E2,3.3248313E3,1.2833239E3,7.1557827E3,1.4206045E3,9.607994E3,6.29817E2,1.3632416E3,3.9265842E3,4.916653E3,3.356613E2,1.3776899E4,2.9317407E2,2.7997482E1,2.6069014E0,1.4485166E3,4.2196158E2,1.4390317E3,1.8857997E3,9.611794E2,3.221445E2,6.8653745E3,2.904081E2,2.9361526E2,1.1269891E3,4.702406E2,9.137753E3,1.2177849E3,1.454566E2,3.748437E3,1.7814713E2,2.642465E3,2.2741875E3,1.3340207E4,4.3669296E2,2.6977674E1,1.0198087E0,1.2189E0,1.3880014E0,1.111944E3,3.3657263E2,1.417368E3,2.1663643E1,1.8749072E3,1.0892434E1,1.17690544E2,8.4348883E2,7.057809E1,2.515664E2,3.8175723E2,6.483617E3,1.8413335E2,1.0627475E2],"tree_param":{"num_deleted":"0","num_feature":"40","num_nodes":"73","size_leaf_vector":"1"}},{"base_weights":[2.006011E-3,1.379663E-1,-3.7638992E-1,1.8636212E-1,-1.2747358E-1,1.2523161E-1,-4.4944453E-1,6.393208E-1,6.546871E-2,-3.547688E-1,-1.3127229E0,-1.485887E-1,7.2306865E-1,-6.7879045E-1,1.3315473E-1,-2.8405544E-1,-1.4095414E0,-1.2133342E-1,-1.3368303E-1,7.6922274E-1,-7.03732E-1,-7.408862E-1,1.0800085E0,1.7246105E-1,-9.547024E-1,-2.2819836E-1,-1.487025E0,-1.2442713E-1,-1.4501859E-1,9.924311E-2,4.7271505E-2,-4.2988446E-2,-9.563001E-2,-1.5121402E-1,-6.858268E-2,1.40025E-1,6.558259E-2,4.168702E-2,-3.2159686E-3,-7.667897E-2,-1.2005234E-1,-1.3334031E-1,-1.7395834E-2,-1.6030845E-1,-1.3270943E-1],"categories":[],"categories_nodes":[],"categories_segments":[],"categories_sizes":[],"default_left":[0,0,0,0,0,0,0,0,0,0,0,0,0,0,0,0,0,0,0,0,0,0,0,0,0,0,0,0,0,0,0,0,0,0,0,0,0,0,0,0,0,0,0,0,0],"id":11,"left_children":[1,3,5,7,-1,-1,9,11,13,15,17,-1,19,21,23,25,27,-1,-1,29,31,33,35,37,39,41,43,-1,-1,-1,-1,-1,-1,-1,-1,-1,-1,-1,-1,-1,-1,-1,-1,-1,-1],"loss_changes":[2.7349312E3,2.674035E3,1.672524E3,2.0706365E3,0E0,0E0,1.0987764E3,1.4189001E3,1.5037495E3,9.037057E2,1.5620117E0,0E0,5.0528882E2,2.7257263E2,1.1701251E3,7.630723E2,3.3098145E0,0E0,0E0,4.909458E2,1.6236519E1,1.01055786E2,1.0664452E1,1.3207096E3,4.316101E1,6.5068335E2,7.2265625E0,0E0,0E0,0E0,0E0,0E0,0E0,0E0,0E0,0E0,0E0,0E0,0E0,0E0,0E0,0E0,0E0,0E0,0E0],"parents":[2147483647,0,0,1,1,2,2,3,3,6,6,7,7,8,8,9,9,10,10,12,12,13,13,14,14,15,15,16,16,19,19,20,20,21,21,22,22,23,23,24,24,25,25,26,26],"right_children":[2,4,6,8,-1,-1,10,12,14,16,18,-1,20,22,24,26,28,-1,-1,30,32,34,36,38,40,42,44,-1,-1,-1,-1,-1,-1,-1,-1,-1,-1,-1,-1,-1,-1,-1,-1,-1,-1],"split_conditions":[6E0,3E0,1E0,2E0,-1.2747358E-1,1.2523161E-1,7E0,1E0,2E0,2E0,1E0,-1.485887E-1,2E0,2E0,2E0,3E0,1E0,-1.2133342E-1,-1.3368303E-1,2E0,1E0,1E0,1E0,5E0,1E0,1E0,3E0,-1.2442713E-1,-1.4501859E-1,9.924311E-2,4.7271505E-2,-4.2988446E-2,-9.563001E-2,-1.5121402E-1,-6.858268E-2,1.40025E-1,6.558259E-2,4.168702E-2,-3.2159686E-3,-7.667897E-2,-1.2005234E-1,-1.3334031E-1,-1.7395834E-2,-1.6030845E-1,-1.3270943E-1],"split_indices":[39,38,0,0,0,0,39,20,20,38,20,0,37,17,37,20,20,0,0,38,38,21,11,39,38,20,0,0,0,0,0,0,0,0,0,0,0,0,0,0,0,0,0,0,0],"split_type":[0,0,0,0,0,0,0,0,0,0,0,0,0,0,0,0,0,0,0,0,0,0,0,0,0,0,0,0,0,0,0,0,0,0,0,0,0,0,0,0,0,0,0,0,0],"sum_hessian":[5.3158336E4,3.9107406E4,1.4050929E4,3.7812895E4,1.2945116E3,6.0249695E2,1.3448432E4,7.9651387E3,2.9847758E4,1.2120579E4,1.3278527E3,3.0134653E2,7.6637925E3,2.4874397E3,2.7360318E4,1.1360243E4,7.603365E2,2.6922614E2,1.0586265E3,7.4240986E3,2.3969366E2,2.4031726E3,8.426718E1,2.6407023E4,9.5329376E2,1.0857299E4,5.0294366E2,1.5631947E2,6.0401697E2,4.2342476E3,3.1898513E3,1.1629862E2,1.23395035E2,1.5836646E2,2.2448062E3,4.6705376E1,3.7561806E1,1.203308E4,1.4373943E4,5.4261926E2,4.1067456E2,5.0681247E2,1.0350486E4,2.8621686E2,2.1672679E2],"tree_param":{"num_deleted":"0","num_feature":"40","num_nodes":"45","size_leaf_vector":"1"}},{"base_weights":[1.6501533E-3,1.2424795E-1,-3.4126833E-1,9.771748E-3,1.0484991E0,-5.0003946E-1,1.2761346E-1,5.451666E-2,-1.24130666E-1,1.3156801E-1,3.469752E-1,-1.0609534E0,-2.0688267E-1,3.442842E-1,-1.6716258E-1,1.3578615E-2,1.4113756E-1,-1.3155656E0,-4.2288184E-1,-2.0952243E-2,-1.2739234E0,6.385915E-2,8.8884825E-1,-7.144771E-1,4.010929E-2,-6.6597E-1,1.2900537E-1,-1.2784929E0,-1.3429246E0,-3.4325812E-2,-1.36034E-1,-9.334886E-2,1.3618943E-1,-1.188217E-1,-1.2947272E-1,-3.1217163E-2,4.5813877E-2,7.210977E-2,1.6303866E-1,-8.431982E-2,1.2314552E-1,-1.3625999E-2,6.041063E-2,-7.6964706E-2,1.6804518E-1,-1.2823862E-1,-9.7291395E-2,-1.3449441E-1,-9.439494E-2,6.785754E-2,-1.4126381E-1,-1.4222005E-2,1.7092846E-1],"categories":[],"categories_nodes":[],"categories_segments":[],"categories_sizes":[],"default_left":[0,0,0,0,0,0,0,0,0,0,0,0,0,0,0,0,0,0,0,0,0,0,0,0,0,0,0,0,0,0,0,0,0,0,0,0,0,0,0,0,0,0,0,0,0,0,0,0,0,0,0,0,0],"id":12,"left_children":[1,3,5,7,9,11,-1,13,-1,-1,15,17,19,21,23,25,-1,27,29,31,33,35,37,39,41,43,-1,45,47,49,-1,51,-1,-1,-1,-1,-1,-1,-1,-1,-1,-1,-1,-1,-1,-1,-1,-1,-1,-1,-1,-1,-1],"loss_changes":[2.209266E3,4.0957598E3,3.5545942E3,1.9283011E3,7.9917676E2,2.072192E3,0E0,2.1363342E3,0E0,0E0,4.180271E2,7.02208E2,1.6423728E3,2.201262E3,2.137621E3,7.7986475E2,0E0,1.4189453E0,4.4990625E2,7.060254E2,6.5185547E-1,1.4110385E3,6.083286E2,1.2975027E3,1.3596641E3,1.4402588E2,0E0,3.388672E-1,1.472168E-1,8.6007526E2,0E0,5.905928E2,0E0,0E0,0E0,0E0,0E0,0E0,0E0,0E0,0E0,0E0,0E0,0E0,0E0,0E0,0E0,0E0,0E0,0E0,0E0,0E0,0E0],"parents":[2147483647,0,0,1,1,2,2,3,3,4,4,5,5,7,7,10,10,11,11,12,12,13,13,14,14,15,15,17,17,18,18,19,19,20,20,21,21,22,22,23,23,24,24,25,25,27,27,28,28,29,29,31,31],"right_children":[2,4,6,8,10,12,-1,14,-1,-1,16,18,20,22,24,26,-1,28,30,32,34,36,38,40,42,44,-1,46,48,50,-1,52,-1,-1,-1,-1,-1,-1,-1,-1,-1,-1,-1,-1,-1,-1,-1,-1,-1,-1,-1,-1,-1],"split_conditions":[6E0,6E0,7E0,3E0,2E0,6E0,1.2761346E-1,5E0,-1.24130666E-1,1.3156801E-1,1E0,2E0,7E0,5E0,5E0,2E0,1.4113756E-1,2E0,2E0,2E0,1E0,2E0,2E0,3E0,2E0,2E0,1.2900537E-1,3E0,3E0,1E0,-1.36034E-1,2E0,1.3618943E-1,-1.188217E-1,-1.2947272E-1,-3.1217163E-2,4.5813877E-2,7.210977E-2,1.6303866E-1,-8.431982E-2,1.2314552E-1,-1.3625999E-2,6.041063E-2,-7.6964706E-2,1.6804518E-1,-1.2823862E-1,-9.7291395E-2,-1.3449441E-1,-9.439494E-2,6.785754E-2,-1.4126381E-1,-1.4222005E-2,1.7092846E-1],"split_indices":[39,19,19,38,38,19,0,39,0,0,17,18,39,19,19,18,0,20,38,18,20,18,18,18,18,16,0,6,15,37,0,11,0,0,0,0,0,0,0,0,0,0,0,0,0,0,0,0,0,0,0,0,0],"split_type":[0,0,0,0,0,0,0,0,0,0,0,0,0,0,0,0,0,0,0,0,0,0,0,0,0,0,0,0,0,0,0,0,0,0,0,0,0,0,0,0,0,0,0,0,0,0,0,0,0,0,0,0,0],"sum_hessian":[5.25482E4,3.8709637E4,1.383856E4,3.4444418E4,4.265218E3,1.2602168E4,1.2363916E3,3.3255973E4,1.1884459E3,3.088183E3,1.177035E3,4.3247515E3,8.277417E3,1.4414083E4,1.884189E4,8.970648E2,2.7997018E2,3.0904824E3,1.2342692E3,7.049986E3,1.2274309E3,9.515276E3,4.898806E3,5.1748706E3,1.36670205E4,5.857247E2,3.1134012E2,1.3325505E3,1.7579318E3,8.733296E2,3.6093958E2,6.7001436E3,3.4984232E2,2.5109393E2,9.76337E2,4.8704546E3,4.6448223E3,3.9966562E3,9.0215E2,4.854329E3,3.2054126E2,1.0411855E4,3.2551655E3,5.61583E2,2.4141647E1,1.3126302E3,1.9920261E1,1.7467196E3,1.1212244E1,5.759434E2,2.9738617E2,6.524187E3,1.7595612E2],"tree_param":{"num_deleted":"0","num_feature":"40","num_nodes":"53","size_leaf_vector":"1"}},{"base_weights":[2.4904711E-3,-1.2816738E0,3.241904E-2,-1.3838537E0,-1.2383168E0,3.7258786E-1,-8.206532E-2,-1.2854277E-1,-1.4445186E-1,-1.2648702E-1,-1.16641186E-1,1.4564602E0,2.745088E-1,-6.344313E-1,4.558565E-3,1.510086E0,1.2300169E-1,1.2539747E0,1.7070986E-1,-1.4063466E0,-5.159674E-1,3.3833557E-1,-1.1561842E-1,1.5863854E0,1.3789734E0,1.3531232E-1,1.2066356E-1,4.358451E-1,-2.421479E-1,-1.451357E0,-1.2114179E-1,-6.658392E-1,-6.693626E-2,1.1842386E0,1.4030854E-1,-3.3067024E-1,2.468517E-1,1.4571515E-1,1.7197224E-1,1.3130121E-1,1.5508758E-1,1.1913393E-1,3.068359E-2,-4.5297552E-2,1.2608382E-1,-1.3576005E-1,-1.5963791E-1,-7.128028E-2,1.2304308E-1,2.9826257E-2,-1.2470191E-1,1.2249062E-1,7.417386E-2,7.2715454E-2,-1.55178225E-2,-6.597542E-2,-1.1375218E-2,1.6641151E-2,1.2152728E-1],"categories":[],"categories_nodes":[],"categories_segments":[],"categories_sizes":[],"default_left":[0,0,0,0,0,0,0,0,0,0,0,0,0,0,0,0,0,0,0,0,0,0,0,0,0,0,0,0,0,0,0,0,0,0,0,0,0,0,0,0,0,0,0,0,0,0,0,0,0,0,0,0,0,0,0,0,0,0,0],"id":13,"left_children":[1,3,5,7,9,11,13,-1,-1,-1,-1,15,17,19,21,23,-1,25,27,29,31,33,35,37,39,-1,-1,41,43,45,-1,47,49,51,53,55,57,-1,-1,-1,-1,-1,-1,-1,-1,-1,-1,-1,-1,-1,-1,-1,-1,-1,-1,-1,-1,-1,-1],"loss_changes":[1.9817032E3,3.4890137E0,1.9623358E3,1.8127441E-1,1.1694336E-1,1.3484154E3,1.8039103E3,0E0,0E0,0E0,0E0,1.0924805E1,1.1828406E3,4.6663184E2,1.307334E3,6.282715E0,0E0,3.5999756E0,1.1519475E3,4.2026367E0,2.982461E2,1.4451511E3,1.8680488E3,6.602417E0,1.5821533E0,0E0,0E0,6.241974E2,1.3046912E3,5.269043E0,0E0,2.968214E2,4.7887378E2,2.8542236E1,1.2126633E3,1.0735988E3,6.949721E2,0E0,0E0,0E0,0E0,0E0,0E0,0E0,0E0,0E0,0E0,0E0,0E0,0E0,0E0,0E0,0E0,0E0,0E0,0E0,0E0,0E0,0E0],"parents":[2147483647,0,0,1,1,2,2,3,3,4,4,5,5,6,6,11,11,12,12,13,13,14,14,15,15,17,17,18,18,19,19,20,20,21,21,22,22,23,23,24,24,27,27,28,28,29,29,31,31,32,32,33,33,34,34,35,35,36,36],"right_children":[2,4,6,8,10,12,14,-1,-1,-1,-1,16,18,20,22,24,-1,26,28,30,32,34,36,38,40,-1,-1,42,44,46,-1,48,50,52,54,56,58,-1,-1,-1,-1,-1,-1,-1,-1,-1,-1,-1,-1,-1,-1,-1,-1,-1,-1,-1,-1,-1,-1],"split_conditions":[1E0,6E0,2E0,1E0,7E0,1E0,2E0,-1.2854277E-1,-1.4445186E-1,-1.2648702E-1,-1.16641186E-1,7E0,1E0,1E0,1E0,2E0,1.2300169E-1,6E0,6E0,7E0,6E0,5E0,2E0,6E0,1E0,1.3531232E-1,1.2066356E-1,1E0,7E0,6E0,-1.2114179E-1,3E0,7E0,4E0,1E0,5E0,3E0,1.4571515E-1,1.7197224E-1,1.3130121E-1,1.5508758E-1,1.1913393E-1,3.068359E-2,-4.5297552E-2,1.2608382E-1,-1.3576005E-1,-1.5963791E-1,-7.128028E-2,1.2304308E-1,2.9826257E-2,-1.2470191E-1,1.2249062E-1,7.417386E-2,7.2715454E-2,-1.55178225E-2,-6.597542E-2,-1.1375218E-2,1.6641151E-2,1.2152728E-1],"split_indices":[20,39,0,37,39,1,20,0,0,0,0,19,0,21,18,18,0,19,39,39,19,39,18,39,17,0,0,18,19,19,0,18,39,20,17,19,18,0,0,0,0,0,0,0,0,0,0,0,0,0,0,0,0,0,0,0,0,0,0],"split_type":[0,0,0,0,0,0,0,0,0,0,0,0,0,0,0,0,0,0,0,0,0,0,0,0,0,0,0,0,0,0,0,0,0,0,0,0,0,0,0,0,0,0,0,0,0,0,0,0,0,0,0,0,0,0,0,0,0,0,0],"sum_hessian":[5.1560195E4,1.1733352E3,5.0386863E4,3.4033795E2,8.329972E2,1.2687143E4,3.769972E4,1.3823943E2,2.0209853E2,5.962286E2,2.3676866E2,1.0516376E3,1.1635505E4,5.1098594E3,3.258986E4,8.456933E2,2.0594424E2,1.1138578E3,1.0521647E4,6.7841406E2,4.4314453E3,8.627158E3,2.3962701E4,5.2757745E2,3.181158E2,3.5104193E2,7.6281586E2,6.407029E3,4.1146187E3,5.45913E2,1.3250108E2,3.3221416E3,1.1093037E3,1.6355736E3,6.991585E3,1.5039767E4,8.922935E3,2.7396808E2,2.5360938E2,2.3614279E2,8.197302E1,9.3329596E2,5.473733E3,3.6090645E3,5.05554E2,3.3785294E2,2.0806007E2,3.2424622E3,7.9679665E1,8.477108E2,2.6159283E2,1.4962899E3,1.3928365E2,2.3409412E3,4.6506436E3,5.9742534E3,9.065513E3,8.239691E3,6.8324365E2],"tree_param":{"num_deleted":"0","num_feature":"40","num_nodes":"59","size_leaf_vector":"1"}},{"base_weights":[9.069783E-4,1.10496014E-1,-3.1481865E-1,8.225221E-3,9.910698E-1,-4.5116958E-1,1.22142784E-1,-3.531604E-2,1.1076727E0,1.251829E0,7.539757E-1,-1.0019296E0,-1.7884782E-1,-7.796683E-2,1.1998247E-1,1.3324089E0,9.054157E-1,1.2561206E0,9.1150385E-1,6.0769033E-1,1.2628219E-1,-1.2666858E0,-3.6425725E-1,-1.631931E-2,-1.22610785E-1,-3.5928032E-1,1.3157476E-1,1.1090904E0,1.4084035E0,2.4906357E-1,1.3004613E0,1.2592073E-1,9.0772194E-1,9.9337906E-1,4.8441794E-2,3.001088E-1,9.64556E-1,-1.224613E0,-1.2966383E0,-7.0003875E-2,-1.3298625E-1,3.6290154E-2,-1.7032475E0,-1.3658627E-2,-8.028313E-2,6.436598E-2,-6.20765E-3,1.573825E-1,9.039572E-2,1.3117291E-1,1.576128E-1,-7.411625E-2,7.527037E-2,1.4727633E-1,1.08056724E-1,1.0191419E-1,2.4439588E-2,1.0525085E-1,2.852729E-2,6.677241E-2,-5.1956933E-2,-1.4166E-1,4.517894E-2,9.8278545E-2,-7.103093E-2,-1.2297746E-1,-8.539238E-2,-1.2972371E-1,-2.1648074E-2,-1.2305458E-1,5.7094083E-3,9.738459E-3,-1.457069E-1,-1.1938154E-1,-1.7397703E-1],"categories":[],"categories_nodes":[],"categories_segments":[],"categories_sizes":[],"default_left":[0,0,0,0,0,0,0,0,0,0,0,0,0,0,0,0,0,0,0,0,0,0,0,0,0,0,0,0,0,0,0,0,0,0,0,0,0,0,0,0,0,0,0,0,0,0,0,0,0,0,0,0,0,0,0,0,0,0,0,0,0,0,0,0,0,0,0,0,0,0,0,0,0,0,0],"id":14,"left_children":[1,3,5,7,9,11,-1,13,15,17,19,21,23,25,-1,27,29,31,33,35,-1,37,39,41,-1,43,45,47,49,51,53,-1,55,57,59,61,63,65,67,69,-1,71,73,-1,-1,-1,-1,-1,-1,-1,-1,-1,-1,-1,-1,-1,-1,-1,-1,-1,-1,-1,-1,-1,-1,-1,-1,-1,-1,-1,-1,-1,-1,-1,-1],"loss_changes":[1.7602123E3,3.4009785E3,2.7463198E3,1.6198221E3,2.4200464E2,1.805687E3,0E0,1.7147236E3,5.7384277E1,1.5859375E0,1.5262695E2,6.7205054E2,1.3715243E3,1.8546764E3,0E0,8.763794E0,1.7639392E2,8.3984375E-1,1.8549194E0,1.7561127E2,0E0,1.9584961E0,3.323612E2,6.192097E2,0E0,1.3265945E3,1.7882297E3,1.3753113E1,5.2332764E0,1.288865E2,1.4519714E1,0E0,1.2125301E0,7.275028E-1,1.5375421E0,2.2513437E2,2.3333618E1,1.2236328E0,7.717285E-1,1.3250412E2,0E0,6.174834E2,1.8491211E0,0E0,0E0,0E0,0E0,0E0,0E0,0E0,0E0,0E0,0E0,0E0,0E0,0E0,0E0,0E0,0E0,0E0,0E0,0E0,0E0,0E0,0E0,0E0,0E0,0E0,0E0,0E0,0E0,0E0,0E0,0E0,0E0],"parents":[2147483647,0,0,1,1,2,2,3,3,4,4,5,5,7,7,8,8,9,9,10,10,11,11,12,12,13,13,15,15,16,16,17,17,18,18,19,19,21,21,22,22,23,23,25,25,26,26,27,27,28,28,29,29,30,30,32,32,33,33,34,34,35,35,36,36,37,37,38,38,39,39,41,41,42,42],"right_children":[2,4,6,8,10,12,-1,14,16,18,20,22,24,26,-1,28,30,32,34,36,-1,38,40,42,-1,44,46,48,50,52,54,-1,56,58,60,62,64,66,68,70,-1,72,74,-1,-1,-1,-1,-1,-1,-1,-1,-1,-1,-1,-1,-1,-1,-1,-1,-1,-1,-1,-1,-1,-1,-1,-1,-1,-1,-1,-1,-1,-1,-1,-1],"split_conditions":[6E0,6E0,7E0,2E0,1E0,6E0,1.22142784E-1,3E0,5E0,3E0,1E0,2E0,7E0,5E0,1.1998247E-1,4E0,5E0,3E0,2E0,1E0,1.2628219E-1,2E0,1E0,2E0,-1.22610785E-1,5E0,5E0,1E0,1E0,1E0,1E0,1.2592073E-1,2E0,2E0,1E0,1E0,3E0,3E0,3E0,1E0,-1.3298625E-1,3E0,1E0,-1.3658627E-2,-8.028313E-2,6.436598E-2,-6.20765E-3,1.573825E-1,9.039572E-2,1.3117291E-1,1.576128E-1,-7.411625E-2,7.527037E-2,1.4727633E-1,1.08056724E-1,1.0191419E-1,2.4439588E-2,1.0525085E-1,2.852729E-2,6.677241E-2,-5.1956933E-2,-1.4166E-1,4.517894E-2,9.8278545E-2,-7.103093E-2,-1.2297746E-1,-8.539238E-2,-1.2972371E-1,-2.1648074E-2,-1.2305458E-1,5.7094083E-3,9.738459E-3,-1.457069E-1,-1.1938154E-1,-1.7397703E-1],"split_indices":[39,19,19,17,18,19,0,18,39,34,37,18,39,19,0,19,19,35,25,36,0,20,37,31,0,39,39,12,18,18,11,0,33,10,27,35,22,6,4,20,0,20,20,0,0,0,0,0,0,0,0,0,0,0,0,0,0,0,0,0,0,0,0,0,0,0,0,0,0,0,0,0,0,0,0],"split_type":[0,0,0,0,0,0,0,0,0,0,0,0,0,0,0,0,0,0,0,0,0,0,0,0,0,0,0,0,0,0,0,0,0,0,0,0,0,0,0,0,0,0,0,0,0,0,0,0,0,0,0,0,0,0,0,0,0,0,0,0,0,0,0,0,0,0,0,0,0,0,0,0,0,0,0],"sum_hessian":[5.0871086E4,3.7763832E4,1.3107256E4,3.3835184E4,3.9286458E3,1.2039395E4,1.067861E3,3.2547191E4,1.2879939E3,1.8689117E3,2.0597341E3,3.9824226E3,8.056972E3,3.146172E4,1.0854716E3,6.074466E2,6.8054724E2,1.8429807E3,2.5931068E1,1.601517E3,4.5821713E2,2.8133552E3,1.1690675E3,6.975441E3,1.0815312E3,1.3430419E4,1.80313E4,1.5818799E2,4.492586E2,2.563172E2,4.2423004E2,1.8242047E3,1.8776049E1,2.354633E1,2.3847392E0,8.61142E2,7.403749E2,1.1873805E3,1.6259746E3,8.968413E2,2.7222614E2,6.765429E3,2.1001189E2,8.942139E3,4.4882803E3,4.94708E3,1.3084221E4,4.6398605E1,1.1178939E2,2.9058792E2,1.586707E2,8.625545E1,1.7006175E2,2.3466022E2,1.8956982E2,1.5616507E1,3.1595423E0,2.1282768E1,2.2635608E0,1.0568959E0,1.3278433E0,6.923267E1,7.9190936E2,7.328121E2,7.5628037E0,1.1687881E3,1.8592445E1,1.6248727E3,1.1018755E0,8.766679E1,8.0917456E2,6.500427E3,2.6500247E2,1.6302736E1,1.9370915E2],"tree_param":{"num_deleted":"0","num_feature":"40","num_nodes":"75","size_leaf_vector":"1"}},{"base_weights":[-7.867037E-5,1.1910782E-1,-3.1049794E-1,1.6503248E-2,7.687369E-1,-4.2476824E-1,1.17259644E-1,1.8736857E-1,-3.0239815E-1,1.0567309E0,4.8164842E-1,-2.0350626E-1,-6.942919E-1,3.1618357E-2,1.2306896E0,-1.2326874E0,-8.508151E-3,1.1354764E0,5.024969E-1,6.8264025E-1,-1.2807328E-1,-1.6118231E0,-9.866278E-2,-1.6122684E-1,-5.3282005E-1,1.11498944E-1,-1.023319E0,1.2344029E0,9.493455E-1,-1.2334111E0,-1.473207E-2,1.565344E-1,-1.1998462E-1,1.1493434E0,-7.8337604E-1,7.189417E-1,-1.700115E-1,1.1472661E0,3.1860945E-1,-1.4147137E0,-1.827132E0,6.951265E-2,-1.2185418E-1,-9.183713E-1,-1.9325006E-1,5.6536257E-2,-1.0727466E-2,-3.1890515E-2,-1.13871746E-1,1.2361884E-1,9.576132E-2,1.0356065E-1,-1.896006E-2,-1.23602286E-1,-1.023426E-1,-6.447712E-4,1.19629495E-1,1.1629309E-1,-5.949664E-2,4.9065523E-2,-1.1628399E-1,1.08540945E-1,4.0339973E-2,9.4079934E-2,1.2494171E-1,-4.8188724E-2,1.339642E-1,-1.11349635E-1,-1.633494E-1,-1.6525392E-1,-1.9594559E-1,-5.4826498E-2,5.662936E-2,-1.4205138E-1,-4.2395063E-2,-4.5129046E-2,1.5747301E-1],"categories":[],"categories_nodes":[],"categories_segments":[],"categories_sizes":[],"default_left":[0,0,0,0,0,0,0,0,0,0,0,0,0,0,0,0,0,0,0,0,0,0,0,0,0,0,0,0,0,0,0,0,0,0,0,0,0,0,0,0,0,0,0,0,0,0,0,0,0,0,0,0,0,0,0,0,0,0,0,0,0,0,0,0,0,0,0,0,0,0,0,0,0,0,0,0,0],"id":15,"left_children":[1,3,5,7,9,11,-1,13,15,17,19,21,23,25,27,29,31,33,35,37,-1,39,41,-1,43,45,47,49,51,53,-1,55,-1,57,59,61,-1,63,65,67,69,71,-1,73,75,-1,-1,-1,-1,-1,-1,-1,-1,-1,-1,-1,-1,-1,-1,-1,-1,-1,-1,-1,-1,-1,-1,-1,-1,-1,-1,-1,-1,-1,-1,-1,-1],"loss_changes":[1.8485331E3,2.406357E3,2.349648E3,1.6989553E3,4.0662866E2,7.673999E2,0E0,3.2989744E3,2.9739814E3,1.06680176E2,8.7504694E2,1.0436758E3,8.5916455E2,1.4888016E3,1.583252E0,1.869873E0,1.6257134E3,5.8133057E1,1.478251E2,3.7442212E2,0E0,1.820044E1,1.2394784E3,0E0,6.460039E2,1.6307839E3,1.0072803E2,1.0083008E-1,3.996563E0,1.6577148E-1,0E0,1.2306802E3,0E0,5.131421E1,8.318882E0,3.2020813E1,0E0,1.9346924E1,1.0172577E3,1.532312E1,2.090454E0,1.7565406E3,0E0,5.731644E2,1.198524E3,0E0,0E0,0E0,0E0,0E0,0E0,0E0,0E0,0E0,0E0,0E0,0E0,0E0,0E0,0E0,0E0,0E0,0E0,0E0,0E0,0E0,0E0,0E0,0E0,0E0,0E0,0E0,0E0,0E0,0E0,0E0,0E0],"parents":[2147483647,0,0,1,1,2,2,3,3,4,4,5,5,7,7,8,8,9,9,10,10,11,11,12,12,13,13,14,14,15,15,16,16,17,17,18,18,19,19,21,21,22,22,24,24,25,25,26,26,27,27,28,28,29,29,31,31,33,33,34,34,35,35,37,37,38,38,39,39,40,40,41,41,43,43,44,44],"right_children":[2,4,6,8,10,12,-1,14,16,18,20,22,24,26,28,30,32,34,36,38,-1,40,42,-1,44,46,48,50,52,54,-1,56,-1,58,60,62,-1,64,66,68,70,72,-1,74,76,-1,-1,-1,-1,-1,-1,-1,-1,-1,-1,-1,-1,-1,-1,-1,-1,-1,-1,-1,-1,-1,-1,-1,-1,-1,-1,-1,-1,-1,-1,-1,-1],"split_conditions":[2E0,2E0,3E0,6E0,1E0,5E0,1.17259644E-1,6E0,6E0,2E0,6E0,4E0,5E0,2E0,3E0,3E0,7E0,3E0,6E0,5E0,-1.2807328E-1,1E0,3E0,-1.6122684E-1,2E0,5E0,1E0,3E0,2E0,3E0,-1.473207E-2,7E0,-1.1998462E-1,3E0,5E0,5E0,-1.700115E-1,4E0,5E0,1E0,1E0,2E0,-1.2185418E-1,6E0,1E0,5.6536257E-2,-1.0727466E-2,-3.1890515E-2,-1.13871746E-1,1.2361884E-1,9.576132E-2,1.0356065E-1,-1.896006E-2,-1.23602286E-1,-1.023426E-1,-6.447712E-4,1.19629495E-1,1.1629309E-1,-5.949664E-2,4.9065523E-2,-1.1628399E-1,1.08540945E-1,4.0339973E-2,9.4079934E-2,1.2494171E-1,-4.8188724E-2,1.339642E-1,-1.11349635E-1,-1.633494E-1,-1.6525392E-1,-1.9594559E-1,-5.4826498E-2,5.662936E-2,-1.4205138E-1,-4.2395063E-2,-4.5129046E-2,1.5747301E-1],"split_indices":[38,18,18,39,37,39,0,19,19,36,39,19,19,37,34,10,39,32,39,39,0,11,38,0,18,39,18,35,37,6,0,19,0,34,39,39,0,19,19,10,12,18,0,19,17,0,0,0,0,0,0,0,0,0,0,0,0,0,0,0,0,0,0,0,0,0,0,0,0,0,0,0,0,0,0,0,0],"split_type":[0,0,0,0,0,0,0,0,0,0,0,0,0,0,0,0,0,0,0,0,0,0,0,0,0,0,0,0,0,0,0,0,0,0,0,0,0,0,0,0,0,0,0,0,0,0,0,0,0,0,0,0,0,0,0,0,0,0,0,0,0,0,0,0,0,0,0,0,0,0,0,0,0,0,0,0,0],"sum_hessian":[4.996135E4,3.6100906E4,1.3860445E4,3.1177635E4,4.9232734E3,1.2869576E4,9.9086896E2,2.0300936E4,1.0876698E4,2.4564226E3,2.4668506E3,7.06852E3,5.801056E3,1.7664896E4,2.6360403E3,2.6104138E3,8.266285E3,2.149914E3,3.0650848E2,2.2148674E3,2.5198326E2,4.88766E2,6.5797544E3,8.6642096E2,4.934635E3,1.6422283E4,1.2426124E3,2.5983599E3,3.7680347E1,2.608538E3,1.8757043E0,7.2612173E3,1.0050675E3,2.134887E3,1.5027197E1,2.7969702E2,2.6811483E1,9.720512E2,1.2428162E3,2.591197E2,2.296463E2,5.721481E3,8.5827325E2,2.310062E3,2.624573E3,5.340792E3,1.1081491E4,1.754424E2,1.06717E3,2.578261E3,2.0098944E1,3.51118E1,2.5685484E0,2.5716653E3,3.6872833E1,6.278118E3,9.830991E2,2.1187163E3,1.6170593E1,3.381375E0,1.1645823E1,1.2827719E2,1.5141983E2,3.251236E2,6.469276E2,6.969391E2,5.458771E2,1.1158232E2,1.4753735E2,1.04825035E2,1.24821266E2,2.5501318E3,3.171349E3,1.1451519E3,1.16491E3,2.290949E3,3.3362405E2],"tree_param":{"num_deleted":"0","num_feature":"40","num_nodes":"77","size_leaf_vector":"1"}},{"base_weights":[-2.4127983E-3,-2.815901E-2,1.2971636E0,-5.4465786E-2,1.2924056E0,8.8897324E-1,1.5071123E0,-8.739901E-2,9.955979E-1,9.0187037E-1,1.4819431E0,1.2393979E0,3.7383556E-1,1.5987052E0,1.3279341E0,1.2097477E0,-1.109201E-1,4.3264467E-1,1.2720002E0,5.9727234E-1,1.3614509E0,1.6064016E0,1.2330873E0,6.584363E-1,1.5050913E-1,-4.5247227E-2,8.5631984E-1,1.6841476E0,1.2517141E-1,7.6840304E-2,1.6908451E0,1.23177186E-1,1.092821E-1,-2.9729705E-3,-4.3603423E-1,8.034491E-1,-1.2261868E-1,1.3689579E0,1.0799668E0,1.0341088E0,-6.287991E-2,1.616031E-1,9.845772E-1,1.6946386E0,1.2574264E-1,-9.913427E-2,1.662732E0,1.1128579E-1,1.5182558E-1,-7.655973E-1,5.721108E-1,1.3366258E0,-2.7983686E-1,1.485618E-1,1.7668055E-1,-9.933986E-1,1.6592254E-1,1.8239645E0,1.1429482E-1,-9.079342E-3,8.701806E-2,-5.3423297E-2,1.19049124E-1,1.9196035E-2,1.1108275E-1,-8.1650786E-2,6.473874E-2,1.2803108E-1,1.6725056E-1,-9.9439025E-3,1.4492677E-1,1.3862333E-1,7.077701E-2,3.7224777E-2,-8.658075E-2,-4.0369954E-2,1.16337836E-1,1.468044E-1,1.782684E-1,-9.990915E-2,1.5923317E-1,1.7984588E-1,1.1391901E-1,1.5209405E-1,-1.6460812E-2,-1.00196205E-1,2.0910107E-2,-3.5756778E-2,8.733115E-2,7.116026E-2,1.4114812E-1,-1.4248821E-1,1.6337165E-1,-1.0526752E-1,3.272691E-2,1.12783626E-1,1.8729346E-1],"categories":[],"categories_nodes":[],"categories_segments":[],"categories_sizes":[],"default_left":[0,0,0,0,0,0,0,0,0,0,0,0,0,0,0,0,0,0,0,0,0,0,0,0,0,0,0,0,0,0,0,0,0,0,0,0,0,0,0,0,0,0,0,0,0,0,0,0,0,0,0,0,0,0,0,0,0,0,0,0,0,0,0,0,0,0,0,0,0,0,0,0,0,0,0,0,0,0,0,0,0,0,0,0,0,0,0,0,0,0,0,0,0,0,0,0,0],"id":16,"left_children":[1,3,5,7,9,11,13,15,17,19,21,23,25,27,29,31,33,35,37,39,41,43,45,47,-1,49,51,53,-1,55,57,-1,-1,59,61,63,65,67,69,71,73,-1,75,77,-1,79,81,83,-1,85,87,89,91,-1,-1,93,-1,95,-1,-1,-1,-1,-1,-1,-1,-1,-1,-1,-1,-1,-1,-1,-1,-1,-1,-1,-1,-1,-1,-1,-1,-1,-1,-1,-1,-1,-1,-1,-1,-1,-1,-1,-1,-1,-1,-1,-1],"loss_changes":[1.6327942E3,1.6624224E3,7.990283E1,1.6225995E3,6.784839E1,5.8100464E1,8.127075E0,1.3881095E3,2.2146545E2,4.229657E1,1.7460815E1,2.8745636E1,2.6885977E1,1.0000122E1,9.8476685E1,7.406006E-1,1.5681453E3,9.7151276E1,1.6329712E1,5.3988037E1,1.0111038E1,1.0652222E1,1.2241083E2,2.9108818E1,0E0,3.2460056E1,3.4081615E1,2.7052612E0,0E0,8.6122154E1,1.0190186E1,0E0,0E0,2.572402E3,1.7796033E3,5.293454E1,1.0183621E2,1.4860107E1,1.4197388E2,1.1956047E1,2.6666473E1,0E0,1.3310932E1,3.9362793E0,0E0,8.230867E1,9.430603E0,1.5461164E1,0E0,7.963955E0,1.1330271E1,1.0349274E0,4.4354523E1,0E0,0E0,2.722868E0,0E0,2.4461365E0,0E0,0E0,0E0,0E0,0E0,0E0,0E0,0E0,0E0,0E0,0E0,0E0,0E0,0E0,0E0,0E0,0E0,0E0,0E0,0E0,0E0,0E0,0E0,0E0,0E0,0E0,0E0,0E0,0E0,0E0,0E0,0E0,0E0,0E0,0E0,0E0,0E0,0E0,0E0],"parents":[2147483647,0,0,1,1,2,2,3,3,4,4,5,5,6,6,7,7,8,8,9,9,10,10,11,11,12,12,13,13,14,14,15,15,16,16,17,17,18,18,19,19,20,20,21,21,22,22,23,23,25,25,26,26,27,27,29,29,30,30,33,33,34,34,35,35,36,36,37,37,38,38,39,39,40,40,42,42,43,43,45,45,46,46,47,47,49,49,50,50,51,51,52,52,55,55,57,57],"right_children":[2,4,6,8,10,12,14,16,18,20,22,24,26,28,30,32,34,36,38,40,42,44,46,48,-1,50,52,54,-1,56,58,-1,-1,60,62,64,66,68,70,72,74,-1,76,78,-1,80,82,84,-1,86,88,90,92,-1,-1,94,-1,96,-1,-1,-1,-1,-1,-1,-1,-1,-1,-1,-1,-1,-1,-1,-1,-1,-1,-1,-1,-1,-1,-1,-1,-1,-1,-1,-1,-1,-1,-1,-1,-1,-1,-1,-1,-1,-1,-1,-1],"split_conditions":[3E0,3E0,5E0,2E0,5E0,5E0,6E0,1E0,5E0,1E0,6E0,4E0,2E0,6E0,6E0,7E0,6E0,5E0,6E0,1E0,5E0,6E0,6E0,1E0,1.5050913E-1,1E0,1E0,2E0,1.2517141E-1,2E0,7E0,1.23177186E-1,1.092821E-1,6E0,7E0,4E0,2E0,3E0,6E0,1E0,5E0,1.616031E-1,1E0,2E0,1.2574264E-1,2E0,7E0,2E0,1.5182558E-1,2E0,1E0,2E0,1E0,1.485618E-1,1.7668055E-1,3E0,1.6592254E-1,1E0,1.1429482E-1,-9.079342E-3,8.701806E-2,-5.3423297E-2,1.19049124E-1,1.9196035E-2,1.1108275E-1,-8.1650786E-2,6.473874E-2,1.2803108E-1,1.6725056E-1,-9.9439025E-3,1.4492677E-1,1.3862333E-1,7.077701E-2,3.7224777E-2,-8.658075E-2,-4.0369954E-2,1.16337836E-1,1.468044E-1,1.782684E-1,-9.990915E-2,1.5923317E-1,1.7984588E-1,1.1391901E-1,1.5209405E-1,-1.6460812E-2,-1.00196205E-1,2.0910107E-2,-3.5756778E-2,8.733115E-2,7.116026E-2,1.4114812E-1,-1.4248821E-1,1.6337165E-1,-1.0526752E-1,3.272691E-2,1.12783626E-1,1.8729346E-1],"split_indices":[12,13,19,11,19,39,39,0,19,37,39,19,18,19,19,19,39,39,39,17,39,19,19,37,0,37,17,0,0,18,19,0,0,19,19,19,18,0,19,16,39,0,18,0,0,18,19,18,0,16,17,0,37,0,0,15,0,0,0,0,0,0,0,0,0,0,0,0,0,0,0,0,0,0,0,0,0,0,0,0,0,0,0,0,0,0,0,0,0,0,0,0,0,0,0,0,0],"split_type":[0,0,0,0,0,0,0,0,0,0,0,0,0,0,0,0,0,0,0,0,0,0,0,0,0,0,0,0,0,0,0,0,0,0,0,0,0,0,0,0,0,0,0,0,0,0,0,0,0,0,0,0,0,0,0,0,0,0,0,0,0,0,0,0,0,0,0,0,0,0,0,0,0,0,0,0,0,0,0,0,0,0,0,0,0,0,0,0,0,0,0,0,0,0,0,0,0],"sum_hessian":[4.8797516E4,4.7850516E4,9.469994E2,4.691685E4,9.3366504E2,3.2342267E2,6.235767E2,4.5491027E4,1.4258218E3,3.0695456E2,6.267105E2,1.916476E2,1.3177507E2,4.0739868E2,2.1617807E2,8.092968E2,4.468173E4,4.7037216E2,9.5544965E2,1.8598691E2,1.2096767E2,4.141364E2,2.125741E2,6.123348E1,1.3041411E2,7.100596E1,6.0769108E1,3.2381058E2,8.3588104E1,4.8880356E1,1.6729771E2,6.729973E2,1.3629945E2,3.3544887E4,1.1136846E4,2.8176364E2,1.8860852E2,6.308201E2,3.2462958E2,1.115834E2,7.440351E1,7.023535E1,5.073231E1,3.274786E2,8.66578E1,5.2025425E1,1.6054866E2,3.8110863E1,2.3122616E1,3.2658737E1,3.834722E1,4.2588524E1,1.8180582E1,1.0076476E2,2.230458E2,2.9380919E1,1.9499435E1,1.3272198E2,3.457573E1,3.0480137E4,3.0647495E3,1.0503393E4,6.334531E2,9.479866E1,1.8696498E2,9.917596E1,8.943256E1,4.9227545E2,1.3854465E2,7.758465E1,2.4704492E2,5.210907E1,5.9474323E1,4.860148E1,2.5802036E1,5.6449637E0,4.508735E1,9.65837E1,2.3089491E2,3.422506E1,1.7800365E1,1.25561905E2,3.4986767E1,5.499401E0,3.261146E1,2.6262178E1,6.3965607E0,9.337913E0,2.9009306E1,5.6787543E0,3.690977E1,1.15341015E1,6.646481E0,2.8313046E1,1.0678738E0,1.03022585E1,1.2241972E2],"tree_param":{"num_deleted":"0","num_feature":"40","num_nodes":"97","size_leaf_vector":"1"}},{"base_weights":[-8.050055E-6,-3.1756405E-2,1.0581368E0,-5.748093E-2,1.2940753E0,1.288348E0,7.9946476E-1,-8.200967E-2,1.2132454E0,1.5395182E0,1.2007593E0,1.4867736E0,1.1462502E0,4.2719355E-1,1.1121653E0,-1.0665683E-1,1.1817776E0,1.3573337E0,1.0576559E0,1.583526E-1,1.2040325E-1,1.3273387E0,1.0186809E0,1.5308456E-1,1.1401578E-1,1.5983905E0,9.931322E-1,1.1502812E0,1.5213175E-1,1.3199376E0,1.0132328E0,-1.3145015E-1,1.1199738E0,1.5080327E0,1.0505741E0,1.5556091E-1,1.3141264E0,7.724224E-1,1.3172548E0,1.4928856E0,1.0210941E0,6.611816E-1,1.4214859E0,1.6171496E-1,2.8571054E-2,5.2482384E-1,1.1224025E0,1.3241751E0,8.451885E-1,4.2628292E-2,4.87288E-1,1.3378704E-1,7.0877534E-1,8.492234E-1,1.2547603E0,-1.5958214E-2,9.1324925E-2,1.3391005E-1,8.8291876E-2,1.5571447E-1,1.14904284E-1,1.2334665E-1,8.033162E-2,1.4489806E-1,1.1901076E-1,1.4694922E-1,5.0964613E-2,1.4487149E-1,1.1730303E-1,1.5414086E-1,1.1383649E-1,7.494926E-2,1.3112482E-1,1.0564736E-1,4.1450508E-2,1.4800178E-1,9.337342E-2,7.6253223E-3,8.202173E-2,1.2836544E-1,9.288978E-2,1.4263208E-1,7.705708E-2,9.2246704E-2,-3.1353522E-2,4.7144946E-4,1.15322255E-1,8.840828E-2,1.7996226E-2,9.8587744E-2,1.1658306E-2,1.1953908E-1,6.7309946E-2,1.2900943E-1,6.643047E-2],"categories":[],"categories_nodes":[],"categories_segments":[],"categories_sizes":[],"default_left":[0,0,0,0,0,0,0,0,0,0,0,0,0,0,0,0,0,0,0,0,0,0,0,0,0,0,0,0,0,0,0,0,0,0,0,0,0,0,0,0,0,0,0,0,0,0,0,0,0,0,0,0,0,0,0,0,0,0,0,0,0,0,0,0,0,0,0,0,0,0,0,0,0,0,0,0,0,0,0,0,0,0,0,0,0,0,0,0,0,0,0,0,0,0,0],"id":17,"left_children":[1,3,5,7,9,11,13,15,17,19,21,23,25,27,29,31,33,35,37,-1,-1,39,41,-1,-1,43,45,47,49,51,53,55,57,59,61,-1,63,65,67,69,71,73,75,-1,-1,77,79,81,83,85,87,-1,89,91,93,-1,-1,-1,-1,-1,-1,-1,-1,-1,-1,-1,-1,-1,-1,-1,-1,-1,-1,-1,-1,-1,-1,-1,-1,-1,-1,-1,-1,-1,-1,-1,-1,-1,-1,-1,-1,-1,-1,-1,-1],"loss_changes":[1.6245903E3,1.6013811E3,8.28562E1,1.4356858E3,1.8619629E1,1.926538E1,7.705063E1,1.4076262E3,1.8119629E1,1.6754761E0,1.3675415E1,2.9440308E0,2.8717285E1,6.0617256E1,6.089691E0,1.3481072E3,3.542041E1,1.8052979E0,3.0372894E1,0E0,0E0,1.7808594E1,3.818521E1,0E0,0E0,2.2244263E0,1.9366608E1,3.3414078E0,8.147909E0,2.9292297E-1,8.801041E0,1.2769918E3,4.4437622E1,2.541626E0,2.703894E1,0E0,4.553711E0,3.669335E1,2.4816284E0,2.4661865E0,9.811462E0,1.3780224E1,2.2404785E0,0E0,0E0,9.635012E0,6.8408203E0,1.8294601E0,3.2699947E0,7.104681E0,6.5132904E0,0E0,7.6377964E-1,8.428268E0,1.2008972E0,0E0,0E0,0E0,0E0,0E0,0E0,0E0,0E0,0E0,0E0,0E0,0E0,0E0,0E0,0E0,0E0,0E0,0E0,0E0,0E0,0E0,0E0,0E0,0E0,0E0,0E0,0E0,0E0,0E0,0E0,0E0,0E0,0E0,0E0,0E0,0E0,0E0,0E0,0E0,0E0],"parents":[2147483647,0,0,1,1,2,2,3,3,4,4,5,5,6,6,7,7,8,8,9,9,10,10,11,11,12,12,13,13,14,14,15,15,16,16,17,17,18,18,21,21,22,22,25,25,26,26,27,27,28,28,29,29,30,30,31,31,32,32,33,33,34,34,36,36,37,37,38,38,39,39,40,40,41,41,42,42,45,45,46,46,47,47,48,48,49,49,50,50,52,52,53,53,54,54],"right_children":[2,4,6,8,10,12,14,16,18,20,22,24,26,28,30,32,34,36,38,-1,-1,40,42,-1,-1,44,46,48,50,52,54,56,58,60,62,-1,64,66,68,70,72,74,76,-1,-1,78,80,82,84,86,88,-1,90,92,94,-1,-1,-1,-1,-1,-1,-1,-1,-1,-1,-1,-1,-1,-1,-1,-1,-1,-1,-1,-1,-1,-1,-1,-1,-1,-1,-1,-1,-1,-1,-1,-1,-1,-1,-1,-1,-1,-1,-1,-1],"split_conditions":[2E0,3E0,1E0,3E0,1E0,1E0,1E0,3E0,1E0,2E0,1E0,3E0,1E0,1E0,1E0,3E0,1E0,1E0,1E0,1.583526E-1,1.2040325E-1,1E0,1E0,1.5308456E-1,1.1401578E-1,3E0,1E0,6E0,1E0,3E0,2E0,2E0,1E0,2E0,1E0,1.5556091E-1,1E0,1E0,1E0,3E0,1E0,5E0,6E0,1.6171496E-1,2.8571054E-2,1E0,1E0,2E0,2E0,2E0,5E0,1.3378704E-1,2E0,1E0,2E0,-1.5958214E-2,9.1324925E-2,1.3391005E-1,8.8291876E-2,1.5571447E-1,1.14904284E-1,1.2334665E-1,8.033162E-2,1.4489806E-1,1.1901076E-1,1.4694922E-1,5.0964613E-2,1.4487149E-1,1.1730303E-1,1.5414086E-1,1.1383649E-1,7.494926E-2,1.3112482E-1,1.0564736E-1,4.1450508E-2,1.4800178E-1,9.337342E-2,7.6253223E-3,8.202173E-2,1.2836544E-1,9.288978E-2,1.4263208E-1,7.705708E-2,9.2246704E-2,-3.1353522E-2,4.7144946E-4,1.15322255E-1,8.840828E-2,1.7996226E-2,9.8587744E-2,1.1658306E-2,1.1953908E-1,6.7309946E-2,1.2900943E-1,6.643047E-2],"split_indices":[5,14,17,13,18,16,37,7,17,17,17,18,18,18,13,6,18,18,37,0,0,16,37,0,0,16,36,39,6,1,13,17,17,17,17,0,16,18,15,18,37,39,39,0,0,37,15,36,36,16,39,0,29,14,32,0,0,0,0,0,0,0,0,0,0,0,0,0,0,0,0,0,0,0,0,0,0,0,0,0,0,0,0,0,0,0,0,0,0,0,0,0,0,0,0],"split_type":[0,0,0,0,0,0,0,0,0,0,0,0,0,0,0,0,0,0,0,0,0,0,0,0,0,0,0,0,0,0,0,0,0,0,0,0,0,0,0,0,0,0,0,0,0,0,0,0,0,0,0,0,0,0,0,0,0,0,0,0,0,0,0,0,0,0,0,0,0,0,0,0,0,0,0,0,0,0,0,0,0,0,0,0,0,0,0,0,0,0,0,0,0,0,0],"sum_hessian":[4.8357023E4,4.6949336E4,1.4076879E3,4.6056676E4,8.9266077E2,7.4271295E2,6.649749E2,4.51854E4,8.7127515E2,2.4162694E2,6.510339E2,3.0597946E2,4.3673346E2,3.0465186E2,3.6032306E2,4.432192E4,8.6347754E2,4.4834677E2,4.229284E2,2.1031812E2,3.130882E1,3.8033685E2,2.7069702E2,2.6843198E2,3.754748E1,1.0809683E2,3.2863663E2,8.307661E1,2.2157524E2,1.1224685E2,2.4807622E2,4.3444688E4,8.7723486E2,2.4464389E2,6.188337E2,7.395754E1,3.7438922E2,2.034089E2,2.1951949E2,2.4436526E2,1.3597159E2,1.448132E2,1.2588382E2,1.0634515E2,1.7516778E0,7.2186455E1,2.5645016E2,5.0788425E1,3.228818E1,1.6785895E2,5.3716293E1,1.0789201E2,4.354834E0,1.5043753E2,9.763868E1,4.2306297E4,1.13839E3,4.534398E2,4.2379504E2,2.1226688E2,3.237701E1,3.534237E2,2.6540997E2,1.7424113E2,2.0014809E2,5.4429893E1,1.4897902E2,1.10109886E2,1.0940959E2,2.12001E2,3.2364254E1,7.20818E1,6.3889782E1,5.4383068E1,9.043013E1,1.1057953E2,1.5304288E1,2.9161423E1,4.3025032E1,1.3680983E2,1.1964035E2,4.1546288E1,9.24214E0,3.0460575E1,1.8276054E0,1.6328879E2,4.570156E0,2.26263E1,3.108999E1,2.5137794E0,1.8410547E0,4.87781E1,1.0165944E2,9.100769E1,6.6309876E0],"tree_param":{"num_deleted":"0","num_feature":"40","num_nodes":"95","size_leaf_vector":"1"}},{"base_weights":[5.911357E-4,1.1128392E-1,-2.8479618E-1,1.5283975E-2,7.211884E-1,-3.88517E-1,1.1505633E-1,6.155313E-2,-9.216275E-1,9.777046E-1,4.6144187E-1,-3.1804156E-1,-1.18478216E-1,1.8897401E-2,8.9734375E-1,-4.0241843E-1,-1.0664868E0,-1.3072486E-1,1.0010246E0,2.5413433E-1,1.0672119E0,-6.7445385E-1,-6.914456E-2,-4.524643E-1,1.1675728E-1,2.8927487E-1,1.072335E0,-7.109804E-1,4.7171113E-1,-1.2981565E0,-9.6220714E-1,1.0771387E0,4.765027E-1,7.799477E-2,6.997929E-1,1.3519169E0,9.425331E-1,-9.7709817E-1,-3.6489296E-1,-1.4553585E0,3.5921607E-2,-9.967542E-2,-2.7083872E-2,-1.21311925E-1,1.480729E-2,-1.3068296E-2,1.6229823E-1,1.2373715E-1,8.765783E-2,-1.14179745E-1,-3.9768096E-2,-1.2165199E-2,7.4461184E-2,-1.2060914E-1,-1.3893548E-1,-7.729819E-2,-1.273949E-1,1.0892341E-1,-6.2076684E-2,2.446018E-2,7.824928E-2,5.8879603E-2,-1.7577196E-2,1.0134383E-1,5.3090494E-2,1.3999467E-1,1.041579E-1,1.1506357E-1,5.9310805E-2,1.1315813E-1,-9.9173896E-2,-5.649183E-2,1.2773909E-1,-1.2757593E-1,-1.6597529E-1,-2.5507355E-2,3.2496203E-2],"categories":[],"categories_nodes":[],"categories_segments":[],"categories_sizes":[],"default_left":[0,0,0,0,0,0,0,0,0,0,0,0,0,0,0,0,0,0,0,0,0,0,0,0,0,0,0,0,0,0,0,0,0,0,0,0,0,0,0,0,0,0,0,0,0,0,0,0,0,0,0,0,0,0,0,0,0,0,0,0,0,0,0,0,0,0,0,0,0,0,0,0,0,0,0,0,0],"id":18,"left_children":[1,3,5,7,9,11,-1,13,15,17,19,21,-1,23,25,27,29,-1,31,33,35,37,39,41,43,45,47,49,51,53,55,57,59,61,63,65,67,69,71,73,75,-1,-1,-1,-1,-1,-1,-1,-1,-1,-1,-1,-1,-1,-1,-1,-1,-1,-1,-1,-1,-1,-1,-1,-1,-1,-1,-1,-1,-1,-1,-1,-1,-1,-1,-1,-1],"loss_changes":[1.5203772E3,2.0303901E3,2.0028906E3,1.2989392E3,3.1377075E2,7.0359375E2,0E0,1.0179509E3,1.05629395E2,1.27693115E2,2.9423172E2,1.02242505E3,0E0,1.2532424E3,1.4722095E2,8.373624E1,2.537146E1,0E0,9.324536E1,1.3720032E2,1.9939209E1,4.4365015E2,9.8864825E2,4.6148083E2,9.371338E2,1.7452014E2,3.3686523E1,3.0446487E1,1.3251095E1,1.1720581E0,4.406787E1,4.277832E1,2.105349E1,1.6269505E2,2.5692307E1,1.220398E0,2.9779358E1,7.508765E1,7.7087146E2,1.5438538E1,5.308552E2,0E0,0E0,0E0,0E0,0E0,0E0,0E0,0E0,0E0,0E0,0E0,0E0,0E0,0E0,0E0,0E0,0E0,0E0,0E0,0E0,0E0,0E0,0E0,0E0,0E0,0E0,0E0,0E0,0E0,0E0,0E0,0E0,0E0,0E0,0E0,0E0],"parents":[2147483647,0,0,1,1,2,2,3,3,4,4,5,5,7,7,8,8,9,9,10,10,11,11,13,13,14,14,15,15,16,16,18,18,19,19,20,20,21,21,22,22,23,23,24,24,25,25,26,26,27,27,28,28,29,29,30,30,31,31,32,32,33,33,34,34,35,35,36,36,37,37,38,38,39,39,40,40],"right_children":[2,4,6,8,10,12,-1,14,16,18,20,22,-1,24,26,28,30,-1,32,34,36,38,40,42,44,46,48,50,52,54,56,58,60,62,64,66,68,70,72,74,76,-1,-1,-1,-1,-1,-1,-1,-1,-1,-1,-1,-1,-1,-1,-1,-1,-1,-1,-1,-1,-1,-1,-1,-1,-1,-1,-1,-1,-1,-1,-1,-1,-1,-1,-1,-1],"split_conditions":[2E0,2E0,3E0,2E0,1E0,3E0,1.1505633E-1,2E0,1E0,1E0,1E0,2E0,-1.18478216E-1,5E0,1E0,3E0,1E0,-1.3072486E-1,2E0,3E0,1E0,1E0,4E0,1E0,1E0,6E0,1E0,2E0,1E0,2E0,2E0,3E0,1E0,2E0,1E0,2E0,1E0,1E0,6E0,1E0,5E0,-9.967542E-2,-2.7083872E-2,-1.21311925E-1,1.480729E-2,-1.3068296E-2,1.6229823E-1,1.2373715E-1,8.765783E-2,-1.14179745E-1,-3.9768096E-2,-1.2165199E-2,7.4461184E-2,-1.2060914E-1,-1.3893548E-1,-7.729819E-2,-1.273949E-1,1.0892341E-1,-6.2076684E-2,2.446018E-2,7.824928E-2,5.8879603E-2,-1.7577196E-2,1.0134383E-1,5.3090494E-2,1.3999467E-1,1.041579E-1,1.1506357E-1,5.9310805E-2,1.1315813E-1,-9.9173896E-2,-5.649183E-2,1.2773909E-1,-1.2757593E-1,-1.6597529E-1,-2.5507355E-2,3.2496203E-2],"split_indices":[38,18,18,37,37,38,0,17,18,20,17,18,0,19,38,20,32,0,36,20,12,17,19,38,20,19,11,20,32,33,32,26,35,0,1,11,11,0,19,11,19,0,0,0,0,0,0,0,0,0,0,0,0,0,0,0,0,0,0,0,0,0,0,0,0,0,0,0,0,0,0,0,0,0,0,0,0],"split_type":[0,0,0,0,0,0,0,0,0,0,0,0,0,0,0,0,0,0,0,0,0,0,0,0,0,0,0,0,0,0,0,0,0,0,0,0,0,0,0,0,0,0,0,0,0,0,0,0,0,0,0,0,0,0,0,0,0,0,0,0,0,0,0,0,0,0,0,0,0,0,0,0,0,0,0,0,0],"sum_hessian":[4.812595E4,3.4676594E4,1.3449353E4,2.9961615E4,4.714981E3,1.2543662E4,9.056909E2,2.855249E4,1.4091238E3,2.3708516E3,2.3441294E3,1.1525012E4,1.01865063E3,2.7167008E4,1.3854833E3,3.0820914E2,1.1009147E3,2.3396072E1,2.3474556E3,1.7475125E3,5.966168E2,4.7382637E3,6.7867476E3,4.6698955E3,2.2497111E4,3.102083E2,1.0752749E3,2.2793591E2,8.027324E1,3.3817355E2,7.627411E2,2.0490605E3,2.9839505E2,1.2533289E3,4.941836E2,1.7870326E2,4.1791357E2,2.3948079E3,2.3434558E3,4.772459E2,6.309502E3,1.167295E3,3.5026003E3,5.1670087E2,2.1980412E4,2.3660739E2,7.360093E1,5.8052856E2,4.9474634E2,9.4855705E1,1.330802E2,2.5463228E1,5.481001E1,1.7536589E2,1.6280766E2,4.7680374E2,2.8593738E2,2.0349226E3,1.4137899E1,1.7077164E2,1.276234E2,4.1555252E2,8.3777637E2,1.7121527E2,3.2296832E2,1.5171234E2,2.6990913E1,2.6048618E2,1.5742741E2,1.5986804E1,2.378821E3,2.0896042E3,2.5385161E2,2.57886E2,2.1935991E2,3.1441777E3,3.165324E3],"tree_param":{"num_deleted":"0","num_feature":"40","num_nodes":"77","size_leaf_vector":"1"}},{"base_weights":[1.8316471E-3,2.677823E-2,-1.2520533E0,5.3162828E-2,-1.2263112E0,-8.909712E-1,-1.4374781E0,8.267626E-2,-9.7044307E-1,-8.439066E-1,-1.4238119E0,-1.2713099E0,-3.2456958E-1,-1.5372031E0,-1.2493086E0,1.0862176E-1,-1.1653056E0,-4.5740613E-1,-1.233563E0,-1.2031019E0,-2.817831E-1,-1.5392944E0,-1.2074056E0,-5.717449E-1,-1.5720458E-1,-5.1217365E-1,3.7713835E-1,-1.6097412E0,-1.2357537E-1,1.3135308E-2,-1.6387357E0,1.3408315E-1,-1.1500367E0,-6.2275964E-1,-1.4095101E0,-8.8259155E-1,1.704218E-1,-1.3785151E0,-1.0439415E0,-6.975825E-1,-1.4415884E0,-6.169276E-1,4.24584E-2,-1.6085908E0,-1.2534171E-1,2.0904924E-1,-1.6388512E0,-7.7867373E-3,-1.4457248E-1,-9.055198E-2,-1.1099766E0,-1.8666758E-1,1.0257059E0,-1.4163139E0,-1.6788824E-1,-6.1422586E-1,1.1439096E-1,-1.7586799E0,-1.13217704E-1,1.6379712E-2,-9.177429E-2,-6.2405862E-2,-1.390643E-1,-9.2656694E-2,-1.4235385E-2,-1.5107596E-1,-1.2743929E-1,-1.1523299E-2,-1.220116E-1,-2.563945E-2,5.3616595E-2,-1.5125953E-1,-1.2801069E-1,-8.942579E-2,-1.2950902E-1,-1.2756105E-2,-1.4018966E-1,-1.3022445E-1,-1.6218959E-1,-1.12790704E-1,1.1010308E-2,8.893619E-2,-6.748152E-2,-1.4131406E-1,-1.6785176E-1,-2.2649786E-2,9.221917E-2,-1.7493372E-1,-1.1301402E-1,-5.8689155E-2,6.245335E-2,-7.017617E-2,7.8197904E-2,-1.6874263E-1,-7.929119E-2,-4.8413478E-2,7.73189E-2,1.2733416E-1,1.2401971E-2,-1.4359961E-1,-5.406511E-2,-1.3320449E-1,2.963821E-2,-1.11717E-1,-1.8021417E-1],"categories":[],"categories_nodes":[],"categories_segments":[],"categories_sizes":[],"default_left":[0,0,0,0,0,0,0,0,0,0,0,0,0,0,0,0,0,0,0,0,0,0,0,0,0,0,0,0,0,0,0,0,0,0,0,0,0,0,0,0,0,0,0,0,0,0,0,0,0,0,0,0,0,0,0,0,0,0,0,0,0,0,0,0,0,0,0,0,0,0,0,0,0,0,0,0,0,0,0,0,0,0,0,0,0,0,0,0,0,0,0,0,0,0,0,0,0,0,0,0,0,0,0,0,0],"id":19,"left_children":[1,3,5,7,9,11,13,15,17,19,21,23,25,27,29,31,33,35,37,39,41,43,45,47,-1,49,51,53,-1,55,57,59,61,63,65,67,69,71,73,75,77,79,81,83,-1,85,87,89,-1,91,93,95,97,99,-1,101,-1,103,-1,-1,-1,-1,-1,-1,-1,-1,-1,-1,-1,-1,-1,-1,-1,-1,-1,-1,-1,-1,-1,-1,-1,-1,-1,-1,-1,-1,-1,-1,-1,-1,-1,-1,-1,-1,-1,-1,-1,-1,-1,-1,-1,-1,-1,-1,-1],"loss_changes":[1.4880365E3,1.5421958E3,6.085144E1,1.380149E3,7.1445435E1,6.798212E1,9.554443E0,1.4378745E3,1.7226587E2,6.6302185E1,1.3956909E1,3.898993E1,1.7160532E1,6.6555786E0,1.0678372E2,1.3941938E3,1.1895105E2,1.16436455E2,2.1805664E1,2.3235016E1,1.4151153E1,6.0861816E0,1.3774661E2,2.885906E1,0E0,2.5639359E1,1.0344407E1,1.8397217E0,0E0,3.7724457E1,8.09317E0,1.3327549E3,1.0829846E2,4.110222E1,6.5961914E0,6.717096E1,2.7726475E1,4.3468018E0,1.2770477E1,2.647448E1,1.2967529E0,2.3893068E1,4.130113E1,2.0791016E0,0E0,1.6789669E1,7.7160034E0,1.3771125E1,0E0,3.3066826E1,6.378887E0,4.8569202E0,2.7596226E0,7.6504517E-1,0E0,2.2759974E1,0E0,1.677887E0,0E0,0E0,0E0,0E0,0E0,0E0,0E0,0E0,0E0,0E0,0E0,0E0,0E0,0E0,0E0,0E0,0E0,0E0,0E0,0E0,0E0,0E0,0E0,0E0,0E0,0E0,0E0,0E0,0E0,0E0,0E0,0E0,0E0,0E0,0E0,0E0,0E0,0E0,0E0,0E0,0E0,0E0,0E0,0E0,0E0,0E0,0E0],"parents":[2147483647,0,0,1,1,2,2,3,3,4,4,5,5,6,6,7,7,8,8,9,9,10,10,11,11,12,12,13,13,14,14,15,15,16,16,17,17,18,18,19,19,20,20,21,21,22,22,23,23,25,25,26,26,27,27,29,29,30,30,31,31,32,32,33,33,34,34,35,35,36,36,37,37,38,38,39,39,40,40,41,41,42,42,43,43,45,45,46,46,47,47,49,49,50,50,51,51,52,52,53,53,55,55,57,57],"right_children":[2,4,6,8,10,12,14,16,18,20,22,24,26,28,30,32,34,36,38,40,42,44,46,48,-1,50,52,54,-1,56,58,60,62,64,66,68,70,72,74,76,78,80,82,84,-1,86,88,90,-1,92,94,96,98,100,-1,102,-1,104,-1,-1,-1,-1,-1,-1,-1,-1,-1,-1,-1,-1,-1,-1,-1,-1,-1,-1,-1,-1,-1,-1,-1,-1,-1,-1,-1,-1,-1,-1,-1,-1,-1,-1,-1,-1,-1,-1,-1,-1,-1,-1,-1,-1,-1,-1,-1],"split_conditions":[3E0,3E0,5E0,2E0,5E0,5E0,6E0,3E0,5E0,5E0,6E0,4E0,3E0,6E0,6E0,3E0,5E0,5E0,1E0,4E0,1E0,6E0,6E0,1E0,-1.5720458E-1,1E0,1E0,2E0,-1.2357537E-1,1E0,7E0,2E0,5E0,5E0,1E0,4E0,1E0,1E0,6E0,1E0,1E0,1E0,1E0,2E0,-1.2534171E-1,1E0,7E0,1E0,-1.4457248E-1,1E0,2E0,2E0,4E0,3E0,-1.6788824E-1,1E0,1.1439096E-1,1E0,-1.13217704E-1,1.6379712E-2,-9.177429E-2,-6.2405862E-2,-1.390643E-1,-9.2656694E-2,-1.4235385E-2,-1.5107596E-1,-1.2743929E-1,-1.1523299E-2,-1.220116E-1,-2.563945E-2,5.3616595E-2,-1.5125953E-1,-1.2801069E-1,-8.942579E-2,-1.2950902E-1,-1.2756105E-2,-1.4018966E-1,-1.3022445E-1,-1.6218959E-1,-1.12790704E-1,1.1010308E-2,8.893619E-2,-6.748152E-2,-1.4131406E-1,-1.6785176E-1,-2.2649786E-2,9.221917E-2,-1.7493372E-1,-1.1301402E-1,-5.8689155E-2,6.245335E-2,-7.017617E-2,7.8197904E-2,-1.6874263E-1,-7.929119E-2,-4.8413478E-2,7.73189E-2,1.2733416E-1,1.2401971E-2,-1.4359961E-1,-5.406511E-2,-1.3320449E-1,2.963821E-2,-1.11717E-1,-1.8021417E-1],"split_indices":[33,34,39,25,39,19,19,27,39,19,19,39,0,39,39,26,39,19,37,39,37,39,39,17,0,17,37,20,0,37,39,31,39,19,37,39,37,36,39,17,17,36,17,20,0,37,39,37,0,37,0,9,20,27,0,36,0,20,0,0,0,0,0,0,0,0,0,0,0,0,0,0,0,0,0,0,0,0,0,0,0,0,0,0,0,0,0,0,0,0,0,0,0,0,0,0,0,0,0,0,0,0,0,0,0],"split_type":[0,0,0,0,0,0,0,0,0,0,0,0,0,0,0,0,0,0,0,0,0,0,0,0,0,0,0,0,0,0,0,0,0,0,0,0,0,0,0,0,0,0,0,0,0,0,0,0,0,0,0,0,0,0,0,0,0,0,0,0,0,0,0,0,0,0,0,0,0,0,0,0,0,0,0,0,0,0,0,0,0,0,0,0,0,0,0,0,0,0,0,0,0,0,0,0,0,0,0,0,0,0,0,0,0],"sum_hessian":[4.756921E4,4.6642223E4,9.269886E2,4.5681332E4,9.60892E2,3.164884E2,6.105002E2,4.4402016E4,1.2793156E3,3.2905063E2,6.3184143E2,1.8859937E2,1.27889015E2,3.9434048E2,2.161597E2,4.3498594E4,9.034212E2,4.3462085E2,8.446947E2,2.0006766E2,1.2898297E2,4.0800296E2,2.2383846E2,5.757377E1,1.310256E2,1.0112342E2,2.6765594E1,3.1435648E2,7.9984E1,5.1187252E1,1.6497244E2,4.2636984E4,8.6160956E2,2.8152066E2,6.219005E2,2.5888785E2,1.75733E2,4.7518192E2,3.6951282E2,6.5388596E1,1.3467906E2,6.2981236E1,6.600174E1,3.246751E2,8.3327866E1,5.238189E1,1.7145656E2,3.5606598E1,2.196717E1,5.9975246E1,4.114818E1,1.4699429E1,1.2066167E1,8.8435616E1,2.2592087E2,3.3215744E1,1.7971508E1,1.3138982E2,3.358263E1,4.1466406E4,1.1705774E3,2.7155966E2,5.900499E2,1.718895E2,1.0963117E2,3.4968497E2,2.7221555E2,7.9495964E1,1.7939188E2,8.123376E1,9.449924E1,1.9505347E2,2.8012842E2,2.3438239E2,1.3513043E2,3.6792496E1,2.85961E1,8.0607155E1,5.4071915E1,3.6662395E1,2.631884E1,3.0155931E1,3.5845806E1,9.1140396E1,2.335347E2,3.294397E1,1.943792E1,1.3885924E2,3.2597324E1,1.8622862E1,1.6983736E1,3.5384235E1,2.459101E1,1.3053203E1,2.8094976E1,1.1600087E1,3.0993416E0,9.142991E0,2.9231756E0,8.5865715E1,2.5698993E0,1.8315273E1,1.490047E1,1.0031173E1,1.2135864E2],"tree_param":{"num_deleted":"0","num_feature":"40","num_nodes":"105","size_leaf_vector":"1"}},{"base_weights":[-1.6124E-3,2.2529384E-2,-1.2473469E0,-1.2079169E0,4.5741208E-2,-8.44238E-1,-1.4467789E0,-1.2983023E0,-1.1633611E-1,6.8998866E-2,-1.160185E0,-1.2306961E0,-2.965492E-1,-1.5434847E0,-1.267253E0,-1.3280201E-1,-1.0866169E-1,9.336514E-2,-1.11833E0,-8.35178E-1,-1.3442934E0,-6.6217524E-1,-1.4966962E0,1.8320096E-1,-7.28126E-1,-1.6120517E0,-1.250748E-1,1.8564823E-1,-1.645538E0,1.1642026E-1,-1.1605015E-1,-7.47837E-1,-1.3258177E0,3.9715666E-1,-9.847338E-1,-1.4437717E0,-1.1538543E0,-1.3995188E-1,3.1087467E-1,-1.2216332E0,-1.7437527E0,-1.6625742E0,4.612086E-1,-1.5168687E0,2.208222E-1,-1.728748E0,-1.2971063E0,1.1359823E-1,-1.6846927E-1,-1.7490268E0,-1.13052666E-1,1.4445844E-2,-8.295396E-2,-1.0871347E-1,-2.3571236E-2,-1.4272994E-1,-1.126034E-1,5.7739463E-2,-5.502466E-2,-1.3051598E-1,-5.4722197E-2,-1.5238976E-1,-1.2114171E-1,1.0088336E-2,-1.5755306E-1,1.1418831E-1,-1.0481348E-1,-1.6653638E-1,1.15528945E-2,-1.8374118E-1,-1.0299044E-1,-2.3780633E-2,-1.9200252E-1,6.836285E-2,-1.0330893E-1,-1.5663776E-1,-4.4522122E-3,1.1268888E-1,-1.127028E-1,-1.7827407E-1,-1.2709145E-1,-5.009483E-2,-1.6858922E-1,-1.8038234E-1,-1.2067975E-1],"categories":[],"categories_nodes":[],"categories_segments":[],"categories_sizes":[],"default_left":[0,0,0,0,0,0,0,0,0,0,0,0,0,0,0,0,0,0,0,0,0,0,0,0,0,0,0,0,0,0,0,0,0,0,0,0,0,0,0,0,0,0,0,0,0,0,0,0,0,0,0,0,0,0,0,0,0,0,0,0,0,0,0,0,0,0,0,0,0,0,0,0,0,0,0,0,0,0,0,0,0,0,0,0,0],"id":20,"left_children":[1,3,5,7,9,11,13,15,-1,17,19,21,23,25,27,-1,-1,29,31,33,35,37,39,41,43,45,-1,47,49,51,-1,53,55,57,59,61,63,-1,65,67,69,71,73,75,77,79,81,-1,-1,83,-1,-1,-1,-1,-1,-1,-1,-1,-1,-1,-1,-1,-1,-1,-1,-1,-1,-1,-1,-1,-1,-1,-1,-1,-1,-1,-1,-1,-1,-1,-1,-1,-1,-1,-1],"loss_changes":[1.4254672E3,1.328058E3,7.121985E1,1.9567871E0,1.2800695E3,6.3270233E1,8.485962E0,2.9101562E-1,0E0,1.295472E3,5.0550293E1,2.5617737E1,2.6158802E1,5.737488E0,1.191022E2,0E0,0E0,1.2684827E3,6.822949E1,5.8433212E1,8.746765E0,4.19608E1,5.96167E0,3.1722034E1,5.0012547E1,9.133667E0,0E0,8.2876755E1,7.168457E0,1.1428362E3,0E0,5.6311935E1,1.0069092E1,6.259378E0,3.8697723E1,4.8016357E0,1.0257892E2,0E0,3.0299173E1,3.560514E1,2.1453094E0,2.5196323E0,1.8391647E1,2.5815964E0,3.9127556E1,3.2427368E0,2.62975E1,0E0,0E0,2.0142822E0,0E0,0E0,0E0,0E0,0E0,0E0,0E0,0E0,0E0,0E0,0E0,0E0,0E0,0E0,0E0,0E0,0E0,0E0,0E0,0E0,0E0,0E0,0E0,0E0,0E0,0E0,0E0,0E0,0E0,0E0,0E0,0E0,0E0,0E0,0E0],"parents":[2147483647,0,0,1,1,2,2,3,3,4,4,5,5,6,6,7,7,9,9,10,10,11,11,12,12,13,13,14,14,17,17,18,18,19,19,20,20,21,21,22,22,23,23,24,24,25,25,27,27,28,28,29,29,31,31,32,32,33,33,34,34,35,35,36,36,38,38,39,39,40,40,41,41,42,42,43,43,44,44,45,45,46,46,49,49],"right_children":[2,4,6,8,10,12,14,16,-1,18,20,22,24,26,28,-1,-1,30,32,34,36,38,40,42,44,46,-1,48,50,52,-1,54,56,58,60,62,64,-1,66,68,70,72,74,76,78,80,82,-1,-1,84,-1,-1,-1,-1,-1,-1,-1,-1,-1,-1,-1,-1,-1,-1,-1,-1,-1,-1,-1,-1,-1,-1,-1,-1,-1,-1,-1,-1,-1,-1,-1,-1,-1,-1,-1],"split_conditions":[3E0,1E0,5E0,6E0,3E0,5E0,6E0,3E0,-1.1633611E-1,3E0,5E0,4E0,2E0,6E0,6E0,-1.3280201E-1,-1.0866169E-1,3E0,5E0,1E0,6E0,2E0,2E0,2E0,2E0,2E0,-1.250748E-1,2E0,7E0,2E0,-1.1605015E-1,5E0,6E0,4E0,2E0,2E0,6E0,-1.3995188E-1,3E0,2E0,3E0,1E0,2E0,2E0,3E0,2E0,2E0,1.1359823E-1,-1.6846927E-1,2E0,-1.13052666E-1,1.4445844E-2,-8.295396E-2,-1.0871347E-1,-2.3571236E-2,-1.4272994E-1,-1.126034E-1,5.7739463E-2,-5.502466E-2,-1.3051598E-1,-5.4722197E-2,-1.5238976E-1,-1.2114171E-1,1.0088336E-2,-1.5755306E-1,1.1418831E-1,-1.0481348E-1,-1.6653638E-1,1.15528945E-2,-1.8374118E-1,-1.0299044E-1,-2.3780633E-2,-1.9200252E-1,6.836285E-2,-1.0330893E-1,-1.5663776E-1,-4.4522122E-3,1.1268888E-1,-1.127028E-1,-1.7827407E-1,-1.2709145E-1,-5.009483E-2,-1.6858922E-1,-1.8038234E-1,-1.2067975E-1],"split_indices":[32,20,39,39,33,19,19,38,0,34,39,39,38,39,39,0,0,38,39,18,19,18,38,0,18,18,0,38,39,31,0,19,19,20,18,18,39,0,38,18,38,21,37,16,38,38,38,0,0,38,0,0,0,0,0,0,0,0,0,0,0,0,0,0,0,0,0,0,0,0,0,0,0,0,0,0,0,0,0,0,0,0,0,0,0],"split_type":[0,0,0,0,0,0,0,0,0,0,0,0,0,0,0,0,0,0,0,0,0,0,0,0,0,0,0,0,0,0,0,0,0,0,0,0,0,0,0,0,0,0,0,0,0,0,0,0,0,0,0,0,0,0,0,0,0,0,0,0,0,0,0,0,0,0,0,0,0,0,0,0,0,0,0,0,0,0,0,0,0,0,0,0,0],"sum_hessian":[4.739632E4,4.6496223E4,9.000944E2,8.5994543E2,4.5636277E4,2.9964993E2,6.004445E2,2.7465128E2,5.852942E2,4.477371E4,8.6256903E2,1.7495311E2,1.2469683E2,3.852974E2,2.1514711E2,2.3621619E2,3.8435093E1,4.3874246E4,8.994628E2,3.1392786E2,5.486412E2,5.687782E1,1.18075294E2,5.932518E1,6.537165E1,3.0852533E2,7.6772064E1,4.4550106E1,1.70597E2,4.3082977E4,7.9126886E2,3.245485E2,5.749143E2,3.379583E1,2.8013202E2,3.560647E2,1.9257648E2,3.2108685E1,2.4769135E1,5.8683777E1,5.9391518E1,7.1138577E0,5.2211323E1,3.537245E1,2.9999199E1,2.2183878E2,8.668655E1,2.9800756E1,1.47493515E1,1.4005717E2,3.0539831E1,4.1843586E4,1.2393938E3,1.9453831E2,1.300102E2,3.7717902E2,1.9773529E2,2.8722157E1,5.0736732E0,1.605586E2,1.19573425E2,2.606298E2,9.54349E1,4.8631035E1,1.4394545E2,1.5469561E1,9.299574E0,4.387773E1,1.4806048E1,5.1111572E1,8.279947E0,1.3831297E0,5.7307277E0,4.5918983E1,6.2923365E0,3.4159935E1,1.2125176E0,1.8037663E1,1.1961537E1,1.9584834E2,2.5990435E1,2.9193148E1,5.7493397E1,1.2508922E2,1.4967954E1],"tree_param":{"num_deleted":"0","num_feature":"40","num_nodes":"85","size_leaf_vector":"1"}},{"base_weights":[-2.5165877E-3,-2.5447244E-2,1.176347E0,-4.9459875E-2,1.167001E0,7.872985E-1,1.3782465E0,-7.648497E-2,9.154302E-1,7.821607E-1,1.3568292E0,5.4402447E-1,1.1672918E0,1.312772E0,1.6373452E0,-1.0399933E-1,8.7314534E-1,3.762801E-1,1.1801982E0,4.7777247E-1,1.2051212E0,1.2827047E0,1.6338936E0,6.1780542E-2,8.0690116E-1,8.817922E-2,1.4956295E-1,1.1689576E0,1.4794846E0,1.7148477E-1,1.1345416E-1,-1.2708409E-1,1.0913883E0,3.6615273E-1,1.1219963E0,-8.697531E-1,5.0696963E-1,1.0707849E0,1.3544765E0,7.099526E-2,6.9721854E-1,3.117633E-3,1.4324367E0,1.0986549E0,1.5097103E0,1.720182E0,1.1277833E-1,-8.7201524E-1,4.3519777E-1,-4.6418875E-2,1.0878084E0,8.1332046E-1,-3.6520493E-1,1.0096505E0,1.4693199E-1,1.5351197E0,1.1151214E-1,1.1734199E-1,-1.4744155E-2,7.092298E-2,1.2827827E-1,-8.216737E-2,4.953735E-2,1.0470637E-1,1.4087817E-1,-9.564399E-2,-2.9453648E-2,2.4034578E-2,9.877725E-2,9.293832E-2,1.4487247E-1,1.4743763E-1,1.2597978E-1,-9.5165275E-2,7.1515605E-2,-2.3575984E-3,9.277772E-2,7.010858E-2,-4.8301302E-2,1.5097605E-1,1.164109E-1,7.4399404E-2,1.242304E-1,1.5671067E-1,1.090652E-1,1.7817286E-1,1.2634932E-1,-1.1931876E-1,7.207196E-4,-4.700027E-2,6.071797E-2,-4.8703294E-2,1.01940386E-1,-6.294906E-3,1.2997967E-1,-6.823911E-3,1.2555611E-1,-7.9318635E-2,3.3645365E-2,3.4111544E-2,1.2401004E-1,1.0998106E-1,1.569103E-1],"categories":[],"categories_nodes":[],"categories_segments":[],"categories_sizes":[],"default_left":[0,0,0,0,0,0,0,0,0,0,0,0,0,0,0,0,0,0,0,0,0,0,0,0,0,0,0,0,0,0,0,0,0,0,0,0,0,0,0,0,0,0,0,0,0,0,0,0,0,0,0,0,0,0,0,0,0,0,0,0,0,0,0,0,0,0,0,0,0,0,0,0,0,0,0,0,0,0,0,0,0,0,0,0,0,0,0,0,0,0,0,0,0,0,0,0,0,0,0,0,0,0,0],"id":21,"left_children":[1,3,5,7,9,11,13,15,17,19,21,23,25,27,29,31,33,35,37,39,41,43,45,47,49,51,-1,53,55,-1,-1,57,59,61,63,65,67,69,71,73,75,77,79,81,83,85,-1,87,89,91,93,95,97,99,-1,101,-1,-1,-1,-1,-1,-1,-1,-1,-1,-1,-1,-1,-1,-1,-1,-1,-1,-1,-1,-1,-1,-1,-1,-1,-1,-1,-1,-1,-1,-1,-1,-1,-1,-1,-1,-1,-1,-1,-1,-1,-1,-1,-1,-1,-1,-1,-1],"loss_changes":[1.2754275E3,1.3252761E3,6.962805E1,1.1831218E3,6.568237E1,2.8013351E1,7.8824463E0,1.1532391E3,1.7601892E2,3.8582565E1,1.0441528E1,2.4139973E1,4.2417404E1,9.7092285E0,2.5453186E0,1.1837523E3,1.5639044E2,6.697833E1,1.4349121E1,1.588681E1,3.459503E1,1.865802E1,3.527588E0,2.4231028E1,2.9633163E1,9.856861E0,0E0,1.1000732E1,2.6910095E0,0E0,0E0,1.1142455E3,5.8534912E1,6.3440952E1,1.6429077E1,1.6707344E0,4.725081E1,2.6111084E1,1.727417E0,4.2625885E1,1.9274895E1,7.511868E0,4.519043E-1,1.2944275E1,3.4635315E0,7.017212E-1,0E0,5.620269E0,7.996043E0,1.5300736E1,2.2741882E1,4.5676208E0,5.8468485E0,2.6334671E1,0E0,1.0223999E0,0E0,0E0,0E0,0E0,0E0,0E0,0E0,0E0,0E0,0E0,0E0,0E0,0E0,0E0,0E0,0E0,0E0,0E0,0E0,0E0,0E0,0E0,0E0,0E0,0E0,0E0,0E0,0E0,0E0,0E0,0E0,0E0,0E0,0E0,0E0,0E0,0E0,0E0,0E0,0E0,0E0,0E0,0E0,0E0,0E0,0E0,0E0],"parents":[2147483647,0,0,1,1,2,2,3,3,4,4,5,5,6,6,7,7,8,8,9,9,10,10,11,11,12,12,13,13,14,14,15,15,16,16,17,17,18,18,19,19,20,20,21,21,22,22,23,23,24,24,25,25,27,27,28,28,31,31,32,32,33,33,34,34,35,35,36,36,37,37,38,38,39,39,40,40,41,41,42,42,43,43,44,44,45,45,47,47,48,48,49,49,50,50,51,51,52,52,53,53,55,55],"right_children":[2,4,6,8,10,12,14,16,18,20,22,24,26,28,30,32,34,36,38,40,42,44,46,48,50,52,-1,54,56,-1,-1,58,60,62,64,66,68,70,72,74,76,78,80,82,84,86,-1,88,90,92,94,96,98,100,-1,102,-1,-1,-1,-1,-1,-1,-1,-1,-1,-1,-1,-1,-1,-1,-1,-1,-1,-1,-1,-1,-1,-1,-1,-1,-1,-1,-1,-1,-1,-1,-1,-1,-1,-1,-1,-1,-1,-1,-1,-1,-1,-1,-1,-1,-1,-1,-1],"split_conditions":[3E0,3E0,5E0,2E0,5E0,1E0,3E0,2E0,5E0,1E0,3E0,2E0,1E0,6E0,6E0,3E0,5E0,1E0,6E0,2E0,1E0,6E0,6E0,1E0,4E0,1E0,1.4956295E-1,2E0,7E0,1.7148477E-1,1.1345416E-1,1E0,5E0,1E0,2E0,4E0,1E0,2E0,1E0,1E0,4E0,1E0,2E0,2E0,7E0,2E0,1.1277833E-1,2E0,1E0,3E0,2E0,1E0,1E0,2E0,1.4693199E-1,1E0,1.1151214E-1,1.1734199E-1,-1.4744155E-2,7.092298E-2,1.2827827E-1,-8.216737E-2,4.953735E-2,1.0470637E-1,1.4087817E-1,-9.564399E-2,-2.9453648E-2,2.4034578E-2,9.877725E-2,9.293832E-2,1.4487247E-1,1.4743763E-1,1.2597978E-1,-9.5165275E-2,7.1515605E-2,-2.3575984E-3,9.277772E-2,7.010858E-2,-4.8301302E-2,1.5097605E-1,1.164109E-1,7.4399404E-2,1.242304E-1,1.5671067E-1,1.090652E-1,1.7817286E-1,1.2634932E-1,-1.1931876E-1,7.207196E-4,-4.700027E-2,6.071797E-2,-4.8703294E-2,1.01940386E-1,-6.294906E-3,1.2997967E-1,-6.823911E-3,1.2555611E-1,-7.9318635E-2,3.3645365E-2,3.4111544E-2,1.2401004E-1,1.0998106E-1,1.569103E-1],"split_indices":[12,14,19,5,19,37,20,11,19,37,20,18,38,19,19,13,19,38,19,18,38,19,19,36,19,9,0,18,19,0,0,0,19,38,18,0,37,18,38,36,19,12,29,20,19,18,0,15,38,18,20,34,30,20,0,0,0,0,0,0,0,0,0,0,0,0,0,0,0,0,0,0,0,0,0,0,0,0,0,0,0,0,0,0,0,0,0,0,0,0,0,0,0,0,0,0,0,0,0,0,0,0,0],"split_type":[0,0,0,0,0,0,0,0,0,0,0,0,0,0,0,0,0,0,0,0,0,0,0,0,0,0,0,0,0,0,0,0,0,0,0,0,0,0,0,0,0,0,0,0,0,0,0,0,0,0,0,0,0,0,0,0,0,0,0,0,0,0,0,0,0,0,0,0,0,0,0,0,0,0,0,0,0,0,0,0,0,0,0,0,0,0,0,0,0,0,0,0,0,0,0,0,0,0,0,0,0,0,0],"sum_hessian":[4.7179824E4,4.6280574E4,8.9924774E2,4.536795E4,9.126273E2,3.0890506E2,5.903427E2,4.4132777E4,1.2351708E3,3.0315625E2,6.09471E2,1.8981561E2,1.1908945E2,4.7609875E2,1.14243935E2,4.2890957E4,1.2418219E3,4.075972E2,8.275736E2,1.7752675E2,1.25629524E2,4.8527304E2,1.2419798E2,6.7402176E1,1.2241344E2,2.8077785E1,9.1011665E1,2.599042E2,2.1619458E2,9.689751E1,1.7346426E1,4.2079234E4,8.117204E2,4.0966626E2,8.321557E2,3.8155556E1,3.6944165E2,5.127865E2,3.147871E2,6.2674103E1,1.1485264E2,2.0141043E1,1.0548848E2,2.7121732E2,2.1405573E2,1.0405801E2,2.0139978E1,1.8872622E1,4.8529556E1,3.052414E1,9.18893E1,1.0496241E1,1.7581545E1,1.726794E2,8.7224785E1,1.8476883E2,3.1425753E1,6.476633E2,4.143157E4,2.724409E2,5.3927954E2,3.966823E1,3.6999802E2,6.634558E2,1.6869992E2,3.258253E1,5.573025E0,2.3861838E2,1.3082327E2,3.7568674E2,1.3709978E2,1.3246402E2,1.823231E2,2.4036774E1,3.863733E1,2.8051895E1,8.680074E1,8.087351E0,1.2053691E1,7.8298706E1,2.7189775E1,7.9965836E1,1.912515E2,1.8585977E2,2.8195942E1,8.914304E1,1.4914964E1,1.3561595E1,5.3110275E0,7.471517E0,4.105804E1,2.1980417E1,8.54372E0,1.4403637E1,7.7485664E1,3.78899E0,6.7072506E0,1.0839483E1,6.7420607E0,4.4901226E1,1.27778175E2,1.5795831E1,1.6897299E2],"tree_param":{"num_deleted":"0","num_feature":"40","num_nodes":"103","size_leaf_vector":"1"}},{"base_weights":[8.156367E-4,2.2759205E-2,-1.1694995E0,4.3917984E-2,-1.1618227E-1,-7.932961E-1,-1.3563527E0,-5.610996E-2,3.7537327E-1,-1.1655916E0,-2.7092874E-1,-1.4391375E0,-1.1957433E0,3.417067E-2,-9.153542E-1,8.82781E-1,1.534856E-1,-6.294049E-1,-1.4041148E0,2.1385016E-1,-7.335649E-1,-1.5321243E0,-1.2006619E0,1.0375568E-1,-1.5376817E0,6.5415286E-2,-1.141722E-1,-1.1911476E0,-3.1839088E-1,1.1739528E0,2.4911635E-1,3.5329245E-2,1.1444159E-1,-1.2905059E0,2.7566895E-1,-1.1609013E0,-1.6235942E0,4.6140146E-1,-1.2427506E0,-1.4840595E-1,1.1904393E-1,-1.6086327E0,-1.1544098E-1,-6.721747E-1,-1.5303831E-1,1.10799424E-1,-1.5054332E-1,-1.6222092E0,-1.1101905E-1,3.141238E-2,-1.2396338E-2,-1.1939756E-1,-9.8109566E-2,3.227348E-3,-1.268257E-1,1.1773789E-1,9.457133E-2,-4.4832523E-3,1.1972966E-1,-2.957659E-3,1.468486E-1,-1.3687317E-1,-3.0473305E-2,1.05720915E-1,-1.0210365E-1,-1.5693648E-1,8.1457775E-3,-1.6904968E-1,-9.955983E-2,-1.4328532E-2,9.1794275E-2,-8.571955E-3,-1.454957E-1,1.052434E-1,-1.10672235E-1,-1.6487303E-1,-1.23225175E-1,-1.8875116E-1,4.5381724E-3,-1.6643922E-1,-1.1636422E-1],"categories":[],"categories_nodes":[],"categories_segments":[],"categories_sizes":[],"default_left":[0,0,0,0,0,0,0,0,0,0,0,0,0,0,0,0,0,0,0,0,0,0,0,0,0,0,0,0,0,0,0,0,0,0,0,0,0,0,0,0,0,0,0,0,0,0,0,0,0,0,0,0,0,0,0,0,0,0,0,0,0,0,0,0,0,0,0,0,0,0,0,0,0,0,0,0,0,0,0,0,0],"id":22,"left_children":[1,3,5,7,-1,9,11,13,15,17,19,21,23,25,27,29,31,33,35,37,39,41,43,45,47,49,-1,51,53,55,57,59,-1,61,63,65,67,69,71,-1,73,75,-1,77,-1,-1,-1,79,-1,-1,-1,-1,-1,-1,-1,-1,-1,-1,-1,-1,-1,-1,-1,-1,-1,-1,-1,-1,-1,-1,-1,-1,-1,-1,-1,-1,-1,-1,-1,-1,-1],"loss_changes":[1.2042683E3,1.1537723E3,5.9593872E1,1.4994017E3,0E0,5.5853577E1,5.9277344E0,2.6949692E3,1.180236E3,2.0644974E1,2.7404572E1,6.468994E0,8.972745E1,1.1551333E3,5.4344946E2,5.8819653E2,8.541491E2,3.2451176E1,4.290924E0,2.2244606E1,4.0099495E1,5.82843E0,1.8092758E1,7.103907E1,3.9677124E0,1.4425107E3,0E0,1.7016602E-1,3.4817197E2,5.949707E-1,2.802905E2,6.064696E2,0E0,1.9868317E0,2.4860739E1,2.9757584E1,7.6660156E-1,1.4514273E1,2.0853271E0,0E0,3.564193E1,1.2676392E0,0E0,3.8406734E1,0E0,0E0,0E0,5.996094E-1,0E0,0E0,0E0,0E0,0E0,0E0,0E0,0E0,0E0,0E0,0E0,0E0,0E0,0E0,0E0,0E0,0E0,0E0,0E0,0E0,0E0,0E0,0E0,0E0,0E0,0E0,0E0,0E0,0E0,0E0,0E0,0E0,0E0],"parents":[2147483647,0,0,1,1,2,2,3,3,5,5,6,6,7,7,8,8,9,9,10,10,11,11,12,12,13,13,14,14,15,15,16,16,17,17,18,18,19,19,20,20,21,21,22,22,23,23,24,24,25,25,27,27,28,28,29,29,30,30,31,31,33,33,34,34,35,35,36,36,37,37,38,38,40,40,41,41,43,43,47,47],"right_children":[2,4,6,8,-1,10,12,14,16,18,20,22,24,26,28,30,32,34,36,38,40,42,44,46,48,50,-1,52,54,56,58,60,-1,62,64,66,68,70,72,-1,74,76,-1,78,-1,-1,-1,80,-1,-1,-1,-1,-1,-1,-1,-1,-1,-1,-1,-1,-1,-1,-1,-1,-1,-1,-1,-1,-1,-1,-1,-1,-1,-1,-1,-1,-1,-1,-1,-1,-1],"split_conditions":[3E0,7E0,5E0,6E0,-1.1618227E-1,5E0,6E0,6E0,6E0,4E0,2E0,2E0,6E0,3E0,2E0,2E0,7E0,2E0,2E0,2E0,2E0,6E0,2E0,2E0,7E0,5E0,-1.141722E-1,3E0,2E0,3E0,2E0,3E0,1.1444159E-1,2E0,3E0,2E0,3E0,1E0,1E0,-1.4840595E-1,3E0,2E0,-1.1544098E-1,5E0,-1.5303831E-1,1.10799424E-1,-1.5054332E-1,2E0,-1.1101905E-1,3.141238E-2,-1.2396338E-2,-1.1939756E-1,-9.8109566E-2,3.227348E-3,-1.268257E-1,1.1773789E-1,9.457133E-2,-4.4832523E-3,1.1972966E-1,-2.957659E-3,1.468486E-1,-1.3687317E-1,-3.0473305E-2,1.05720915E-1,-1.0210365E-1,-1.5693648E-1,8.1457775E-3,-1.6904968E-1,-9.955983E-2,-1.4328532E-2,9.1794275E-2,-8.571955E-3,-1.454957E-1,1.052434E-1,-1.10672235E-1,-1.6487303E-1,-1.23225175E-1,-1.8875116E-1,4.5381724E-3,-1.6643922E-1,-1.1636422E-1],"split_indices":[32,39,39,19,0,19,19,39,39,39,38,18,39,38,18,38,19,18,38,37,18,39,38,38,39,39,0,6,38,34,18,0,0,14,38,18,38,34,3,0,38,38,0,19,0,0,0,38,0,0,0,0,0,0,0,0,0,0,0,0,0,0,0,0,0,0,0,0,0,0,0,0,0,0,0,0,0,0,0,0,0],"split_type":[0,0,0,0,0,0,0,0,0,0,0,0,0,0,0,0,0,0,0,0,0,0,0,0,0,0,0,0,0,0,0,0,0,0,0,0,0,0,0,0,0,0,0,0,0,0,0,0,0,0,0,0,0,0,0,0,0,0,0,0,0,0,0,0,0,0,0,0,0,0,0,0,0,0,0,0,0,0,0,0,0],"sum_hessian":[4.6891523E4,4.6029445E4,8.620778E2,4.5222652E4,8.067955E2,2.8782562E2,5.742522E2,3.4739617E4,1.0483034E4,1.6733397E2,1.2049166E2,3.7368103E2,2.0057115E2,3.143745E4,3.3021667E3,3.1885503E3,7.294484E3,5.2640312E1,1.1469366E2,5.910038E1,6.1391285E1,2.6494757E2,1.08733475E2,4.1927383E1,1.5864377E2,3.0624666E4,8.1278296E2,2.2579924E3,1.0441742E3,2.1840957E3,1.0044546E3,6.5182925E3,7.7619135E2,3.0174114E1,2.2466198E1,5.7388542E1,5.7305115E1,5.1099228E1,8.001151E0,3.2257E1,2.9134285E1,2.176104E2,4.7337154E1,4.294252E1,6.5790955E1,2.6008097E1,1.5919287E1,1.3012047E2,2.8523298E1,1.323831E4,1.7386357E4,2.2233752E3,3.4617233E1,7.633372E2,2.8083698E2,2.1476992E3,3.6396404E1,7.6747845E2,2.3697612E2,6.2368145E3,2.8147797E2,2.759577E1,2.5783439E0,1.4132853E1,8.333345E0,4.2990795E1,1.4397748E1,5.025896E1,7.046156E0,2.2278116E1,2.8821112E1,1.4576145E0,6.543536E0,1.661999E1,1.2514296E1,1.9360432E2,2.4006075E1,1.53364525E1,2.7606068E1,1.1675113E2,1.3369346E1],"tree_param":{"num_deleted":"0","num_feature":"40","num_nodes":"81","size_leaf_vector":"1"}},{"base_weights":[6.145472E-4,9.9302255E-2,-2.5828585E-1,1.1212153E-2,6.619601E-1,-3.5166213E-1,1.1258391E-1,-3.7242672E-1,1.0690343E-1,9.0506244E-1,4.2172918E-1,-6.293908E-1,-1.8172534E-1,-5.0153124E-1,6.6526926E-1,8.556223E-2,1.8206927E-1,-1.2117826E-1,9.236897E-1,2.4000391E-1,9.789907E-1,-8.9689934E-1,-3.5796756E-1,-7.2481066E-2,-1.1180737E-1,5.3060347E-1,-5.887786E-1,-7.208439E-1,8.7151814E-1,5.2133836E-2,1.1285378E-1,1.0532365E0,7.096561E-1,1.3873994E-1,1.2842395E0,1.276342E0,8.485922E-1,-9.9368274E-1,-1.5418474E-1,-5.3289765E-1,1.21392064E-1,-1.3587391E0,2.6228223E-2,-8.932076E-2,1.08839475E-1,5.086873E-2,-6.5763965E-2,-1.6746437E-2,-9.5673606E-2,1.0781373E-1,6.285528E-2,2.7893179E-3,1.3802747E-1,1.0668454E-1,-5.721079E-2,8.584384E-2,5.1408924E-2,-3.2103315E-3,5.7753682E-2,1.4186741E-1,1.12019815E-1,1.316111E-1,9.955323E-2,6.291446E-2,1.1893629E-1,-1.01028465E-1,7.8522794E-2,-3.1750917E-2,1.5214576E-1,-1.03577554E-1,-1.7457405E-2,-1.197228E-1,-1.5402472E-1,-2.3831636E-2,2.9749481E-2],"categories":[],"categories_nodes":[],"categories_segments":[],"categories_sizes":[],"default_left":[0,0,0,0,0,0,0,0,0,0,0,0,0,0,0,0,0,0,0,0,0,0,0,0,0,0,0,0,0,0,0,0,0,0,0,0,0,0,0,0,0,0,0,0,0,0,0,0,0,0,0,0,0,0,0,0,0,0,0,0,0,0,0,0,0,0,0,0,0,0,0,0,0,0,0],"id":23,"left_children":[1,3,5,7,9,11,-1,13,15,17,19,21,23,25,27,29,-1,-1,31,33,35,37,39,41,-1,43,45,47,49,51,-1,53,55,57,59,61,63,65,67,69,-1,71,73,-1,-1,-1,-1,-1,-1,-1,-1,-1,-1,-1,-1,-1,-1,-1,-1,-1,-1,-1,-1,-1,-1,-1,-1,-1,-1,-1,-1,-1,-1,-1,-1],"loss_changes":[1.1795245E3,1.6566486E3,1.6470527E3,1.0610085E3,2.63854E2,5.6323047E2,0E0,7.733229E2,8.458755E2,8.975867E1,2.304118E2,3.2864124E2,7.5754004E2,4.6245178E2,1.8326547E2,7.965496E2,0E0,0E0,6.10542E1,1.8157574E2,2.0620972E1,1.6381934E2,6.194788E2,8.4229724E2,0E0,3.1906427E2,3.579773E2,1.0712753E1,2.7262177E1,7.1275415E2,0E0,3.1277466E1,2.4101196E1,1.17563995E2,1.7590027E0,5.732422E-1,2.8573547E1,6.0390015E1,7.277874E1,3.6486493E2,0E0,1.2017029E1,4.4226584E2,0E0,0E0,0E0,0E0,0E0,0E0,0E0,0E0,0E0,0E0,0E0,0E0,0E0,0E0,0E0,0E0,0E0,0E0,0E0,0E0,0E0,0E0,0E0,0E0,0E0,0E0,0E0,0E0,0E0,0E0,0E0,0E0],"parents":[2147483647,0,0,1,1,2,2,3,3,4,4,5,5,7,7,8,8,9,9,10,10,11,11,12,12,13,13,14,14,15,15,18,18,19,19,20,20,21,21,22,22,23,23,25,25,26,26,27,27,28,28,29,29,31,31,32,32,33,33,34,34,35,35,36,36,37,37,38,38,39,39,41,41,42,42],"right_children":[2,4,6,8,10,12,-1,14,16,18,20,22,24,26,28,30,-1,-1,32,34,36,38,40,42,-1,44,46,48,50,52,-1,54,56,58,60,62,64,66,68,70,-1,72,74,-1,-1,-1,-1,-1,-1,-1,-1,-1,-1,-1,-1,-1,-1,-1,-1,-1,-1,-1,-1,-1,-1,-1,-1,-1,-1,-1,-1,-1,-1,-1,-1],"split_conditions":[2E0,2E0,3E0,5E0,1E0,2E0,1.1258391E-1,2E0,4E0,1E0,1E0,1E0,3E0,1E0,1E0,7E0,1.8206927E-1,-1.2117826E-1,1E0,2E0,1E0,2E0,6E0,4E0,-1.1180737E-1,1E0,4E0,1E0,1E0,3E0,1.1285378E-1,3E0,1E0,3E0,1E0,2E0,2E0,3E0,6E0,5E0,1.21392064E-1,1E0,5E0,-8.932076E-2,1.08839475E-1,5.086873E-2,-6.5763965E-2,-1.6746437E-2,-9.5673606E-2,1.0781373E-1,6.285528E-2,2.7893179E-3,1.3802747E-1,1.0668454E-1,-5.721079E-2,8.584384E-2,5.1408924E-2,-3.2103315E-3,5.7753682E-2,1.4186741E-1,1.12019815E-1,1.316111E-1,9.955323E-2,6.291446E-2,1.1893629E-1,-1.01028465E-1,7.8522794E-2,-3.1750917E-2,1.5214576E-1,-1.03577554E-1,-1.7457405E-2,-1.197228E-1,-1.5402472E-1,-2.3831636E-2,2.9749481E-2],"split_indices":[38,18,18,19,37,18,0,17,0,20,17,17,38,18,38,19,0,0,16,16,12,16,19,19,0,38,19,12,11,6,0,35,15,20,11,11,12,14,19,19,0,11,19,0,0,0,0,0,0,0,0,0,0,0,0,0,0,0,0,0,0,0,0,0,0,0,0,0,0,0,0,0,0,0,0],"split_type":[0,0,0,0,0,0,0,0,0,0,0,0,0,0,0,0,0,0,0,0,0,0,0,0,0,0,0,0,0,0,0,0,0,0,0,0,0,0,0,0,0,0,0,0,0,0,0,0,0,0,0,0,0,0,0,0,0,0,0,0,0,0,0,0,0,0,0,0,0,0,0,0,0,0,0],"sum_hessian":[4.616282E4,3.3423184E4,1.2739639E4,2.8899652E4,4.5235293E3,1.1935208E4,8.044308E2,5.768817E3,2.3130836E4,2.2469526E3,2.2765767E3,4.5296587E3,7.40555E3,5.130967E3,6.378503E2,2.2847375E4,2.8346024E2,1.9040998E1,2.2279116E3,1.7178195E3,5.5875726E2,2.2801196E3,2.2495388E3,6.6327773E3,7.7277234E2,3.9952423E2,4.7314424E3,8.229367E1,5.5555664E2,2.2138854E4,7.08522E2,1.3854366E3,8.4247516E2,1.5669941E3,1.5082526E2,1.6765672E2,3.9110056E2,2.0169519E3,2.6316772E2,2.02486E3,2.2467883E2,4.7182104E2,6.1609565E3,1.122908E2,2.8723343E2,2.7897137E2,4.452471E3,2.5106419E1,5.7187256E1,2.9837735E2,2.571793E2,2.174303E4,3.9582346E2,1.3742734E3,1.1163187E1,4.7654358E2,3.6593155E2,1.1285327E3,4.3846143E2,7.868958E1,7.2135666E1,1.4362883E2,2.4027897E1,2.3963072E2,1.5146982E2,1.9987306E3,1.8221325E1,2.4053351E2,2.2634226E1,8.417052E2,1.1831548E3,2.5368279E2,2.1813824E2,3.1191855E3,3.0417708E3],"tree_param":{"num_deleted":"0","num_feature":"40","num_nodes":"75","size_leaf_vector":"1"}},{"base_weights":[-1.0957449E-3,-1.180283E-1,1.936479E-2,4.0836435E-2,-1.0784775E0,6.322354E-2,-1.0548698E0,-1.2715042E0,-8.657603E-1,8.542414E-2,-1.0388786E0,-1.2631018E0,-8.2040405E-1,-1.5029473E0,-1.1135954E0,-1.053011E0,-2.1284583E-1,1.0513057E-1,-1.0762688E0,-1.131481E0,-7.4380517E-1,-1.457053E0,-1.122971E0,-1.0245994E0,-1.0692943E-1,-1.5495461E0,-1.0733636E-1,-1.5597957E-1,-9.437153E-1,-1.2192171E0,-9.005342E-1,-4.964575E-1,5.767023E-1,1.2606131E-2,-1.0132255E-1,-1.1731622E-1,-7.816295E-2,-1.3153337E-1,-1.035046E-1,-1.07793786E-1,-2.4111962E-2,-1.4953911E-1,-1.0612483E-1,-1.5034609E-1,-9.772398E-2,-1.1713048E-1,-8.879953E-2,-3.9697483E-2,5.6972403E-2,-1.4591582E-1,-1.7398493E-1,-4.4405382E-2,-1.0910743E-1,-1.2489184E-1,-4.941104E-2,-1.0501402E-1,-5.12078E-2,-7.36106E-2,2.2386014E-3,1.36162415E-2,9.764113E-2],"categories":[],"categories_nodes":[],"categories_segments":[],"categories_sizes":[],"default_left":[0,0,0,0,0,0,0,0,0,0,0,0,0,0,0,0,0,0,0,0,0,0,0,0,0,0,0,0,0,0,0,0,0,0,0,0,0,0,0,0,0,0,0,0,0,0,0,0,0,0,0,0,0,0,0,0,0,0,0,0,0],"id":24,"left_children":[1,-1,3,5,7,9,11,13,15,17,19,21,23,25,27,29,31,33,35,37,39,41,43,45,47,49,-1,-1,51,53,55,57,59,-1,-1,-1,-1,-1,-1,-1,-1,-1,-1,-1,-1,-1,-1,-1,-1,-1,-1,-1,-1,-1,-1,-1,-1,-1,-1,-1,-1],"loss_changes":[1.1028788E3,0E0,1.0592073E3,1.0811204E3,3.4291626E1,1.0568263E3,4.2049133E1,1.4763794E1,5.0293182E1,9.693457E2,2.2463623E1,1.1016296E1,6.0779938E1,1.9309998E0,1.9086182E1,7.0333557E0,2.1188557E1,9.746627E2,1.9247131E1,1.0114319E1,3.4449562E1,1.3250732E0,1.3758545E1,5.469635E0,1.8697266E1,2.0870972E-1,0E0,0E0,1.4164871E1,2.6282654E0,9.409576E0,8.622465E0,4.292403E0,0E0,0E0,0E0,0E0,0E0,0E0,0E0,0E0,0E0,0E0,0E0,0E0,0E0,0E0,0E0,0E0,0E0,0E0,0E0,0E0,0E0,0E0,0E0,0E0,0E0,0E0,0E0,0E0],"parents":[2147483647,0,0,2,2,3,3,4,4,5,5,6,6,7,7,8,8,9,9,10,10,11,11,12,12,13,13,14,14,15,15,16,16,17,17,18,18,19,19,20,20,21,21,22,22,23,23,24,24,25,25,28,28,29,29,30,30,31,31,32,32],"right_children":[2,-1,4,6,8,10,12,14,16,18,20,22,24,26,28,30,32,34,36,38,40,42,44,46,48,50,-1,-1,52,54,56,58,60,-1,-1,-1,-1,-1,-1,-1,-1,-1,-1,-1,-1,-1,-1,-1,-1,-1,-1,-1,-1,-1,-1,-1,-1,-1,-1,-1,-1],"split_conditions":[1E0,-1.180283E-1,3E0,3E0,1E0,3E0,1E0,1E0,2E0,3E0,2E0,1E0,2E0,3E0,1E0,1E0,3E0,3E0,2E0,1E0,1E0,3E0,1E0,1E0,3E0,2E0,-1.0733636E-1,-1.5597957E-1,1E0,2E0,3E0,2E0,2E0,1.2606131E-2,-1.0132255E-1,-1.1731622E-1,-7.816295E-2,-1.3153337E-1,-1.035046E-1,-1.07793786E-1,-2.4111962E-2,-1.4953911E-1,-1.0612483E-1,-1.5034609E-1,-9.772398E-2,-1.1713048E-1,-8.879953E-2,-3.9697483E-2,5.6972403E-2,-1.4591582E-1,-1.7398493E-1,-4.4405382E-2,-1.0910743E-1,-1.2489184E-1,-4.941104E-2,-1.0501402E-1,-5.12078E-2,-7.36106E-2,2.2386014E-3,1.36162415E-2,9.764113E-2],"split_indices":[20,0,28,27,37,26,37,36,18,32,18,36,18,38,38,38,20,34,18,38,37,38,38,38,20,18,0,0,16,16,20,21,38,0,0,0,0,0,0,0,0,0,0,0,0,0,0,0,0,0,0,0,0,0,0,0,0,0,0,0,0],"split_type":[0,0,0,0,0,0,0,0,0,0,0,0,0,0,0,0,0,0,0,0,0,0,0,0,0,0,0,0,0,0,0,0,0,0,0,0,0,0,0,0,0,0,0,0,0,0,0,0,0,0,0,0,0,0,0,0,0,0,0,0,0],"sum_hessian":[4.570983E4,7.7863495E2,4.493119E4,4.4070227E4,8.6096454E2,4.3188754E4,8.814761E2,4.4876395E2,4.122006E2,4.2336848E4,8.519052E2,4.64532E2,4.1694406E2,1.785498E2,2.7021414E2,3.1985574E2,9.234483E1,4.163154E4,7.0530884E2,6.4625665E2,2.056486E2,1.9090611E2,2.7362592E2,3.238287E2,9.311536E1,1.5872513E2,1.9824677E1,7.2253716E1,1.9796042E2,1.4969055E2,1.701652E2,6.821331E1,2.4131525E1,4.0867562E4,7.63975E2,5.285207E2,1.7678813E2,2.1800087E2,4.2825577E2,1.2284786E2,8.2800735E1,1.7151485E2,1.9391273E1,7.319762E1,2.0042828E2,1.524892E2,1.713395E2,6.546662E1,2.7648737E1,1.1348902E2,4.523611E1,4.5999565E1,1.5196086E2,1.4310632E2,6.584218E0,1.2162173E2,4.854348E1,4.637461E1,2.1838697E1,1.2117195E1,1.201433E1],"tree_param":{"num_deleted":"0","num_feature":"40","num_nodes":"61","size_leaf_vector":"1"}},