{"learner":{"attributes":{"scikit_learn":"{\"_estimator_type\": \"classifier\"}"},"feature_names":[],"feature_types":[],"gradient_booster":{"model":{"gbtree_model_param":{"num_parallel_tree":"1","num_trees":"100"},"iteration_indptr":[0,1,2,3,4,5,6,7,8,9,10,11,12,13,14,15,16,17,18,19,20,21,22,23,24,25,26,27,28,29,30,31,32,33,34,35,36,37,38,39,40,41,42,43,44,45,46,47,48,49,50,51,52,53,54,55,56,57,58,59,60,61,62,63,64,65,66,67,68,69,70,71,72,73,74,75,76,77,78,79,80,81,82,83,84,85,86,87,88,89,90,91,92,93,94,95,96,97,98,99,100],"tree_info":[0,0,0,0,0,0,0,0,0,0,0,0,0,0,0,0,0,0,0,0,0,0,0,0,0,0,0,0,0,0,0,0,0,0,0,0,0,0,0,0,0,0,0,0,0,0,0,0,0,0,0,0,0,0,0,0,0,0,0,0,0,0,0,0,0,0,0,0,0,0,0,0,0,0,0,0,0,0,0,0,0,0,0,0,0,0,0,0,0,0,0,0,0,0,0,0,0,0,0,0],"trees":[{"base_weights":[-6.4389897E-3,6.1483055E-1,-3.008251E-1,-6.1695352E-2,2.3036377E0,-1.53258E0,-3.6918305E-2,6.2127686E-1,-5.056951E-1,1.8241647E0,2.5451624E0,-1.4535334E0,-1.5995716E-1,-5.31381E-1,2.2193919E-1,1.0101705E0,-1.00473374E-1,-7.610709E-2,-6.996702E-1,1.3152245E0,2.447799E0,2.4048452E0,2.6147085E-1,-1.4604746E0,-5.0934516E-2,-3.0739078E-1,-1.2094303E0,1.0764673E0,6.655343E-2,8.6587685E-1,2.4409568E0,2.090621E-1,-6.0687023E-1,-4.0025917E-1,6.927384E-1,-1.0219584E0,-4.5518193E-1,6.4947677E-1,2.1832964E0,2.1085649E0,2.5970664E0,2.235634E0,2.6183125E-1,-1.463202E0,5.103996E-2,-4.8527262E-1,9.700662E-2,2.0546898E-1,-5.603436E-1,-9.293224E-1,-1.3494025E0,5.768678E-1,2.050995E0,-1.8771571E-1,2.7738112E-1,1.02839075E-1,-2.5994729E-3,2.4738517E-1,1.3159285E-1,-2.7217523E-3,2.5392509E-1,-1.2929936E-1,-2.6498446E-2,-9.01245E-3,-9.322296E-2,1.4795113E-1,-2.4489611E-2,-7.510927E-2,-1.3241646E-1,8.26347E-2,-5.8927126E-2,8.734463E-2,-4.709093E-2,1.254842E-1,2.548851E-1,1.2790526E-1,2.4787243E-1,2.6189575E-1,1.5266065E-1,1.743485E-1,2.4058838E-1,-1.487187E-1,-1.2284899E-1,-8.126041E-4,-7.7067606E-2,6.1962496E-2,-3.9897326E-2,-5.9595883E-2,2.0196775E-1,-5.3550627E-2,-1.0968298E-1,-1.3962464E-1,-1.0763704E-1,-7.950271E-3,1.5427707E-1,1.5103959E-1,2.3573379E-1,-3.711474E-3,-7.765754E-2,8.731332E-2,7.991811E-3],"categories":[],"categories_nodes":[],"categories_segments":[],"categories_sizes":[],"default_left":[0,0,0,0,0,0,0,0,0,0,0,0,0,0,0,0,0,0,0,0,0,0,0,0,0,0,0,0,0,0,0,0,0,0,0,0,0,0,0,0,0,0,0,0,0,0,0,0,0,0,0,0,0,0,0,0,0,0,0,0,0,0,0,0,0,0,0,0,0,0,0,0,0,0,0,0,0,0,0,0,0,0,0,0,0,0,0,0,0,0,0,0,0,0,0,0,0,0,0,0,0],"id":0,"left_children":[1,3,5,7,9,11,13,15,17,19,21,23,-1,25,27,29,31,33,35,37,39,41,-1,43,45,47,49,51,53,55,57,59,61,63,65,67,69,71,73,75,77,79,-1,81,-1,83,-1,85,87,89,91,93,95,97,99,-1,-1,-1,-1,-1,-1,-1,-1,-1,-1,-1,-1,-1,-1,-1,-1,-1,-1,-1,-1,-1,-1,-1,-1,-1,-1,-1,-1,-1,-1,-1,-1,-1,-1,-1,-1,-1,-1,-1,-1,-1,-1,-1,-1,-1,-1],"loss_changes":[3.436881E3,6.9028105E3,4.144608E3,1.3086643E3,1.954707E2,9.588379E0,1.3442507E3,4.7734534E2,2.178772E2,1.8162903E2,4.9018555E0,1.007959E1,0E0,5.477219E2,9.152711E2,2.260216E2,9.3590576E1,2.033127E2,1.4149426E2,1.8516193E2,7.717163E0,8.321777E0,0E0,6.3251953E0,3.2078476E0,3.522045E2,3.3867188E1,5.151885E2,3.1279602E2,1.45742E2,4.7058105E-1,2.0422777E2,5.2779167E1,9.45662E1,1.788689E2,6.2555603E1,1.7683917E2,4.6618317E1,4.4218567E1,2.2907501E1,1.4074707E-1,1.4720947E1,0E0,4.008789E0,0E0,6.741798E-1,0E0,2.2484468E2,1.682409E2,1.931427E1,6.1082764E0,4.4552118E2,5.59021E1,2.345503E2,3.7518317E2,0E0,0E0,0E0,0E0,0E0,0E0,0E0,0E0,0E0,0E0,0E0,0E0,0E0,0E0,0E0,0E0,0E0,0E0,0E0,0E0,0E0,0E0,0E0,0E0,0E0,0E0,0E0,0E0,0E0,0E0,0E0,0E0,0E0,0E0,0E0,0E0,0E0,0E0,0E0,0E0,0E0,0E0,0E0,0E0,0E0,0E0],"parents":[2147483647,0,0,1,1,2,2,3,3,4,4,5,5,6,6,7,7,8,8,9,9,10,10,11,11,13,13,14,14,15,15,16,16,17,17,18,18,19,19,20,20,21,21,23,23,24,24,25,25,26,26,27,27,28,28,29,29,30,30,31,31,32,32,33,33,34,34,35,35,36,36,37,37,38,38,39,39,40,40,41,41,43,43,45,45,47,47,48,48,49,49,50,50,51,51,52,52,53,53,54,54],"right_children":[2,4,6,8,10,12,14,16,18,20,22,24,-1,26,28,30,32,34,36,38,40,42,-1,44,46,48,50,52,54,56,58,60,62,64,66,68,70,72,74,76,78,80,-1,82,-1,84,-1,86,88,90,92,94,96,98,100,-1,-1,-1,-1,-1,-1,-1,-1,-1,-1,-1,-1,-1,-1,-1,-1,-1,-1,-1,-1,-1,-1,-1,-1,-1,-1,-1,-1,-1,-1,-1,-1,-1,-1,-1,-1,-1,-1,-1,-1,-1,-1,-1,-1,-1,-1],"split_conditions":[1E0,1E0,1E0,1E0,1E0,1E0,1E0,2E0,1E0,2E0,1E0,5E0,-1.5995716E-1,3E0,1E0,2E0,3E0,1E0,1E0,1E0,1E0,2E0,2.6147085E-1,6E0,2E0,1E0,1E0,2E0,2E0,3E0,4E0,3E0,3E0,2E0,2E0,2E0,1E0,3E0,1E0,1E0,4E0,1E0,2.6183125E-1,3E0,5.103996E-2,1E0,9.700662E-2,2E0,3E0,1E0,4E0,2E0,1E0,3E0,2E0,1.02839075E-1,-2.5994729E-3,2.4738517E-1,1.3159285E-1,-2.7217523E-3,2.5392509E-1,-1.2929936E-1,-2.6498446E-2,-9.01245E-3,-9.322296E-2,1.4795113E-1,-2.4489611E-2,-7.510927E-2,-1.3241646E-1,8.26347E-2,-5.8927126E-2,8.734463E-2,-4.709093E-2,1.254842E-1,2.548851E-1,1.2790526E-1,2.4787243E-1,2.6189575E-1,1.5266065E-1,1.743485E-1,2.4058838E-1,-1.487187E-1,-1.2284899E-1,-8.126041E-4,-7.7067606E-2,6.1962496E-2,-3.9897326E-2,-5.9595883E-2,2.0196775E-1,-5.3550627E-2,-1.0968298E-1,-1.3962464E-1,-1.0763704E-1,-7.950271E-3,1.5427707E-1,1.5103959E-1,2.3573379E-1,-3.711474E-3,-7.765754E-2,8.731332E-2,7.991811E-3],"split_indices":[0,20,20,1,22,1,39,22,2,1,23,2,0,20,19,2,22,22,39,2,23,1,0,9,3,1,3,1,39,23,29,2,2,23,1,1,19,23,23,24,19,24,0,3,0,19,0,0,0,2,0,20,22,20,19,0,0,0,0,0,0,0,0,0,0,0,0,0,0,0,0,0,0,0,0,0,0,0,0,0,0,0,0,0,0,0,0,0,0,0,0,0,0,0,0,0,0,0,0,0,0],"split_type":[0,0,0,0,0,0,0,0,0,0,0,0,0,0,0,0,0,0,0,0,0,0,0,0,0,0,0,0,0,0,0,0,0,0,0,0,0,0,0,0,0,0,0,0,0,0,0,0,0,0,0,0,0,0,0,0,0,0,0,0,0,0,0,0,0,0,0,0,0,0,0,0,0,0,0,0,0,0,0,0,0,0,0,0,0,0,0,0,0,0,0,0,0,0,0,0,0,0,0,0,0],"sum_hessian":[1.8789736E4,6.0406074E3,1.2749128E4,4.3135776E3,1.7270297E3,2.2487122E3,1.0500416E4,1.6992882E3,2.6142896E3,5.813973E2,1.1456324E3,1.0419542E3,1.2067579E3,3.6078135E3,6.8926025E3,1.1040201E3,5.9526807E2,8.136741E2,1.8006154E3,3.2184912E2,2.5954816E2,3.9143814E2,7.541943E2,1.0367821E3,5.1721554E0,2.7130305E3,8.947829E2,1.0595865E3,5.8330156E3,1.00433856E3,9.968154E1,3.698091E2,2.2545895E2,5.7269867E2,2.4097542E2,7.7535315E2,1.0252622E3,1.8314133E2,1.3870781E2,8.392998E1,1.756182E2,2.2475366E2,1.6668446E2,1.0356066E3,1.1754899E0,3.9966655E0,1.1754899E0,8.961935E2,1.8168372E3,3.006903E2,5.940926E2,7.0153235E2,3.5805423E2,2.644147E3,3.188869E3,8.49409E2,1.5492957E2,9.5684875E1,3.9966655E0,3.366603E2,3.3148815E1,7.405586E1,1.5140309E2,3.625211E2,2.1017758E2,1.3071448E2,1.1026095E2,4.1071616E2,3.6463696E2,9.662527E1,9.28637E2,1.5281369E2,3.0327639E1,4.043685E1,9.827095E1,2.7271364E1,5.665861E1,1.7068114E2,4.9370575E0,6.0655277E1,1.6409839E2,9.347496E2,1.0085703E2,1.8807838E0,2.1158817E0,5.317916E2,3.6440186E2,1.7928572E3,2.3979994E1,9.098292E1,2.097074E2,5.0357986E2,9.051272E1,4.182393E2,2.8329306E2,1.3165486E2,2.2639935E2,2.1064778E3,5.3766907E2,7.929855E2,2.3958835E3],"tree_param":{"num_deleted":"0","num_feature":"40","num_nodes":"101","size_leaf_vector":"1"}},{"base_weights":[-1.2589816E-2,5.312751E-1,-2.7663815E-1,-6.177954E-2,1.9712079E0,-1.4392123E0,-3.791139E-2,5.427654E-1,-4.6800697E-1,1.6013008E0,2.2056782E0,-1.3596946E0,-1.5076686E-1,-4.9324352E-1,1.9753014E-1,-2.1573183E-1,2.2022893E0,-2.890614E-1,-1.0627334E0,5.848228E-1,2.036586E0,2.084714E0,2.2583483E-1,-1.4893227E0,-1.0813869E0,-2.892998E-1,-1.128492E0,-3.2336813E-1,5.117802E-1,5.1138705E-1,-7.163966E-1,1.6311883E0,2.4051829E-1,-1.5102398E-1,-1.6902973E-1,-1.1832364E0,-6.0550314E-1,1.6570312E0,2.2642219E-1,1.6565512E0,2.1797063E0,1.8609E0,2.2606349E-1,-1.4919993E-1,-7.759771E-1,-1.2859641E-2,-1.1766385E0,1.8177511E-1,-5.2614766E-1,-8.517353E-1,-1.2685477E0,-8.738596E-1,1.8461113E-1,1.565878E-1,7.420433E-1,-3.4797855E-2,2.2954194E-1,-6.7608333E-3,-9.91121E-2,9.305041E-2,2.2071539E-1,2.481874E-2,-3.7168425E-2,-9.693808E-2,-1.2817709E-1,-1.07512645E-1,-3.5986256E-2,1.5877126E-2,2.1972719E-1,4.4439297E-2,-1.13037206E-1,1.0989189E-1,2.0607443E-1,2.1873139E-1,1.1526171E-1,1.2606114E-1,2.1072736E-1,1.3241998E-2,-1.1058005E-1,-6.349983E-2,1.396967E-1,-1.2538768E-1,-3.386649E-2,-1.9965885E-2,1.10319495E-1,-5.5873424E-2,1.81055E-1,-4.172411E-2,-1.1222078E-1,-1.3401595E-1,-1.0713699E-1,-6.3892715E-2,-1.4190815E-1,-3.4789007E-2,4.8091862E-2,-2.7875593E-2,3.841741E-2,8.8809274E-2,-8.613809E-3],"categories":[],"categories_nodes":[],"categories_segments":[],"categories_sizes":[],"default_left":[0,0,0,0,0,0,0,0,0,0,0,0,0,0,0,0,0,0,0,0,0,0,0,0,0,0,0,0,0,0,0,0,0,0,0,0,0,0,0,0,0,0,0,0,0,0,0,0,0,0,0,0,0,0,0,0,0,0,0,0,0,0,0,0,0,0,0,0,0,0,0,0,0,0,0,0,0,0,0,0,0,0,0,0,0,0,0,0,0,0,0,0,0,0,0,0,0,0,0],"id":1,"left_children":[1,3,5,7,9,11,13,15,17,19,21,23,-1,25,27,29,31,33,35,37,39,41,-1,43,45,47,49,51,53,55,57,59,-1,-1,61,63,65,67,69,71,73,75,-1,-1,77,79,81,83,85,87,89,91,93,95,97,-1,-1,-1,-1,-1,-1,-1,-1,-1,-1,-1,-1,-1,-1,-1,-1,-1,-1,-1,-1,-1,-1,-1,-1,-1,-1,-1,-1,-1,-1,-1,-1,-1,-1,-1,-1,-1,-1,-1,-1,-1,-1,-1,-1],"loss_changes":[2.691169E3,5.2303735E3,3.5011177E3,1.0658391E3,1.514336E2,9.648926E0,1.1222062E3,2.1961047E3,2.7593732E2,3.0711743E2,2.2426758E0,3.4625244E1,0E0,4.6190515E2,1.1296737E3,4.365081E2,5.9488037E1,2.9242245E2,3.234192E1,8.0449875E1,2.2903687E1,9.334351E0,0E0,1.4562988E-1,3.2841003E1,3.0157904E2,3.2515015E1,7.2638745E2,3.5191187E2,7.50692E2,1.264689E2,5.7094543E1,0E0,0E0,1.5390213E2,8.741455E0,1.428611E1,4.217314E1,4.746449E1,2.873285E1,2.2106934E-1,2.0564758E1,0E0,0E0,1.5352316E0,2.4948536E1,1.8758545E1,3.182161E2,1.3794586E2,3.41149E1,6.66156E0,1.5876184E2,2.1341074E2,1.6795786E2,3.1589685E2,0E0,0E0,0E0,0E0,0E0,0E0,0E0,0E0,0E0,0E0,0E0,0E0,0E0,0E0,0E0,0E0,0E0,0E0,0E0,0E0,0E0,0E0,0E0,0E0,0E0,0E0,0E0,0E0,0E0,0E0,0E0,0E0,0E0,0E0,0E0,0E0,0E0,0E0,0E0,0E0,0E0,0E0,0E0,0E0],"parents":[2147483647,0,0,1,1,2,2,3,3,4,4,5,5,6,6,7,7,8,8,9,9,10,10,11,11,13,13,14,14,15,15,16,16,17,17,18,18,19,19,20,20,21,21,23,23,24,24,25,25,26,26,27,27,28,28,29,29,30,30,31,31,34,34,35,35,36,36,37,37,38,38,39,39,40,40,41,41,44,44,45,45,46,46,47,47,48,48,49,49,50,50,51,51,52,52,53,53,54,54],"right_children":[2,4,6,8,10,12,14,16,18,20,22,24,-1,26,28,30,32,34,36,38,40,42,-1,44,46,48,50,52,54,56,58,60,-1,-1,62,64,66,68,70,72,74,76,-1,-1,78,80,82,84,86,88,90,92,94,96,98,-1,-1,-1,-1,-1,-1,-1,-1,-1,-1,-1,-1,-1,-1,-1,-1,-1,-1,-1,-1,-1,-1,-1,-1,-1,-1,-1,-1,-1,-1,-1,-1,-1,-1,-1,-1,-1,-1,-1,-1,-1,-1,-1,-1],"split_conditions":[1E0,1E0,1E0,1E0,1E0,1E0,1E0,1E0,3E0,1E0,1E0,1E0,-1.5076686E-1,3E0,1E0,1E0,1E0,1E0,2E0,1E0,1E0,1E0,2.2583483E-1,5E0,1E0,1E0,1E0,2E0,1E0,1E0,1E0,1E0,2.4051829E-1,-1.5102398E-1,1E0,1E0,3E0,1E0,3E0,2E0,5E0,1E0,2.2606349E-1,-1.4919993E-1,1E0,2E0,3E0,1E0,3E0,1E0,2E0,1E0,1E0,1E0,3E0,-3.4797855E-2,2.2954194E-1,-6.7608333E-3,-9.91121E-2,9.305041E-2,2.2071539E-1,2.481874E-2,-3.7168425E-2,-9.693808E-2,-1.2817709E-1,-1.07512645E-1,-3.5986256E-2,1.5877126E-2,2.1972719E-1,4.4439297E-2,-1.13037206E-1,1.0989189E-1,2.0607443E-1,2.1873139E-1,1.1526171E-1,1.2606114E-1,2.1072736E-1,1.3241998E-2,-1.1058005E-1,-6.349983E-2,1.396967E-1,-1.2538768E-1,-3.386649E-2,-1.9965885E-2,1.10319495E-1,-5.5873424E-2,1.81055E-1,-4.172411E-2,-1.1222078E-1,-1.3401595E-1,-1.0713699E-1,-6.3892715E-2,-1.4190815E-1,-3.4789007E-2,4.8091862E-2,-2.7875593E-2,3.841741E-2,8.8809274E-2,-8.613809E-3],"split_indices":[0,20,20,1,21,1,39,21,21,22,3,21,0,20,21,2,3,21,39,1,3,22,0,29,2,1,3,20,22,22,3,22,0,0,2,4,1,23,24,2,29,24,0,0,36,23,22,21,0,21,38,1,22,23,20,0,0,0,0,0,0,0,0,0,0,0,0,0,0,0,0,0,0,0,0,0,0,0,0,0,0,0,0,0,0,0,0,0,0,0,0,0,0,0,0,0,0,0,0],"split_type":[0,0,0,0,0,0,0,0,0,0,0,0,0,0,0,0,0,0,0,0,0,0,0,0,0,0,0,0,0,0,0,0,0,0,0,0,0,0,0,0,0,0,0,0,0,0,0,0,0,0,0,0,0,0,0,0,0,0,0,0,0,0,0,0,0,0,0,0,0,0,0,0,0,0,0,0,0,0,0,0,0,0,0,0,0,0,0,0,0,0,0,0,0,0,0,0,0,0,0],"sum_hessian":[1.8737842E4,6.123713E3,1.261413E4,4.338007E3,1.7857063E3,2.1480967E3,1.0466033E4,1.7433014E3,2.5947056E3,6.958089E2,1.0898973E3,1.0034121E3,1.1446846E3,3.5668425E3,6.8991904E3,1.1970508E3,5.4625055E2,1.9957084E3,5.98997E2,2.0932849E2,4.8648044E2,3.429169E2,7.4698047E2,6.8159326E2,3.2181882E2,2.7011165E3,8.657262E2,2.59602E3,4.30317E3,4.881238E2,7.08927E2,1.4556279E2,4.0068777E2,1.775695E2,1.8181389E3,4.7280225E2,1.26194786E2,5.1533875E1,1.5779462E2,1.3652725E2,3.499532E2,1.5601118E2,1.8690572E2,6.779579E2,3.635354E0,2.6432734E1,2.953861E2,9.0378326E2,1.7973333E3,2.9327753E2,5.7244867E2,1.2455314E3,1.3504888E3,1.6931229E3,2.610047E3,3.2997858E2,1.5814522E2,2.1126064E2,4.9766635E2,6.685124E1,7.871155E1,5.943303E2,1.2238086E3,1.5255042E2,3.2025183E2,4.2178944E1,8.401585E1,1.4000343E1,3.753353E1,1.365329E2,2.1261724E1,5.8936348E1,7.7590904E1,3.462589E2,3.6942728E0,4.7178234E1,1.0883295E2,1.1277704E0,2.5075836E0,1.872099E1,7.7117443E0,2.7000287E2,2.5383232E1,6.397384E2,2.6404486E2,1.7733635E3,2.3969711E1,1.13496445E2,1.7978107E2,4.1568268E2,1.5676599E2,8.719751E2,3.735563E2,4.8275116E2,8.677376E2,5.8117804E2,1.1119448E3,2.2187068E3,3.9134042E2],"tree_param":{"num_deleted":"0","num_feature":"40","num_nodes":"99","size_leaf_vector":"1"}},{"base_weights":[-1.0754357E-2,-4.7805002E-1,2.3019482E-1,-1.3948041E-1,-7.2486484E-1,5.1781535E-1,-1.06142834E-1,-6.0901546E-1,8.50307E-1,-5.9902817E-1,-1.1398335E0,-5.062126E-2,8.289993E-1,8.0941066E-2,-4.5664856E-1,-1.7211807E-1,-9.246673E-1,4.5353258E-1,1.0376434E0,-6.313695E-1,1.7250223E0,-1.159948E0,-4.0800893E-1,-4.519219E-1,1.2687196E-1,4.886899E-1,1.024732E0,1.7522895E-1,-1.6830085E-1,-3.6489567E-1,-7.0358694E-1,-6.942323E-1,8.539499E-1,-7.5276965E-1,-1.2701805E0,-2.7149254E-1,8.223055E-1,9.102285E-1,1.2765596E0,-1.4497896E-1,-5.7690173E-1,7.754091E-1,2.4233427E0,-1.0717808E0,-1.3714486E0,1.7364821E-1,-7.3585135E-1,-5.497251E-1,3.7715983E-1,1.0769504E0,-8.4293626E-2,-7.939114E-3,7.1544725E-1,1.3159542E0,6.5332484E-1,-1.3223776E-1,3.3696982E-1,-4.5818165E-1,-1.0371376E-1,-1.7691568E-1,-4.8930144E-1,-6.358411E-1,-9.515172E-1,-5.339963E-2,-1.4341366E-1,5.5540472E-2,9.641124E-2,-5.458001E-2,-1.2603705E-1,-1.286411E-1,-6.3796096E-2,7.2127365E-2,-6.182878E-2,4.428296E-2,9.769823E-2,8.369858E-2,1.2346395E-1,9.9343054E-2,1.4162113E-1,-4.27497E-2,-8.82004E-2,-1.6132316E-2,1.3032444E-1,2.548959E-1,3.345571E-2,-1.1250416E-1,2.1533096E-1,-1.3792658E-1,2.7412958E-3,-8.397711E-2,6.285017E-2,-3.0415917E-2,-9.094652E-2,-4.09947E-2,6.8800405E-2,4.219196E-2,1.4449319E-1,-4.5699444E-2,4.706725E-2,-1.9837333E-2,8.8545665E-2,6.0952533E-2,1.2796478E-1,1.8663977E-1,1.1668482E-1,3.368315E-2,1.2440677E-1,-4.283221E-2,1.5936453E-2,1.08258404E-1,2.0198729E-2,-3.1396374E-2,-7.830079E-2,2.4728791E-3,-2.8553812E-2,-7.779413E-3,-4.0965084E-2,-4.5853585E-2,-8.5113116E-2,-6.405999E-2,6.0115572E-2,-9.76223E-2,2.4453612E-2],"categories":[],"categories_nodes":[],"categories_segments":[],"categories_sizes":[],"default_left":[0,0,0,0,0,0,0,0,0,0,0,0,0,0,0,0,0,0,0,0,0,0,0,0,0,0,0,0,0,0,0,0,0,0,0,0,0,0,0,0,0,0,0,0,0,0,0,0,0,0,0,0,0,0,0,0,0,0,0,0,0,0,0,0,0,0,0,0,0,0,0,0,0,0,0,0,0,0,0,0,0,0,0,0,0,0,0,0,0,0,0,0,0,0,0,0,0,0,0,0,0,0,0,0,0,0,0,0,0,0,0,0,0,0,0,0,0,0,0,0,0,0,0],"id":2,"left_children":[1,3,5,7,9,11,13,15,17,19,21,23,25,27,29,31,33,35,37,39,41,43,45,47,49,51,53,55,57,59,61,63,65,67,69,71,73,75,77,-1,79,81,83,85,87,-1,89,91,93,95,97,99,101,103,105,107,109,111,113,115,117,119,121,-1,-1,-1,-1,-1,-1,-1,-1,-1,-1,-1,-1,-1,-1,-1,-1,-1,-1,-1,-1,-1,-1,-1,-1,-1,-1,-1,-1,-1,-1,-1,-1,-1,-1,-1,-1,-1,-1,-1,-1,-1,-1,-1,-1,-1,-1,-1,-1,-1,-1,-1,-1,-1,-1,-1,-1,-1,-1,-1,-1],"loss_changes":[2.0907585E3,5.277937E2,1.1852546E3,1.2389441E3,1.900957E2,1.1682667E3,3.7042407E2,2.4917316E2,6.3290222E1,2.1195691E2,1.202417E1,1.6654262E2,2.8378613E2,8.659515E1,4.4283386E1,4.0751282E2,6.1370605E1,7.425577E1,1.6552368E1,1.22541016E2,2.383258E1,1.3928101E1,1.8329266E1,5.834601E1,3.253742E2,1.7572122E2,2.921106E2,1.3297453E2,1.8890934E1,3.3480133E1,8.321686E0,5.898346E1,7.903961E0,7.319046E1,2.7418823E0,3.2845272E1,1.0354897E1,8.066986E0,6.4974976E0,0E0,1.1798865E2,9.061104E0,4.8861694E0,1.0331641E2,2.6553345E0,0E0,3.610116E0,5.6414963E1,1.8937668E1,7.047464E1,2.747804E2,8.3557945E1,6.32381E1,1.22346436E2,2.2252173E2,7.968503E1,1.7610057E2,8.37458E0,1.9356163E1,1.3190968E1,9.218369E0,2.8600159E0,3.5495148E0,0E0,0E0,0E0,0E0,0E0,0E0,0E0,0E0,0E0,0E0,0E0,0E0,0E0,0E0,0E0,0E0,0E0,0E0,0E0,0E0,0E0,0E0,0E0,0E0,0E0,0E0,0E0,0E0,0E0,0E0,0E0,0E0,0E0,0E0,0E0,0E0,0E0,0E0,0E0,0E0,0E0,0E0,0E0,0E0,0E0,0E0,0E0,0E0,0E0,0E0,0E0,0E0,0E0,0E0,0E0,0E0,0E0,0E0,0E0,0E0],"parents":[2147483647,0,0,1,1,2,2,3,3,4,4,5,5,6,6,7,7,8,8,9,9,10,10,11,11,12,12,13,13,14,14,15,15,16,16,17,17,18,18,19,19,20,20,21,21,22,22,23,23,24,24,25,25,26,26,27,27,28,28,29,29,30,30,31,31,32,32,33,33,34,34,35,35,36,36,37,37,38,38,40,40,41,41,42,42,43,43,44,44,46,46,47,47,48,48,49,49,50,50,51,51,52,52,53,53,54,54,55,55,56,56,57,57,58,58,59,59,60,60,61,61,62,62],"right_children":[2,4,6,8,10,12,14,16,18,20,22,24,26,28,30,32,34,36,38,40,42,44,46,48,50,52,54,56,58,60,62,64,66,68,70,72,74,76,78,-1,80,82,84,86,88,-1,90,92,94,96,98,100,102,104,106,108,110,112,114,116,118,120,122,-1,-1,-1,-1,-1,-1,-1,-1,-1,-1,-1,-1,-1,-1,-1,-1,-1,-1,-1,-1,-1,-1,-1,-1,-1,-1,-1,-1,-1,-1,-1,-1,-1,-1,-1,-1,-1,-1,-1,-1,-1,-1,-1,-1,-1,-1,-1,-1,-1,-1,-1,-1,-1,-1,-1,-1,-1,-1,-1,-1],"split_conditions":[1E0,1E0,2E0,1E0,3E0,1E0,3E0,1E0,1E0,3E0,5E0,1E0,1E0,2E0,4E0,1E0,2E0,1E0,2E0,1E0,1E0,4E0,5E0,1E0,1E0,1E0,2E0,1E0,2E0,1E0,5E0,3E0,1E0,3E0,4E0,1E0,1E0,3E0,1E0,-1.4497896E-1,2E0,1E0,3E0,4E0,5E0,1.7364821E-1,3E0,2E0,1E0,1E0,1E0,3E0,3E0,1E0,3E0,1E0,1E0,2E0,3E0,2E0,3E0,5E0,4E0,-5.339963E-2,-1.4341366E-1,5.5540472E-2,9.641124E-2,-5.458001E-2,-1.2603705E-1,-1.286411E-1,-6.3796096E-2,7.2127365E-2,-6.182878E-2,4.428296E-2,9.769823E-2,8.369858E-2,1.2346395E-1,9.9343054E-2,1.4162113E-1,-4.27497E-2,-8.82004E-2,-1.6132316E-2,1.3032444E-1,2.548959E-1,3.345571E-2,-1.1250416E-1,2.1533096E-1,-1.3792658E-1,2.7412958E-3,-8.397711E-2,6.285017E-2,-3.0415917E-2,-9.094652E-2,-4.09947E-2,6.8800405E-2,4.219196E-2,1.4449319E-1,-4.5699444E-2,4.706725E-2,-1.9837333E-2,8.8545665E-2,6.0952533E-2,1.2796478E-1,1.8663977E-1,1.1668482E-1,3.368315E-2,1.2440677E-1,-4.283221E-2,1.5936453E-2,1.08258404E-1,2.0198729E-2,-3.1396374E-2,-7.830079E-2,2.4728791E-3,-2.8553812E-2,-7.779413E-3,-4.0965084E-2,-4.5853585E-2,-8.5113116E-2,-6.405999E-2,6.0115572E-2,-9.76223E-2,2.4453612E-2],"split_indices":[20,1,20,21,21,21,20,2,23,1,1,22,22,21,20,22,23,22,4,21,2,21,21,2,2,23,21,22,1,21,20,23,6,22,11,2,24,23,30,0,22,6,11,1,17,0,34,23,23,23,1,1,1,1,1,21,2,29,21,22,19,14,14,0,0,0,0,0,0,0,0,0,0,0,0,0,0,0,0,0,0,0,0,0,0,0,0,0,0,0,0,0,0,0,0,0,0,0,0,0,0,0,0,0,0,0,0,0,0,0,0,0,0,0,0,0,0,0,0,0,0,0,0],"split_type":[0,0,0,0,0,0,0,0,0,0,0,0,0,0,0,0,0,0,0,0,0,0,0,0,0,0,0,0,0,0,0,0,0,0,0,0,0,0,0,0,0,0,0,0,0,0,0,0,0,0,0,0,0,0,0,0,0,0,0,0,0,0,0,0,0,0,0,0,0,0,0,0,0,0,0,0,0,0,0,0,0,0,0,0,0,0,0,0,0,0,0,0,0,0,0,0,0,0,0,0,0,0,0,0,0,0,0,0,0,0,0,0,0,0,0,0,0,0,0,0,0,0,0],"sum_hessian":[1.8566945E4,6.316252E3,1.2250692E4,2.6637727E3,3.6524795E3,6.603307E3,5.6473853E3,1.8069684E3,8.568044E2,2.8044812E3,8.4799817E2,2.3363525E3,4.266955E3,3.6825684E3,1.9648171E3,7.585692E2,1.0483992E3,2.75892E2,5.8091235E2,2.7667083E3,3.777294E1,8.2474475E2,2.3253393E1,7.1599286E2,1.6203596E3,1.5593308E3,2.707624E3,2.672037E3,1.0105311E3,1.4343463E3,5.3047076E2,5.029611E2,2.5560811E2,7.0221576E2,3.4618344E2,9.310566E1,1.8278635E2,3.8200006E2,1.9891228E2,1.7104257E2,2.5956658E3,1.6900768E1,2.0872173E1,5.863737E2,2.3837103E2,2.5137422E0,2.073965E1,6.40744E2,7.524885E1,2.9390756E2,1.326452E3,4.8910034E2,1.0702305E3,1.5162115E3,1.1914125E3,9.211427E2,1.7508944E3,1.8301707E2,8.2751404E2,5.7218445E2,8.621619E2,4.1942838E2,1.1104239E2,4.1484308E2,8.811801E1,7.052469E1,1.8508342E2,5.002988E2,2.0191695E2,3.3650974E2,9.673688E0,2.3824306E1,6.928135E1,5.404879E1,1.2873756E2,3.145612E2,6.743889E1,6.8384155E1,1.3052812E2,1.7440349E3,8.516308E2,6.3413486E0,1.055942E1,1.948035E1,1.3918223E0,5.77488E2,8.885786E0,2.370603E2,1.3107288E0,1.9629042E1,1.1106095E0,3.8189804E2,2.5884598E2,2.1213665E1,5.403518E1,1.06491806E2,1.8741574E2,7.936404E2,5.328117E2,4.038043E2,8.529605E1,9.0281757E2,1.674129E2,3.2071924E2,1.1954923E3,7.7680536E2,4.146071E2,4.568261E2,4.643166E2,2.673103E2,1.4835841E3,1.2810635E2,5.4910725E1,4.8545074E2,3.4206326E2,4.0221567E2,1.6996878E2,7.966885E2,6.5473434E1,4.1830127E2,1.1270987E0,1.0897518E2,2.0672014E0],"tree_param":{"num_deleted":"0","num_feature":"40","num_nodes":"123","size_leaf_vector":"1"}},{"base_weights":[-9.770564E-3,5.090091E-1,-2.6127487E-1,6.111045E-1,2.933938E-1,-3.564404E-1,3.2225353E-1,3.6696866E-1,8.4083045E-1,2.0625824E-1,4.7386494E-1,-4.706384E-1,-1.5533286E-1,-7.310129E-1,7.7891046E-1,1.896592E-1,6.8887067E-1,1.3321767E0,6.706767E-1,8.550796E-2,4.7797242E-1,1.099233E0,2.8418416E-1,-2.3810181E-1,-5.7963514E-1,-6.6157985E-1,5.1983986E-2,-1.160945E0,-5.0354266E-1,1.780077E0,5.2302366E-1,4.5838824E-1,-2.6074156E-1,1.3582368E0,3.7148806E-1,1.713036E0,5.907581E-1,5.465066E-1,1.0061338E0,2.0731033E-1,-4.675144E-1,2.4758397E-1,6.771828E-1,1.9180213E-1,6.5200406E-1,4.9682304E-1,-3.620501E-2,2.9189542E-1,-4.4742686E-1,-4.2356628E-1,-6.551411E-1,-9.670359E-1,-5.2712744E-1,-5.5663365E-1,3.6671513E-1,-1.2486279E0,-9.1529816E-1,-2.8726261E-2,-1.225973E0,1.1705436E0,2.0981686E0,-1.9830957E-2,9.200872E-1,4.5095184E-3,8.25062E-2,-1.4098714E-3,-6.1111268E-2,5.896866E-3,1.7789774E-1,2.5838558E-2,6.081302E-2,1.9683002E-1,1.505621E-1,5.0485212E-2,1.2114779E-1,7.32168E-2,1.6214618E-2,1.7876233E-1,6.134848E-2,3.4332354E-2,-1.4276168E-2,-1.1177876E-1,9.576447E-6,2.2309769E-2,1.1323287E-1,2.2344644E-1,5.1057495E-2,2.6613051E-2,9.159156E-2,3.6380865E-2,1.329212E-1,-6.5470256E-2,3.0069921E-2,5.1271386E-2,-1.6079025E-2,-1.0343019E-1,-3.3984717E-2,-5.8871306E-2,8.2607474E-4,-8.203103E-2,-4.4556666E-2,-5.016541E-2,-1.15151085E-1,-2.5375327E-2,-9.429434E-2,-7.962401E-2,-4.3159965E-2,1.3138106E-1,1.3124841E-2,-1.2614557E-1,7.582275E-4,-4.090777E-2,-1.1791219E-1,-5.5648047E-3,1.4178023E-1,-1.2501688E-1,-5.769094E-3,2.6698885E-3,1.7183323E-1,2.1335104E-1,8.997646E-2,2.7166976E-2,-1.3078545E-1,1.7608517E-1,5.3542603E-2],"categories":[],"categories_nodes":[],"categories_segments":[],"categories_sizes":[],"default_left":[0,0,0,0,0,0,0,0,0,0,0,0,0,0,0,0,0,0,0,0,0,0,0,0,0,0,0,0,0,0,0,0,0,0,0,0,0,0,0,0,0,0,0,0,0,0,0,0,0,0,0,0,0,0,0,0,0,0,0,0,0,0,0,0,0,0,0,0,0,0,0,0,0,0,0,0,0,0,0,0,0,0,0,0,0,0,0,0,0,0,0,0,0,0,0,0,0,0,0,0,0,0,0,0,0,0,0,0,0,0,0,0,0,0,0,0,0,0,0,0,0,0,0,0,0],"id":3,"left_children":[1,3,5,7,9,11,13,15,17,19,21,23,25,27,29,31,33,35,37,39,41,43,45,47,49,51,53,55,57,59,61,63,65,67,69,71,73,75,77,79,81,83,85,-1,87,89,91,93,95,97,99,101,103,105,107,109,111,113,115,117,119,121,123,-1,-1,-1,-1,-1,-1,-1,-1,-1,-1,-1,-1,-1,-1,-1,-1,-1,-1,-1,-1,-1,-1,-1,-1,-1,-1,-1,-1,-1,-1,-1,-1,-1,-1,-1,-1,-1,-1,-1,-1,-1,-1,-1,-1,-1,-1,-1,-1,-1,-1,-1,-1,-1,-1,-1,-1,-1,-1,-1,-1,-1,-1],"loss_changes":[2.4150583E3,1.3285999E2,6.923793E2,2.2966919E2,3.0472702E1,2.4609082E2,8.41567E2,1.1343466E2,1.7566724E2,4.303121E1,7.4681656E1,1.7312585E2,4.076292E2,5.1182037E1,3.116599E2,1.5557634E2,1.495505E2,1.5209448E2,6.487366E1,6.1400715E1,1.8360039E1,5.2499435E1,3.31575E1,2.42354E2,5.4562256E1,4.583264E1,5.2815265E2,2.7855988E0,1.1931559E2,4.5621033E1,2.0979181E2,1.2192395E2,4.152278E1,1.2388129E2,1.2703766E1,1.5973877E1,9.281578E0,8.184094E1,1.2874088E2,3.559432E1,5.004329E1,3.836976E0,5.488022E1,0E0,9.577988E0,3.1896599E1,4.082657E1,6.1936153E1,9.849164E1,1.0841632E2,1.0813574E2,2.8927856E1,8.9075485E1,2.781369E1,4.0510596E2,2.131256E0,6.4254837E0,8.294887E0,3.8277893E0,5.464942E1,4.9277954E0,1.5508488E2,1.8084705E2,0E0,0E0,0E0,0E0,0E0,0E0,0E0,0E0,0E0,0E0,0E0,0E0,0E0,0E0,0E0,0E0,0E0,0E0,0E0,0E0,0E0,0E0,0E0,0E0,0E0,0E0,0E0,0E0,0E0,0E0,0E0,0E0,0E0,0E0,0E0,0E0,0E0,0E0,0E0,0E0,0E0,0E0,0E0,0E0,0E0,0E0,0E0,0E0,0E0,0E0,0E0,0E0,0E0,0E0,0E0,0E0,0E0,0E0,0E0,0E0,0E0,0E0],"parents":[2147483647,0,0,1,1,2,2,3,3,4,4,5,5,6,6,7,7,8,8,9,9,10,10,11,11,12,12,13,13,14,14,15,15,16,16,17,17,18,18,19,19,20,20,21,21,22,22,23,23,24,24,25,25,26,26,27,27,28,28,29,29,30,30,31,31,32,32,33,33,34,34,35,35,36,36,37,37,38,38,39,39,40,40,41,41,42,42,44,44,45,45,46,46,47,47,48,48,49,49,50,50,51,51,52,52,53,53,54,54,55,55,56,56,57,57,58,58,59,59,60,60,61,61,62,62],"right_children":[2,4,6,8,10,12,14,16,18,20,22,24,26,28,30,32,34,36,38,40,42,44,46,48,50,52,54,56,58,60,62,64,66,68,70,72,74,76,78,80,82,84,86,-1,88,90,92,94,96,98,100,102,104,106,108,110,112,114,116,118,120,122,124,-1,-1,-1,-1,-1,-1,-1,-1,-1,-1,-1,-1,-1,-1,-1,-1,-1,-1,-1,-1,-1,-1,-1,-1,-1,-1,-1,-1,-1,-1,-1,-1,-1,-1,-1,-1,-1,-1,-1,-1,-1,-1,-1,-1,-1,-1,-1,-1,-1,-1,-1,-1,-1,-1,-1,-1,-1,-1,-1,-1,-1,-1],"split_conditions":[1E0,2E0,3E0,1E0,3E0,2E0,1E0,1E0,1E0,2E0,3E0,1E0,1E0,1E0,1E0,2E0,1E0,2E0,2E0,3E0,1E0,1E0,4E0,1E0,1E0,1E0,1E0,2E0,1E0,1E0,2E0,1E0,3E0,1E0,2E0,1E0,3E0,2E0,1E0,2E0,1E0,4E0,1E0,1.9180213E-1,1E0,4E0,1E0,2E0,1E0,1E0,2E0,1E0,1E0,1E0,1E0,5E0,1E0,4E0,4E0,1E0,3E0,2E0,2E0,4.5095184E-3,8.25062E-2,-1.4098714E-3,-6.1111268E-2,5.896866E-3,1.7789774E-1,2.5838558E-2,6.081302E-2,1.9683002E-1,1.505621E-1,5.0485212E-2,1.2114779E-1,7.32168E-2,1.6214618E-2,1.7876233E-1,6.134848E-2,3.4332354E-2,-1.4276168E-2,-1.1177876E-1,9.576447E-6,2.2309769E-2,1.1323287E-1,2.2344644E-1,5.1057495E-2,2.6613051E-2,9.159156E-2,3.6380865E-2,1.329212E-1,-6.5470256E-2,3.0069921E-2,5.1271386E-2,-1.6079025E-2,-1.0343019E-1,-3.3984717E-2,-5.8871306E-2,8.2607474E-4,-8.203103E-2,-4.4556666E-2,-5.016541E-2,-1.15151085E-1,-2.5375327E-2,-9.429434E-2,-7.962401E-2,-4.3159965E-2,1.3138106E-1,1.3124841E-2,-1.2614557E-1,7.582275E-4,-4.090777E-2,-1.1791219E-1,-5.5648047E-3,1.4178023E-1,-1.2501688E-1,-5.769094E-3,2.6698885E-3,1.7183323E-1,2.1335104E-1,8.997646E-2,2.7166976E-2,-1.3078545E-1,1.7608517E-1,5.3542603E-2],"split_indices":[0,22,0,22,2,0,39,2,2,1,22,1,39,38,19,23,1,1,2,22,39,1,22,39,2,38,1,16,19,2,39,23,23,23,9,39,8,23,1,23,1,35,19,0,39,2,1,22,19,22,1,2,19,22,19,13,22,10,9,1,38,19,19,0,0,0,0,0,0,0,0,0,0,0,0,0,0,0,0,0,0,0,0,0,0,0,0,0,0,0,0,0,0,0,0,0,0,0,0,0,0,0,0,0,0,0,0,0,0,0,0,0,0,0,0,0,0,0,0,0,0,0,0,0,0],"split_type":[0,0,0,0,0,0,0,0,0,0,0,0,0,0,0,0,0,0,0,0,0,0,0,0,0,0,0,0,0,0,0,0,0,0,0,0,0,0,0,0,0,0,0,0,0,0,0,0,0,0,0,0,0,0,0,0,0,0,0,0,0,0,0,0,0,0,0,0,0,0,0,0,0,0,0,0,0,0,0,0,0,0,0,0,0,0,0,0,0,0,0,0,0,0,0,0,0,0,0,0,0,0,0,0,0,0,0,0,0,0,0,0,0,0,0,0,0,0,0,0,0,0,0,0,0],"sum_hessian":[1.8507676E4,6.04258E3,1.2465095E4,4.0995703E3,1.9430098E3,1.0717592E4,1.7475035E3,1.9887113E3,2.110859E3,1.3117904E3,6.312193E2,6.8350176E3,3.8825742E3,5.283283E2,1.2191752E3,1.2833875E3,7.0532385E2,5.412071E2,1.5696519E3,9.090996E2,4.0269083E2,1.4578343E2,4.854359E2,2.1823396E3,4.6526777E3,1.1273958E3,2.7551785E3,1.8138887E2,3.4693942E2,2.4696376E2,9.722114E2,8.0379193E2,4.7959558E2,2.2580893E2,4.795149E2,3.5667578E2,1.8453128E2,1.147523E3,4.2212885E2,7.455241E2,1.6357547E2,1.8777281E2,2.1491801E2,5.0337215E1,9.544621E1,2.9145178E2,1.9398412E2,6.177763E2,1.5645634E3,1.519181E3,3.1334966E3,3.426815E2,7.8471423E2,9.388636E2,1.8163148E3,1.3066527E2,5.0723602E1,2.0997403E2,1.369654E2,8.629105E1,1.6067271E2,4.1110703E2,5.6110443E2,3.784022E2,4.2538974E2,2.8207196E2,1.9752364E2,5.551523E1,1.702937E2,3.2586194E2,1.5365297E2,1.560889E2,2.005869E2,1.6369029E2,2.0840982E1,7.731538E2,3.743691E2,1.3997795E2,2.821509E2,5.369303E2,2.0859381E2,6.784194E1,9.573353E1,1.8393439E2,3.8384278E0,1.9571539E1,1.9534647E2,3.9581394E1,5.586482E1,2.5253429E2,3.8917503E1,6.807217E1,1.2591195E2,4.1513992E2,2.0263638E2,2.4103589E2,1.3235275E3,1.0986522E3,4.2052884E2,1.750771E3,1.3827256E3,9.8332855E1,2.4434862E2,4.7442102E2,3.102932E2,3.2009247E2,6.187711E2,3.6074493E2,1.45557E3,1.2934035E2,1.3249253E0,1.8252184E1,3.247142E1,2.070815E2,2.8925266E0,1.3411766E2,2.8477345E0,2.828258E1,5.8008472E1,1.5531215E2,5.3605595E0,3.358808E2,7.522622E1,1.7500769E2,3.8609674E2],"tree_param":{"num_deleted":"0","num_feature":"40","num_nodes":"125","size_leaf_vector":"1"}},{"base_weights":[-1.1033577E-2,-4.6433285E-1,2.2186E-1,-6.2394E-2,-1.3234085E0,1.6531584E0,-2.6104506E-2,4.4127795E-1,-4.0158188E-1,-1.2565699E0,-1.3815664E-1,1.2902254E0,1.7894367E0,-4.1852957E-1,1.6958944E-1,6.8197495E-1,-3.5112865E-2,-7.843414E-2,-5.5288315E-1,-1.2645355E0,2.6484797E-2,8.349896E-1,1.7386789E0,1.6262294E0,1.8631052E0,-2.568743E-1,-9.592372E-1,4.9403742E-2,7.241796E-1,5.8632964E-1,1.563497E0,1.9192517E-1,-4.4186726E-1,-3.2044125E-1,4.902566E-1,-8.7876874E-1,-3.087185E-1,-1.2925404E0,-1.0078136E0,1.0980462E-1,-4.644352E-1,5.7208276E-1,1.5799572E0,1.5072584E0,1.8478614E-1,1.4007593E0,1.8523538E-1,1.8653229E-1,6.782643E-2,1.598951E-1,-4.7261953E-1,-6.9444984E-1,-1.094979E0,1.2086569E-1,-1.1244941E0,1.0062201E0,-2.3906167E-1,6.948415E-2,-7.1334983E-3,1.2158858E-1,1.6866079E-1,2.260627E-3,1.7048854E-1,-1.0864164E-1,-1.6657857E-2,-4.9874075E-3,-7.89529E-2,1.1022138E-1,-2.4372408E-2,-6.402442E-2,-1.1583412E-1,-1.3485585E-2,-3.9618056E-2,-1.3192287E-1,-1.08110525E-1,-6.58124E-2,-1.11479186E-1,3.8688388E-2,-8.493055E-2,7.104756E-2,-3.4615528E-2,1.6031851E-1,7.12645E-2,1.01190545E-1,1.7653234E-1,1.0640871E-1,1.8439983E-1,4.9384933E-2,-3.5611045E-2,-1.1688416E-2,-6.3111834E-2,-2.7317712E-2,-8.752292E-2,-1.1667835E-1,-6.996612E-2,-5.864089E-3,5.2388526E-2,-8.1215136E-2,-1.3131513E-1,4.5625206E-2,1.3813755E-1,-1.332131E-1,4.165242E-2],"categories":[],"categories_nodes":[],"categories_segments":[],"categories_sizes":[],"default_left":[0,0,0,0,0,0,0,0,0,0,0,0,0,0,0,0,0,0,0,0,0,0,0,0,0,0,0,0,0,0,0,0,0,0,0,0,0,0,0,0,0,0,0,0,0,0,0,0,0,0,0,0,0,0,0,0,0,0,0,0,0,0,0,0,0,0,0,0,0,0,0,0,0,0,0,0,0,0,0,0,0,0,0,0,0,0,0,0,0,0,0,0,0,0,0,0,0,0,0,0,0,0,0],"id":4,"left_children":[1,3,5,7,9,11,13,15,17,19,-1,21,23,25,27,29,31,33,35,37,39,41,43,45,47,49,51,53,55,57,59,61,63,65,67,69,71,73,75,-1,77,79,81,83,-1,85,-1,-1,-1,87,89,91,93,95,97,99,101,-1,-1,-1,-1,-1,-1,-1,-1,-1,-1,-1,-1,-1,-1,-1,-1,-1,-1,-1,-1,-1,-1,-1,-1,-1,-1,-1,-1,-1,-1,-1,-1,-1,-1,-1,-1,-1,-1,-1,-1,-1,-1,-1,-1,-1,-1],"loss_changes":[1.9450825E3,2.159141E3,4.3197593E3,7.281459E2,6.0117188E0,8.658301E1,7.968215E2,1.9670578E2,1.2447983E2,9.624512E0,0E0,9.944275E1,1.2649414E1,3.0153265E2,4.614404E2,9.516412E1,5.334175E1,1.1209735E2,1.3774304E2,5.402588E0,4.071088E0,4.7507233E1,3.4818726E0,1.8483398E1,1.0778809E0,2.3918558E2,2.7787598E1,4.775816E2,3.352356E2,7.352829E1,2.6969604E0,9.495211E1,3.6528442E1,7.245233E1,1.0950398E2,4.8764282E1,1.5048393E1,3.2989502E0,2.867752E0,0E0,2.079973E0,2.3662094E1,1.4498901E-1,9.0711975E0,0E0,2.9541473E1,0E0,0E0,0E0,1.5660953E2,9.873636E1,2.0469254E1,1.4039124E1,3.8821136E2,1.8183594E1,1.9620148E2,2.012642E2,0E0,0E0,0E0,0E0,0E0,0E0,0E0,0E0,0E0,0E0,0E0,0E0,0E0,0E0,0E0,0E0,0E0,0E0,0E0,0E0,0E0,0E0,0E0,0E0,0E0,0E0,0E0,0E0,0E0,0E0,0E0,0E0,0E0,0E0,0E0,0E0,0E0,0E0,0E0,0E0,0E0,0E0,0E0,0E0,0E0,0E0],"parents":[2147483647,0,0,1,1,2,2,3,3,4,4,5,5,6,6,7,7,8,8,9,9,11,11,12,12,13,13,14,14,15,15,16,16,17,17,18,18,19,19,20,20,21,21,22,22,23,23,24,24,25,25,26,26,27,27,28,28,29,29,30,30,31,31,32,32,33,33,34,34,35,35,36,36,37,37,38,38,40,40,41,41,42,42,43,43,45,45,49,49,50,50,51,51,52,52,53,53,54,54,55,55,56,56],"right_children":[2,4,6,8,10,12,14,16,18,20,-1,22,24,26,28,30,32,34,36,38,40,42,44,46,48,50,52,54,56,58,60,62,64,66,68,70,72,74,76,-1,78,80,82,84,-1,86,-1,-1,-1,88,90,92,94,96,98,100,102,-1,-1,-1,-1,-1,-1,-1,-1,-1,-1,-1,-1,-1,-1,-1,-1,-1,-1,-1,-1,-1,-1,-1,-1,-1,-1,-1,-1,-1,-1,-1,-1,-1,-1,-1,-1,-1,-1,-1,-1,-1,-1,-1,-1,-1,-1],"split_conditions":[1E0,1E0,1E0,1E0,1E0,1E0,1E0,2E0,1E0,5E0,-1.3815664E-1,2E0,1E0,3E0,3E0,2E0,3E0,1E0,1E0,3E0,5E0,1E0,1E0,2E0,5E0,1E0,1E0,3E0,4E0,3E0,1E0,3E0,3E0,2E0,2E0,2E0,1E0,3E0,3E0,1.0980462E-1,1E0,3E0,4E0,1E0,1.8478614E-1,2E0,1.8523538E-1,1.8653229E-1,6.782643E-2,2E0,1E0,1E0,4E0,2E0,1E0,1E0,4E0,6.948415E-2,-7.1334983E-3,1.2158858E-1,1.6866079E-1,2.260627E-3,1.7048854E-1,-1.0864164E-1,-1.6657857E-2,-4.9874075E-3,-7.89529E-2,1.1022138E-1,-2.4372408E-2,-6.402442E-2,-1.1583412E-1,-1.3485585E-2,-3.9618056E-2,-1.3192287E-1,-1.08110525E-1,-6.58124E-2,-1.11479186E-1,3.8688388E-2,-8.493055E-2,7.104756E-2,-3.4615528E-2,1.6031851E-1,7.12645E-2,1.01190545E-1,1.7653234E-1,1.0640871E-1,1.8439983E-1,4.9384933E-2,-3.5611045E-2,-1.1688416E-2,-6.3111834E-2,-2.7317712E-2,-8.752292E-2,-1.1667835E-1,-6.996612E-2,-5.864089E-3,5.2388526E-2,-8.1215136E-2,-1.3131513E-1,4.5625206E-2,1.3813755E-1,-1.332131E-1,4.165242E-2],"split_indices":[20,0,0,1,1,2,39,22,2,2,0,1,3,20,0,2,22,22,39,3,22,22,24,2,14,1,3,20,20,23,23,2,2,23,1,1,3,4,23,0,38,24,31,23,0,1,0,0,0,0,2,2,0,1,3,1,0,0,0,0,0,0,0,0,0,0,0,0,0,0,0,0,0,0,0,0,0,0,0,0,0,0,0,0,0,0,0,0,0,0,0,0,0,0,0,0,0,0,0,0,0,0,0],"split_type":[0,0,0,0,0,0,0,0,0,0,0,0,0,0,0,0,0,0,0,0,0,0,0,0,0,0,0,0,0,0,0,0,0,0,0,0,0,0,0,0,0,0,0,0,0,0,0,0,0,0,0,0,0,0,0,0,0,0,0,0,0,0,0,0,0,0,0,0,0,0,0,0,0,0,0,0,0,0,0,0,0,0,0,0,0,0,0,0,0,0,0,0,0,0,0,0,0,0,0,0,0,0,0],"sum_hessian":[1.8422516E4,6.252257E3,1.2170258E4,4.260128E3,1.9921289E3,1.7962563E3,1.0374002E4,1.714261E3,2.5458672E3,9.37408E2,1.054721E3,4.9321228E2,1.3030441E3,3.4515234E3,6.922478E3,1.1385671E3,5.756939E2,8.123584E2,1.7335087E3,9.316385E2,5.7695284E0,2.4617554E2,2.4703674E2,4.1242368E2,8.906204E2,2.658259E3,7.932643E2,5.6903965E3,1.2320815E3,1.0286261E3,1.0994105E2,3.6980698E2,2.0588695E2,5.701618E2,2.421966E2,7.4138544E2,9.921233E2,8.363676E2,9.5270874E1,1.4241775E0,4.3453507E0,1.8326672E2,6.290881E1,8.393506E1,1.6310168E2,2.1011316E2,2.0231052E2,8.883833E2,2.2371063E0,9.067974E2,1.7514617E3,2.70915E2,5.2234924E2,5.3647124E3,3.2568405E2,9.529963E2,2.790853E2,8.828955E2,1.4573056E2,3.1598145E1,7.83429E1,3.3349927E2,3.6307735E1,6.0735947E1,1.45151E2,3.6229718E2,2.0786465E2,1.3180356E2,1.1039304E2,4.0183737E2,3.3954803E2,3.3290167E2,6.592216E2,7.379773E2,9.839028E1,2.3993399E1,7.127747E1,1.3512353E0,2.9941156E0,1.594599E2,2.380683E1,6.044165E1,2.4671595E0,3.0435524E1,5.3499535E1,1.21344154E2,8.8769E1,5.505374E2,3.5626E2,5.403762E2,1.2110854E3,8.210218E1,1.8881284E2,4.4040414E2,8.194514E1,3.7121567E3,1.6525557E3,1.2463767E2,2.0104637E2,3.873571E2,5.656392E2,1.04244576E2,1.7484071E2],"tree_param":{"num_deleted":"0","num_feature":"40","num_nodes":"103","size_leaf_vector":"1"}},{"base_weights":[-9.48145E-3,-4.288747E-1,1.9948448E-1,-5.4546162E-2,-1.2719634E0,1.5019044E0,-2.4336837E-2,3.9857572E-1,-3.6458173E-1,-1.2057139E0,-1.3300991E-1,1.2346592E0,1.6745384E0,-2.9447734E-1,1.2895972E-1,-2.1189249E-1,1.6644555E0,-2.0573425E-1,-9.218812E-1,-1.3215691E0,-9.725118E-1,4.7813624E-1,1.5631901E0,1.5723628E0,1.7264404E0,-6.7842275E-1,-1.20261535E-2,2.5669873E-1,-4.9363178E-1,3.480653E-1,-6.2050706E-1,1.1654954E0,1.8367016E0,-1.3596238E-1,-9.926179E-2,-6.409203E-1,-1.01054E0,-1.3245907E0,-6.2655115E-1,1.0570933E-2,-1.0623435E0,1.1603903E0,2.4273618E-1,1.3008739E0,1.6978848E-1,1.3140129E0,1.6921298E-1,1.7277803E-1,5.277751E-2,-4.8253024E-1,-1.2980076E0,-3.1810954E-1,1.4448585E-1,1.7632188E-1,1.6361711E0,-1.2384849E0,-1.2858984E-1,-3.0537574E-2,1.6902985E-1,-3.782333E-2,-1.1121632E-1,6.2095474E-2,1.6323552E-1,1.7426883E-1,2.063053E-1,7.985683E-3,-4.6534598E-2,-4.6028014E-2,-1.0337045E-1,-1.16262995E-1,-8.659513E-2,-1.327794E-1,-6.768387E-2,1.4269948E-2,-9.598629E-2,-5.2895427E-2,1.3296752E-1,-1.13747716E-1,-3.1620003E-2,2.0365894E-2,1.5830587E-1,4.838569E-2,-3.6437996E-2,8.745222E-2,1.6038863E-1,9.84052E-2,1.7289251E-1,-7.1119233E-3,-1.2541245E-1,-1.3480954E-1,-7.7298254E-2,5.666527E-4,-5.661902E-2,3.843234E-2,-2.9490564E-2,3.811233E-2,-1.55909285E-2,1.2158801E-1,1.9160888E-1,-1.2457871E-1,4.6336774E-2,2.2705678E-2,-6.9980524E-2],"categories":[],"categories_nodes":[],"categories_segments":[],"categories_sizes":[],"default_left":[0,0,0,0,0,0,0,0,0,0,0,0,0,0,0,0,0,0,0,0,0,0,0,0,0,0,0,0,0,0,0,0,0,0,0,0,0,0,0,0,0,0,0,0,0,0,0,0,0,0,0,0,0,0,0,0,0,0,0,0,0,0,0,0,0,0,0,0,0,0,0,0,0,0,0,0,0,0,0,0,0,0,0,0,0,0,0,0,0,0,0,0,0,0,0,0,0,0,0,0,0,0,0],"id":5,"left_children":[1,3,5,7,9,11,13,15,17,19,-1,21,23,25,27,29,31,33,35,37,39,41,43,45,47,49,51,53,55,57,59,61,63,-1,65,67,69,71,73,75,77,79,81,83,-1,85,-1,-1,-1,87,89,91,93,95,97,99,101,-1,-1,-1,-1,-1,-1,-1,-1,-1,-1,-1,-1,-1,-1,-1,-1,-1,-1,-1,-1,-1,-1,-1,-1,-1,-1,-1,-1,-1,-1,-1,-1,-1,-1,-1,-1,-1,-1,-1,-1,-1,-1,-1,-1,-1,-1],"loss_changes":[1.5903395E3,1.9044534E3,3.5307297E3,5.874032E2,5.5424805E0,7.9878174E1,4.2809222E2,1.3130886E3,2.1957788E2,2.243457E1,0E0,1.7345178E2,2.993164E0,4.0584457E2,5.246323E2,2.6264148E2,4.5368286E1,2.3736958E2,1.3061554E1,3.9593506E-1,2.607901E1,3.4031742E1,1.504187E1,9.341431E0,2.1801758E-1,1.9189545E2,1.0338982E2,6.065459E2,3.0522037E2,4.2545633E2,7.860411E1,3.5745773E1,5.112549E0,0E0,1.1616215E2,9.084782E0,8.154724E0,3.05542E-1,1.271402E0,1.8996988E1,1.4803253E1,2.1733635E1,2.3614721E1,2.0549347E1,0E0,1.5119308E1,0E0,0E0,0E0,3.8298975E2,8.9626465E0,5.865309E1,1.5060544E2,3.5202368E2,3.3107056E1,5.166321E0,1.5350629E2,0E0,0E0,0E0,0E0,0E0,0E0,0E0,0E0,0E0,0E0,0E0,0E0,0E0,0E0,0E0,0E0,0E0,0E0,0E0,0E0,0E0,0E0,0E0,0E0,0E0,0E0,0E0,0E0,0E0,0E0,0E0,0E0,0E0,0E0,0E0,0E0,0E0,0E0,0E0,0E0,0E0,0E0,0E0,0E0,0E0,0E0],"parents":[2147483647,0,0,1,1,2,2,3,3,4,4,5,5,6,6,7,7,8,8,9,9,11,11,12,12,13,13,14,14,15,15,16,16,17,17,18,18,19,19,20,20,21,21,22,22,23,23,24,24,25,25,26,26,27,27,28,28,29,29,30,30,31,31,32,32,34,34,35,35,36,36,37,37,38,38,39,39,40,40,41,41,42,42,43,43,45,45,49,49,50,50,51,51,52,52,53,53,54,54,55,55,56,56],"right_children":[2,4,6,8,10,12,14,16,18,20,-1,22,24,26,28,30,32,34,36,38,40,42,44,46,48,50,52,54,56,58,60,62,64,-1,66,68,70,72,74,76,78,80,82,84,-1,86,-1,-1,-1,88,90,92,94,96,98,100,102,-1,-1,-1,-1,-1,-1,-1,-1,-1,-1,-1,-1,-1,-1,-1,-1,-1,-1,-1,-1,-1,-1,-1,-1,-1,-1,-1,-1,-1,-1,-1,-1,-1,-1,-1,-1,-1,-1,-1,-1,-1,-1,-1,-1,-1,-1],"split_conditions":[1E0,1E0,1E0,1E0,1E0,1E0,1E0,1E0,3E0,1E0,-1.3300991E-1,1E0,1E0,2E0,3E0,1E0,1E0,1E0,1E0,5E0,1E0,1E0,1E0,1E0,6E0,1E0,1E0,3E0,3E0,1E0,2E0,1E0,2E0,-1.3596238E-1,2E0,2E0,3E0,5E0,1E0,2E0,3E0,1E0,2E0,2E0,1.6978848E-1,2E0,1.6921298E-1,1.7277803E-1,5.277751E-2,2E0,3E0,1E0,3E0,2E0,1E0,5E0,4E0,-3.0537574E-2,1.6902985E-1,-3.782333E-2,-1.1121632E-1,6.2095474E-2,1.6323552E-1,1.7426883E-1,2.063053E-1,7.985683E-3,-4.6534598E-2,-4.6028014E-2,-1.0337045E-1,-1.16262995E-1,-8.659513E-2,-1.327794E-1,-6.768387E-2,1.4269948E-2,-9.598629E-2,-5.2895427E-2,1.3296752E-1,-1.13747716E-1,-3.1620003E-2,2.0365894E-2,1.5830587E-1,4.838569E-2,-3.6437996E-2,8.745222E-2,1.6038863E-1,9.84052E-2,1.7289251E-1,-7.1119233E-3,-1.2541245E-1,-1.3480954E-1,-7.7298254E-2,5.666527E-4,-5.661902E-2,3.843234E-2,-2.9490564E-2,3.811233E-2,-1.55909285E-2,1.2158801E-1,1.9160888E-1,-1.2457871E-1,4.6336774E-2,2.2705678E-2,-6.9980524E-2],"split_indices":[20,0,0,1,1,21,21,21,21,21,0,22,23,20,20,2,3,21,2,29,2,1,23,22,31,1,22,0,0,22,23,22,22,0,22,23,1,6,16,23,22,23,3,22,0,21,0,0,0,0,3,3,20,20,23,35,20,0,0,0,0,0,0,0,0,0,0,0,0,0,0,0,0,0,0,0,0,0,0,0,0,0,0,0,0,0,0,0,0,0,0,0,0,0,0,0,0,0,0,0,0,0,0],"split_type":[0,0,0,0,0,0,0,0,0,0,0,0,0,0,0,0,0,0,0,0,0,0,0,0,0,0,0,0,0,0,0,0,0,0,0,0,0,0,0,0,0,0,0,0,0,0,0,0,0,0,0,0,0,0,0,0,0,0,0,0,0,0,0,0,0,0,0,0,0,0,0,0,0,0,0,0,0,0,0,0,0,0,0,0,0,0,0,0,0,0,0,0,0,0,0,0,0,0,0,0,0,0,0],"sum_hessian":[1.8144525E4,6.0337593E3,1.2110767E4,4.179251E3,1.8545085E3,1.7751912E3,1.0335576E4,1.6977202E3,2.4815305E3,8.769296E2,9.775789E2,6.99887E2,1.0753041E3,3.741446E3,6.5941294E3,1.1459302E3,5.517901E2,1.9321715E3,5.49359E2,5.827509E2,2.941787E2,2.1265413E2,4.8723288E2,3.7276462E2,7.025395E2,1.585212E3,2.1562341E3,5.4720083E3,1.1221212E3,4.8349954E2,6.624306E2,1.4359438E2,4.081957E2,1.622311E2,1.7699404E3,1.3374586E2,4.1561316E2,5.793265E2,3.4244502E0,2.4704523E1,2.694742E2,5.3542843E1,1.5911128E2,1.6892033E2,3.1831253E2,1.21863625E2,2.5090099E2,7.0131415E2,1.2253573E0,1.2057668E3,3.7944528E2,7.2917914E2,1.4270548E3,5.1717944E3,3.0021393E2,3.6827612E2,7.5384503E2,3.2570746E2,1.5779207E2,4.4494437E2,2.1748624E2,6.735833E1,7.623604E1,2.945538E2,1.13641914E2,1.1889767E3,5.8096375E2,9.310091E1,4.064496E1,1.9912102E2,2.1649216E2,5.7543085E2,3.8955803E0,1.2081146E0,2.2163355E0,1.7958387E1,6.7461343E0,2.4434515E2,2.5129047E1,1.6860376E1,3.668247E1,1.1402745E2,4.508383E1,7.1791985E1,9.712836E1,6.975908E1,5.210454E1,7.871524E2,4.186144E2,3.4496744E2,3.4477856E1,3.1675357E2,4.1242557E2,9.2323914E2,5.0381573E2,3.1994006E3,1.9723939E3,1.2215064E2,1.780633E2,3.6696954E2,1.3065809E0,4.649582E2,2.8888687E2],"tree_param":{"num_deleted":"0","num_feature":"40","num_nodes":"103","size_leaf_vector":"1"}},{"base_weights":[-1.0467982E-2,-3.9138848E-1,1.767261E-1,-1.304834E-1,-5.8638126E-1,2.774913E-1,-3.7026957E-1,2.0821488E-1,-3.0023235E-1,-3.8383895E-1,-6.841226E-1,1.7280863E-1,4.9583882E-1,-8.8632625E-1,-1.919143E-2,2.8860512E-1,-2.2084998E-1,-1.0039157E0,-2.0888846E-1,-1.3254133E-1,-6.629382E-1,-5.124472E-1,-7.6909685E-1,-4.980374E-2,2.9085422E-1,7.539544E-1,2.1762658E-2,-6.1959267E-1,-1.0260922E0,1.7260805E0,-2.4883583E-1,4.1336372E-1,9.162264E-2,-6.7583865E-1,1.0625952E-2,-1.0443103E0,1.08170204E-1,-8.5927296E-4,-3.733147E-1,3.8143393E-1,-3.658599E-1,-3.203973E-1,-8.187791E-1,-3.5579073E-1,-6.9068503E-1,-9.505205E-1,-6.7234707E-1,-3.6874273E-1,8.4229276E-2,8.262732E-1,2.0386864E-1,4.9498683E-1,8.8906837E-1,-5.5064744E-1,3.7719205E-1,-4.4013312E-1,-1.0084486E0,-1.0656035E0,-6.1312294E-1,1.7509141E0,2.1479605E-2,-6.572301E-1,1.8211097E-1,5.630198E-2,1.5426173E-2,-1.0106166E-2,1.7482335E-2,-1.0675057E-1,1.12183034E-1,4.871221E-2,-8.7553635E-3,-1.17381684E-1,-8.1429064E-2,-9.6296586E-2,8.8084035E-2,-1.457753E-2,3.598098E-2,-1.04729705E-1,-2.0706357E-2,4.9732424E-2,-3.087913E-2,-1.1469205E-1,-2.3748776E-2,-6.0855042E-2,3.258768E-2,-8.4036745E-2,1.3304482E-2,-5.7179578E-2,1.6642645E-2,-4.5441385E-2,-8.00162E-2,-7.8848146E-2,-1.1573731E-1,-7.91912E-2,-5.080979E-2,-5.8559086E-2,3.948573E-3,8.000882E-2,-8.374947E-3,1.03352524E-1,4.2612027E-2,2.7237505E-2,-6.6918093E-3,1.6664868E-2,6.6731125E-2,5.843958E-2,1.0579884E-1,-3.367683E-2,-9.966435E-2,1.5918063E-1,1.6536018E-2,-2.1244165E-2,-9.312194E-2,-1.046376E-1,1.6183214E-2,-1.1800648E-1,-9.822588E-2,6.3046226E-3,-1.10695E-1,1.7963082E-1,9.266963E-2,-1.0701501E-1,-4.1711226E-2,1.76593E-1,-2.0838793E-2],"categories":[],"categories_nodes":[],"categories_segments":[],"categories_sizes":[],"default_left":[0,0,0,0,0,0,0,0,0,0,0,0,0,0,0,0,0,0,0,0,0,0,0,0,0,0,0,0,0,0,0,0,0,0,0,0,0,0,0,0,0,0,0,0,0,0,0,0,0,0,0,0,0,0,0,0,0,0,0,0,0,0,0,0,0,0,0,0,0,0,0,0,0,0,0,0,0,0,0,0,0,0,0,0,0,0,0,0,0,0,0,0,0,0,0,0,0,0,0,0,0,0,0,0,0,0,0,0,0,0,0,0,0,0,0,0,0,0,0,0,0,0,0,0,0],"id":6,"left_children":[1,3,5,7,9,11,13,15,17,19,21,23,25,27,29,31,33,35,37,39,41,43,45,47,49,51,53,55,57,59,61,63,65,67,69,71,73,75,77,79,81,83,85,87,89,91,93,95,97,99,101,103,105,107,109,111,113,115,117,119,-1,121,123,-1,-1,-1,-1,-1,-1,-1,-1,-1,-1,-1,-1,-1,-1,-1,-1,-1,-1,-1,-1,-1,-1,-1,-1,-1,-1,-1,-1,-1,-1,-1,-1,-1,-1,-1,-1,-1,-1,-1,-1,-1,-1,-1,-1,-1,-1,-1,-1,-1,-1,-1,-1,-1,-1,-1,-1,-1,-1,-1,-1,-1,-1],"loss_changes":[1.2781083E3,3.0039117E2,6.625258E2,1.4537033E2,6.664404E1,2.3189813E2,3.3877847E2,2.9188347E1,1.0803294E2,7.722772E1,3.284192E1,1.8033122E2,4.0238367E2,2.7588257E1,4.4687134E2,1.7449066E1,1.4099431E1,8.792786E0,5.1026672E1,6.985098E1,2.7604843E1,2.0900452E1,2.607605E1,1.0171291E2,2.0867603E2,7.40603E1,2.3627254E2,1.7897385E1,7.4276733E0,4.4897766E0,1.7351964E2,1.6794914E1,4.46163E0,3.297634E1,4.2376456E0,4.601013E0,7.203198E0,3.4526096E1,9.314437E1,1.4710783E1,3.9867214E1,3.0903238E1,7.471298E0,4.5794262E1,8.772339E0,1.6749512E1,1.915863E1,6.2344666E1,2.0155685E2,5.150583E1,7.160138E1,4.1320724E1,7.132605E1,4.210167E1,1.8406621E2,2.010896E1,3.8187408E0,3.1399841E0,1.5296482E1,3.102539E0,0E0,4.9730988E1,2.9734378E2,0E0,0E0,0E0,0E0,0E0,0E0,0E0,0E0,0E0,0E0,0E0,0E0,0E0,0E0,0E0,0E0,0E0,0E0,0E0,0E0,0E0,0E0,0E0,0E0,0E0,0E0,0E0,0E0,0E0,0E0,0E0,0E0,0E0,0E0,0E0,0E0,0E0,0E0,0E0,0E0,0E0,0E0,0E0,0E0,0E0,0E0,0E0,0E0,0E0,0E0,0E0,0E0,0E0,0E0,0E0,0E0,0E0,0E0,0E0,0E0,0E0,0E0],"parents":[2147483647,0,0,1,1,2,2,3,3,4,4,5,5,6,6,7,7,8,8,9,9,10,10,11,11,12,12,13,13,14,14,15,15,16,16,17,17,18,18,19,19,20,20,21,21,22,22,23,23,24,24,25,25,26,26,27,27,28,28,29,29,30,30,31,31,32,32,33,33,34,34,35,35,36,36,37,37,38,38,39,39,40,40,41,41,42,42,43,43,44,44,45,45,46,46,47,47,48,48,49,49,50,50,51,51,52,52,53,53,54,54,55,55,56,56,57,57,58,58,59,59,61,61,62,62],"right_children":[2,4,6,8,10,12,14,16,18,20,22,24,26,28,30,32,34,36,38,40,42,44,46,48,50,52,54,56,58,60,62,64,66,68,70,72,74,76,78,80,82,84,86,88,90,92,94,96,98,100,102,104,106,108,110,112,114,116,118,120,-1,122,124,-1,-1,-1,-1,-1,-1,-1,-1,-1,-1,-1,-1,-1,-1,-1,-1,-1,-1,-1,-1,-1,-1,-1,-1,-1,-1,-1,-1,-1,-1,-1,-1,-1,-1,-1,-1,-1,-1,-1,-1,-1,-1,-1,-1,-1,-1,-1,-1,-1,-1,-1,-1,-1,-1,-1,-1,-1,-1,-1,-1,-1,-1],"split_conditions":[1E0,1E0,3E0,1E0,1E0,2E0,1E0,3E0,1E0,2E0,1E0,1E0,2E0,1E0,1E0,2E0,1E0,4E0,2E0,1E0,1E0,2E0,1E0,1E0,1E0,1E0,1E0,2E0,3E0,4E0,2E0,2E0,1E0,1E0,1E0,2E0,1E0,2E0,2E0,3E0,1E0,1E0,4E0,1E0,1E0,2E0,2E0,2E0,1E0,2E0,3E0,1E0,1E0,1E0,1E0,2E0,4E0,1E0,1E0,3E0,2.1479605E-2,1E0,2E0,5.630198E-2,1.5426173E-2,-1.0106166E-2,1.7482335E-2,-1.0675057E-1,1.12183034E-1,4.871221E-2,-8.7553635E-3,-1.17381684E-1,-8.1429064E-2,-9.6296586E-2,8.8084035E-2,-1.457753E-2,3.598098E-2,-1.04729705E-1,-2.0706357E-2,4.9732424E-2,-3.087913E-2,-1.1469205E-1,-2.3748776E-2,-6.0855042E-2,3.258768E-2,-8.4036745E-2,1.3304482E-2,-5.7179578E-2,1.6642645E-2,-4.5441385E-2,-8.00162E-2,-7.8848146E-2,-1.1573731E-1,-7.91912E-2,-5.080979E-2,-5.8559086E-2,3.948573E-3,8.000882E-2,-8.374947E-3,1.03352524E-1,4.2612027E-2,2.7237505E-2,-6.6918093E-3,1.6664868E-2,6.6731125E-2,5.843958E-2,1.0579884E-1,-3.367683E-2,-9.966435E-2,1.5918063E-1,1.6536018E-2,-2.1244165E-2,-9.312194E-2,-1.046376E-1,1.6183214E-2,-1.1800648E-1,-9.822588E-2,6.3046226E-3,-1.10695E-1,1.7963082E-1,9.266963E-2,-1.0701501E-1,-4.1711226E-2,1.76593E-1,-2.0838793E-2],"split_indices":[20,1,20,39,2,1,39,24,19,1,3,23,20,3,19,23,3,2,39,39,3,1,39,24,3,2,39,1,38,36,39,2,2,23,23,3,31,19,19,23,19,23,16,23,4,1,1,2,4,2,23,23,39,19,19,2,30,38,19,10,0,38,19,0,0,0,0,0,0,0,0,0,0,0,0,0,0,0,0,0,0,0,0,0,0,0,0,0,0,0,0,0,0,0,0,0,0,0,0,0,0,0,0,0,0,0,0,0,0,0,0,0,0,0,0,0,0,0,0,0,0,0,0,0,0],"split_type":[0,0,0,0,0,0,0,0,0,0,0,0,0,0,0,0,0,0,0,0,0,0,0,0,0,0,0,0,0,0,0,0,0,0,0,0,0,0,0,0,0,0,0,0,0,0,0,0,0,0,0,0,0,0,0,0,0,0,0,0,0,0,0,0,0,0,0,0,0,0,0,0,0,0,0,0,0,0,0,0,0,0,0,0,0,0,0,0,0,0,0,0,0,0,0,0,0,0,0,0,0,0,0,0,0,0,0,0,0,0,0,0,0,0,0,0,0,0,0,0,0,0,0,0,0],"sum_hessian":[1.792229E4,5.905045E3,1.2017243E4,2.52637E3,3.3786748E3,1.0148266E4,1.8689775E3,8.4337213E2,1.6829979E3,1.1013513E3,2.2773235E3,6.860782E3,3.2874836E3,7.560784E2,1.1128992E3,7.1056665E2,1.3280548E2,1.922186E2,1.4907793E3,5.803163E2,5.21035E2,7.563279E2,1.5209957E3,2.3776147E3,4.4831675E3,2.1281826E3,1.159301E3,2.6182898E2,4.9424945E2,1.2865082E2,9.8424835E2,4.3436417E2,2.7620245E2,4.41347E1,8.8670784E1,1.8554012E2,6.678482E0,6.5857153E2,8.322078E2,1.8098698E2,3.993293E2,1.6387997E2,3.57155E2,4.041284E2,3.521995E2,5.259389E2,9.9505676E2,7.030107E2,1.674604E3,6.253676E2,3.8577998E3,7.3126306E2,1.3969196E3,4.4388544E2,7.154155E2,1.8060873E2,8.122025E1,4.4964835E2,4.46011E1,1.26415E2,2.2358198E0,5.0507764E2,4.7917072E2,2.7458957E2,1.597746E2,8.323169E1,1.9297076E2,3.6572617E1,7.5620847E0,1.4472019E1,7.419876E1,1.1608078E2,6.945934E1,2.6954935E0,3.9829884E0,4.7022998E2,1.8834152E2,1.636146E2,6.6859326E2,1.552069E2,2.5780094E1,5.5247864E1,3.4408145E2,1.13384E2,5.049597E1,3.493485E2,7.806481E0,2.8581262E2,1.1831578E2,1.13150635E2,2.3904886E2,2.976136E2,2.2832533E2,5.7364886E2,4.2140793E2,4.5884235E2,2.4416835E2,3.1755353E2,1.3570504E3,4.1094382E2,2.1442381E2,3.0788699E3,7.7892993E2,2.5237245E2,4.7889062E2,4.9984097E2,8.9707855E2,3.0119925E2,1.4268617E2,1.0527412E2,6.101414E2,1.24375015E2,5.6233715E1,7.8773186E1,2.4470687E0,1.839131E2,2.6573523E2,1.9193233E1,2.5407867E1,1.1869826E2,7.7167435E0,1.8444275E2,3.206349E2,9.407816E1,3.8509253E2],"tree_param":{"num_deleted":"0","num_feature":"40","num_nodes":"125","size_leaf_vector":"1"}},{"base_weights":[-7.182328E-3,3.921549E-1,-2.0089874E-1,-1.2974248E-2,1.3605025E0,-1.194271E0,-3.7151504E-2,3.7398726E-1,-2.8361413E-1,1.032464E0,1.4876288E0,-1.1134381E0,-1.2676121E0,-3.816127E-1,1.2977242E-1,5.128821E-1,1.17588915E-1,3.383216E-3,-4.2200565E-1,6.6159874E-1,1.4256672E0,1.3283247E0,1.5612442E0,-1.1220325E0,2.0047154E-1,-1.2698169E-1,-6.981029E-1,-2.4694575E-2,-5.513239E-1,7.2168916E-1,1.7314684E-2,6.0638916E-1,-4.2182904E-2,1.7401369E-1,-3.012215E-1,2.777321E-1,-3.103177E-1,-7.103223E-1,-2.111823E-1,7.895529E-1,-1.14791095E-1,1.1657163E0,1.5512168E0,1.1362449E0,1.5367857E-1,1.5633956E-1,5.678557E-1,-1.1536014E0,-8.485015E-1,-6.630971E-2,8.451738E-1,-9.886926E-2,1.945254E-2,4.098408E-1,-4.7347447E-1,-3.9349228E-1,-9.010913E-1,3.910671E-1,1.3459632E0,-1.8644689E-1,1.840711E-1,7.463277E-2,3.804009E-2,-4.3158226E-2,1.2932128E-2,-1.6150849E-3,2.7453294E-2,-7.599582E-2,-9.97737E-3,3.809267E-2,-3.6063094E-2,1.7015837E-2,-5.3078033E-2,-2.8586334E-2,-8.999991E-2,9.570117E-2,-3.3432353E-2,9.022481E-2,-5.978142E-4,-8.5999794E-2,2.0988388E-2,5.5916876E-2,1.4678548E-1,1.5570097E-1,4.322466E-2,8.452784E-2,1.5422434E-1,9.062237E-2,-3.2323177E-3,-1.1579459E-1,-2.1736179E-2,-9.132062E-2,-1.0692023E-2,-2.8731018E-2,1.3651972E-1,2.678003E-2,1.7426208E-1,2.677797E-3,-6.863959E-2,-8.1892096E-2,-8.145287E-3,-4.9433973E-2,-1.1039163E-1,-5.344476E-3,1.01776086E-1,9.192987E-2,1.578757E-1,-5.573014E-2,-4.1588712E-3,6.2423266E-2,3.70863E-3],"categories":[],"categories_nodes":[],"categories_segments":[],"categories_sizes":[],"default_left":[0,0,0,0,0,0,0,0,0,0,0,0,0,0,0,0,0,0,0,0,0,0,0,0,0,0,0,0,0,0,0,0,0,0,0,0,0,0,0,0,0,0,0,0,0,0,0,0,0,0,0,0,0,0,0,0,0,0,0,0,0,0,0,0,0,0,0,0,0,0,0,0,0,0,0,0,0,0,0,0,0,0,0,0,0,0,0,0,0,0,0,0,0,0,0,0,0,0,0,0,0,0,0,0,0,0,0,0,0,0,0],"id":7,"left_children":[1,3,5,7,9,11,13,15,17,19,21,23,25,27,29,31,33,35,37,39,41,43,45,47,49,-1,51,53,55,57,59,61,63,65,67,69,71,73,75,77,79,81,83,85,-1,-1,87,89,91,-1,93,-1,-1,95,97,99,101,103,105,107,109,-1,-1,-1,-1,-1,-1,-1,-1,-1,-1,-1,-1,-1,-1,-1,-1,-1,-1,-1,-1,-1,-1,-1,-1,-1,-1,-1,-1,-1,-1,-1,-1,-1,-1,-1,-1,-1,-1,-1,-1,-1,-1,-1,-1,-1,-1,-1,-1,-1,-1],"loss_changes":[1.3770482E3,2.2810981E3,1.9496832E3,4.2953406E2,6.998804E1,8.644043E0,5.917803E2,6.0053207E1,9.585881E1,6.938727E1,1.2395264E1,9.42926E0,2.211914E-1,2.0347849E2,4.6146884E2,5.683716E1,1.4099104E1,6.77457E1,9.882385E1,2.4932388E1,5.8035583E0,1.41362915E1,9.034424E-1,6.01532E0,3.9818697E0,0E0,1.6507945E0,2.1151976E2,1.2533417E2,2.2792163E2,1.9802393E2,2.9343079E1,1.0657378E1,1.0029781E1,6.4799094E0,2.779929E1,3.8991653E1,5.50791E1,1.3582468E2,1.9263489E1,8.952142E0,1.3836861E1,3.2684326E-1,2.3536621E1,0E0,0E0,7.1601474E-1,2.6906128E0,4.1051674E0,0E0,2.7233157E0,0E0,0E0,1.0386225E2,5.6849945E1,2.0843475E2,5.779492E1,2.0202277E2,3.657202E1,1.4088611E2,2.0732648E2,0E0,0E0,0E0,0E0,0E0,0E0,0E0,0E0,0E0,0E0,0E0,0E0,0E0,0E0,0E0,0E0,0E0,0E0,0E0,0E0,0E0,0E0,0E0,0E0,0E0,0E0,0E0,0E0,0E0,0E0,0E0,0E0,0E0,0E0,0E0,0E0,0E0,0E0,0E0,0E0,0E0,0E0,0E0,0E0,0E0,0E0,0E0,0E0,0E0,0E0],"parents":[2147483647,0,0,1,1,2,2,3,3,4,4,5,5,6,6,7,7,8,8,9,9,10,10,11,11,12,12,13,13,14,14,15,15,16,16,17,17,18,18,19,19,20,20,21,21,22,22,23,23,24,24,26,26,27,27,28,28,29,29,30,30,31,31,32,32,33,33,34,34,35,35,36,36,37,37,38,38,39,39,40,40,41,41,42,42,43,43,46,46,47,47,48,48,50,50,53,53,54,54,55,55,56,56,57,57,58,58,59,59,60,60],"right_children":[2,4,6,8,10,12,14,16,18,20,22,24,26,28,30,32,34,36,38,40,42,44,46,48,50,-1,52,54,56,58,60,62,64,66,68,70,72,74,76,78,80,82,84,86,-1,-1,88,90,92,-1,94,-1,-1,96,98,100,102,104,106,108,110,-1,-1,-1,-1,-1,-1,-1,-1,-1,-1,-1,-1,-1,-1,-1,-1,-1,-1,-1,-1,-1,-1,-1,-1,-1,-1,-1,-1,-1,-1,-1,-1,-1,-1,-1,-1,-1,-1,-1,-1,-1,-1,-1,-1,-1,-1,-1,-1,-1,-1],"split_conditions":[1E0,1E0,1E0,1E0,1E0,1E0,1E0,2E0,1E0,2E0,1E0,5E0,5E0,1E0,1E0,3E0,4E0,2E0,1E0,3E0,1E0,2E0,5E0,3E0,1E0,-1.2698169E-1,2E0,2E0,1E0,2E0,2E0,2E0,1E0,1E0,1E0,3E0,1E0,1E0,1E0,3E0,3E0,1E0,5E0,2E0,1.5367857E-1,1.5633956E-1,1E0,5E0,3E0,-6.630971E-2,1E0,-9.886926E-2,1.945254E-2,2E0,1E0,1E0,1E0,2E0,1E0,1E0,2E0,7.463277E-2,3.804009E-2,-4.3158226E-2,1.2932128E-2,-1.6150849E-3,2.7453294E-2,-7.599582E-2,-9.97737E-3,3.809267E-2,-3.6063094E-2,1.7015837E-2,-5.3078033E-2,-2.8586334E-2,-8.999991E-2,9.570117E-2,-3.3432353E-2,9.022481E-2,-5.978142E-4,-8.5999794E-2,2.0988388E-2,5.5916876E-2,1.4678548E-1,1.5570097E-1,4.322466E-2,8.452784E-2,1.5422434E-1,9.062237E-2,-3.2323177E-3,-1.1579459E-1,-2.1736179E-2,-9.132062E-2,-1.0692023E-2,-2.8731018E-2,1.3651972E-1,2.678003E-2,1.7426208E-1,2.677797E-3,-6.863959E-2,-8.1892096E-2,-8.145287E-3,-4.9433973E-2,-1.1039163E-1,-5.344476E-3,1.01776086E-1,9.192987E-2,1.578757E-1,-5.573014E-2,-4.1588712E-3,6.2423266E-2,3.70863E-3],"split_indices":[0,20,20,1,2,1,39,24,2,1,3,2,27,1,19,23,24,1,39,23,24,2,14,3,28,0,15,0,19,1,39,25,2,23,3,23,3,3,19,25,3,23,28,1,0,0,29,9,2,0,13,0,0,20,2,38,2,20,2,38,19,0,0,0,0,0,0,0,0,0,0,0,0,0,0,0,0,0,0,0,0,0,0,0,0,0,0,0,0,0,0,0,0,0,0,0,0,0,0,0,0,0,0,0,0,0,0,0,0,0,0],"split_type":[0,0,0,0,0,0,0,0,0,0,0,0,0,0,0,0,0,0,0,0,0,0,0,0,0,0,0,0,0,0,0,0,0,0,0,0,0,0,0,0,0,0,0,0,0,0,0,0,0,0,0,0,0,0,0,0,0,0,0,0,0,0,0,0,0,0,0,0,0,0,0,0,0,0,0,0,0,0,0,0,0,0,0,0,0,0,0,0,0,0,0,0,0,0,0,0,0,0,0,0,0,0,0,0,0,0,0,0,0,0,0],"sum_hessian":[1.7798922E4,5.8135464E3,1.1985375E4,4.099443E3,1.7141038E3,1.6951936E3,1.0290182E4,1.6869937E3,2.412449E3,4.8129224E2,1.2328115E3,8.1410754E2,8.8108606E2,3.358453E3,6.9317285E3,1.0935829E3,5.934107E2,7.851581E2,1.627291E3,2.4906206E2,2.3223018E2,3.9565515E2,8.371564E2,8.0896216E2,5.145434E0,8.764634E2,4.622717E0,1.082662E3,2.275791E3,1.1058284E3,5.8259004E3,9.358379E2,1.5774503E2,5.2347003E2,6.9940674E1,4.189114E2,3.6624664E2,6.8632336E2,9.4096765E2,2.1380812E2,3.525394E1,7.898221E1,1.5324797E2,2.0927551E2,1.8637964E2,8.3477484E2,2.3815155E0,7.223738E2,8.658833E1,2.187192E0,2.958242E0,3.4062223E0,1.2164943E0,5.501047E2,5.3255725E2,1.5696265E3,7.061646E2,7.2401105E2,3.8181735E2,2.6219685E3,3.2039316E3,5.7653076E2,3.5930716E2,4.7769096E1,1.0997593E2,1.8130763E2,3.4216238E2,2.0495611E1,4.944506E1,3.609632E2,5.7948223E1,1.15265434E2,2.5098122E2,2.1274628E2,4.735771E2,8.908457E1,8.5188306E2,1.8716072E2,2.6647388E1,1.0198089E1,2.5055853E1,2.7209473E1,5.1772736E1,1.5206924E2,1.1787243E0,1.2370323E2,8.557228E1,1.1968402E0,1.1846753E0,7.188015E2,3.572307E0,7.942674E1,7.1615934E0,1.0717462E0,1.8864958E0,4.9820917E2,5.189551E1,1.5925847E2,3.732988E2,6.6345715E2,9.0616925E2,2.3610649E2,4.7005814E2,4.241076E2,2.9990344E2,1.3653142E2,2.4528593E2,7.3568317E2,1.8862855E3,8.0125165E2,2.40268E3],"tree_param":{"num_deleted":"0","num_feature":"40","num_nodes":"111","size_leaf_vector":"1"}},{"base_weights":[-6.4482572E-3,3.6621642E-1,-1.8777537E-1,-8.863462E-3,1.2805116E0,-1.1645201E0,-3.608626E-2,3.4279004E-1,-2.587027E-1,1.0308001E0,1.4444674E0,-1.0885075E0,-1.2331812E0,-2.816087E-1,1.03343315E-1,-2.0286056E-1,1.4909394E0,-1.1783836E-1,-7.7904E-1,3.6041594E-1,1.3394861E0,1.3444415E0,1.4879528E-1,-1.2313195E-1,-8.034203E-1,-1.2354448E-1,-5.922188E-1,-6.203472E-1,-3.3081602E-2,6.8390965E-1,1.1814908E-2,-5.643193E-2,-1.086538E0,1.0944872E0,1.6260067E0,-1.2806973E0,-1.500549E-2,-6.553607E-1,-1.0491394E0,1.0867782E0,1.3512945E-1,1.083368E0,1.474396E0,1.2237114E0,1.4984107E-1,-9.957742E-1,-4.240008E-1,-9.209681E-2,2.3351816E-2,-4.300805E-1,-1.2331531E0,-2.905119E-1,1.0133003E-1,1.5615019E0,1.417573E-1,-1.9899452E-1,2.1106464E-1,2.3891393E-2,-5.869093E-2,-7.652202E-2,-1.2311828E-1,6.2605806E-2,1.5136169E-1,1.4971447E-1,1.7464134E-1,-1.3530473E-1,-1.09068826E-1,-5.053847E-3,1.6009484E-1,-7.4388795E-2,1.9887464E-1,-1.1670386E-1,-1.5832197E-3,2.6114121E-2,1.4126152E-1,-4.272781E-2,3.5331823E-2,7.3526174E-2,1.329513E-1,1.4807265E-1,4.561491E-2,9.462712E-2,1.4550763E-1,-1.0542045E-1,-3.2680698E-2,1.32357E-2,-7.026281E-2,-5.158081E-3,-1.1955976E-1,-1.2922066E-1,-6.844411E-2,-7.426597E-5,-5.1963564E-2,2.9903961E-2,-2.7463306E-2,1.0184069E-1,1.8921697E-1,-2.0214729E-2,3.553383E-2,-8.557643E-3,-7.214091E-2,5.0857384E-2,-3.9427355E-2],"categories":[],"categories_nodes":[],"categories_segments":[],"categories_sizes":[],"default_left":[0,0,0,0,0,0,0,0,0,0,0,0,0,0,0,0,0,0,0,0,0,0,0,0,0,0,0,0,0,0,0,0,0,0,0,0,0,0,0,0,0,0,0,0,0,0,0,0,0,0,0,0,0,0,0,0,0,0,0,0,0,0,0,0,0,0,0,0,0,0,0,0,0,0,0,0,0,0,0,0,0,0,0,0,0,0,0,0,0,0,0,0,0,0,0,0,0,0,0,0,0,0,0],"id":8,"left_children":[1,3,5,7,9,11,13,15,17,19,21,23,25,27,29,31,33,35,37,39,41,43,-1,-1,45,-1,47,49,51,53,55,57,59,61,63,65,67,69,71,73,75,77,79,81,-1,83,85,-1,-1,87,89,91,93,95,97,99,101,-1,-1,-1,-1,-1,-1,-1,-1,-1,-1,-1,-1,-1,-1,-1,-1,-1,-1,-1,-1,-1,-1,-1,-1,-1,-1,-1,-1,-1,-1,-1,-1,-1,-1,-1,-1,-1,-1,-1,-1,-1,-1,-1,-1,-1,-1],"loss_changes":[1.1851302E3,1.9686008E3,1.7479305E3,3.578008E2,6.687964E1,6.9345703E0,3.4964737E2,1.0600729E3,1.7442313E2,1.3720416E2,2.373291E0,3.0000916E1,4.663086E-1,3.1141354E2,3.4616168E2,1.4842557E2,2.7407349E1,2.2417767E2,1.625119E1,3.4404644E1,1.413147E1,4.022949E0,0E0,0E0,1.832843E1,0E0,1.5252632E0,1.8200085E2,7.389964E1,4.2187567E2,2.3645374E2,1.5453867E2,6.636734E0,2.6846832E1,3.661377E0,6.181488E-1,9.904676E1,8.351506E1,1.918077E1,1.3039951E1,2.0067106E1,1.2802567E1,1.2286377E0,1.0308624E1,0E0,6.2904816E0,1.3761291E1,0E0,0E0,3.465138E2,1.111676E1,4.863746E1,1.0439165E2,5.8893433E1,4.0431858E1,1.6201169E2,5.213906E2,0E0,0E0,0E0,0E0,0E0,0E0,0E0,0E0,0E0,0E0,0E0,0E0,0E0,0E0,0E0,0E0,0E0,0E0,0E0,0E0,0E0,0E0,0E0,0E0,0E0,0E0,0E0,0E0,0E0,0E0,0E0,0E0,0E0,0E0,0E0,0E0,0E0,0E0,0E0,0E0,0E0,0E0,0E0,0E0,0E0,0E0],"parents":[2147483647,0,0,1,1,2,2,3,3,4,4,5,5,6,6,7,7,8,8,9,9,10,10,11,11,12,12,13,13,14,14,15,15,16,16,17,17,18,18,19,19,20,20,21,21,24,24,26,26,27,27,28,28,29,29,30,30,31,31,32,32,33,33,34,34,35,35,36,36,37,37,38,38,39,39,40,40,41,41,42,42,43,43,45,45,46,46,49,49,50,50,51,51,52,52,53,53,54,54,55,55,56,56],"right_children":[2,4,6,8,10,12,14,16,18,20,22,24,26,28,30,32,34,36,38,40,42,44,-1,-1,46,-1,48,50,52,54,56,58,60,62,64,66,68,70,72,74,76,78,80,82,-1,84,86,-1,-1,88,90,92,94,96,98,100,102,-1,-1,-1,-1,-1,-1,-1,-1,-1,-1,-1,-1,-1,-1,-1,-1,-1,-1,-1,-1,-1,-1,-1,-1,-1,-1,-1,-1,-1,-1,-1,-1,-1,-1,-1,-1,-1,-1,-1,-1,-1,-1,-1,-1,-1,-1],"split_conditions":[1E0,1E0,1E0,1E0,1E0,1E0,1E0,1E0,3E0,1E0,1E0,1E0,5E0,2E0,1E0,3E0,1E0,1E0,4E0,1E0,1E0,2E0,1.4879528E-1,-1.2313195E-1,2E0,-1.2354448E-1,2E0,1E0,1E0,2E0,2E0,2E0,1E0,1E0,2E0,2E0,3E0,4E0,5E0,1E0,1E0,2E0,5E0,1E0,1.4984107E-1,3E0,1E0,-9.209681E-2,2.3351816E-2,2E0,3E0,1E0,3E0,1E0,1E0,3E0,3E0,2.3891393E-2,-5.869093E-2,-7.652202E-2,-1.2311828E-1,6.2605806E-2,1.5136169E-1,1.4971447E-1,1.7464134E-1,-1.3530473E-1,-1.09068826E-1,-5.053847E-3,1.6009484E-1,-7.4388795E-2,1.9887464E-1,-1.1670386E-1,-1.5832197E-3,2.6114121E-2,1.4126152E-1,-4.272781E-2,3.5331823E-2,7.3526174E-2,1.329513E-1,1.4807265E-1,4.561491E-2,9.462712E-2,1.4550763E-1,-1.0542045E-1,-3.2680698E-2,1.32357E-2,-7.026281E-2,-5.158081E-3,-1.1955976E-1,-1.2922066E-1,-6.844411E-2,-7.426597E-5,-5.1963564E-2,2.9903961E-2,-2.7463306E-2,1.0184069E-1,1.8921697E-1,-2.0214729E-2,3.553383E-2,-8.557643E-3,-7.214091E-2,5.0857384E-2,-3.9427355E-2],"split_indices":[0,20,20,1,21,1,21,21,21,22,3,21,27,20,1,22,3,21,21,1,23,21,0,0,3,0,12,1,22,0,0,23,6,22,3,7,1,1,1,23,23,22,30,22,0,22,19,0,0,0,3,3,20,22,22,21,20,0,0,0,0,0,0,0,0,0,0,0,0,0,0,0,0,0,0,0,0,0,0,0,0,0,0,0,0,0,0,0,0,0,0,0,0,0,0,0,0,0,0,0,0,0,0],"split_type":[0,0,0,0,0,0,0,0,0,0,0,0,0,0,0,0,0,0,0,0,0,0,0,0,0,0,0,0,0,0,0,0,0,0,0,0,0,0,0,0,0,0,0,0,0,0,0,0,0,0,0,0,0,0,0,0,0,0,0,0,0,0,0,0,0,0,0,0,0,0,0,0,0,0,0,0,0,0,0,0,0,0,0,0,0,0,0,0,0,0,0,0,0,0,0,0,0,0,0,0,0,0,0],"sum_hessian":[1.7536188E4,5.739437E3,1.1796749E4,4.0705342E3,1.6689032E3,1.584874E3,1.0211875E4,1.6906042E3,2.37993E3,6.6435297E2,1.0045502E3,7.601684E2,8.247056E2,3.6983708E3,6.5135044E3,1.1465413E3,5.4406305E2,1.8738677E3,5.060621E2,2.1014388E2,4.542091E2,3.1405997E2,6.9049023E2,5.0424976E2,2.5591862E2,8.2087915E2,3.8264875E0,1.564494E3,2.1338767E3,8.861523E2,5.627352E3,9.8447406E2,1.6206715E2,1.4056808E2,4.0349493E2,1.5131435E2,1.7225533E3,3.4946664E2,1.5659546E2,4.8842686E1,1.6130118E2,1.598238E2,2.9438528E2,1.81046E2,1.3301395E2,1.6874545E2,8.717317E1,2.6543763E0,1.1721113E0,1.1951274E3,3.6936664E2,7.3157495E2,1.4023018E3,3.3767358E2,5.484787E2,2.7343584E3,2.892994E3,6.327417E2,3.517324E2,5.226179E1,1.0980536E2,6.755772E1,7.301036E1,2.0139317E2,2.0210178E2,1.0515384E2,4.6160507E1,1.6864392E3,3.6114147E1,3.3884058E2,1.0626046E1,1.4044177E2,1.6153675E1,1.4330963E1,3.4511723E1,4.481832E1,1.16482864E2,6.785217E1,9.1971634E1,2.9211502E2,2.270278E0,8.464012E1,9.640589E1,1.5466087E2,1.4084576E1,2.9264109E1,5.7909065E1,8.0043195E2,3.946955E2,3.3225375E2,3.711289E1,3.2347913E2,4.0809583E2,9.191489E2,4.8315277E2,1.2933356E2,2.0834001E2,2.1015085E2,3.3832788E2,2.2475671E3,4.8679114E2,1.9397922E3,9.5320166E2],"tree_param":{"num_deleted":"0","num_feature":"40","num_nodes":"103","size_leaf_vector":"1"}},{"base_weights":[-1.6103487E-2,3.2942015E-1,-1.8223947E-1,4.0860358E-1,-3.3735892E-1,-2.585387E-1,2.705399E-1,1.0938306E-1,5.9390587E-1,-8.975128E-1,-8.664782E-2,-4.644641E-1,-1.4957857E-1,6.147365E-2,3.9529008E-1,1.8865989E-1,-4.0255746E-1,1.3730562E0,4.320197E-1,-5.282718E-1,-1.0667789E0,3.6126843E-1,-7.1735215E-1,-3.0016604E-1,-7.8236455E-1,3.0266333E-1,-2.2792707E-1,-2.7490965E-1,2.5223E-1,2.2399156E-1,5.090353E-1,3.6636767E-1,-1.4313073E-1,-9.607745E-1,-1.1758583E-1,1.0174699E0,1.5299528E0,3.6911517E-1,1.4220171E0,-6.7351043E-1,5.2839047E-1,-4.335764E-1,-1.1253577E0,9.765651E-2,1.5241984E0,-8.8320595E-1,3.0536166E-1,-6.367727E-1,5.1002135E-4,-6.678985E-1,-9.57092E-1,-9.711286E-2,5.03094E-1,-4.0577537E-1,7.7900775E-2,-4.3822402E-1,1.7276481E-1,4.7936585E-2,3.907029E-1,-8.233626E-2,4.0102988E-1,4.4102263E-1,7.1292144E-1,1.3182374E-2,5.7335794E-2,-4.1592043E-2,4.1789513E-2,-1.07976735E-1,4.326019E-2,1.2810712E-1,-4.36546E-2,1.6988633E-2,1.464395E-1,1.532656E-1,5.5757802E-2,5.4201216E-2,1.1541325E-2,1.4372027E-1,-1.5572059E-2,-9.104671E-2,-1.9944882E-2,1.8042086E-1,-2.1932151E-2,3.2878525E-3,-1.0967233E-1,-1.1558014E-1,-1.7141161E-2,-3.9741207E-2,3.7385423E-2,1.5576404E-1,2.6644263E-2,-1.1458061E-1,-6.137805E-2,1.4409928E-1,-2.023185E-2,-3.7999835E-2,-1.04159094E-1,6.2322438E-2,-4.1215826E-2,-7.328395E-2,1.6443639E-1,-1.09867096E-1,-6.915731E-2,-5.9184488E-2,1.6323743E-2,1.6558675E-1,3.941272E-2,-1.5407589E-2,-6.2239032E-2,-1.5849305E-2,2.2331072E-2,-6.7888685E-2,-3.0408045E-2,2.8550966E-2,-8.576312E-2,1.503667E-2,-7.754607E-2,1.5173718E-2,5.4903474E-2,-2.6380986E-2,5.007661E-2,4.999E-2,1.0442057E-2,5.5194505E-2,3.1467456E-2,9.548082E-2,5.2499402E-2],"categories":[],"categories_nodes":[],"categories_segments":[],"categories_sizes":[],"default_left":[0,0,0,0,0,0,0,0,0,0,0,0,0,0,0,0,0,0,0,0,0,0,0,0,0,0,0,0,0,0,0,0,0,0,0,0,0,0,0,0,0,0,0,0,0,0,0,0,0,0,0,0,0,0,0,0,0,0,0,0,0,0,0,0,0,0,0,0,0,0,0,0,0,0,0,0,0,0,0,0,0,0,0,0,0,0,0,0,0,0,0,0,0,0,0,0,0,0,0,0,0,0,0,0,0,0,0,0,0,0,0,0,0,0,0,0,0,0,0,0,0,0,0,0,0,0,0],"id":9,"left_children":[1,3,5,7,9,11,13,15,17,19,21,23,25,27,29,31,33,35,37,39,41,43,45,47,49,51,53,55,57,59,61,63,65,67,69,71,73,75,77,79,81,83,85,87,89,91,93,95,97,99,101,103,105,107,109,111,113,115,117,119,121,123,125,-1,-1,-1,-1,-1,-1,-1,-1,-1,-1,-1,-1,-1,-1,-1,-1,-1,-1,-1,-1,-1,-1,-1,-1,-1,-1,-1,-1,-1,-1,-1,-1,-1,-1,-1,-1,-1,-1,-1,-1,-1,-1,-1,-1,-1,-1,-1,-1,-1,-1,-1,-1,-1,-1,-1,-1,-1,-1,-1,-1,-1,-1,-1,-1],"loss_changes":[9.903733E2,2.9591016E2,4.025631E2,2.7759772E2,8.350936E1,2.2365723E2,4.380886E1,7.7853745E1,3.8945825E2,1.0931503E1,1.1672738E2,1.7995032E2,2.3116763E2,4.044715E1,2.039122E1,9.7936264E1,4.0816174E1,2.8096985E1,1.5901492E2,9.532028E0,4.1533966E0,7.395778E1,2.9366241E1,2.303524E2,2.2857666E1,7.725324E1,3.0242938E2,1.6758972E1,1.1355474E1,2.2904615E1,8.444656E0,5.242314E1,8.890042E1,1.4861618E1,7.705713E1,6.2523193E1,1.0961914E-1,1.0565665E2,3.8824463E0,5.772707E0,7.8227987E0,3.8168137E0,3.109909E0,2.7240585E1,1.4610062E0,9.757904E0,1.4520332E1,1.1122604E2,3.0943723E2,1.0828821E2,1.663388E1,4.164766E1,7.9982544E1,1.9157886E2,7.033539E1,5.2003098E0,7.4139414E0,1.3912264E1,8.978363E0,1.6565166E1,7.7907486E0,6.501236E0,6.6073227E0,0E0,0E0,0E0,0E0,0E0,0E0,0E0,0E0,0E0,0E0,0E0,0E0,0E0,0E0,0E0,0E0,0E0,0E0,0E0,0E0,0E0,0E0,0E0,0E0,0E0,0E0,0E0,0E0,0E0,0E0,0E0,0E0,0E0,0E0,0E0,0E0,0E0,0E0,0E0,0E0,0E0,0E0,0E0,0E0,0E0,0E0,0E0,0E0,0E0,0E0,0E0,0E0,0E0,0E0,0E0,0E0,0E0,0E0,0E0,0E0,0E0,0E0,0E0,0E0],"parents":[2147483647,0,0,1,1,2,2,3,3,4,4,5,5,6,6,7,7,8,8,9,9,10,10,11,11,12,12,13,13,14,14,15,15,16,16,17,17,18,18,19,19,20,20,21,21,22,22,23,23,24,24,25,25,26,26,27,27,28,28,29,29,30,30,31,31,32,32,33,33,34,34,35,35,36,36,37,37,38,38,39,39,40,40,41,41,42,42,43,43,44,44,45,45,46,46,47,47,48,48,49,49,50,50,51,51,52,52,53,53,54,54,55,55,56,56,57,57,58,58,59,59,60,60,61,61,62,62],"right_children":[2,4,6,8,10,12,14,16,18,20,22,24,26,28,30,32,34,36,38,40,42,44,46,48,50,52,54,56,58,60,62,64,66,68,70,72,74,76,78,80,82,84,86,88,90,92,94,96,98,100,102,104,106,108,110,112,114,116,118,120,122,124,126,-1,-1,-1,-1,-1,-1,-1,-1,-1,-1,-1,-1,-1,-1,-1,-1,-1,-1,-1,-1,-1,-1,-1,-1,-1,-1,-1,-1,-1,-1,-1,-1,-1,-1,-1,-1,-1,-1,-1,-1,-1,-1,-1,-1,-1,-1,-1,-1,-1,-1,-1,-1,-1,-1,-1,-1,-1,-1,-1,-1,-1,-1,-1,-1],"split_conditions":[1E0,3E0,3E0,1E0,3E0,1E0,1E0,3E0,1E0,1E0,4E0,2E0,1E0,1E0,1E0,2E0,1E0,1E0,3E0,3E0,1E0,4E0,5E0,1E0,3E0,1E0,2E0,4E0,1E0,1E0,2E0,1E0,1E0,1E0,1E0,1E0,5E0,2E0,5E0,2E0,1E0,2E0,4E0,1E0,4E0,4E0,5E0,2E0,1E0,3E0,2E0,1E0,1E0,2E0,1E0,1E0,3E0,3E0,1E0,4E0,2E0,1E0,1E0,1.3182374E-2,5.7335794E-2,-4.1592043E-2,4.1789513E-2,-1.07976735E-1,4.326019E-2,1.2810712E-1,-4.36546E-2,1.6988633E-2,1.464395E-1,1.532656E-1,5.5757802E-2,5.4201216E-2,1.1541325E-2,1.4372027E-1,-1.5572059E-2,-9.104671E-2,-1.9944882E-2,1.8042086E-1,-2.1932151E-2,3.2878525E-3,-1.0967233E-1,-1.1558014E-1,-1.7141161E-2,-3.9741207E-2,3.7385423E-2,1.5576404E-1,2.6644263E-2,-1.1458061E-1,-6.137805E-2,1.4409928E-1,-2.023185E-2,-3.7999835E-2,-1.04159094E-1,6.2322438E-2,-4.1215826E-2,-7.328395E-2,1.6443639E-1,-1.09867096E-1,-6.915731E-2,-5.9184488E-2,1.6323743E-2,1.6558675E-1,3.941272E-2,-1.5407589E-2,-6.2239032E-2,-1.5849305E-2,2.2331072E-2,-6.7888685E-2,-3.0408045E-2,2.8550966E-2,-8.576312E-2,1.503667E-2,-7.754607E-2,1.5173718E-2,5.4903474E-2,-2.6380986E-2,5.007661E-2,4.999E-2,1.0442057E-2,5.5194505E-2,3.1467456E-2,9.548082E-2,5.2499402E-2],"split_indices":[0,21,0,21,1,21,1,24,1,5,21,22,1,22,23,23,22,23,1,13,2,1,1,22,22,23,0,0,23,22,38,23,1,2,2,22,27,21,16,36,4,28,29,2,28,1,21,23,2,2,0,22,2,21,22,24,19,36,24,0,18,18,27,0,0,0,0,0,0,0,0,0,0,0,0,0,0,0,0,0,0,0,0,0,0,0,0,0,0,0,0,0,0,0,0,0,0,0,0,0,0,0,0,0,0,0,0,0,0,0,0,0,0,0,0,0,0,0,0,0,0,0,0,0,0,0,0],"split_type":[0,0,0,0,0,0,0,0,0,0,0,0,0,0,0,0,0,0,0,0,0,0,0,0,0,0,0,0,0,0,0,0,0,0,0,0,0,0,0,0,0,0,0,0,0,0,0,0,0,0,0,0,0,0,0,0,0,0,0,0,0,0,0,0,0,0,0,0,0,0,0,0,0,0,0,0,0,0,0,0,0,0,0,0,0,0,0,0,0,0,0,0,0,0,0,0,0,0,0,0,0,0,0,0,0,0,0,0,0,0,0,0,0,0,0,0,0,0,0,0,0,0,0,0,0,0,0],"sum_hessian":[1.7250668E4,5.6009766E3,1.1649691E4,5.0067827E3,5.941939E2,9.970039E3,1.6796523E3,1.9154164E3,3.0913662E3,1.8292097E2,4.1127295E2,3.4488127E3,6.5212266E3,6.2825885E2,1.0513936E3,1.6591234E3,2.5629297E2,5.3051953E2,2.5608467E3,5.8791893E1,1.2412908E2,2.4073439E2,1.7053856E2,2.274991E3,1.1738219E3,9.625202E2,5.558706E3,2.2718878E2,4.010701E2,4.20738E2,6.306555E2,1.0803704E3,5.787529E2,8.58176E1,1.7047537E2,1.6471E2,3.6580954E2,2.4091423E3,1.5170432E2,5.2006226E1,6.78567E0,1.1222473E1,1.1290661E2,1.9713254E2,4.360185E1,1.4685883E2,2.3679737E1,1.072835E3,1.2021559E3,7.121235E2,4.616984E2,3.2159225E2,6.409279E2,3.5145566E3,2.0441495E3,1.6647778E2,6.0711E1,1.6257066E2,2.3849942E2,1.5429597E2,2.6644205E2,4.752754E2,1.553801E2,5.0724265E2,5.7312775E2,3.8958313E2,1.8916982E2,7.927286E1,6.544743E0,3.1097002E1,1.3937837E2,5.7342102E1,1.0736791E2,3.642208E2,1.588731E0,1.4320613E3,9.7708105E2,1.5034631E2,1.3579905E0,3.4060658E1,1.7945568E1,1.9852581E0,4.8004117E0,7.14625E0,4.0762234E0,1.0920976E2,3.6968508E0,7.043785E1,1.2669468E2,4.224031E1,1.3615383E0,7.27242E1,7.413463E1,6.7476077E0,1.693213E1,6.576374E2,4.1519763E2,4.789351E2,7.232208E2,6.9333386E2,1.878956E1,2.990841E2,1.626143E2,1.1044511E2,2.1114716E2,5.4126015E1,5.8680194E2,1.6264205E3,1.8881362E3,7.7848004E2,1.2656696E3,5.8129158E1,1.08348625E2,5.5374855E1,5.336145E0,1.453114E2,1.7259266E1,9.582773E1,1.426717E2,1.1809114E2,3.6204845E1,1.9931732E2,6.712471E1,2.512935E2,2.2398189E2,6.615254E1,8.9227554E1],"tree_param":{"num_deleted":"0","num_feature":"40","num_nodes":"127","size_leaf_vector":"1"}},{"base_weights":[-8.609072E-3,-3.3353257E-1,1.424868E-1,-2.6735047E-1,-8.1967133E-1,2.2113878E-1,-2.9507536E-1,-5.4436344E-1,-1.09959885E-1,-7.3373765E-1,-1.0159022E0,-3.088407E-2,3.6006877E-1,-7.624947E-1,1.8008421E-3,-1.973533E-1,-8.120687E-1,5.8862454E-1,-3.3959353E-1,-8.01466E-1,1.6713947E0,-1.0979071E0,-3.0634746E-1,1.9008849E-2,-3.9647147E-1,5.2749854E-1,5.171107E-2,-4.8310432E-1,-9.1474915E-1,1.4720515E0,-1.9395253E-1,-1.0163366E-1,-1.1824088E0,-5.053946E-1,-9.520285E-1,1.1051345E0,3.2826975E-1,-3.6839437E-1,1.2246928E0,-9.6444446E-1,-5.8041966E-1,2.0098494E-1,4.0506673E-1,-1.1394347E0,-5.793541E-1,1.2705682E-1,-5.904118E-1,-1.6582814E-1,1.3320793E-1,-6.312647E-1,-1.9133902E-1,3.9392537E-1,8.164957E-1,-3.591526E-1,2.894578E-1,-2.9054396E-2,-8.00344E-1,-8.313844E-1,-1.0935634E0,1.5042932E0,-1.22139186E-1,-5.6107944E-1,1.7748557E-1,8.598152E-3,-4.3246917E-2,-1.22847855E-1,-5.8392704E-2,-7.267313E-2,3.1641636E-3,-6.9410525E-2,-1.06549524E-1,6.7386866E-2,1.2500745E-1,-5.0448865E-2,4.337639E-2,-2.4500957E-2,-6.3885055E-2,5.620293E-2,1.6784145E-1,-9.924906E-2,2.0222193E-2,-9.355123E-2,-3.882293E-2,-3.8896278E-2,1.18587635E-1,-1.15098E-1,3.2691956E-2,-8.381017E-2,5.4825336E-2,-8.369312E-2,1.9907383E-2,-9.218959E-3,-5.8043387E-2,7.075994E-2,1.4565144E-3,-8.483465E-2,1.8734604E-2,-3.4847774E-2,8.696532E-3,1.1817179E-2,5.4146823E-2,1.1310636E-1,4.19168E-2,-1.0459761E-2,-6.749254E-2,1.2268873E-1,1.3711852E-2,6.46522E-2,-3.641519E-2,-4.8970018E-2,-9.6158065E-2,-8.410028E-2,3.6335792E-2,-1.1256068E-1,-6.1506696E-2,1.1737541E-1,1.6616236E-1,-7.6911084E-2,5.8098584E-2,-3.8917895E-2,-1.0307145E-1,1.5305094E-1,-1.5561955E-2],"categories":[],"categories_nodes":[],"categories_segments":[],"categories_sizes":[],"default_left":[0,0,0,0,0,0,0,0,0,0,0,0,0,0,0,0,0,0,0,0,0,0,0,0,0,0,0,0,0,0,0,0,0,0,0,0,0,0,0,0,0,0,0,0,0,0,0,0,0,0,0,0,0,0,0,0,0,0,0,0,0,0,0,0,0,0,0,0,0,0,0,0,0,0,0,0,0,0,0,0,0,0,0,0,0,0,0,0,0,0,0,0,0,0,0,0,0,0,0,0,0,0,0,0,0,0,0,0,0,0,0,0,0,0,0,0,0,0,0,0,0,0,0],"id":10,"left_children":[1,3,5,7,9,11,13,15,17,19,21,23,25,27,29,31,33,35,37,39,41,43,45,47,49,51,53,55,57,59,61,63,65,67,69,71,73,75,77,79,81,-1,83,85,87,-1,89,91,93,95,97,99,101,103,105,107,109,111,113,115,117,119,121,-1,-1,-1,-1,-1,-1,-1,-1,-1,-1,-1,-1,-1,-1,-1,-1,-1,-1,-1,-1,-1,-1,-1,-1,-1,-1,-1,-1,-1,-1,-1,-1,-1,-1,-1,-1,-1,-1,-1,-1,-1,-1,-1,-1,-1,-1,-1,-1,-1,-1,-1,-1,-1,-1,-1,-1,-1,-1,-1,-1],"loss_changes":[8.3973724E2,1.7445874E2,4.0187186E2,2.0835062E2,1.0216705E1,3.4653918E2,2.4690869E2,1.6070477E2,4.8939294E2,7.557002E1,1.1032288E1,6.4175476E1,3.2936328E2,2.8958221E1,3.137555E2,7.111053E1,4.1462708E1,1.0113724E2,1.03878784E2,1.5431641E1,4.6740036E0,3.1030273E0,1.043846E1,6.538239E1,2.0228226E1,1.592909E2,2.1952083E2,3.539777E1,5.742798E0,6.767578E0,1.3129309E2,4.2842762E1,1.1248169E0,3.6675972E1,1.8864258E1,1.494278E1,4.443E1,7.509204E1,1.160474E1,8.511444E0,1.2664566E1,0E0,2.9120784E0,3.0978851E0,4.833513E0,0E0,3.8663373E0,3.6063E1,1.304574E2,3.5090614E1,9.954327E0,1.1506494E2,1.6276617E2,6.6147995E1,2.0311005E2,2.3367718E1,6.7779694E0,3.8509216E0,1.4345856E0,4.5828247E0,2.0226934E0,3.8679413E1,2.1611864E2,0E0,0E0,0E0,0E0,0E0,0E0,0E0,0E0,0E0,0E0,0E0,0E0,0E0,0E0,0E0,0E0,0E0,0E0,0E0,0E0,0E0,0E0,0E0,0E0,0E0,0E0,0E0,0E0,0E0,0E0,0E0,0E0,0E0,0E0,0E0,0E0,0E0,0E0,0E0,0E0,0E0,0E0,0E0,0E0,0E0,0E0,0E0,0E0,0E0,0E0,0E0,0E0,0E0,0E0,0E0,0E0,0E0,0E0,0E0,0E0],"parents":[2147483647,0,0,1,1,2,2,3,3,4,4,5,5,6,6,7,7,8,8,9,9,10,10,11,11,12,12,13,13,14,14,15,15,16,16,17,17,18,18,19,19,20,20,21,21,22,22,23,23,24,24,25,25,26,26,27,27,28,28,29,29,30,30,31,31,32,32,33,33,34,34,35,35,36,36,37,37,38,38,39,39,40,40,42,42,43,43,44,44,46,46,47,47,48,48,49,49,50,50,51,51,52,52,53,53,54,54,55,55,56,56,57,57,58,58,59,59,60,60,61,61,62,62],"right_children":[2,4,6,8,10,12,14,16,18,20,22,24,26,28,30,32,34,36,38,40,42,44,46,48,50,52,54,56,58,60,62,64,66,68,70,72,74,76,78,80,82,-1,84,86,88,-1,90,92,94,96,98,100,102,104,106,108,110,112,114,116,118,120,122,-1,-1,-1,-1,-1,-1,-1,-1,-1,-1,-1,-1,-1,-1,-1,-1,-1,-1,-1,-1,-1,-1,-1,-1,-1,-1,-1,-1,-1,-1,-1,-1,-1,-1,-1,-1,-1,-1,-1,-1,-1,-1,-1,-1,-1,-1,-1,-1,-1,-1,-1,-1,-1,-1,-1,-1,-1,-1,-1,-1],"split_conditions":[1E0,3E0,3E0,1E0,4E0,1E0,1E0,1E0,1E0,4E0,5E0,3E0,2E0,1E0,1E0,1E0,1E0,1E0,3E0,3E0,2E0,3E0,5E0,1E0,1E0,2E0,1E0,1E0,1E0,4E0,2E0,2E0,3E0,1E0,1E0,1E0,1E0,2E0,1E0,4E0,1E0,2.0098494E-1,1E0,5E0,2E0,1.2705682E-1,2E0,3E0,1E0,4E0,1E0,1E0,2E0,2E0,1E0,1E0,1E0,5E0,3E0,1E0,1E0,2E0,2E0,8.598152E-3,-4.3246917E-2,-1.22847855E-1,-5.8392704E-2,-7.267313E-2,3.1641636E-3,-6.9410525E-2,-1.06549524E-1,6.7386866E-2,1.2500745E-1,-5.0448865E-2,4.337639E-2,-2.4500957E-2,-6.3885055E-2,5.620293E-2,1.6784145E-1,-9.924906E-2,2.0222193E-2,-9.355123E-2,-3.882293E-2,-3.8896278E-2,1.18587635E-1,-1.15098E-1,3.2691956E-2,-8.381017E-2,5.4825336E-2,-8.369312E-2,1.9907383E-2,-9.218959E-3,-5.8043387E-2,7.075994E-2,1.4565144E-3,-8.483465E-2,1.8734604E-2,-3.4847774E-2,8.696532E-3,1.1817179E-2,5.4146823E-2,1.1310636E-1,4.19168E-2,-1.0459761E-2,-6.749254E-2,1.2268873E-1,1.3711852E-2,6.46522E-2,-3.641519E-2,-4.8970018E-2,-9.6158065E-2,-8.410028E-2,3.6335792E-2,-1.1256068E-1,-6.1506696E-2,1.1737541E-1,1.6616236E-1,-7.6911084E-2,5.8098584E-2,-3.8917895E-2,-1.0307145E-1,1.5305094E-1,-1.5561955E-2],"split_indices":[20,21,20,21,21,21,39,2,1,1,1,23,20,3,19,1,3,39,1,1,18,39,21,23,2,2,39,21,19,13,39,23,6,23,4,3,19,23,2,13,39,0,2,17,32,0,10,24,3,3,1,24,21,21,19,4,5,23,15,23,3,19,19,0,0,0,0,0,0,0,0,0,0,0,0,0,0,0,0,0,0,0,0,0,0,0,0,0,0,0,0,0,0,0,0,0,0,0,0,0,0,0,0,0,0,0,0,0,0,0,0,0,0,0,0,0,0,0,0,0,0,0,0],"split_type":[0,0,0,0,0,0,0,0,0,0,0,0,0,0,0,0,0,0,0,0,0,0,0,0,0,0,0,0,0,0,0,0,0,0,0,0,0,0,0,0,0,0,0,0,0,0,0,0,0,0,0,0,0,0,0,0,0,0,0,0,0,0,0,0,0,0,0,0,0,0,0,0,0,0,0,0,0,0,0,0,0,0,0,0,0,0,0,0,0,0,0,0,0,0,0,0,0,0,0,0,0,0,0,0,0,0,0,0,0,0,0,0,0,0,0,0,0,0,0,0,0,0,0],"sum_hessian":[1.7102506E4,5.428215E3,1.167429E4,4.7791406E3,6.4907434E2,9.895979E3,1.7783115E3,1.7306597E3,3.048481E3,4.546935E2,1.9438081E2,3.5169363E3,6.3790425E3,6.901424E2,1.0881691E3,7.544495E2,9.7621014E2,7.537827E2,2.2946982E3,4.4288858E2,1.1804933E1,1.737525E2,2.062831E1,3.0954395E3,4.2149686E2,4.1337944E3,2.245248E3,2.4490651E2,4.4523587E2,1.27092415E2,9.6107666E2,6.886366E2,6.5812904E1,3.073559E2,6.6885425E2,2.5153177E2,5.0225098E2,2.2539639E3,4.073436E1,2.5299274E2,1.8989584E2,8.8519125E0,2.95302E0,1.5976094E2,1.3991552E1,2.618654E0,1.8009655E1,1.1819468E3,1.9134928E3,1.9557066E2,2.2592618E2,2.828731E3,1.3050635E3,8.228036E2,1.4224443E3,1.0118165E2,1.4372487E2,3.0751782E2,1.3771805E2,1.24628265E2,2.4641542E0,4.8308658E2,4.7799008E2,4.399074E2,2.487292E2,6.013146E1,5.6814475E0,2.174017E2,8.99542E1,2.0652214E2,4.623321E2,6.4691864E1,1.868399E2,5.604626E1,4.462047E2,1.5491375E3,7.048263E2,1.7465132E1,2.3269228E1,2.4719948E2,5.793252E0,6.532787E1,1.2456797E2,1.7129327E0,1.2400873E0,1.5872629E2,1.0346539E0,1.1589012E1,2.4025407E0,1.3678426E1,4.331229E0,1.0047198E3,1.7722699E2,3.2672723E2,1.5867655E3,1.5455022E2,4.1020443E1,1.4423486E2,8.169133E1,9.866011E2,1.8421299E3,7.273597E2,5.777038E2,4.5629788E2,3.665057E2,1.9785812E2,1.2245862E3,3.32395E1,6.794215E1,5.0488747E1,9.3236115E1,3.0535562E2,2.162215E0,1.2780685E2,9.9112015E0,4.2919037E1,8.170923E1,1.234447E0,1.2297074E0,3.5498145E2,1.2810515E2,9.371971E1,3.842704E2],"tree_param":{"num_deleted":"0","num_feature":"40","num_nodes":"123","size_leaf_vector":"1"}},{"base_weights":[-7.885605E-3,3.1594014E-1,-1.6187567E-1,-2.0254783E-2,1.1574922E0,-1.1197255E0,-2.8056268E-2,2.8461683E-1,-2.3404235E-1,8.6527455E-1,1.3135003E0,-1.0525618E0,-1.1835455E0,-3.232419E-1,1.122768E-1,-1.5730281E-1,1.2570422E0,-1.2078985E0,-1.716401E-1,2.678105E-1,1.2353028E0,1.1770959E0,1.3617751E-1,-1.17977194E-1,-8.3116865E-1,-1.1860688E-1,-5.7108E-1,-2.1053584E-1,-7.60936E-1,-1.8077451E-1,2.751903E-1,3.1900343E-1,-5.0620645E-1,8.621772E-1,1.3977402E0,-1.2778214E0,-1.0357262E0,-4.7855273E-2,-6.410838E-1,9.8419356E-1,5.84862E-2,9.833346E-1,1.3612285E0,9.6318454E-1,1.3463412E-1,1.0255023E-1,-9.2057675E-1,-9.067505E-2,3.0301282E-2,-2.987906E-2,-5.945849E-1,-4.9738985E-1,-9.081639E-1,-5.9254766E-1,1.5426393E-1,2.0221957E-4,4.5022136E-1,-2.7686981E-2,1.5068853E-1,-4.646594E-3,-7.240378E-2,4.028405E-2,1.3037917E-1,1.327617E-1,1.5581939E-1,-1.2983625E-1,-3.801528E-2,-1.068151E-1,-2.3440275E-2,-3.0238016E-2,1.3558415E-2,-8.97352E-2,-4.1887406E-2,1.1687617E-2,1.3773878E-1,1.8756656E-2,-7.577807E-2,7.3460735E-2,1.3307853E-1,1.365302E-1,2.6619127E-2,5.7719108E-2,1.2759823E-1,-2.6088327E-2,1.5378955E-1,-1.2513235E-1,-7.515597E-2,2.0318199E-2,-4.875736E-2,-6.40234E-2,1.7191729E-1,-1.2533701E-2,-7.565996E-2,-9.935558E-2,-4.5755636E-2,-3.6936723E-2,-1.1600317E-1,-2.2307938E-2,3.50086E-2,-3.3763945E-2,1.7886106E-2,6.6806935E-2,1.9580679E-2],"categories":[],"categories_nodes":[],"categories_segments":[],"categories_sizes":[],"default_left":[0,0,0,0,0,0,0,0,0,0,0,0,0,0,0,0,0,0,0,0,0,0,0,0,0,0,0,0,0,0,0,0,0,0,0,0,0,0,0,0,0,0,0,0,0,0,0,0,0,0,0,0,0,0,0,0,0,0,0,0,0,0,0,0,0,0,0,0,0,0,0,0,0,0,0,0,0,0,0,0,0,0,0,0,0,0,0,0,0,0,0,0,0,0,0,0,0,0,0,0,0,0,0],"id":11,"left_children":[1,3,5,7,9,11,13,15,17,19,21,23,25,27,29,31,33,35,37,39,41,43,-1,-1,45,-1,47,49,51,53,55,57,59,61,63,65,67,69,71,73,75,77,79,81,-1,83,85,-1,-1,87,89,91,93,95,97,99,101,-1,-1,-1,-1,-1,-1,-1,-1,-1,-1,-1,-1,-1,-1,-1,-1,-1,-1,-1,-1,-1,-1,-1,-1,-1,-1,-1,-1,-1,-1,-1,-1,-1,-1,-1,-1,-1,-1,-1,-1,-1,-1,-1,-1,-1,-1],"loss_changes":[8.4258545E2,1.5407117E3,1.4677991E3,2.5374342E2,6.972974E1,4.77124E0,4.162969E2,6.898076E2,1.3885692E2,1.1993158E2,5.0577393E0,1.853601E1,4.2266846E-1,1.5958063E2,3.2524683E2,1.836658E2,2.6657715E1,3.3351135E-1,1.2500485E2,3.133253E1,9.311462E0,8.542603E0,0E0,0E0,2.1487625E1,0E0,1.6974669E0,1.7873969E2,2.5261902E1,3.3593106E2,2.1072992E2,3.3131427E2,6.3832825E1,2.673056E1,2.0736694E0,1.2324066E0,9.196434E-1,7.9591415E1,2.5186874E1,1.5959526E1,1.7322506E1,8.999771E0,6.232605E-1,1.4182159E1,0E0,1.2552436E1,1.2138779E1,0E0,0E0,1.8712158E2,8.815234E1,2.3024902E1,1.5858826E1,1.3791373E2,9.931683E1,1.0290332E2,1.4814697E2,0E0,0E0,0E0,0E0,0E0,0E0,0E0,0E0,0E0,0E0,0E0,0E0,0E0,0E0,0E0,0E0,0E0,0E0,0E0,0E0,0E0,0E0,0E0,0E0,0E0,0E0,0E0,0E0,0E0,0E0,0E0,0E0,0E0,0E0,0E0,0E0,0E0,0E0,0E0,0E0,0E0,0E0,0E0,0E0,0E0,0E0],"parents":[2147483647,0,0,1,1,2,2,3,3,4,4,5,5,6,6,7,7,8,8,9,9,10,10,11,11,12,12,13,13,14,14,15,15,16,16,17,17,18,18,19,19,20,20,21,21,24,24,26,26,27,27,28,28,29,29,30,30,31,31,32,32,33,33,34,34,35,35,36,36,37,37,38,38,39,39,40,40,41,41,42,42,43,43,45,45,46,46,49,49,50,50,51,51,52,52,53,53,54,54,55,55,56,56],"right_children":[2,4,6,8,10,12,14,16,18,20,22,24,26,28,30,32,34,36,38,40,42,44,-1,-1,46,-1,48,50,52,54,56,58,60,62,64,66,68,70,72,74,76,78,80,82,-1,84,86,-1,-1,88,90,92,94,96,98,100,102,-1,-1,-1,-1,-1,-1,-1,-1,-1,-1,-1,-1,-1,-1,-1,-1,-1,-1,-1,-1,-1,-1,-1,-1,-1,-1,-1,-1,-1,-1,-1,-1,-1,-1,-1,-1,-1,-1,-1,-1,-1,-1,-1,-1,-1,-1],"split_conditions":[1E0,1E0,1E0,1E0,1E0,1E0,1E0,1E0,1E0,1E0,1E0,1E0,5E0,3E0,1E0,1E0,1E0,2E0,3E0,1E0,1E0,1E0,1.3617751E-1,-1.17977194E-1,1E0,-1.1860688E-1,2E0,2E0,1E0,2E0,1E0,1E0,1E0,1E0,2E0,4E0,4E0,1E0,1E0,1E0,3E0,2E0,5E0,2E0,1.3463412E-1,3E0,1E0,-9.067505E-2,3.0301282E-2,2E0,3E0,1E0,4E0,1E0,1E0,1E0,2E0,-2.7686981E-2,1.5068853E-1,-4.646594E-3,-7.240378E-2,4.028405E-2,1.3037917E-1,1.327617E-1,1.5581939E-1,-1.2983625E-1,-3.801528E-2,-1.068151E-1,-2.3440275E-2,-3.0238016E-2,1.3558415E-2,-8.97352E-2,-4.1887406E-2,1.1687617E-2,1.3773878E-1,1.8756656E-2,-7.577807E-2,7.3460735E-2,1.3307853E-1,1.365302E-1,2.6619127E-2,5.7719108E-2,1.2759823E-1,-2.6088327E-2,1.5378955E-1,-1.2513235E-1,-7.515597E-2,2.0318199E-2,-4.875736E-2,-6.40234E-2,1.7191729E-1,-1.2533701E-2,-7.565996E-2,-9.935558E-2,-4.5755636E-2,-3.6936723E-2,-1.1600317E-1,-2.2307938E-2,3.50086E-2,-3.3763945E-2,1.7886106E-2,6.6806935E-2,1.9580679E-2],"split_indices":[0,20,20,1,22,1,39,21,21,21,3,21,27,20,21,2,3,7,21,1,23,21,0,0,2,0,31,21,3,20,22,22,3,22,22,5,29,39,39,23,25,21,11,2,0,3,22,0,0,22,0,21,0,1,22,23,20,0,0,0,0,0,0,0,0,0,0,0,0,0,0,0,0,0,0,0,0,0,0,0,0,0,0,0,0,0,0,0,0,0,0,0,0,0,0,0,0,0,0,0,0,0,0],"split_type":[0,0,0,0,0,0,0,0,0,0,0,0,0,0,0,0,0,0,0,0,0,0,0,0,0,0,0,0,0,0,0,0,0,0,0,0,0,0,0,0,0,0,0,0,0,0,0,0,0,0,0,0,0,0,0,0,0,0,0,0,0,0,0,0,0,0,0,0,0,0,0,0,0,0,0,0,0,0,0,0,0,0,0,0,0,0,0,0,0,0,0,0,0,0,0,0,0,0,0,0,0,0,0],"sum_hessian":[1.6894984E4,5.444562E3,1.1450423E4,3.8910767E3,1.5534856E3,1.4027169E3,1.0047706E4,1.603737E3,2.2873396E3,5.429803E2,1.0105053E3,6.919775E2,7.107394E2,3.2371572E3,6.8105483E3,1.1032172E3,5.0051987E2,1.3663544E2,2.150704E3,2.0832816E2,3.346521E2,2.7077917E2,7.3972614E2,4.367162E2,2.5526132E2,7.0689044E2,3.848926E0,2.5754587E3,6.616985E2,2.433329E3,4.377219E3,4.6648297E2,6.3673413E2,1.3336443E2,3.6715546E2,9.260485E1,4.403058E1,1.7028038E3,4.4790033E2,4.6270863E1,1.620573E2,1.1445156E2,2.2020053E2,1.2256228E2,1.4821689E2,2.2293715E1,2.329676E2,2.7539773E0,1.0949485E0,1.7522688E3,8.2319E2,2.3873245E2,4.2296603E2,1.0913077E3,1.3420214E3,1.7028711E3,2.6743484E3,3.111625E2,1.553205E2,2.0509256E2,4.316416E2,6.630782E1,6.70566E1,2.619494E2,1.05206024E2,9.0096825E1,2.5080228E0,4.1998177E1,2.032402E0,7.129403E2,9.8986346E2,2.0659814E2,2.4130219E2,1.4838027E1,3.1432835E1,1.4059459E2,2.1462711E1,6.851701E1,4.5934547E1,2.1913853E2,1.0619987E0,5.6135784E1,6.642649E1,1.8442312E1,3.8514025E0,7.662259E1,1.5634502E2,1.1614215E3,5.9084735E2,8.079725E2,1.5217528E1,9.863776E1,1.400947E2,3.5456894E2,6.8397095E1,7.844497E2,3.06858E2,4.5845435E2,8.83567E2,5.887196E2,1.1141515E3,1.4398336E3,1.2345148E3],"tree_param":{"num_deleted":"0","num_feature":"40","num_nodes":"103","size_leaf_vector":"1"}},{"base_weights":[-1.236146E-2,-2.8574508E-1,1.1045343E-1,-2.2577825E-1,-7.5732005E-1,1.7618503E-1,-2.613641E-1,-4.7464657E-1,-8.757697E-2,-5.7325906E-1,-8.5176367E-1,-4.1462973E-2,2.9583564E-1,-7.1030337E-1,2.6938158E-6,-3.1326002E-1,-7.601261E-1,5.2052605E-1,-2.8520393E-1,-4.1233525E-1,-9.118695E-1,-8.7819767E-1,-4.1499272E-2,-3.9570186E-1,1.2110525E-1,1.305553E-1,3.9592215E-1,-4.6056134E-1,-8.5204816E-1,1.2844425E0,-1.7284259E-1,-1.2324285E-1,-6.482785E-1,-7.940841E-1,3.9618543E-1,9.605956E-1,3.00586E-1,-3.1067064E-1,1.1139971E0,-4.7167766E-1,1.1972513E0,-9.697467E-1,-3.8995583E-2,-9.1716564E-1,-4.3445733E-1,1.471381E-1,-3.9515987E-1,-1.062366E-1,-6.1450297E-1,-2.094317E-1,2.7892995E-1,3.940089E-1,-1.3968785E-1,5.815447E-1,5.8376707E-2,-1.2577958E-1,-7.086069E-1,-9.4917387E-1,-6.0196984E-1,9.295549E-1,1.4568212E0,-3.0259997E-1,5.780758E-1,-3.7401859E-3,-1.1035116E-1,-8.634042E-2,-4.3041714E-2,-6.546041E-2,-1.0267731E-1,-2.6702648E-2,7.485622E-2,7.657059E-2,1.2834539E-1,1.3565622E-2,5.9709657E-2,-1.8612927E-2,-5.7799082E-2,1.4043461E-1,1.569985E-2,-3.251246E-2,-8.971266E-2,3.0186465E-2,1.5549862E-1,-1.0316213E-1,-2.2442365E-2,5.8411248E-2,-5.4316413E-2,-9.3220726E-2,1.9722877E-3,-5.0803162E-2,3.743058E-2,2.6635168E-2,-7.353807E-2,-6.343569E-2,9.81765E-2,-2.3494009E-2,-7.890608E-2,-3.644356E-2,4.824696E-2,7.458644E-2,1.6561555E-2,-1.489729E-3,6.048022E-2,-3.624492E-2,1.384223E-2,1.2571701E-1,4.810595E-2,-3.2789003E-2,2.8968519E-2,4.369983E-2,-3.9515253E-2,-1.02417946E-1,-5.301358E-2,-1.057291E-1,-8.34083E-2,-2.3132833E-2,-9.84E-2,1.0535759E-1,-5.382539E-2,1.4842032E-1,3.6909573E-2,5.8850595E-3,-7.474635E-2,2.0392261E-1,-6.361933E-3],"categories":[],"categories_nodes":[],"categories_segments":[],"categories_sizes":[],"default_left":[0,0,0,0,0,0,0,0,0,0,0,0,0,0,0,0,0,0,0,0,0,0,0,0,0,0,0,0,0,0,0,0,0,0,0,0,0,0,0,0,0,0,0,0,0,0,0,0,0,0,0,0,0,0,0,0,0,0,0,0,0,0,0,0,0,0,0,0,0,0,0,0,0,0,0,0,0,0,0,0,0,0,0,0,0,0,0,0,0,0,0,0,0,0,0,0,0,0,0,0,0,0,0,0,0,0,0,0,0,0,0,0,0,0,0,0,0,0,0,0,0,0,0,0,0],"id":12,"left_children":[1,3,5,7,9,11,13,15,17,19,21,23,25,27,29,31,33,35,37,39,41,43,45,47,49,51,53,55,57,59,61,63,65,67,69,71,73,75,77,79,81,83,85,87,89,-1,91,93,95,97,99,101,103,105,107,109,111,113,115,117,119,121,123,-1,-1,-1,-1,-1,-1,-1,-1,-1,-1,-1,-1,-1,-1,-1,-1,-1,-1,-1,-1,-1,-1,-1,-1,-1,-1,-1,-1,-1,-1,-1,-1,-1,-1,-1,-1,-1,-1,-1,-1,-1,-1,-1,-1,-1,-1,-1,-1,-1,-1,-1,-1,-1,-1,-1,-1,-1,-1,-1,-1,-1,-1],"loss_changes":[5.593794E2,1.4587247E2,2.8100922E2,1.575925E2,9.632416E0,2.5442844E2,2.0268985E2,7.514496E1,3.5443362E2,1.0548813E1,8.160767E0,1.9967395E2,1.0423291E2,2.2108368E1,2.4282996E2,6.656959E1,2.3489777E1,6.973163E1,7.965027E1,1.3720068E1,3.183403E0,6.00943E0,7.6123767E0,6.901141E1,1.24048775E2,1.6944345E2,2.4595001E2,1.9202553E1,9.248901E0,6.5820923E0,9.4109375E1,5.627799E1,1.7376083E1,1.7947632E1,4.290953E0,1.4157486E1,2.3579159E1,7.268892E1,1.0894474E1,8.035173E0,1.1897693E0,2.5241852E0,1.8901719E0,4.806366E0,2.0833306E0,0E0,2.7703931E0,2.7109537E2,4.0954956E1,8.261546E1,8.501542E1,1.03871765E2,7.285565E1,1.7135376E2,1.2464922E2,1.5345535E1,6.960518E0,2.7201233E0,1.6173935E1,8.790848E0,2.0003815E0,1.3232553E2,1.3363211E2,0E0,0E0,0E0,0E0,0E0,0E0,0E0,0E0,0E0,0E0,0E0,0E0,0E0,0E0,0E0,0E0,0E0,0E0,0E0,0E0,0E0,0E0,0E0,0E0,0E0,0E0,0E0,0E0,0E0,0E0,0E0,0E0,0E0,0E0,0E0,0E0,0E0,0E0,0E0,0E0,0E0,0E0,0E0,0E0,0E0,0E0,0E0,0E0,0E0,0E0,0E0,0E0,0E0,0E0,0E0,0E0,0E0,0E0,0E0,0E0,0E0,0E0],"parents":[2147483647,0,0,1,1,2,2,3,3,4,4,5,5,6,6,7,7,8,8,9,9,10,10,11,11,12,12,13,13,14,14,15,15,16,16,17,17,18,18,19,19,20,20,21,21,22,22,23,23,24,24,25,25,26,26,27,27,28,28,29,29,30,30,31,31,32,32,33,33,34,34,35,35,36,36,37,37,38,38,39,39,40,40,41,41,42,42,43,43,44,44,46,46,47,47,48,48,49,49,50,50,51,51,52,52,53,53,54,54,55,55,56,56,57,57,58,58,59,59,60,60,61,61,62,62],"right_children":[2,4,6,8,10,12,14,16,18,20,22,24,26,28,30,32,34,36,38,40,42,44,46,48,50,52,54,56,58,60,62,64,66,68,70,72,74,76,78,80,82,84,86,88,90,-1,92,94,96,98,100,102,104,106,108,110,112,114,116,118,120,122,124,-1,-1,-1,-1,-1,-1,-1,-1,-1,-1,-1,-1,-1,-1,-1,-1,-1,-1,-1,-1,-1,-1,-1,-1,-1,-1,-1,-1,-1,-1,-1,-1,-1,-1,-1,-1,-1,-1,-1,-1,-1,-1,-1,-1,-1,-1,-1,-1,-1,-1,-1,-1,-1,-1,-1,-1,-1,-1,-1,-1,-1,-1],"split_conditions":[1E0,3E0,3E0,1E0,1E0,1E0,1E0,2E0,1E0,4E0,5E0,1E0,1E0,1E0,1E0,2E0,4E0,1E0,3E0,4E0,3E0,3E0,5E0,1E0,1E0,2E0,2E0,1E0,2E0,1E0,3E0,1E0,1E0,3E0,1E0,2E0,2E0,2E0,2E0,2E0,1E0,3E0,1E0,4E0,3E0,1.471381E-1,1E0,1E0,1E0,3E0,1E0,1E0,1E0,1E0,1E0,1E0,1E0,1E0,1E0,3E0,4E0,2E0,3E0,-3.7401859E-3,-1.1035116E-1,-8.634042E-2,-4.3041714E-2,-6.546041E-2,-1.0267731E-1,-2.6702648E-2,7.485622E-2,7.657059E-2,1.2834539E-1,1.3565622E-2,5.9709657E-2,-1.8612927E-2,-5.7799082E-2,1.4043461E-1,1.569985E-2,-3.251246E-2,-8.971266E-2,3.0186465E-2,1.5549862E-1,-1.0316213E-1,-2.2442365E-2,5.8411248E-2,-5.4316413E-2,-9.3220726E-2,1.9722877E-3,-5.0803162E-2,3.743058E-2,2.6635168E-2,-7.353807E-2,-6.343569E-2,9.81765E-2,-2.3494009E-2,-7.890608E-2,-3.644356E-2,4.824696E-2,7.458644E-2,1.6561555E-2,-1.489729E-3,6.048022E-2,-3.624492E-2,1.384223E-2,1.2571701E-1,4.810595E-2,-3.2789003E-2,2.8968519E-2,4.369983E-2,-3.9515253E-2,-1.02417946E-1,-5.301358E-2,-1.057291E-1,-8.34083E-2,-2.3132833E-2,-9.84E-2,1.0535759E-1,-5.382539E-2,1.4842032E-1,3.6909573E-2,5.8850595E-3,-7.474635E-2,2.0392261E-1,-6.361933E-3],"split_indices":[20,21,20,21,4,22,39,22,1,21,1,21,21,3,19,23,16,39,1,1,18,39,21,3,23,22,20,21,38,4,39,1,22,22,32,3,3,22,19,22,22,17,6,13,32,0,16,23,4,1,3,23,1,1,39,4,38,38,19,16,35,19,19,0,0,0,0,0,0,0,0,0,0,0,0,0,0,0,0,0,0,0,0,0,0,0,0,0,0,0,0,0,0,0,0,0,0,0,0,0,0,0,0,0,0,0,0,0,0,0,0,0,0,0,0,0,0,0,0,0,0,0,0,0,0],"split_type":[0,0,0,0,0,0,0,0,0,0,0,0,0,0,0,0,0,0,0,0,0,0,0,0,0,0,0,0,0,0,0,0,0,0,0,0,0,0,0,0,0,0,0,0,0,0,0,0,0,0,0,0,0,0,0,0,0,0,0,0,0,0,0,0,0,0,0,0,0,0,0,0,0,0,0,0,0,0,0,0,0,0,0,0,0,0,0,0,0,0,0,0,0,0,0,0,0,0,0,0,0,0,0,0,0,0,0,0,0,0,0,0,0,0,0,0,0,0,0,0,0,0,0,0,0],"sum_hessian":[1.6658365E4,5.1634023E3,1.1494964E4,4.582196E3,5.812065E2,9.76856E3,1.7264043E3,1.6351812E3,2.9470146E3,1.9949022E2,3.8171628E2,3.4654526E3,6.3031064E3,6.3462195E2,1.0917823E3,1.0459722E3,5.89209E2,7.224339E2,2.2245808E3,1.367282E2,6.2762024E1,3.6957547E2,1.2140821E1,1.0896509E3,2.3758015E3,2.3781667E3,3.92494E3,2.3131474E2,4.0330722E2,1.2873103E2,9.630513E2,6.682942E2,3.7767795E2,5.7270337E2,1.65056E1,2.3962E2,4.8281393E2,2.185579E3,3.90015E1,1.3254836E2,4.1798515E0,5.8755196E1,4.0068293E0,3.3875967E2,3.0815794E1,1.7015483E0,1.0439274E1,4.6971802E2,6.199329E2,7.6768634E2,1.6081152E3,1.2039788E3,1.1741881E3,2.5318857E3,1.3930541E3,9.908668E1,1.3222807E2,2.8847388E2,1.1483334E2,4.417579E1,8.455525E1,8.216659E2,1.4138538E2,6.154391E2,5.285512E1,1.8854118E2,1.8913678E2,3.604521E2,2.1225128E2,5.810955E0,1.0694644E1,1.5152519E2,8.8094795E1,3.111813E2,1.7163263E2,1.492116E3,6.9346326E2,2.9564362E1,9.437138E0,9.9900215E1,3.2648132E1,1.7196088E0,2.4602425E0,5.3896717E1,4.8584795E0,1.7211157E0,2.2857137E0,3.334118E2,5.3478775E0,2.8587034E1,2.2287593E0,3.6192577E0,6.8200154E0,3.165031E2,1.532149E2,1.9602887E2,4.2390402E2,6.2756805E2,1.401183E2,3.1295203E2,1.2951632E3,4.0985437E2,7.941244E2,6.518024E2,5.223856E2,3.2631995E2,2.2055657E3,5.216023E2,8.7145184E2,3.1873604E1,6.721307E1,4.6055E1,8.617307E1,1.4452216E2,1.4395172E2,5.910035E1,5.5732998E1,4.0994236E1,3.1815546E0,8.2123405E1,2.4318457E0,4.5381226E2,3.6785364E2,4.2479954E1,9.890542E1],"tree_param":{"num_deleted":"0","num_feature":"40","num_nodes":"125","size_leaf_vector":"1"}},{"base_weights":[-4.92615E-3,3.1305212E-1,-1.523851E-1,1.36192385E-2,1.0884827E0,-1.0742468E0,-3.352368E-2,2.6924732E-1,-1.609579E-1,8.103627E-1,1.2441491E0,-1.0796618E0,-4.241242E-2,-2.8775907E-1,8.5892394E-2,-1.2046329E-1,1.1509088E0,-1.1425953E0,-1.02676824E-1,2.630728E-1,1.157425E0,1.1375861E0,1.3026922E0,-1.0084801E0,-1.1494404E0,4.683533E-1,-8.239506E-2,-1.45286E-1,-6.14194E-1,6.097668E-1,-9.7582145E-3,3.253519E-1,-4.6110344E-1,7.468665E-1,1.2967145E0,-1.2349694E-1,-9.353927E-1,1.2459772E-2,-5.7262015E-1,-3.5529786E-1,5.095403E-1,8.3883554E-1,1.3183448E0,8.667673E-1,1.2544857E0,1.3058798E-1,6.30161E-1,-1.1317989E0,-8.0760443E-1,-1.15214765E-1,-5.974575E-1,-7.141276E-2,1.1146976E0,2.5778145E-2,-5.088794E-1,-4.3947384E-1,-1.0264003E0,-1.3369398E-1,9.7563225E-1,-9.202776E-2,3.9292046E-1,-1.794427E-2,1.3989185E-1,1.3544213E-3,-6.635782E-2,2.684809E-2,1.2644814E-1,1.1231013E-1,1.3678429E-1,-9.742309E-2,3.2994464E-2,1.702474E-2,-3.2861058E-2,-7.08894E-2,-1.2362393E-2,2.8635336E-2,-7.4490584E-2,1.5591215E-1,2.357856E-2,1.822286E-2,1.1680768E-1,1.3225912E-1,3.152208E-2,3.95029E-2,1.21320084E-1,1.2650748E-1,1.4461033E-2,-1.1921788E-2,9.4831936E-2,-1.13621846E-1,-3.208432E-2,-3.4195282E-3,-8.881979E-2,-8.897745E-2,1.2002471E-2,6.246855E-3,1.5426224E-1,1.753517E-2,-5.0397288E-2,-3.7310973E-2,-8.054673E-2,-2.3311753E-2,-5.4107983E-2,-7.9981126E-2,-1.1621299E-1,-7.696625E-2,5.4160383E-2,4.873292E-2,1.261228E-1,-4.097026E-3,-9.05118E-2,6.541991E-2,-4.1268144E-2],"categories":[],"categories_nodes":[],"categories_segments":[],"categories_sizes":[],"default_left":[0,0,0,0,0,0,0,0,0,0,0,0,0,0,0,0,0,0,0,0,0,0,0,0,0,0,0,0,0,0,0,0,0,0,0,0,0,0,0,0,0,0,0,0,0,0,0,0,0,0,0,0,0,0,0,0,0,0,0,0,0,0,0,0,0,0,0,0,0,0,0,0,0,0,0,0,0,0,0,0,0,0,0,0,0,0,0,0,0,0,0,0,0,0,0,0,0,0,0,0,0,0,0,0,0,0,0,0,0,0,0,0,0],"id":13,"left_children":[1,3,5,7,9,11,13,15,17,19,21,23,25,27,29,31,33,35,37,39,41,43,45,47,49,51,-1,53,55,57,59,61,63,65,67,-1,69,71,73,75,77,79,81,83,85,-1,87,89,91,-1,93,-1,95,97,99,101,103,105,107,109,111,-1,-1,-1,-1,-1,-1,-1,-1,-1,-1,-1,-1,-1,-1,-1,-1,-1,-1,-1,-1,-1,-1,-1,-1,-1,-1,-1,-1,-1,-1,-1,-1,-1,-1,-1,-1,-1,-1,-1,-1,-1,-1,-1,-1,-1,-1,-1,-1,-1,-1,-1,-1],"loss_changes":[7.7064343E2,1.2090171E3,1.2303096E3,1.6772981E2,6.1792603E1,7.119385E0,3.020163E2,5.2417865E2,1.2765458E2,9.911417E1,4.3084717E0,5.17688E0,3.4738853E0,1.4777151E2,3.3918552E2,1.6090773E2,2.6578857E1,1.2386322E0,1.1413552E2,3.133468E1,1.5299835E1,9.58136E0,4.4647217E-1,1.4930603E1,2.6367188E-1,4.8589163E0,0E0,1.3775452E2,6.909732E1,2.843996E2,1.896873E2,2.4904594E2,5.771795E1,3.0948448E1,2.6901245E0,0E0,2.4192047E0,9.128493E1,2.5311005E1,1.4923634E1,4.1744873E1,2.3597382E1,4.812622E-1,1.6654556E1,2.55719E0,0E0,1.2398226E0,1.0469971E0,1.5352753E1,0E0,1.1945077E0,0E0,1.6271205E0,1.1949564E2,2.8233185E1,1.4130447E1,7.888489E0,1.4882236E2,9.7078674E1,1.9733847E2,2.047311E2,0E0,0E0,0E0,0E0,0E0,0E0,0E0,0E0,0E0,0E0,0E0,0E0,0E0,0E0,0E0,0E0,0E0,0E0,0E0,0E0,0E0,0E0,0E0,0E0,0E0,0E0,0E0,0E0,0E0,0E0,0E0,0E0,0E0,0E0,0E0,0E0,0E0,0E0,0E0,0E0,0E0,0E0,0E0,0E0,0E0,0E0,0E0,0E0,0E0,0E0,0E0,0E0],"parents":[2147483647,0,0,1,1,2,2,3,3,4,4,5,5,6,6,7,7,8,8,9,9,10,10,11,11,12,12,13,13,14,14,15,15,16,16,17,17,18,18,19,19,20,20,21,21,22,22,23,23,24,24,25,25,27,27,28,28,29,29,30,30,31,31,32,32,33,33,34,34,36,36,37,37,38,38,39,39,40,40,41,41,42,42,43,43,44,44,46,46,47,47,48,48,50,50,52,52,53,53,54,54,55,55,56,56,57,57,58,58,59,59,60,60],"right_children":[2,4,6,8,10,12,14,16,18,20,22,24,26,28,30,32,34,36,38,40,42,44,46,48,50,52,-1,54,56,58,60,62,64,66,68,-1,70,72,74,76,78,80,82,84,86,-1,88,90,92,-1,94,-1,96,98,100,102,104,106,108,110,112,-1,-1,-1,-1,-1,-1,-1,-1,-1,-1,-1,-1,-1,-1,-1,-1,-1,-1,-1,-1,-1,-1,-1,-1,-1,-1,-1,-1,-1,-1,-1,-1,-1,-1,-1,-1,-1,-1,-1,-1,-1,-1,-1,-1,-1,-1,-1,-1,-1,-1,-1,-1],"split_conditions":[1E0,1E0,1E0,1E0,1E0,5E0,1E0,1E0,1E0,1E0,1E0,1E0,1E0,2E0,1E0,1E0,1E0,2E0,3E0,1E0,1E0,1E0,5E0,1E0,5E0,1E0,-8.239506E-2,2E0,1E0,1E0,3E0,1E0,1E0,1E0,1E0,-1.2349694E-1,4E0,2E0,2E0,1E0,1E0,1E0,5E0,1E0,5E0,1.3058798E-1,1E0,5E0,1E0,-1.15214765E-1,2E0,-7.141276E-2,1E0,3E0,1E0,1E0,1E0,2E0,1E0,3E0,4E0,-1.794427E-2,1.3989185E-1,1.3544213E-3,-6.635782E-2,2.684809E-2,1.2644814E-1,1.1231013E-1,1.3678429E-1,-9.742309E-2,3.2994464E-2,1.702474E-2,-3.2861058E-2,-7.08894E-2,-1.2362393E-2,2.8635336E-2,-7.4490584E-2,1.5591215E-1,2.357856E-2,1.822286E-2,1.1680768E-1,1.3225912E-1,3.152208E-2,3.95029E-2,1.21320084E-1,1.2650748E-1,1.4461033E-2,-1.1921788E-2,9.4831936E-2,-1.13621846E-1,-3.208432E-2,-3.4195282E-3,-8.881979E-2,-8.897745E-2,1.2002471E-2,6.246855E-3,1.5426224E-1,1.753517E-2,-5.0397288E-2,-3.7310973E-2,-8.054673E-2,-2.3311753E-2,-5.4107983E-2,-7.9981126E-2,-1.1621299E-1,-7.696625E-2,5.4160383E-2,4.873292E-2,1.261228E-1,-4.097026E-3,-9.05118E-2,6.541991E-2,-4.1268144E-2],"split_indices":[0,20,20,1,22,2,39,21,21,21,23,1,1,21,19,2,3,7,21,23,24,24,35,21,27,21,0,22,19,21,0,22,4,22,24,0,3,22,39,4,3,23,35,21,32,0,25,29,2,0,31,0,32,20,19,5,22,20,22,20,20,0,0,0,0,0,0,0,0,0,0,0,0,0,0,0,0,0,0,0,0,0,0,0,0,0,0,0,0,0,0,0,0,0,0,0,0,0,0,0,0,0,0,0,0,0,0,0,0,0,0,0,0],"split_type":[0,0,0,0,0,0,0,0,0,0,0,0,0,0,0,0,0,0,0,0,0,0,0,0,0,0,0,0,0,0,0,0,0,0,0,0,0,0,0,0,0,0,0,0,0,0,0,0,0,0,0,0,0,0,0,0,0,0,0,0,0,0,0,0,0,0,0,0,0,0,0,0,0,0,0,0,0,0,0,0,0,0,0,0,0,0,0,0,0,0,0,0,0,0,0,0,0,0,0,0,0,0,0,0,0,0,0,0,0,0,0,0,0],"sum_hessian":[1.6433559E4,5.2060938E3,1.1227466E4,3.7565269E3,1.4495669E3,1.2813755E3,9.94609E3,1.5241774E3,2.2323494E3,5.224112E2,9.271557E2,1.2746398E3,6.735765E0,3.1782417E3,6.7678486E3,1.0575737E3,4.6660367E2,1.2406687E2,2.1082827E3,2.0340912E2,3.190021E2,3.359939E2,5.911618E2,6.3862427E2,6.3601556E2,4.315891E0,2.4198744E0,2.21357E3,9.646716E2,1.0440817E3,5.7237666E3,4.5809003E2,5.9948364E2,1.253549E2,3.4124875E2,8.238031E1,4.1686558E1,1.6941803E3,4.1410236E2,5.7843086E1,1.4556602E2,1.0913973E2,2.0986237E2,1.0384138E2,2.3215253E2,5.8743585E2,3.7259474E0,3.928294E2,2.4579483E2,6.3182935E2,4.186197E0,1.4882604E0,2.8276303E0,1.5059684E3,7.076017E2,6.789529E2,2.8571866E2,3.4455652E2,6.9952515E2,4.753393E3,9.703738E2,3.1214926E2,1.4594078E2,1.7953806E2,4.199456E2,6.5935356E1,5.9419537E1,1.0405531E2,2.3719345E2,4.0668346E1,1.01821E0,1.1586573E3,5.355229E2,3.1723904E2,9.6863304E1,2.1953144E1,3.5889942E1,2.9141521E1,1.1642451E2,3.6967937E1,7.21718E1,2.0866061E2,1.2017497E0,4.4875168E1,5.896621E1,2.2982005E2,2.3324761E0,1.2967997E0,2.4291477E0,3.9030124E2,2.5281613E0,2.3330421E1,2.2246442E2,2.8037548E0,1.3824418E0,1.1488041E0,1.6788263E0,1.1749062E3,3.3106213E2,4.8694824E2,2.2065347E2,2.2509375E2,4.5385916E2,1.0961628E2,1.7610239E2,1.773735E2,1.6718301E2,2.5914804E2,4.403771E2,4.473531E3,2.798622E2,7.328715E2,2.3750226E2],"tree_param":{"num_deleted":"0","num_feature":"40","num_nodes":"113","size_leaf_vector":"1"}},{"base_weights":[-6.6400343E-3,-2.4816094E-1,9.833245E-2,-1.9276229E-1,-6.981795E-1,1.5782328E-1,-2.4581891E-1,-4.1506076E-1,-7.243242E-2,-6.0155374E-1,-9.2692524E-1,-4.1667633E-2,2.6667404E-1,-6.4829993E-1,-1.9136943E-2,-2.7408737E-1,-8.38399E-1,4.424151E-1,-2.3849037E-1,-6.671575E-1,1.5433207E0,-1.0059931E0,-2.4153592E-1,-3.7140012E-1,1.0791438E-1,3.8467193E-1,5.120395E-2,-4.2384183E-1,-8.081843E-1,1.1510642E0,-1.6127816E-1,-1.0093165E-1,-6.1433923E-1,-5.048464E-1,-9.8728096E-1,8.641024E-1,2.4158369E-1,-2.6021206E-1,1.002037E0,-3.71839E-1,-8.1915975E-1,5.540708E-1,1.8478838E-1,-1.0477262E0,-5.2546823E-1,9.07969E-2,-4.3981713E-1,-2.7157044E-1,-9.0826094E-1,9.674744E-1,-9.64293E-2,1.5185559E-1,5.2602357E-1,-9.867247E-2,4.282594E-1,-2.611338E-1,-7.6450706E-1,-7.211328E-1,-1.0043025E0,7.809972E-1,1.3506012E0,-4.914067E-1,1.6828115E-1,-2.2710701E-3,-1.05212584E-1,-4.3644447E-2,-8.90629E-2,-1.4037306E-2,-8.062745E-2,4.220588E-2,-1.0098803E-1,4.9599882E-2,1.0209683E-1,-3.9756782E-2,3.2211814E-2,-2.0393088E-2,-7.1095675E-2,1.4296069E-2,1.3653678E-1,-2.0022219E-2,-8.728376E-2,-9.718554E-2,-6.156981E-2,-5.4227065E-2,1.1878172E-1,-1.0608839E-1,-1.5207543E-2,-7.424101E-2,4.3957725E-2,-6.711112E-2,2.581579E-2,-9.043501E-3,-5.9559066E-2,-1.0279336E-1,2.1151364E-2,3.7089124E-2,1.3377327E-1,-2.2144658E-2,9.754944E-3,4.8954748E-3,6.799825E-2,1.1608664E-1,4.3217514E-2,2.2228787E-2,-3.6712345E-2,1.3950081E-1,1.5490678E-2,-7.149711E-3,-6.46404E-2,-4.5284938E-2,-9.339936E-2,-8.010637E-2,-5.0243873E-2,-1.029106E-1,1.21286195E-2,2.1594124E-2,1.1699958E-1,1.3855952E-1,1.19499455E-4,-3.4358844E-2,-9.288643E-2,1.3530946E-1,-1.3261164E-2],"categories":[],"categories_nodes":[],"categories_segments":[],"categories_sizes":[],"default_left":[0,0,0,0,0,0,0,0,0,0,0,0,0,0,0,0,0,0,0,0,0,0,0,0,0,0,0,0,0,0,0,0,0,0,0,0,0,0,0,0,0,0,0,0,0,0,0,0,0,0,0,0,0,0,0,0,0,0,0,0,0,0,0,0,0,0,0,0,0,0,0,0,0,0,0,0,0,0,0,0,0,0,0,0,0,0,0,0,0,0,0,0,0,0,0,0,0,0,0,0,0,0,0,0,0,0,0,0,0,0,0,0,0,0,0,0,0,0,0,0,0,0,0],"id":14,"left_children":[1,3,5,7,9,11,13,15,17,19,21,23,25,27,29,31,33,35,37,39,41,43,45,47,49,51,53,55,57,59,61,63,65,67,69,71,73,75,77,79,81,83,-1,85,87,-1,89,91,93,95,97,99,101,103,105,107,109,111,113,115,117,119,121,-1,-1,-1,-1,-1,-1,-1,-1,-1,-1,-1,-1,-1,-1,-1,-1,-1,-1,-1,-1,-1,-1,-1,-1,-1,-1,-1,-1,-1,-1,-1,-1,-1,-1,-1,-1,-1,-1,-1,-1,-1,-1,-1,-1,-1,-1,-1,-1,-1,-1,-1,-1,-1,-1,-1,-1,-1,-1,-1,-1],"loss_changes":[4.1095084E2,1.222901E2,2.313628E2,1.1696484E2,1.1330872E1,2.092084E2,1.5195099E2,9.142853E1,2.42819E2,5.463945E1,8.313126E0,1.6782475E2,1.584562E2,2.1192734E1,1.7758792E2,6.79073E1,1.8530853E1,5.8455063E1,5.8120766E1,1.6321472E1,2.473816E0,2.2817993E0,4.421291E0,5.666266E1,4.1127478E2,1.3245569E2,1.2474835E2,1.3753624E1,5.2399445E0,7.484375E0,1.0364675E2,5.695122E1,1.8725601E1,1.3103432E1,8.831177E0,1.2375244E1,2.4352547E1,5.3409683E1,1.1402653E1,1.0803917E1,6.972595E0,3.5351992E0,0E0,1.3582611E0,3.1092062E0,0E0,2.7116299E0,5.2579666E1,2.2471268E1,9.884253E1,4.591001E1,8.272486E1,1.4877356E2,1.3620715E2,1.6570222E2,1.2511744E1,3.847683E0,3.8889084E0,3.0520477E0,9.172907E0,3.4813843E0,3.04478E1,1.7026884E2,0E0,0E0,0E0,0E0,0E0,0E0,0E0,0E0,0E0,0E0,0E0,0E0,0E0,0E0,0E0,0E0,0E0,0E0,0E0,0E0,0E0,0E0,0E0,0E0,0E0,0E0,0E0,0E0,0E0,0E0,0E0,0E0,0E0,0E0,0E0,0E0,0E0,0E0,0E0,0E0,0E0,0E0,0E0,0E0,0E0,0E0,0E0,0E0,0E0,0E0,0E0,0E0,0E0,0E0,0E0,0E0,0E0,0E0,0E0,0E0],"parents":[2147483647,0,0,1,1,2,2,3,3,4,4,5,5,6,6,7,7,8,8,9,9,10,10,11,11,12,12,13,13,14,14,15,15,16,16,17,17,18,18,19,19,20,20,21,21,22,22,23,23,24,24,25,25,26,26,27,27,28,28,29,29,30,30,31,31,32,32,33,33,34,34,35,35,36,36,37,37,38,38,39,39,40,40,41,41,43,43,44,44,46,46,47,47,48,48,49,49,50,50,51,51,52,52,53,53,54,54,55,55,56,56,57,57,58,58,59,59,60,60,61,61,62,62],"right_children":[2,4,6,8,10,12,14,16,18,20,22,24,26,28,30,32,34,36,38,40,42,44,46,48,50,52,54,56,58,60,62,64,66,68,70,72,74,76,78,80,82,84,-1,86,88,-1,90,92,94,96,98,100,102,104,106,108,110,112,114,116,118,120,122,-1,-1,-1,-1,-1,-1,-1,-1,-1,-1,-1,-1,-1,-1,-1,-1,-1,-1,-1,-1,-1,-1,-1,-1,-1,-1,-1,-1,-1,-1,-1,-1,-1,-1,-1,-1,-1,-1,-1,-1,-1,-1,-1,-1,-1,-1,-1,-1,-1,-1,-1,-1,-1,-1,-1,-1,-1,-1,-1,-1],"split_conditions":[1E0,3E0,3E0,1E0,4E0,1E0,1E0,2E0,1E0,4E0,5E0,1E0,2E0,1E0,1E0,2E0,1E0,1E0,3E0,1E0,1E0,3E0,5E0,3E0,1E0,1E0,2E0,2E0,1E0,1E0,2E0,1E0,1E0,1E0,2E0,1E0,1E0,3E0,1E0,2E0,3E0,1E0,1.8478838E-1,4E0,2E0,9.07969E-2,2E0,2E0,1E0,1E0,2E0,3E0,1E0,1E0,2E0,4E0,1E0,2E0,4E0,1E0,4E0,2E0,2E0,-2.2710701E-3,-1.05212584E-1,-4.3644447E-2,-8.90629E-2,-1.4037306E-2,-8.062745E-2,4.220588E-2,-1.0098803E-1,4.9599882E-2,1.0209683E-1,-3.9756782E-2,3.2211814E-2,-2.0393088E-2,-7.1095675E-2,1.4296069E-2,1.3653678E-1,-2.0022219E-2,-8.728376E-2,-9.718554E-2,-6.156981E-2,-5.4227065E-2,1.1878172E-1,-1.0608839E-1,-1.5207543E-2,-7.424101E-2,4.3957725E-2,-6.711112E-2,2.581579E-2,-9.043501E-3,-5.9559066E-2,-1.0279336E-1,2.1151364E-2,3.7089124E-2,1.3377327E-1,-2.2144658E-2,9.754944E-3,4.8954748E-3,6.799825E-2,1.1608664E-1,4.3217514E-2,2.2228787E-2,